{"input_nodes": 64, "output_nodes": 10, "hidden_nodes": [37, 37], "batch_size": 200, "max_iter": 200, "max_no_change_count": 10, "tol": 0.0001, "verbose": true, "biases": [[[-0.09411450799417732], [0.11022934964343764], [0.4091789886009422], [0.16532811540131243], [-0.14878492710508748], [0.13575833619111513], [0.0046238203292873715], [0.0742829824444937], [0.26263764633628345], [0.1505631162299173], [0.3309484935370631], [0.2846467911641991], [0.15066432339723912], [0.22738473641006166], [0.031337291342482136], [0.37560479403398944], [0.06134928313381414], [0.06761771973167732], [0.0195701479833014], [0.4096264510530673], [-0.0005567582020071726], [0.28942200499617055], [0.30533606531122653], [0.0773205764675867], [0.31104342682274005], [0.21613468948920567], [0.458269902680195], [0.005803035823204414], [0.18256309670328622], [0.2536132257713599], [0.1434538770228914], [-0.03733690197183893], [0.5745272825540323], [0.19174282205620505], [0.021036896841732315], [0.2407870039161433], [0.07798644976761693]], [[0.34407826355908366], [0.20546050293029064], [0.3308290672049973], [0.2812355117552574], [-0.04542526227923714], [0.4051773286109991], [0.14276493099867835], [0.12991264883151493], [0.5012231960320616], [-0.040009216806820805], [0.2782263826236731], [0.20310619458372467], [0.17022357271589253], [0.23204014254232821], [0.3903184823023962], [0.2786652765622949], [0.0491355502576063], [0.1318230417168048], [0.4210022016823795], [-0.03596206161864918], [-0.10380360266678913], [-0.25049512349658937], [0.014832236629993107], [-0.04822500827838755], [0.16496861832964996], [0.13890393024304962], [0.189587366465658], [-0.10131889816221595], [-0.3436376850565641], [0.19278113467801783], [0.2130233300050387], [0.22759972449216476], [0.1344451753889124], [-0.23517681379895744], [0.17566641575308944], [0.2346136645040735], [-0.20796306654775126]], [[-0.0022721508100837394], [-0.0410026731965919], [-0.1322840168247777], [-0.21023998156237977], [-0.1354114968649619], [0.19605622569910736], [0.21636747300503192], [-0.23458114352990989], [0.09580228645232815], [-0.12198396194273141]]], "weights": [[[0.05349484437042279, -0.13634035780507772, 0.023458662379377538, 0.11518933947044695, 0.21710729074479676, 0.16553702200248888, 0.03895879628842051, -0.025890935415353634, 0.006933207299884637, -0.09468249467902298, -0.23086784067793373, 0.11648943419485669, -0.18200796627063384, -0.19917585001179355, -0.11114121220137729, -0.04361707104553552, 0.049837717995589045, -0.048300962047575356, 0.1714702458819173, 0.05670698283727225, -0.4967363604014789, -0.6151600121938815, -0.39858298575420065, -0.06479956538042396, 0.17238528898639363, -0.2758747957433997, -0.1666465338746082, 0.10658126108373087, -0.2549855409106024, -0.24947629757268552, -0.3103786557652223, -0.0577898558216175, 0.0027775434294671627, 0.08239815472745474, 0.1091610153979525, 0.4778723881352469, -0.3005695527008597, -0.205823785295155, 0.1183407673071079, -0.0043940117774179666, -0.0013451014952765154, -0.2863286857743908, 0.16003447007058277, 0.02629712730936707, -0.06674042341469108, -0.19888198610496086, 0.24586768767190473, -0.0048391081647297975, 0.014740897124097938, -0.10614539920525769, 0.1770208208179057, 0.05847696374479754, -0.03936772223715023, -0.2825755340680571, 0.2466425128069545, 0.16232683100683878, 0.030613338376552987, -0.18047167463711353, -0.33276421159276043, -0.04487046081587579, 0.27287974222859723, 0.3319190233796067, 0.3505055696345819, 0.08711618617911264], [0.08193250978876879, 0.07900297231498515, 0.3084125142459678, -0.10201202479831298, -0.08575516268955193, -0.07346523716577293, 0.1817097367473218, 0.2942321857903062, -0.23745860616098177, 0.17342386249084568, 0.1650298391517495, 0.5143420477564286, 0.011654787278929804, 0.15330336147953094, -0.20291960176096369, 0.013881466973852341, -0.1375141259470088, -0.12013455710400613, -0.057922628738567454, -0.2351873006670789, -0.26889819694020195, -0.007939762767177918, -0.28676690612858435, 0.04256758343757259, -0.18690216734644324, 0.03188022009411013, 0.23552853408684063, -0.12002837731190837, 0.11529771574481074, -0.10521398598635681, -0.09722823208617382, -0.187389193349331, -0.0008650016486443586, 0.23110130163286516, 0.07252317465759668, -0.2934854131465365, 0.3662347119383818, 0.03535279171910321, 0.037330894804647345, 0.02892700784090327, 0.1306195162987032, 0.10147775036083398, 0.018576101278267084, 0.21695319181647357, 0.25045328368451697, -0.2822392468190589, -0.1690377196099271, -0.12624731060049857, 0.1662401300516672, 0.09029367718814775, -0.02730126722356769, 0.16637407036558127, 0.12189058153823382, -0.5629747421700326, -0.3112542759160969, -0.3227295663679218, -0.11509964455556075, 0.021610845599699346, 0.09562030783362928, -0.16001553575190264, -0.5587443894173258, -0.366318164631716, -0.29829404225998635, -0.19363576856311798], [-0.0262302146356429, -0.06126827760708241, 0.019438658072266576, 0.037881410318876006, -0.010269456767756003, 0.32652072850495234, 0.13076498859743277, -0.10270356936249343, -0.35089489403102003, -0.11209036044968221, -0.0970230056348089, 0.04176931702610009, 0.017312958619019332, -0.18125547025645788, 0.10576310099124545, -0.09155346899442914, -0.28008667568963425, -0.2324537301658174, 0.294955147111685, 0.49250998858201445, 0.5311736777576276, 0.4880118977108506, 0.05260150808096592, 0.26582642444610055, -0.2898036830974434, -0.06547038646986833, -0.04180647962997449, 0.17162716935307915, 0.23472687390284994, 0.41863302207660263, 0.06752525602318646, -0.09809837213648213, -0.21036563542975356, -0.03032900577697697, 0.047331299548435624, -0.057675753421406205, -0.3152612198139899, 0.08327196042188692, 0.22113655901535223, -0.039343470552382964, -0.2601918202299764, -0.14035129897341886, -0.17485940613821965, -0.30316121589725153, -0.12121965676270462, -0.0402925358862299, -0.241343367921179, -0.09202211156652919, -0.38780245433555816, -0.06853247983906684, -0.11673429521290397, -0.25355751794711334, -0.07046660582607071, -0.30744741741839277, 0.13814376136172246, -0.04290433893804906, -0.2113385654392147, -0.003760776243205402, -0.1592186593187489, 0.00516453392641247, -0.12789919182592405, 0.07337821208553051, 0.1442335195977908, -0.34269444563852947], [-0.03405226595485922, 0.027138359875216286, -0.018109281318391002, 0.022682448610862622, -0.19495476030181988, -0.44420226873632535, -0.06653316298220695, 0.010010511801609607, -0.22903387995650443, -0.1679326456899388, 0.19008279218202093, 0.0860610020946803, -0.6818498520703163, -0.2899734058484436, 0.4030486825194831, 0.0213696554765185, -0.19981559265713028, 0.22564561562716265, 0.45395719811824903, -0.12697354092372778, -0.31795716046820927, 0.4197672728060984, 0.2014931889219308, 0.09641950483492764, -0.26386640392463045, 9.818040353344448e-05, 0.361705658570848, 0.4944611424605948, 0.367259691265664, 0.35845371766044054, 0.050583142650097994, -0.04252160989751391, 0.09992478067444893, -0.33418503548391343, 0.1669177640048931, 0.28878384908786037, 0.4429798082913043, 0.07688952315440853, -0.07587123570476412, -0.10089141785334282, -0.09123891467089947, -0.13503967441889417, -0.240273823047284, 0.0730594949748386, 0.10006524728134915, -0.02997499676849084, -0.07044371864436602, -0.04815034834995675, 0.06304614731566975, 0.16682103363206116, -0.2249876258188253, -0.29293111114234005, -0.11109185698018403, 0.06147415780134679, 0.010637797696582857, -0.22507764765782545, -0.036909166109866616, -0.0184494920993877, 0.013726759358515618, -0.2433677174534588, 0.11608457642365291, -0.0011081893379034583, -0.1803414779436776, -0.3059946049894281], [0.10207990308869205, 0.0036757955701146134, -0.07332291783673837, 0.08380087156072845, -0.03402175940146182, -0.0991534997392674, -0.02706784488621487, 0.040128169921142064, -0.03453185979223503, -0.10639990576645748, -0.201831207288409, 0.10441986887073586, -0.19909940930639058, -0.37765463068262806, -0.1092961773121711, 0.17774852415067025, -0.02683463490449729, -0.07720108067691261, 0.2435512323296902, 0.28079581944270754, -0.06076753375735423, -0.6886948362566132, 0.022711718788391247, 0.21642717004076553, 0.1096741267159061, 0.42955654986997194, 0.16409321932318513, 0.08306072828050788, 0.12161131504819506, -0.2764083097436055, -0.07375017066864561, 0.10459949627238267, 0.019622751281565296, 0.14645722460790916, 0.06476094412602718, 0.24907604563302232, 0.011169596433775441, 0.24066359459347905, -0.05676530918589538, 0.054878547744703576, 0.07413286766378316, 0.1639291262937743, 0.10301726346046988, 0.19717426298807872, -0.017225743803824786, 0.043613263328838046, 0.07800193657054202, 0.12973852192436638, 0.22265110906198304, -0.2851523046529105, 0.0944547061686059, 0.22057510070300781, 0.21123808534447738, -0.005666115371240913, -0.2064933976067588, 0.02495614586564727, 0.10533584415753632, 0.11091747861979932, 0.15282489894183593, 0.46694466742961194, 0.1821745510690478, 0.11676643453231624, 0.10328541714309877, 0.14774006058395753], [0.09917643741654719, -0.1646643160252267, -0.14443092653598605, -0.2000120053752832, 0.0952176368594812, -0.18091731629787272, -0.0492651899500113, 0.06721631535126646, -0.1709481415477898, -0.14946721656314163, -0.38558282098771707, -0.058642191932891885, 0.12989588351620715, -0.02879186469377299, -0.13604575664763568, -0.2729981817463349, -0.04515806318691654, 0.07201030591516698, -0.03741880296882423, 0.5707275718537091, 0.33178198684342897, -0.1294725708588922, -0.040728509233216297, -0.10447087876602033, -0.05950714184940857, 0.36684774222960764, 0.009400455939113006, 0.256092261957629, 0.05706708325978278, 0.04555488254224782, 0.300858266910156, 0.1843139465298255, -0.02438995049450303, 0.07085260214070915, 0.10520727978987657, -0.35836587379486035, 0.16198453912362046, 0.2105219475492645, 0.20648412305639663, 0.11461972718141111, 0.1004460421259798, 0.1979457282626358, -0.018605373103866542, 0.15091662200561595, 0.5042336421576492, 0.06558256525755454, -0.14897258481495584, -0.22165201305331628, -0.02527696401258951, 0.3241496900076497, -0.07706523625207114, -0.06917441414992652, 0.5904646402555767, -0.08249998031227082, 0.06957187774291494, -0.09707697552564168, -0.1633700311314215, 0.11407278422660529, -0.3021201731171628, -0.28085569921751885, 0.058844682598369745, 0.1689502186936178, 0.04634693408288086, -0.1373757796217963], [-0.05846285073331117, -0.05703052722976596, 0.039274630287592954, 0.10165296596052219, 0.11138360748028792, -0.172850037796438, -0.010812367283311817, 0.08780331781620211, 0.062382911561778574, 0.2943208856910213, 0.31896426595521865, 0.035333388878892244, 0.004147095460525579, 0.02802659289193428, 0.010346017661209118, -0.03799881884712192, -0.06733390569324721, 0.021603083840764516, -0.17930390639450805, -0.42455872029680497, -0.07486212343519782, -0.18179365205738893, 0.1987995252837099, -0.06948097485760071, 0.0639993381137685, -0.305127957967881, -0.5247458937588365, -0.5770102523487093, 0.11908127976148322, -0.19605404308823482, 0.02865311794602777, -0.04793066099286254, -0.09051264779284125, -0.20242983189917862, -0.020738198187658517, -0.184330071918338, 0.008302987841741683, 0.031018781104559277, -0.15869170760030904, 0.050692291040197734, -0.02067509037280218, 0.23813557526975007, 0.14456363347850704, 0.18921936105050197, -0.38655551797470683, -0.477739418728994, -0.1271430850104741, 0.09706103509258743, 0.06017500286844666, 0.21698220419220188, 0.030078059735395565, 0.18391790599636484, 0.28956622971588, 0.11099710403297565, -0.04009970565410404, -0.011453676250097284, 0.22970459410904687, -0.03283021883887068, 0.2031171535312583, 0.45653903486831016, 0.013016008740444599, -0.047443473642436784, 0.26304647075219556, 0.10737944025498063], [-0.11389313358548214, -0.09756455600886892, 0.08985279866142044, -0.028201763756708752, -0.15230504088199998, -0.29234871727414996, 0.17533753221954312, 0.06273190062537956, -0.029937110319884514, 0.21162899411481342, 0.0168465118063378, -0.22312875686494668, -0.43730318818749164, 0.027409988066627346, 0.08869693164398613, 0.1810886935290228, -0.08957821289099951, -0.08064214552131595, 0.15081788366935173, -0.06079671515014443, 0.04852915033374118, -0.28941561878971744, -0.20155808702897493, 0.09746179628741515, -0.05072640883430523, 0.09606932433251458, 0.07896165169071356, 0.21191231677046715, 0.16548106464552315, -0.06916083278490287, -0.20291645072716935, -0.06102184696543668, 0.1406364519845536, 0.3151898885557286, 0.3786241308893244, 0.19107431071944894, -0.04979638122178801, 0.09300012178941375, -0.10912913659090363, -0.06373615521685244, -0.12087475547928124, 0.049298435541242365, 0.5281317515421008, 0.16421403495250467, 0.026934457592234257, -0.1374437588875982, -0.12517497180071682, -0.08666307282012108, -0.13845898728137984, -0.10623562914148287, 0.27014313922156097, 0.1603896953438115, 0.04340927544916688, -0.22837279198537788, -0.1219544980770013, -0.19592712798280482, -0.08233052840733532, -0.1179346143424515, -0.0006615487255737787, 0.3528653608292825, 0.18638628627233786, -0.12715992501572498, -0.07508289448600683, 0.13065329095685024], [-0.02787633379731652, -0.08435643728967461, 0.06840453713666064, 0.22591871362247115, 0.16517606248405478, 0.02940649850787334, -0.013698328926643783, 0.04461014553349143, -0.32421382497604967, 0.18051627858422561, 0.08548663297167791, 0.16904563946120538, 0.46555715451928503, 0.0443000988432255, -0.14097592822431793, -0.14643817318235972, -0.19083690782763346, -0.013941179249391308, -0.29798783352716396, -0.306966807178855, -0.22446355438468288, 0.43345713349340087, 0.19865458841274924, -0.03918893025203151, -0.17775917847424172, -0.27039642144694315, 0.25643445120981956, -0.3432906365863518, -0.23863330440413866, 0.3976288629943164, 0.12636812248112936, -0.34848389572315297, -0.18916937999922648, -0.0047948883292430414, 0.0644872656856683, -0.1281878997488568, 0.0507074286155775, 0.18361838063061106, 0.2189697183015463, -0.10616308718885367, -0.3473919957786015, -0.08761502139245868, 0.1726582154621212, 0.2694548716626434, -0.08718324193844042, -0.13846119138443055, 0.10687784407137652, -0.13810799306739457, -0.28126211234998205, -0.282221964655433, -0.06798391013037595, -0.06910086460083859, -0.35118886099273583, -0.36973462754867986, -0.1973898996499534, -0.3430836707134977, -0.34739425186675393, -0.20114336855037554, -0.14264499664353922, -0.311079145908855, -0.17510389707736054, -0.1653600739705061, -0.4071207267378327, -0.3674098504763394], [-0.09055551585810967, -0.18296625374602501, -0.1528330984684563, -0.1571593901529266, 0.22139163348519225, -0.13273582385212385, -0.4146771386333195, -0.10444622091620509, -0.1805942397294211, 0.06291543553129814, 0.02587667168391053, -0.00879846701036413, -0.12532331005435535, 0.1749153870967648, 0.06665436739324532, -0.2240380636722423, -0.06838001532002241, -0.15111230725724295, -0.2485661145258589, -0.2631938406574595, -0.04475787402505391, -0.05256260023983565, -0.09574239962816258, -0.02542836615745342, -0.0871496990356704, -0.027232372408166786, -0.1400910177967321, 0.13366525037891927, 0.34933821804579784, -0.3760365817711538, -0.49437118517127104, -0.0338875304661138, 0.0022826692989533683, -0.17128731040481932, -0.09044666350310168, 0.1864440113637989, 0.07312698768887842, 0.08623986597357101, 0.28453121974063145, 0.030892017950840622, -0.007451379357502969, -0.08327027941737779, -0.34320212201491784, -0.4917399895200767, 0.1460291045303595, 0.3371894279996075, 0.3763903407173078, -0.03821100372658853, -0.16103993622394264, -0.07561646214333817, -0.0018880712476070296, 0.005062459063378813, -0.23640079648414294, 0.43454610692126916, 0.08890993613084752, -0.2124782534198839, -0.02751231185856294, 0.06481178755460004, 0.20696455480380235, 0.4574100651236187, 0.18462198601573837, -0.1048499008488584, -0.3297386570773618, -0.3984499840333006], [0.011355789563651075, 0.0017396266674753137, -0.37891053148268483, 0.04349343324821338, 0.35498241402852543, 0.1415346855181834, -0.21796249982290372, -0.20717224942978013, -0.23174425094296852, -0.23242888496887998, 0.026504770862854993, -0.21821396182015992, -0.009835130423416653, 0.387545229003787, 0.11080304086159763, -0.06488810133552568, -0.028252246919003028, 0.08597743416957303, -0.039223507610017305, 0.34174981031393803, 0.2714043823726141, 0.4969813349142681, 0.18201300437884696, 0.17504530398841078, -0.2331299774673364, -0.08088423817632447, -0.07624953444607276, 0.190172003151701, -0.02367140840243241, 0.20754851816410372, -0.48002427234091544, -0.36731514410571076, -0.30964793225885523, -0.11538708252267285, 0.1277264570738826, 0.06169484743794644, -0.06862902893163467, -0.07232443543208679, -0.3806093478194159, -0.08836282804016585, -0.41853879025040697, -0.1792512834362818, 0.14824835104682985, 0.15430648841670913, 0.31532574956952103, -0.13575846899331254, 0.001289328693673057, -0.2507061677736426, -0.30968736857772444, 0.08731960090872944, -0.21483270327996917, -0.2347180256118615, -0.31276775542567187, 0.004682584029919707, -0.13277953346819765, -0.24849294210726272, -0.31311033601113936, 0.013405962739761591, -0.4064604990308415, 0.01839175694672023, 0.27088896831814163, -0.014900093970886775, -0.25757341326624184, -0.23156559322063733], [0.002729233976049489, -0.15181388297932566, 0.1667254823509621, -0.04407577114168762, 0.2619038812343982, 0.09015970299702271, 0.10253376866579529, 0.19124158655690587, -0.19581983817607043, 0.13110302791882303, 0.17883082238364356, 0.09498430022822463, 0.15120472376419433, 0.10411772965568146, 0.13974933134046413, 0.06090925616958613, -0.16986752833084634, 0.19716888884742886, -0.07501263900768577, 0.02784291389109282, 0.18234387435312696, -0.05752969089645955, -0.042557298764848046, -0.2651887823580036, -0.2538005991005295, -0.14393062544698546, -0.3967018934791179, 0.06713222156045932, 0.24180028669820225, -0.29073535719525295, -0.2542292072242453, -0.32296644303744193, -0.2732507604571094, -0.2658035754481315, -0.49119592897984277, -0.24578158783205362, -0.387839973238843, -0.2201824158071297, 0.15541419693236674, 0.006651759561675186, -0.028828931347219536, -0.3977492495625973, -0.6578388320748303, -0.33544013664636263, -0.12057663243991124, 0.03318085473635807, 0.05272041170368418, -0.08293635539577293, -0.11699629805776089, 0.04300726112585832, 0.22518213668644838, 0.21847259854633316, 0.10109843364901674, 0.2532505045585564, 0.13327731615352445, -0.023429495969703833, -0.2283547420621458, 0.17895075907684913, 0.4067785247026032, 0.42045881771246774, 0.273361487441453, 0.06967799338641166, -0.09400036261915042, 0.01355880150428663], [0.06622116492070251, 0.09856209671200575, 0.184999650643039, -0.004060681083352433, -0.0032190146518292703, 0.13283739434703845, 0.26560745729424706, 0.0725634845780247, -0.042400670872423836, -0.0812643497836564, 0.2821890991334668, 0.515174898349292, 0.06285190871030671, 0.07989689059731758, -0.19903936024200009, -0.07777629251880573, 0.0978753413651255, 0.09497370725102466, 0.21868896599871349, 0.07825805036584381, -0.3027539225482438, -0.27234029701437573, -0.4760393833293035, -0.19325669270308782, -0.10061690552859429, 0.06150446535390426, 0.15480726236222772, -0.19058550099193858, -0.20387511277024356, -0.2579713016041362, 0.04387113125478357, -0.1449360718834856, -0.07537846731773284, 0.26093527303199476, 0.08771657647284874, -0.2049320007398714, -0.3680686427525772, -0.4914591841762318, 0.34206814131663604, 0.09739197581922338, -0.09517780245217698, 0.012685294883310038, -0.06297528941094033, -0.25523176956179977, -0.4516652213973442, -0.06730986896081745, 0.1721626723334659, -0.17797876625162734, -0.00014334159164287028, 0.008546744213103105, 0.19068984378268602, 0.04681366462357347, 0.312682601524827, -0.057772764865152156, -0.24077008163454325, -0.24750851489399384, -0.04210321343568769, 0.16392510855298323, 0.15373967013833917, 0.37760998759964065, 0.018991084941658368, -0.166866810038336, 0.07991417099095059, -0.0481559694440718], [-0.05010018405261388, -0.10028160587099318, -0.2681381336152773, -0.4415773393498677, -0.028827137571479786, 0.1391131814544563, -0.557668964804537, -0.20560403096086335, -0.36437218309365155, -0.14559263498972386, -0.2695994093989799, 0.033780572074209536, 0.07116134234522206, 0.2729599815691487, -0.1281340399729867, -0.34238518651811267, -0.30455691734837137, 0.23093137344696285, 0.10714007821068101, -0.02750048074035568, -0.3969377269860484, -0.15938464342161043, -0.1351038152470457, -0.18448929523956964, -0.17527587763074096, 0.2046016426459125, 0.06692253495456844, -0.292180985256907, -0.17389180682132802, -0.20804830317063194, -0.1952973484991253, -0.35574290891121646, -0.2464425914740822, 0.08350175374243551, -0.07041862981221834, -0.08680586595474754, -0.5167264716128408, -0.09014917592939158, 0.2762391422463769, -0.10530903036214839, -0.3651477623199041, -0.07993076426123329, 0.4997849251119949, 0.06450091921216733, -0.1663105441080905, 0.21421964751421838, 0.2667992512432002, -0.10743182711078363, -0.19642990846254943, -0.5499242451011467, 0.2737908471897853, -0.057048362082863936, 0.029223791228833142, 0.16343242637367544, -0.007749009928662186, 0.12470575065452182, -0.30125141487727797, -0.29221440100467694, -0.2037825595309517, -0.07518824509628515, 0.19601849907479518, 0.11495938019507503, -0.23440722523617982, -0.12127124211525352], [0.11142120143740994, -0.35478213921964086, -0.20360806657121794, -0.10584173416295821, 0.04369667690178663, -0.2879614481989056, -0.04328513795611125, 0.11245340580736887, -0.09238301972370794, 0.27167014301269715, -0.045491905233548645, 0.03468358478843819, 0.087407439080623, -0.1790352900967249, 0.13389570029098014, 0.1353243914082709, -0.22839541243272515, 0.26097018268485134, 0.07154851515960295, 0.09265133960547502, 0.17327296376174026, 0.08031567507501305, -0.3825361588053096, 0.21117133752195294, 0.02169468954809739, 0.12324798708635297, 0.16827894414898298, -0.049495838878708724, 0.41672592477211895, -0.07809259937454488, -0.18352209563287758, 0.12650001485114712, 0.028810999798293522, 0.12575640807593494, 0.00430818875871623, -0.04150883230923544, 0.011701542182650113, 0.43533338484369755, 0.11633156635752182, 0.020188940638489167, 0.05150000422656655, 0.2076533167997503, -0.20447089143268027, 0.1834730424010828, 0.27100021454527357, -0.24265510865002424, 0.05865541670078646, -0.05309948970058096, -0.026715753721926933, 0.06701160644803893, -0.1921288795119841, -0.20413640324564805, -0.23116976680569742, -0.665926446355724, -0.15785991514799327, -0.09438410679605372, 0.006281673058366293, -0.3621702008601792, -0.18141839374581395, -0.37381782896708776, -0.13794563791600384, -0.43272060461531797, -0.21590879510125738, 0.06709766309239869], [0.06837393633680458, 0.03448743990368855, 0.2859510026531657, 0.0010913811014444427, 0.19837711278202638, 0.6034288010667477, 0.19341206545415515, -0.08515687130911077, -0.016149773599642713, 0.0739697243571328, 0.21403538207145503, 0.15617490099628034, 0.1030389475457128, 0.3572166448221816, 0.07668635333774881, 0.03336353771246912, -0.037470180814343, -0.11421471685561493, 0.10466667554135936, 0.14158030839885688, -0.12229571509116131, -0.24948562615051198, -0.03379976129817622, 0.09321046739615078, -0.24324591009712768, 0.0470680556532351, 0.285293594456619, 0.13218952891581415, 0.049668130504825124, -0.09981033671179228, -0.3556176273692239, -0.07668504176996302, -0.23761922886841744, 0.13249719050990086, 0.15685356496829841, 0.2847789996419196, -0.30174248344661925, -0.08403395193924969, -0.1660154755494071, 0.11641355164529318, -0.23156455087383004, -0.3303659492344003, -0.4011565451153189, -0.5438235145801317, -0.26358299067222385, 0.2903389154040031, -0.08811294781249002, -0.2620054965761841, -0.2588993238310428, -0.11108536460920307, -0.256887730908141, -0.37885152680097267, 0.26220225869594255, -0.1428365201311998, -0.12181783433988336, -0.3542139772460973, -0.20938599335382474, 0.01166514859935419, 0.22525934608577436, 0.24366890799013477, -0.17826323200981928, -0.3170818567782367, -0.32428898803514794, -0.3912338594818923], [0.018609680819026475, 0.18532234946513265, 0.04262395261505516, 0.09584291561255802, 0.09154546132508522, 0.0670596327866966, -0.14234828423400836, -0.24675551813023552, -0.160655886235964, 0.09151386717796149, 0.14342990326753513, -0.05605608146324913, 0.2319108712182592, -0.20283270078291268, 0.11619657386459288, -0.15664510474740165, -0.2273167985378669, -0.12785484247240267, -0.5922445264975033, -0.0503116961431299, 0.36219816348055656, -0.07313141214394056, 0.17642163744902142, 0.019875590926320436, -0.13829436581184365, -0.12922899486982342, -0.051140777155942584, 0.27646632449811187, 0.002341878731946826, -0.29860319454176554, 0.2664735690819551, 0.18280773004594278, -0.21698849532615672, 0.0007893151854267501, 0.1847101317657978, 0.2902547299659313, -0.02511300474785588, -0.07848665033644361, 0.0519401616049758, 0.1045981556901725, -0.11182070658417377, 0.270253495251643, 0.1736139104417379, -0.20242102410791987, 0.08879952960968594, 0.33388045810035105, 0.17787498121999948, -0.24855140275197632, -0.06858159347426872, 0.0741858257337364, 0.0358241858421748, -0.3691625770605412, -0.3986418215071877, 0.05405455105897016, 0.1654958809744663, 0.08344899717320553, -0.1977705723990863, -0.07384650069328104, -0.036308964682823706, -0.1211198175537942, -0.36444836719118556, -0.20944444287790107, -0.24780069718301131, -0.009348108760788855], [-0.03265770429917644, 0.1320944040681714, 0.14617118250852562, 0.5238480474163296, -0.17907454947890544, -0.21586035978334012, -0.5481859451986875, -0.19301642247511178, -0.14033935551402632, -0.10538241509069694, 0.17010628113725357, -0.06720777699641219, 0.3650237503207434, 0.2831727450521037, -0.15396746768691172, -0.05195890882301918, -0.15322003226559097, 0.015577742747890134, 0.09652085452239297, -0.04612887389329487, 0.17796939860121164, 0.5149667556921603, -0.008733767551611205, -0.3176274516095311, -0.15765223725173375, 0.08702402419336672, 0.13482845929630605, -0.24065681882978665, -0.1598562664684902, 0.47341367842042875, 0.20682248889817026, -0.19800544110233337, -0.2621174329687036, 0.11197869116075175, 0.2102936087415325, -0.12677588672084897, -0.2518828154724703, 0.14107523350229573, 0.043172732116838336, 0.02512440397462684, -0.15349520705962025, 0.07024580877094667, 0.05684530145156938, -0.054522144344516695, -0.28218455335043424, -0.028634713213454527, -0.00794278432120202, -0.06976759666144956, -0.14013662359428797, -0.10151582910207216, 0.0226019869707176, 0.19747326595232625, -0.15951477925012772, -0.11657742728402364, -0.06049951699695637, 0.11655661666337448, -0.21531204044287788, -0.018008088566195447, -0.05537234146214574, 0.2488903209725146, 0.02236471614738143, 0.10405251195378896, -0.19724667758182632, -0.34345061400833793], [0.011836425803770756, -0.1695256959892682, 0.118226589381349, 0.47558578445431393, -0.15240627775491752, -0.045792378852494604, 0.05586172285905385, -0.0744663122862925, -0.20181087138164389, -0.058670495489886135, -0.0156748831688572, 0.024394577447187517, 0.22312363980276387, -0.028586525059860327, -0.2761317952656123, -0.03578784993368673, -0.21598111354272953, 0.01734576458167515, 0.13884081059307596, 0.14811385972007673, 0.49218869380877367, -0.23253693117446245, -0.29402772374664304, -0.1841490634610391, 0.011134292563204588, -0.05236962345624167, 0.13253013713824485, 0.2550247334929708, 0.2045851230318257, 0.08149171282855183, 0.07514216693088406, 0.08707143338162446, -0.08782298305056815, -0.09581632641754607, 0.13443258616942605, 0.19604541421746854, 0.13103665341162415, -0.12131088970995081, -0.278829775842649, -0.0017402466652324533, -0.18419394359781155, 0.10752660121911145, 0.33958331450227347, 0.4020967733985776, -0.1184764958980609, -0.14860002384024745, -0.09425834785114645, -0.06006218830661653, -0.07010490698215341, 0.22305029654543937, 0.21835681485863057, 0.28676103566702044, 0.17242346120702223, -0.23741714022368587, 0.22139679701038226, -0.14649644415256954, -0.07725949584543197, 0.09164826743059348, 0.11558667966706485, 0.021227777057164162, -0.014359412133977047, 0.12234751530720159, 0.25189773149390166, 0.2065876249905128], [-0.006015023785909873, 0.09149812686256177, -0.11917742885842662, 0.35741613057103644, -0.19294878291541778, -0.2174323721458809, -0.47062100133766627, -0.1775414904012797, -0.361674025971351, 0.039941496035095836, 0.18095280964933022, -0.00794232159798963, -0.10794433798187739, -0.06245520537259617, 0.006613194997036658, -0.2807626888888486, -0.08281088951555877, 0.1613606574819509, 0.09978669328396995, 0.3582215015043401, 0.14973699929215406, -0.15475964765609831, 0.006401531975374301, -0.22109862214881734, -0.40474639415206637, 0.09097475925670621, -0.15772188128691877, 0.34132602542873636, 0.16734054153682745, 0.14834461695120943, -0.059790048248361864, -0.20905532178502748, -0.48145839284813685, -0.24110561846987932, 0.12083779740007453, 0.5799673809044555, -0.08739442372876358, -0.2889309476991596, -0.4269146391746476, -0.033720542251499536, -0.3505946340339702, 0.12270456745048297, 0.5157475670659595, 0.09431891435215752, 0.13029408110274107, -0.2601153671888224, -0.06544576295208607, -0.5542254375297276, -0.31721780117026627, -0.039916950497926165, 0.3120415654037804, -0.144846062390443, -0.17877455897036254, -0.07218636155667245, -0.03319058353991206, -0.15769134548635177, -0.3519989131828517, -0.16487089611478004, 0.07745870945339897, 0.24355779395605917, 0.06793575948369072, -0.24004612179957896, 0.15407579472944172, 0.1518368035405174], [0.09248948545239155, -0.1500277403398351, 0.019792333383054753, 0.3725082611067387, 0.047513296260598, -0.10126238687626495, -0.09688072929349882, -0.03873091519428205, -0.08759415413586867, -0.0890783849239629, -0.24325267366563647, 0.03843340285444991, 0.4083922474025671, -0.0197050030732472, -0.12287970283908019, -0.0027701168731584284, 0.09407092665780034, -0.05199896137637436, -0.004200590263253302, 0.30525672241282803, 0.41282521100932695, -0.1298563883851084, -0.24832282604988537, 0.03193748869078789, 0.08928888135611117, 0.02394540444505499, -0.024349681927087773, 0.11696615029926757, -0.07640043141976152, -0.01934901944456422, -0.07039275863757861, 0.0932963303082705, 0.07490778689328229, -0.0803436502026764, -0.16444919483050804, -0.12935926255138408, 0.26155999656375933, -0.08705094104265003, -0.04451491603003604, -0.03046747883174558, -0.017783453894857682, -0.030260814583544782, -0.22842944968040815, 0.22760655003440083, 0.04098413957798797, -0.5151236831489521, -0.2330024572259561, 0.07936266641244843, 0.04976950821488376, -0.058934308381335204, -0.30072641380312076, 0.3116738150802269, 0.4149616812912658, -0.014069721528757972, -0.006867319142526586, 0.06743867379887201, -0.09869948103606245, 0.0637796851195631, 0.11159375893673361, 0.05198935731447689, 0.2715125807990934, 0.1352557352328432, 0.24395524819667025, 0.1301933034643359], [0.12324666878959387, 0.09239381134471865, -0.13423640693725075, -0.07307617981297437, -0.10259682416430334, -0.045957148424656466, -0.10330861267157185, -0.2475382634494808, -0.3698831132921713, 0.18131896381087922, 0.2423096108217122, -0.08329221365659142, -0.22714641244981823, -0.021941107107534896, 0.10673772927962533, -0.2807900510360899, -0.3123943764905006, 0.007418467749767113, -0.040736990062533084, -0.19919912481350546, -0.10406375380286456, -0.11851666533532974, 0.1626729598755452, -0.3586817122491521, -0.13587446190629326, -0.08253933276431379, -0.12253392696193706, 0.05423538941593223, 0.41196581122838466, -0.030163093548866052, -0.2193131024409073, -0.18434817708011658, -0.28363831126573813, -0.12295154233433604, -0.06048143153461333, 0.33375689267687325, 0.11365513273243194, -0.1415663287534647, -0.22194726888890084, -0.08095219951580684, -0.17271478771855828, 0.06406898545489542, 0.7465968541854218, 0.6541172758369452, -0.3589448069113286, -0.23729461673114816, 0.17354507251629028, 0.05941633452695596, -0.3888887704153587, -0.08175526042870708, 0.20461003944541276, 0.18497225331449102, -0.061971273172580686, 0.11467510525100612, -0.06771360454284715, -0.0802315422441059, -0.1952296873575841, -0.14643748794764516, -0.30035783000989097, 0.09960812054199102, 0.17146439892701928, -0.10482145596285705, -0.1116313648842986, -0.04003139315047874], [-0.11513419878268524, 0.035804637213441556, 0.0002783626229816796, -0.014939025296077716, -0.07533089915152273, -0.36014143011596594, -0.24032724640682568, -0.15570466013819173, -0.12358475832708128, -0.041726889019737284, 0.24438536983561654, 0.11611121171452442, 0.047162271874647554, -0.16804123562670412, -0.15081210444134505, -0.28854907073345826, -0.049760383564484555, -0.10390727918654044, -0.3694446462259139, -0.521608401156466, 0.32410008793317535, -0.07571694780341864, 0.04415406945513054, -0.3236236822520116, -0.30411828864880686, 0.314896695776326, -0.21830121821314488, -0.34937062372788336, 0.028617414776401624, -0.1136343842913367, 0.05285546583774425, -0.20296913110869869, -0.22258354485709467, -0.0875281023447692, -0.09804348294936754, -0.17694008697626665, 0.027842026916228346, -0.10561150482457997, 0.195185980395689, 0.020967113316249425, -0.3034155819751133, 0.041686807900598026, -0.3597180485719848, -0.656569675563306, -0.4303389877167085, -0.01213187971571448, -0.06917298580334472, -0.28720356181531637, -0.16635262741735457, -0.2936686735507581, 0.0891285973026587, 0.34500548209963244, 0.017294905735865125, 0.4389154194577169, 0.07597178727132001, 0.09667776975040106, -0.19219765719922827, 0.2823278928547162, 0.27395521461978795, 0.7336321848487812, 0.07305083020553076, -0.012446649407808073, 0.10895947366027328, -0.19051338207835952], [-0.01945206634009411, 0.19464257501014046, 0.08320855120368893, -0.08644245994458544, 0.14864335664681988, 0.11062859954671679, 0.0808302771789434, -0.08590215840430865, -0.2963483572177751, 0.14996757916336664, 0.15283487411186705, 0.18906499939398796, -0.0026984871093770073, -0.045938796341584855, 0.014697992163258351, -0.0511148482037077, -0.21600990312572566, 0.045884649312234314, -0.33818110038996413, -0.49801964642517116, 0.20220286095889622, 0.4021408585050184, 0.2850403266505612, 0.04938630715240143, -0.2606218657149204, -0.09310494804016897, -0.18610588711934983, -0.24821964204441238, 0.4150314061156486, 0.3923185326297465, 0.07375545558896068, -0.1954216167060324, -0.2647728134814791, -0.046635915068201035, -0.09754402542021241, 0.27245425679355334, -0.05297700133406669, 0.2091049048406316, 0.11025446201145979, -0.12283238506604069, -0.07853105815531923, -0.127869830623934, -0.3908362624330318, -0.25615138555738565, -0.183063553328353, 0.040985391950319895, -0.020190865059096334, -0.06298054008299295, -0.14488823712458043, -0.11059401692272129, -0.15514240039368457, -0.3186558133734407, -0.43783395689524307, -0.1677704414758714, 0.08531751191891125, 0.19648957495802227, -0.08655666315338452, -0.11874282840133535, -0.10432353012758795, -0.08834204957222969, -0.24977294038462458, -0.3447413213885201, -0.05069090375681338, -0.010250311148231949], [-0.012128829790561874, 0.24203650205064978, -0.046080112572902135, -0.11858308624410142, 0.06344135342729437, 0.11461281345169022, -0.2964809714317836, -0.32860763641120594, -0.1922223520483448, 0.09741825436925021, -0.08916943754651746, -0.22478109589141423, -0.13827084879527735, 0.05730250916823482, 0.19033025164998565, -0.3157725353039843, -0.48691149247693527, -0.09956604349568803, -0.38738721042412094, -0.4529240425831551, -0.13909941032978132, -0.10485377898150029, 0.23355770914634827, -0.47730133122523816, -0.44298461568336617, 0.027810402921682086, -0.41102014699743017, -0.1944905022725819, -0.18085152691468312, -0.41909725343787496, -0.42337396483801126, -0.4247201916296777, -0.30791643335711766, -0.03267708132931032, -0.025387542230297176, 0.2973629437518223, 0.1381664851454578, -0.27310207447628015, -0.47268989293256725, -0.03985700190500199, -0.4065000985173703, -0.03244787185335548, 0.2596423735944653, 0.27213987955761165, -0.2710815692082032, -0.11107246009173015, 0.4361483318716636, 0.2961738492655457, -0.2795154453437637, -0.19435406452288018, -0.029319036286222743, 0.03631944652220122, 0.01660503753195407, 0.15144242259591956, 0.14142095145710426, -0.1089018158016835, -0.3909467661297962, 0.22803465380518978, 0.07641052969246168, 0.15695755445719983, 0.0903625350075876, 0.1565128642956993, 0.01914484334588261, -0.24139704774817702], [0.06065080388139532, 0.17007112668464558, 0.3043813209464001, 0.32422960753926067, -0.19745467318538132, -0.008403436342607202, 0.24866475499096355, -0.23604411668632605, -0.11552633631340156, 0.37360436630200117, 0.18181576979102304, 0.08414910180296588, -0.22199215990189775, 0.3157867802821083, 0.059635776979833, -0.1288305682614759, -0.158404060337404, 0.07714319785467415, 0.21637800053779505, -0.04733375246009273, 0.14626410343886895, 0.43095253616666285, 0.12085495761508949, -0.06780784480263921, -0.2705121349716383, 0.22378699241571512, 0.2592894130303176, 0.07419878588805609, -0.011087293957496873, 0.27705535427873595, 0.32473476584595196, -0.21267771942455685, -0.054951154385406535, -0.16950659980116753, -0.23942560192613224, -0.23446030453654634, -0.12508273573690337, -0.2749856879637599, 0.24845810401979201, -0.058279261031161156, -0.266607463430455, -0.12516517415996098, -0.2553955642422036, -0.34574410674786116, -0.5351486666575368, -0.580159206536433, -0.2946436661228676, 0.3020349124084704, -0.059562431766470914, 0.06776701328500087, 0.09922806186339739, 0.04920639310339941, -0.2767347555688065, -0.030291063250333747, -0.08250576385783363, -0.02295406031698955, -0.07530942842307581, -0.13851628649871864, 0.289032769928106, 0.006565948941424816, -0.016520916590453787, 0.27888184403813865, 0.10105547265904943, -0.21214281190841577], [-0.02220148906100472, 0.03771146526592963, -0.2874361874332439, -0.03078559361192672, 0.04622944052138147, -0.03392772436449739, -0.279917808770694, -0.40060665230931086, 0.08977300785346205, 0.05972553421164055, 0.015053885411432875, -0.05847117165947646, -0.15362150328257598, -0.0362917494257324, 0.014923272679705862, -0.18840108032754596, 0.08997434079412533, 0.38094251961725495, -0.048840244038602196, -0.35528366479086626, -0.3554643034814819, 0.19958978934999488, 0.11623318259885741, -0.4811725950586387, -0.4767430246952812, 0.23339791288843292, 0.37523614464285754, 0.020202336449712185, 0.30402619908392003, 0.1887947305187321, -0.17504894719956055, -0.12438002060076914, -0.41455047170244547, -0.258140195080721, -0.13472421085165726, 0.3640095483476169, 0.29285917411419415, -0.08163392835032003, -0.1037240494626536, -0.0888181472199212, -0.3246343218734969, -0.06299961210214096, 0.42524695343516195, 0.2045728765012174, -0.10488148032598774, 0.2679535436466019, 0.28054348014288066, 0.1435657717342438, -0.2518756641683038, -0.0281061206438644, -0.052846113428635225, 0.13993893172278316, -0.34528858779034544, 0.41164154612284365, 0.20609566928639167, -0.016434720931103427, -0.3499061742924045, -0.24923999709824096, -0.1376230449557593, 0.20800519941175644, 0.4370769461825742, 0.06331259214617567, 0.0024256403703683082, 0.03276508048226069], [0.018838944496785665, -0.10060654925621801, -0.12223131372965525, 0.11655877876773428, 0.4387005686002789, 0.3696459569915966, -0.029190110146925595, -0.29420917412077946, -0.040708556515892315, 0.4397844909122293, -0.029908683958791295, -0.06669978858054977, 0.7650115816626855, 0.280777188469724, -0.12404195054674662, 0.08069979086962471, -0.13084163394216755, 0.1616149358833054, -0.21855327530122234, -0.1519910106537813, 0.5700169362677345, 0.11799345038422085, 0.19449673655830507, 0.1965082191539787, -0.17069059505130404, -0.06337082230401204, -0.30471606237832183, -0.019524391290044858, 0.14408837301922403, 0.11306918309772071, -0.20041379467708884, -0.1930285031360758, -0.011575021508206903, 0.0006564576854303492, 0.05622243928801677, -0.030951746500578005, 0.19712548970795585, 0.3211571240989513, -0.026120477069663594, -0.10114140465460883, -0.14614761941275156, -0.15974083501458966, -0.19876521834464556, 0.07418458797619236, 0.2868683275141844, 0.09715243571842555, 0.06067222640967015, -0.02326031364805926, -0.09858411438065219, -0.003082080496866747, -0.29364479949439615, -0.09251842618810859, -0.09835694968728516, -0.03300626016664176, 0.020839320302159514, -0.11977528939287875, -0.07420028218827014, 0.10852555343070155, 0.05513841169523077, -0.1565302029799187, -0.19082979545008674, -0.01950281895170786, -0.3240783291723671, -0.22992211413051336], [0.11039860136437996, -0.07437164477565794, -0.11595848556209667, -0.09559282472425064, 0.3543232597929315, 0.14887485513925827, 0.26879836220530895, 0.13611663614558436, -0.13622213445015324, 0.16831311662969384, 0.11154267173996431, 0.19784742634339905, 0.3420993786622172, 0.03068583476301403, 0.06485492367542878, 0.2241513656338403, -0.2075979701161872, 0.06636903514199703, -0.19527207426752724, -0.7621657303051184, -0.2329004198097961, 0.04288639888596781, 0.22595717954405994, 0.16673928527606266, -0.2899092716178862, -0.3385002012949142, -0.22359475079413618, -0.5335229320548469, -0.0957876500724681, -0.011976697370567143, 0.1182404135837941, 0.15814409518539474, -0.12367713015261192, -0.16908278003720892, -0.15474440608306747, -0.2116834085034689, -0.06619756953581804, -0.40589015192481726, -0.2495765805055545, 0.06824279829426741, -0.14843189064985982, -0.025331783872312344, -0.08966003488197861, 0.25075332100075765, -0.22327463529674, -0.5498122329479386, -0.22035393297534228, 0.11663914172735233, -0.1777036092232515, 0.03394927682311754, -0.17564439384938982, 0.18465783859120288, -0.13125282218366643, -0.06060799859026177, 0.057685895256777184, 0.1441954115021739, -0.06836411956840485, -0.10947357234005739, 0.12120548568892818, -0.22748458683923706, -0.16435163691939658, 0.3544005634944482, 0.3763323512833573, -0.03500379411388063], [-0.027912946650130582, 0.12465316992930178, 0.088379701685982, 0.1495373101905224, 0.24701118738728345, 0.46581305734387113, -0.014681595691570673, 0.08333956919039351, -0.1237106720376823, 0.16044943953596594, 0.0882436965534702, -0.020462676684802384, 0.34670055292324287, 0.4844433740365627, 0.1300122087137526, 0.10443599912426617, -0.2517193213251519, 0.1380264569007309, -0.4510106814623632, -0.44260009123869803, -0.2666098918337883, 0.2341518778844641, 0.33930606388184525, -0.20460036398414316, -0.1863556526564498, -0.4444138053367121, -0.4929763839298888, -0.048478063846178816, 0.25246452753650817, -0.030320173321164292, -0.007339297643287314, -0.008648004614817397, -0.22718246718873739, 0.12049626943673042, 0.0834080162994685, 0.01787131917736894, 0.18010200565566112, -0.02701600796599957, -0.018542557593648156, -0.04596035186363684, -0.22034921768325685, -0.0035065284698820353, 0.3164900261503227, -0.027063399581555833, 0.3165482848094108, 0.011895576188738308, 0.2582284351102164, -0.05072838974937806, -0.20583221607209085, -0.02065409879017192, -0.17998885534500642, -0.09368183646846562, -0.0029052592995411665, -0.0048359154185866286, 0.14087037413707904, 0.004631919264483607, -0.19462321315783565, -0.11872033028225884, 0.059755297861650604, 0.07170464627812365, -0.18320798789396855, -0.2607950231753597, -0.3380257582700574, -0.3634995549278214], [0.1229530484716724, 0.07400854099450464, -0.10633722934850902, 0.06852882458241281, -0.06486253811004264, 0.0031642016171169896, -0.03960671639871933, -0.279854963455338, -0.05948418684017163, -0.053124719160491225, -0.2712393164649264, -0.3133639718501506, 0.12036523978268597, -0.00411588896670132, 0.014525803007598544, -0.027360428978628035, -0.17303128790638064, 0.16575112020346686, -0.22831775756934267, 0.1793888258670501, 0.41379001549768785, 0.31853846147949516, 0.18015596117650282, -0.26329450747674066, -0.016554772478352176, 0.167116410562649, -0.2395717727734853, 0.07920504140165559, 0.2230960334215778, 0.1621998156643433, -0.34540756150896734, -0.23537214004961476, -0.2784584439836119, -0.17772627850932188, -0.2282589394343281, -0.21026073463096456, 0.26481898128507536, 0.36542868903468034, -0.12705117704979604, -0.12173724361920862, -0.07189575377128427, -0.2725852320670823, -0.3093422666092656, -0.04447956463925726, 0.2757978248931721, 0.26920230484409546, 0.025329555945235775, -0.017292610044969497, -0.2580285656774785, -0.2701271018721347, -0.12196945639870395, 0.03881739912484402, 0.3016007619052051, 0.42376827379594384, 0.10512068589731514, 0.09829026941802319, -0.21812814269333158, 0.2834392127116305, -0.041081178853629, -0.14272061554881152, 0.045826309902746214, 0.2908747181920615, 0.24256007624813988, 0.32554563990766405], [0.0924866452008285, -0.29460824840732724, -0.0014090028051091845, -0.40583874094706873, 0.21896839814512115, -0.35667385645575045, -0.40165344615641935, 0.1175976475011832, 0.017484083567785722, -0.2807283187990117, -0.29003001955752455, -0.09778350015015869, -0.0535544742907792, -0.45989954518617765, -0.03774847175193733, 0.09894837817124216, -0.1641353828425205, 0.042764780725483335, -0.0037558835963828136, -0.01754412284605157, -0.3511597434570027, -0.3092909589197525, -0.11378720844172917, -0.08408557825590997, 0.05122844894644864, 0.1443465675386758, 0.17950302941664253, -0.09495259446763334, -0.35940772512770147, -0.17637081000789237, 0.3664765387562554, 0.21898462372635819, 0.020409603854492572, 0.28896708762368484, 0.3897238198257635, -0.41825354579075, -0.2433350235217604, 0.17611729676043691, 0.3086979453555413, 0.07591050028454963, 0.1528893705301586, 0.39805820126537333, 0.4708334109952079, 0.113530333178307, 0.2503433814243099, 0.3140488036585708, 0.1248166667924137, 0.0724904631059362, 0.26558052694290213, 0.18385272887774054, 0.2272353307918949, 0.031059422426604838, 0.4035519706480898, 0.12072177145151033, 0.11302180171507419, -0.06901883138017897, -0.12155934749069276, -0.0727725657076832, -0.2781917121214599, -0.35423410212114365, 0.06984075879170878, 0.1811003030428407, 0.034861756190442336, 0.07629289285764855], [-0.08246493843700448, -0.02967712156113566, -0.021744975867463406, 0.34646414400629505, 0.20675272331815625, -0.16859872861208877, -0.5451714473518146, -0.4166469904774356, -0.07284827651682098, 0.010057133396494134, 0.46217490619049384, -0.26677463005230545, -0.1259412643125828, 0.2709512692961081, 0.24307168224533476, -0.5961416925667032, -0.49473373535844795, 0.0815115015154365, -0.1614638944894121, 0.025454596916376505, 0.20309056722877494, 0.6746892172337153, 0.03140320069903093, -0.4233846934021969, -0.5618414466680322, -0.2084468728067057, -0.28202675401257965, 0.3377698166228133, -0.1441188629497208, -0.07765822413069884, -0.0663237687741648, -0.3488233180009004, -0.38749182811003136, -0.24380138662065814, -0.25269123212034855, -0.11138094859686444, -0.2824585198737966, -0.36113731347412237, -0.4134464169364851, 0.11302737924470468, -0.42629945803260577, 0.1477457044964281, 0.18863844079776046, -0.4596208205140017, 0.0247022276625005, 0.0038718940629215385, -0.07702239875413401, -0.06413080954485464, -0.4362432150780715, 0.006972149938872511, 0.18666124112334523, -0.16807531268437534, -0.28824070429433424, 0.08370373446297565, -0.02298141049061187, 0.04568541461282725, -0.41709088993234716, 0.004566694246249112, 0.028551013587038977, 0.10227202692412202, 0.05090360773583236, -0.11514398565550288, 0.14865049764745986, -0.1268253742305051], [-0.06656604978279021, 0.22512032942217086, 0.040534785518660625, 0.11665474748026135, 0.01149790011536792, -0.07176747008489687, -0.5837687832842401, -0.07662546077179444, -0.10203851970492112, -0.0418614908194179, 0.2673115865541829, -0.34014538904808556, 0.07789842354522923, 0.32460496988420623, -0.11316461579691593, -0.25610075164196094, -0.16212892439898516, 0.014977806632120581, -0.1570802148375309, 0.012067725806693482, -0.006074474246713089, 0.3107467334946551, -0.03072416897915608, -0.2114276721085973, -0.1390968686368748, 0.19678415526023013, -0.15790206581331948, -0.2828364370020829, -0.4919102266779561, -0.19875639897472708, 0.1736396289899459, 0.015117507906292413, -0.2275323168489488, -0.06130393213044286, -0.0412986886306605, -0.11082459759468657, -0.31566548387583115, -0.08979633365478015, -0.07105502879894589, -0.11666585491117515, -0.11953187136123962, -0.0011347494305082033, 0.32229043138285657, -0.12563523026988116, -0.040399769975800186, 0.07270838988682274, -0.3265949414438491, 0.1013902624679267, -0.056993781546008565, 0.07384225954953158, 0.2935182459485764, -0.1168358204427072, 0.0897060738448464, 0.12292797613491802, -0.14053022884100302, 0.05725307533306357, -0.21722723619103948, -0.08192349104387858, -0.010503313999062971, 0.341537908532247, -0.0830555297272518, -0.20521142410670742, -0.05176846337782949, 0.039612747095868664], [0.05664196180536368, -0.09797031726435232, 0.08037777679271788, -0.008991794171047443, -0.06142711901390855, -0.281548782085117, 0.13598156547491125, 0.18263701660909468, 0.1040540865700296, -0.11448411392150075, 0.009993877396759956, -0.07415157140592173, -0.10325765415763669, 0.17734453697648575, -0.22029760126543538, 0.03383906788440499, 0.23782723303126801, -0.4421270305023079, -0.09222741464633714, -0.08651948715138617, -0.05030102183766071, -0.11019855800742073, -0.10116772661724471, 0.013415442309069953, 0.04087533118052297, -0.15478060236359226, 0.18489888519215258, 0.11049850082720815, -0.12009574034552743, 0.07406862978345334, 0.3026314152864674, 0.1870644306575477, 0.14840036813898577, 0.23971020831082412, 0.3479489314931975, 0.05145554672295458, 0.41476976372815766, 0.02462514547280608, 0.2347358842914321, -0.056363105024866744, 0.11845328953514409, 0.32743330479673405, 0.08427862599441902, 0.4139904781136999, 0.2128955695365797, -0.18416226520927712, 0.02163878247627737, 0.04420681337147449, 0.23334344733279214, 0.38549865530623706, 0.06700410171550758, 0.3182767738610296, -0.15581529265841804, -0.40901352558028176, 0.08402598999447078, 0.027217094951387966, 0.023541465110888046, -0.10530477315179664, -0.09449072087034324, -0.26453892571629284, -0.22755193540531357, -0.22891668707039864, 0.10617485902716872, 0.011059778333991157], [-0.04189810674075148, 0.13768910495850525, -0.16807538507640937, -0.012544833772085998, 0.35906294934647337, 0.5784742043893452, 0.15788005600680788, -0.23252589766933776, -0.3961421018820339, 0.010831270700177392, 0.05838050983291731, -0.05838194283166268, -0.14667802131759883, -0.021710486199705576, 0.01998828034541313, -0.056485182391796306, -0.4525993906777256, 0.03496573971701936, 0.06449287631271321, -0.14309915186002922, -0.4396200163663124, -0.3612336640412773, -0.18382871858030514, -0.43097960618675313, -0.3639762134582636, -0.023510361913201654, 0.02021101186857999, 0.34321614649179777, 0.04163231756697893, 0.23596430453477021, -0.16715095370860006, -0.4121169744714251, -0.3916096066716405, 0.04375191634399396, 0.05454743104769497, 0.08054163372941452, -0.1140895236421458, -0.351769637210197, -0.1705462767110406, -0.06276457506609767, -0.4373437043242692, -0.29254638164930247, 0.05919577776808902, 0.14673708989043993, -0.004620136996871987, 0.04557214819844329, 0.14027849876625528, -0.39934695194271985, -0.3318986600494095, -0.006609143471038914, -0.0631660625404331, -0.08951715053756688, -0.15101218289799298, 0.07021049826438427, 0.16651859100957628, 0.03631459762760897, -0.4183895004028725, -0.07290766344699652, -0.06360374365505667, 0.1709561284725691, -0.017983084474951377, -0.015278926243879115, -0.13670442311979963, 0.10543400911976228], [-0.06522428320727408, 0.13251256245278809, 0.11348533426886721, 0.09571275922815983, -0.05027268901880042, -0.2241502739848936, -0.29177738591349117, -0.10701926583782066, -0.21962545285680093, -0.09468548670299454, 0.05346685615939766, 0.103582919877658, 0.09095591551471628, -0.22770966640094226, -0.06868091061299565, -0.14869165168399598, -0.25148323137009154, -0.007888140032947724, 0.15815253369717192, -0.44553016476211665, -0.04039302514496149, 0.21644626470721723, 0.29095480641193916, 0.040307150773982114, -0.2718399303180998, 0.10770713709072756, 0.09577330878997488, -0.4113323172013648, -0.3922384282929817, 0.17845573572074774, 0.05770826142192062, -0.1272301771899563, -0.08138848285728366, -0.05588381975783299, -0.086764564475037, -0.2468598166158233, -0.2992069736570073, -0.24467813936828942, -0.02733628437791029, 0.02856378653056363, -0.2185911888175456, -0.07398408312973795, 0.3020385879180293, 0.3014072777704752, -0.37771556036969794, -0.20759429224367437, -0.2662725495954789, -0.038043630725818574, -0.23223469274969896, 0.12424620055128575, 0.197197640854312, 0.25776740929460307, 0.48583765622338126, 0.27507627721075245, -0.36338298352304077, 0.11057788595991783, -0.07683270017712755, 0.08769822332014601, -0.024598894482130117, -0.05355773659435932, -0.09322087573262978, -0.0759481605295427, 0.13757465528010013, 0.09933538269231897]], [[-0.030313456631417632, -0.042333697764027754, -0.2867018485816087, 0.25267421601248785, 0.16940907912836264, -0.12600421197003192, 0.6958344100394043, 0.20908657340541423, -0.4673386951886831, 0.27131987764436105, 0.03880576191287075, 0.2985501069256434, 0.017668786024147495, 0.21256350542145722, -0.7121304002808191, 0.0068571072438517715, 0.1540385027170781, -0.10790747002934697, -0.10844670946847636, 0.17256265440087223, 0.08017708741416502, 0.5054141571426999, 0.046548311233206054, -0.5143767550713566, 0.7652337603239898, -0.22712075093497378, 0.6675543984594694, -0.04537353411695745, 0.5492052240326294, 0.24792688495076476, -0.04101382261774039, 0.10329530629023752, 0.23729473972448978, 0.3094531454118745, -0.18089570574631939, 0.4029077589070875, 0.43012332787741264], [0.19796008830784376, 0.40352784158090954, 0.23091363261703796, 0.2994386333108717, -0.0465246769703472, 0.30486015122786264, 0.31314730548034375, -0.144256128223195, -0.12475352042541722, 0.45355981818695607, -0.27687488639114805, 0.2107342862202817, 0.1759695472485236, -0.010785789052453157, 0.1860068047809862, 0.3325560672975762, -0.04835300203423597, -0.24782329975463757, -0.024154418928138466, -0.3145525341589143, -0.2840683458983954, 0.005053160635924607, -0.2220119935027458, -0.023774439843511585, 0.45006471501543616, 0.39139428073054694, -0.34830525277739016, -0.13387567865600278, -0.16142892341187398, 0.1434580524382841, -0.2719076498323635, 0.5618325644768701, 0.1982823851993433, -0.22828767288236698, 0.37310060833816533, 0.1299374602798224, -0.03324055889679546], [0.07505979699288333, -0.324886337529712, 0.2738191447346426, 0.319480249011874, 0.2816904613289266, 0.008404698872110542, -0.3729052114490298, -0.47516459841413156, -0.154683326599893, 0.3193178452545658, 0.12553128372614636, 0.3742968236998568, -0.5449380926708329, -0.12559735006210695, 0.12945753714863853, 0.6596926944858104, -0.08793710655004357, 0.42907503249668716, -0.18480600180132206, -0.0033060204950115923, 0.06428343716743089, -0.6940990037225865, 0.46678727244844664, 0.4421416087318252, -0.22502253729330116, -0.14289004509843015, 0.2942008733665358, 0.33315252235201265, 0.11398607395103802, 0.1204881017233339, 0.2938905882190134, -0.3998401555747115, 0.33641787439433035, -0.21229434742226025, -0.28206744200925277, 0.04877853398280907, -0.7000158497719772], [-0.4921280669260269, -0.06716156199812501, 0.14373638349963525, 0.08093140668472384, 0.021610445397303054, -0.04711237496996547, 0.30953446983371347, 0.08756810832747466, 0.06884824035762711, -0.2860964842456679, 0.5242158088077826, -0.04609868269662553, 0.1589903779984147, 0.2892400990602897, -0.32475536900346325, -0.3015517044908554, 0.11670963963717255, 0.14717448095033667, 0.3501324593037802, 0.6327337576851619, 0.31049384704036725, 0.6187142335456255, -0.1377470624351116, -0.46401496454176144, 0.13970513692342162, -0.19235138509428085, 0.5134684249251792, 0.19360737412928627, 0.25730486691537896, 0.35712382358964573, 0.32784005879736305, -0.08819612449668118, 0.21286923826878357, 0.4562723934452564, -0.2341176101369371, 0.23590995049326813, 0.5537771363936702], [0.38120921881443026, 0.08906773501937998, -0.2738092482350296, 0.1779636063552323, 0.44335997136642236, 0.04737378507897381, 0.07247585710382476, 0.5476031471746146, -0.313571198316522, -0.42184979835438047, 0.0818883724727865, -0.30150837732358704, 0.09576525484908832, 0.2517274590525698, -0.17200164611790217, -0.23022091576792353, -0.4700588004547867, 0.06073050817074218, 0.20494634172081697, 0.20010106545008202, 0.0745220938393655, 0.32247089325130757, -0.26273344091511736, 0.06284127772337773, 0.4136776685917488, -0.002851608615138416, -0.09616493576403412, 0.24594732148429116, 0.02568703834653895, -0.030114028946931107, 0.04707695166675715, 0.10724514477644613, -0.31334901965255024, -0.18035623761910455, 0.22441623787187298, 0.21358941917605978, -0.20457175297396551], [0.2264066090833639, 0.22816148523820387, 0.28342469180095925, 0.3021541109661109, -0.4269469514832423, -0.17001429459941664, -0.07138534460925533, -0.06655122683283571, -0.06355861591070913, -0.06428587217361804, 0.29539341809080755, -0.06266314470320938, -0.31354618847399174, 0.1735646896639359, -0.10713388909090599, 0.395779088072451, -0.11846878223280129, 0.3900332072830517, -0.16619633384779686, 0.09926534204258886, -0.05205947937267471, 0.02208408420226734, 0.054064204956220586, -0.14523276908944802, 0.12441768122390583, -0.10775834368888883, 0.5320864910610947, -0.14560535752045264, -0.2204105935522731, -0.22024832656956037, -0.26389677709056947, 0.13952407719834461, 0.553108487250733, 0.6443022071564809, -0.34708909590216597, 0.34634007580830833, 0.13656436534234745], [-0.2806552184363506, 0.27695901713155, -0.26306716302268807, -0.5961572477086632, -0.1855701626437662, -0.2408691276280214, 0.19090833202563146, -0.6537281653861283, 0.6248457908047403, 0.3394131422625709, -0.13740072228145891, 0.03153618905114403, 0.1222539490439271, 0.530473369431763, 0.05240033633731641, 0.09893661611542745, 0.5250961336675201, 0.09544944445357936, -0.1758939034220673, -0.34841168663368155, -0.4313794672472575, -0.2534826975508314, 0.4117483275162365, 0.5440549938227947, 0.007363708109237306, 0.11618802412813048, -0.17837368397116798, 0.41307890198087494, 0.4085382953911817, 0.49635017996159275, -0.1916805745148965, 0.24670283844370153, 0.018355956718530016, 0.047588841038966705, 0.3750725449589242, -0.25922325603047086, 0.27230556851978016], [0.05814669166947233, -0.2208690567645323, 0.30111056826014704, -0.28928347600465265, -0.2346693804795537, 0.028380477226117366, 0.39334535470969645, 0.15278603643410485, 0.4109553654717075, -0.37288315571511554, 0.42328376966205433, -0.19575650424661548, 0.4899816723104854, 0.27379495512873386, -0.22503304012553116, -0.18557826974396244, 0.16001377474880893, 0.24837885091495907, 0.3232637510379251, 0.40824390848798664, 0.42285299497959705, 0.6431611552693703, -0.12518085887647187, -0.643703062290098, 0.15420760630974123, -0.25803444059850156, 0.4430233856836738, 0.042866535526139345, -0.16080827133111905, 0.1917014185310583, 0.42049647296411896, -0.2828792663986552, -0.024488541316422658, 0.4208282952504495, -0.1858542927900457, 0.25894949297283276, 0.550075561988633], [-0.08249639009271413, 0.1457332763488152, -0.007327566919109873, -0.03036233968902171, -0.06732362119685413, -0.03598353196292871, 0.14573514270578294, -0.12150933908472726, -0.03863478137999716, 0.3928596225102572, 0.13232100954759096, -0.018625716021233585, 0.5416017282184127, 0.12539493573526966, -0.20440703972808583, 0.6759086273330596, 0.6367382527522724, -0.16992140201645034, -0.006324733599667953, 0.4030659299906931, 0.05484081500973932, -0.01591444391082053, 0.18268018985227313, -0.04193975935113683, 0.13694283535565205, -0.23326692809334892, 0.4334788234119749, -0.07938749776734524, -0.10339360392597649, 0.5718622379662381, 0.19764082320428628, -0.35321543451084403, 0.5232287850384779, 0.3897779767486931, -0.09283147385976027, 0.5087602830535077, 0.32263992696253574], [-0.06709262876358457, 0.07282249847409959, -0.4463167256134236, 0.024888834930505904, 0.33389185005377964, -0.041799821225734696, 0.5374219736999215, 0.046706039575411744, 0.22009631899782367, 0.4307785421650296, -0.15244186812547203, -0.03578905641763281, -0.0075239697460994515, 0.41619980402139767, 0.03685514841769737, -0.14208450518401294, 0.3966012785235656, -0.36614480744517003, -0.08693372444579041, -0.3038834160600107, -0.07656457240612426, 0.09305200527938867, 0.47575550061044847, 0.33564521097677624, 0.4245520860326183, -0.07179043467807991, -0.04797796924668211, 0.2790972872604844, 0.7387995561170884, 0.4295650930010921, 0.08892102486657279, 0.6434191397605072, 0.004030642863922932, 0.2354283714344871, 0.147511214041574, -0.256525192308534, 0.3386475866081889], [0.27826864951101693, 0.009472675010656063, 0.10096967690867807, 0.6583761544602188, 0.561828790708791, 0.31819427493391167, -0.21834430145973155, 0.2919069103869567, -0.07412148896087478, 0.42683451978688575, -0.13404509836556475, 0.05713377602468215, -0.5301668071284907, 0.47802478232725293, 0.4262230913036242, -0.09738934549574745, 0.17683346697229851, 0.3748628636647993, -0.04703557646796128, -0.16033623127284757, -0.3015310694866673, -0.2903862067709125, 0.1494075839781649, 0.4781517000514455, 0.021867806004147394, 0.027851100855136472, 0.2979722771128212, -0.01328538174991147, -0.16198227547255425, -0.17298234917110442, 0.014199917929236555, 0.6459163848947801, 0.13390860108976946, 0.12217268517068913, 0.18073475384832274, -0.39039682800059733, -0.19997116888721977], [-0.20750352803895833, -0.12453814654343133, -0.0141929088982136, 0.2104062604815622, -0.12065281764089657, -0.3142776765691138, 0.1647569239218602, -0.10417170451961155, 0.5792650336881104, -0.2133418839438983, 0.48189198608870226, -0.0270180824147349, -0.3585940281076147, -0.3446662644099677, 0.091757970700512, -0.07999824132221495, 0.3568337443806207, 0.25074209379635265, 0.4444979054994969, 0.37684617506650014, 0.1588907288631627, 0.21789486869974922, 0.06395733689613858, 0.2964827995895867, -0.2529362328225116, 0.0987376015903149, 0.4912206446470624, 0.0679894218023872, 0.3486467657288264, 0.2664403568472822, 0.08830109198539175, -0.6058088356409075, 0.6514324845504429, 0.4045631676166903, 0.13818966174211583, 0.04076046598862728, -0.0032508304352945423], [0.32037056391635355, 0.6111084416757431, 0.33865317731301114, 0.16597358007931634, -0.05525389443738376, 0.006900411484338609, 0.26505511981539304, -0.1952643438106013, 0.4649364668974882, -0.26994500856466375, -0.10577959367152628, 0.044357383902007906, 0.2896827929860803, -0.2892392386213132, 0.5244734767657266, 0.3487277457790832, -0.4068463131390554, 0.3518257231991967, 0.08559176159692648, -0.4595001553679204, -0.021210350570252102, -0.12548992689765892, 0.16200460775707576, 0.19389453449777055, -0.015029659592704202, 0.9878214633041623, -0.02110024781843349, -0.13808874767230214, 0.441451567376662, -0.21517879718212804, -0.5523133735296718, 0.1316844444704311, -0.07651914677309073, 0.018836145552195264, 0.22479562074439113, 0.12596482273173232, 0.37654187603471084], [0.46361115844046613, -0.03097448547250282, 0.019756888571182022, -0.481521527289674, 0.04176317930424744, -0.15674766402497106, 0.05913155512721009, 0.04457282271564724, -0.42477622436315693, 0.33745453550274873, -0.3609718089098291, 0.4815815758056293, 0.6219629943591335, 0.3103055096467873, -0.29288722901501096, 0.49663813851912414, 0.09144952265378639, -0.287912571359512, -0.2439160763083862, -0.1443772912635914, -0.03273989947229717, -0.28724784174611573, 0.21623151140071228, -0.10534383482781443, 0.6128496499417007, 0.1744456235350057, -0.18061884956369986, -0.016699753790001853, -0.13055332949942847, 0.16894875284512614, -0.1306977521088048, -0.20837469217846818, -0.1363766436926611, -0.3681382936728461, 0.041652938036949375, 0.48015869715173143, -0.20963049079679558], [0.21829863591425938, 0.6201101267896164, 0.06800051274740057, 0.14475360471482918, -0.21618107863494548, 0.1872115955025923, -0.3166196247607702, -0.04635624277552172, 0.28177666387708467, 0.3341842356618105, 0.3262699511394884, -0.03635616374947672, 0.010463470547368032, -0.32761634583728955, 0.5967070676016593, 0.18719442433454478, 0.446909659020207, -0.12487855456642795, 0.24544738578641861, 0.33425147224932894, -0.04278810248294543, -0.15958019419952543, -0.3972993576554114, 0.5555452195295102, -0.29340117211549493, 0.12156888885218341, -0.024698279079162576, 0.08916405657629096, -0.44255097493973883, 0.10713258081241811, 0.17148330549122578, 0.17214635044194196, 0.29320145760479643, -0.2300252219486454, 0.21748117701656483, 0.11006633680380086, -0.0715639859530099], [0.24248706385347626, 0.12499651335303286, 0.22604538381528116, 0.1637317663308908, 0.2129149821676176, -0.02558176435619107, -0.12688322960218973, 0.11917400528193894, 0.2757357216632197, -0.12205280129885133, 0.5085757064723138, -0.04423313001159521, -0.23555738523153627, -0.3922951023436888, 0.23370320741806835, 0.04171862158564492, -0.16937852562050745, 0.39105140960262175, 0.36565466249460604, 0.18660554413314537, 0.25390075480967883, -0.013874660984464911, -0.0713889667647506, 0.2961836147674866, -0.5323497552036969, -0.2045527789387217, 0.03438648241368894, 0.5404428907907514, -0.31033087955362904, 0.042948182804127016, 0.5804810086437631, -0.5620678198978347, 0.15367564996734479, -0.23379247408617057, 0.21916951494962014, 0.020120762326507415, -0.4414907229084824], [0.3974165528635337, 0.12803818933001726, 0.07239318599649801, -0.2357805531374128, -0.2045226966854231, 0.08962760905638519, 0.08601334329942979, 0.20847626062039024, -0.17883206406254495, 0.35553596699911233, -0.2710025200254451, 0.05217285764007274, 0.5127982443724538, 0.32097378841694957, -0.22508580152926883, 0.24925405944738904, 0.2102393271548518, 0.0756300894658409, -0.059229434116234235, 0.17446303518899003, 0.14755701725053522, -0.10016996857384346, -0.24903889749446487, -0.040268867759561545, 0.24831393599013799, -0.019663254637402327, -0.0010827330817551625, 0.3659787131541319, -0.08057003492240929, 0.486981193980275, 0.24602089357041282, -0.26160188175104476, -0.12514042757716862, -0.4282532939700194, 0.1334884375701237, 0.4955645338869472, -0.5123420777394483], [0.035551023618580334, -0.05374707309213158, 0.46176830133002283, 0.022925670597741223, -0.30074386037065653, -0.24944763903349845, 0.04340746491836536, -0.3867664550741544, -0.06481006622717543, -0.3186400732705759, -0.04507240674435794, 0.16095104255433587, 0.17919136642973713, -0.17632314351292266, 0.00220370123964124, 0.34339877542041325, -0.4675824503898218, 0.4339975751886226, 0.2775884384664084, -0.1959541915127267, 0.3707065410425829, 0.09721863672506108, 0.4837701947773408, 0.0670052645956084, 0.0975071644301197, 0.5005841695072689, 0.005455861170974394, -0.28194024972555687, 0.13401588025841496, -0.5105074509272616, -0.17033953176154418, -0.15330654010724548, 0.28376610283681125, 0.465692275956598, -0.5063488573047878, 0.22212028617747498, 0.6153339882917901], [0.3217488822188395, 0.05021345531890261, 0.3403007139299725, -0.019062593211455606, -0.19110967762340708, -0.08863495587170726, 0.014086298372637777, -0.13192352048217845, 0.00695854018948416, 0.5125086313438381, 0.21564870403369782, 0.2905772718159094, 0.20015710566380054, 0.5385200499030989, -0.24721043557290898, 0.840170127362443, -0.3093307592715241, 0.4135340675704227, -0.21914316178650817, -0.05246880627872717, -0.22907735790139463, 0.14346242654259345, 0.029325461879495765, -0.12264088637666, 0.06425058100748235, -0.2426423956570718, 0.6902907310163541, -0.10129338555839068, -0.0752233484782663, 0.08705336661490395, -0.13384812691148598, -0.006144569678443336, 0.4216597507240559, 0.46629549746561755, -0.5377413432271216, 0.7452704941133722, 0.07652030744603924], [0.08193547201568974, 0.13757668984899135, -0.016491242536716556, 0.4961100929255477, 0.13496291490019793, 0.4109128605335071, 0.07698581548212276, 0.28159982289636915, 0.1645975639320372, -0.28346436030939576, 0.326163305250048, -0.03683912583377538, -0.2208915874769178, 0.2528808630620822, 0.26043158459801313, -0.4582243678860235, 0.022151715950362416, 0.28075844380888865, 0.22210210740988903, 0.11407440417809582, 0.18287169955241828, 0.4219902693669517, -0.03373216779091119, 0.2196979584237365, -0.02973828195008081, 0.3976025750139789, 0.23161322935561274, 0.10206087668953857, -0.1694863242024668, -0.2750064847845665, 0.38786074008160065, 0.7646979655395265, -0.07132867536674861, 0.353181445168794, 0.09588276266665541, -0.41325160831363866, 0.0523509276355872], [-0.10223310086155125, -0.5201455726684314, 0.19120027653978172, -0.6126172472011985, 0.3068592822219578, 0.30706260788707745, 0.42216796240964155, 0.001377899233968695, -0.24844167498676537, 0.007007864079683544, -0.15187513904528924, 0.629270022819045, -0.26109472401179135, -0.09636537016698674, -0.36715215044499705, -0.0903889336493639, -0.1217372780514362, -0.23440800385868388, 0.023236161103358414, -0.1101651106692755, 0.46432228878391346, 0.03847601855445161, 0.6480544293740879, 0.06317727222066684, 0.24290686650036675, 0.16762962926532837, -0.22774745448145278, 0.18775916705142875, 0.682760911626785, 0.2957574844320685, 0.339102127896886, 0.004891520597729585, 0.3106180772708084, 0.010310481495644756, -0.33894409286508703, -0.2860477706038629, 0.3761730819875873], [-0.31509703987331, -0.06631485504128821, -0.023268410770374098, -0.490293882723815, 0.20553285780306088, -0.014668180080891387, 0.3828447238486522, -0.09628743597350431, 0.5930462322017499, -0.22101914892216684, 0.09502493501352356, 0.26157192112424293, -0.1345694398822277, -0.40299355099325324, -0.0229117184303808, -0.23248796819539364, 0.11590774504202668, 0.1352349629256233, 0.37240737731546397, 0.06886184534339283, 0.24250733607223857, 0.08496991206517078, 0.545772350017354, 0.4013085321170318, 0.2039458382400047, 0.3161370003108477, -0.1442138690658299, 0.3746980479216788, 0.5948840936319468, 0.12343332472921537, -0.10557251177687442, -0.32477839076420817, -0.07663166888061715, -0.02022051739646503, 0.2496951681538536, 0.012651493319774079, -0.03813733815982584], [-0.3056654228882458, -0.4948758569362031, 0.21054563427062414, -0.04530806492018993, 0.1820543064730316, 0.07069579139781004, 0.46598660039549195, -0.3403450335957523, -0.10590086709936807, 0.013243724826840391, 0.19291532324805452, 0.6147967571538545, 0.04924006836212588, 0.05772496908460917, 0.053994978184115826, 0.051171443608729245, -0.14167093987824095, 0.15658023449852648, -0.10262972229719927, 0.09567528176393529, 0.18320094347841587, -0.369716510515269, 0.7894502311054852, 0.08045456918806289, -0.21746839922715436, 0.021206229713793396, 0.06182778649574539, 0.26210644656556586, 0.21965913214138796, 0.07855030968713823, 0.3182618936325238, -0.09939457973617623, 0.2867899392674318, 0.3077548066176546, -0.21021103830654672, -0.15977430213649427, 0.36986306557757503], [-0.29794014804931906, -0.40771818286304623, 0.24509328841282407, 0.16236064030100245, 0.41272305021427264, 0.3011182303676756, 0.0879379510347406, 0.17876674907129375, -0.13807629380849998, 0.22898289231717242, 0.455264397774355, 0.32639333946899013, -0.3483975920572424, -0.2023438401911908, 0.16265282191732003, 0.04000292098933221, 0.38021228254099976, 0.11816909643578011, 0.352474645166772, 0.19875320083116424, 0.3045502361631224, -0.028011290113050317, 0.42329039390873324, 0.38415020804651273, -0.2411187103971274, -0.11488840453450898, 0.10720656355315113, 0.6002195404320675, 0.0559202280273235, 0.39583967953674737, 0.7164620256370203, -0.5413461269869827, 0.24415939344418539, -0.020664411353496195, -0.016395533160733576, -0.20044972894492807, -0.4185055491662002], [-0.12445964374048014, -0.23751405788990654, 0.03304387079829726, 0.23939202902186707, 0.18127824523956024, 0.43047568575788464, 0.5663383155230132, 0.3957956891418762, 0.08718291735042459, -0.3045527639221873, 0.3156952954638703, -0.048764981363915466, 0.436159282477832, 0.15657133773244233, 0.18066463987454462, -0.6685485282902086, 0.11433476078084545, -0.20698688251610822, 0.41313182017614924, 0.4629642560890355, 0.19371430523146155, 0.3228257920007424, -0.14523267380078386, -0.2939049525569294, 0.18118349857999422, 0.29600705502184377, 0.05541898293090439, -0.0933976001807309, -0.1202430795506536, -0.21711433687716813, 0.29708165474083303, 0.16953623461247536, -0.09006296615866925, -0.002282815059719687, 0.24407882916416634, -0.35595360043515717, 0.2235898319024852], [-0.1721243975293395, 0.027000511478218383, -0.0010842418355724852, 0.21687355726350915, -0.3832115199382787, -0.49435354061722075, 0.14191795174492963, -0.08687328324313286, 0.5896691952797497, 0.2463038862443578, 0.25407916554897353, -0.09796674097596782, -0.3949208593493079, -0.151497999237684, -0.03120292001762798, -0.007903143976742067, 0.8614398893367681, -0.2487947873992661, 0.2058281538033613, 0.2734360951401736, -0.26428248474794874, -0.021390315920234455, 0.029536904684939295, 0.34207222392397596, 0.029821089680601442, -0.12772130905873513, 0.18060294575589403, 0.14572871236600313, 0.22889554884506816, 0.5103284655108432, 0.13345341605952185, -0.25314567912372443, 0.5083931749475613, 0.24117759347613346, 0.2812382105899421, 0.13354626808984757, 0.07485752005086706], [0.6043423720926498, 0.003705445978360277, 0.31200778068613255, -0.06164895845825824, 0.1559876259334726, -0.20110484325093197, -0.44625369553940125, 0.18778052650235377, 0.05532814433558831, -0.029571030552007844, -0.332801196786168, 0.001542007215662903, 0.3498052171268604, 0.5089259901611225, -0.5036809791177598, 0.2673160224448177, -0.49095215272087206, 0.6528662523323912, -0.22458689436149148, -0.1835750594705622, -0.07333661005254317, -0.013334139338478927, 0.4581690031999376, 0.26683485297978266, 0.32486415309996286, 0.46944777448079245, 0.012554257108833374, -0.12460164274815823, -0.2924691132577423, -0.6997546314645956, -0.0068782607680427845, 0.255343694151531, -0.33314895835351255, 0.11305205962176976, -0.16485656310241478, 0.33464585429868154, 0.19713138011410986], [-0.040944445125152835, 0.292512511936344, 0.1701024567435266, -0.29939328242018287, -0.17649466059577287, -0.3633426493321387, -0.18429542986081957, -0.5463072684166218, 0.43449094207418854, -0.01371808361390741, 0.1404798875841646, 0.07209832397153672, -0.5132128719659034, -0.3107339517317154, 0.11252476952135695, 0.17864911150091656, 0.25680461404270366, 0.364395862469359, 0.046563343773325494, -0.20607011504637054, 0.10677348084411716, -0.3695230392688437, 0.5092617830357937, 0.5822333048491541, -0.17567590339957007, 0.2213780639995324, -0.15443780267713303, 0.3699782623168521, 0.4939112312237775, 0.271928102758558, -0.22549607493376836, -0.35033244851436723, 0.1715913145233717, 0.10151694535624232, 0.04766837801238874, -0.08844273992233737, -0.44878475720254074], [0.2792062620116182, 0.3454344496099844, 0.00590672852054354, -0.28914655548243906, 0.3002787241605311, 0.2311432966789755, -0.2058613622595808, 0.362425636927669, 0.35280845602434535, 0.07477343497274405, 0.008769200982691714, -0.2918216042457912, 0.22198519229463012, 0.09477888405188548, -0.1103861200394209, -0.473697368068464, 0.04042251916262773, 0.0635886986973712, 0.31090555642021267, -0.08382328626853018, 0.13157745577800606, 0.23997074511149644, -0.19117958014947475, 0.3745686596817712, -0.12357007005854047, 0.0772653283664215, -0.2752686569277674, 0.5677908567549909, 0.14434141037674747, 0.1898173454592729, 0.40232182632167374, -0.23472766493085473, -0.6636071431699656, -0.7247168172333339, 0.2962957249118846, -0.05149484767758113, -0.5484492838412774], [0.40062874767818746, 0.27560235875772315, 0.20104152861756033, -0.1833875296826373, 0.18198647937203702, 0.37527981949734596, -0.028552280677595812, 0.5920155922509006, -0.4522637797648666, 0.020952829834005354, -0.14741917915388006, 0.3488472662485525, 0.4468038932189928, 0.16598249197350654, -0.040729578347232134, 0.0925111605270442, -0.48234825929239544, -0.040511755234186264, 0.07447371684363926, 0.05176579890278494, -0.013489171847054672, 0.3238359517816838, -0.2664026546095803, -0.14020344125517395, 0.4415953422100235, 0.19580642153576128, -0.16451443660297868, 0.1929711176907717, -0.08613258765934954, -0.14721124272621014, 0.35708314622706205, 0.04159833996164416, -0.3953014367938896, -0.24041865965155856, 0.19120403300682906, 0.19067984161361756, -0.3893742398677673], [-0.2916743392060169, -0.0020827612561083084, 0.1463084607164791, 0.6242213800982004, 0.04334226465677087, 0.1382173824328641, -0.23054006637721652, 0.24952983115048777, -0.04302224575680254, -0.10301055225539897, 0.20801479231761102, -0.3734279634994059, -0.07318504309326498, 0.6039176829695603, -0.1661575345687122, -0.29899318783051254, 0.372958159454322, 0.3225649439722218, -0.08635626264985016, 0.2546662451012829, -0.2517121941270907, 0.44259570394959125, -0.192208058258126, -0.270202298201201, 0.17454740036799327, 0.01599789921867821, 0.5196517203311274, -0.3477370640980221, -0.422369576838497, -0.08879451341998658, 0.30952480395844817, 0.65177670195738, 0.4534883151046396, 0.39974979381715164, 0.13147598857809636, -0.022376984249148656, 0.15569676549104977], [-0.1450164668887834, 0.29904283491835115, 0.5507191607655394, 0.583317983741968, -0.39415580697968117, 0.25534988582971824, -0.49920707461240316, -0.19241209373145252, 0.2901635499559108, -0.22957770967662539, 0.3651401345947187, -0.2706425195223471, -0.02133279083833696, 0.18723808422332539, 0.5387739343335847, 0.0676554878446619, -0.32096789699569134, 0.6040758544765065, 0.03343157423663743, 0.053661251801404054, -0.19090551652344473, -0.07241610085836209, 0.07841807934623776, 0.1287998910693251, -0.3245093420025707, 0.6207396877078384, 0.06177218270637026, -0.26490900062530853, -0.42667565242840266, -0.34678356685842887, -0.2745395510177522, 0.6279995602341987, 0.3846904692637515, 0.1693576864811182, 0.14661960992098252, -0.17462871851151582, 0.12200478381850116], [-0.10740564606400249, 0.5161619776061723, 0.007020761624275105, 0.02005744563941987, -0.10898228086628234, 0.5180433329764031, -0.2673070564722664, 0.26467925633573036, 0.5849097047990056, -0.19274765263938165, -0.06308447543390201, -0.7308727137571541, 0.5156906834240508, 0.6653633026958676, 0.0049634610442482975, -0.22263481111585035, 0.4788391200413178, 0.07663698982129437, 0.1457056803327408, -0.31693301428464166, -0.43197399334335496, 0.14996219585558512, -0.19048091864763822, 0.14889118208129568, 0.19622068476288365, 0.3222120888313537, -0.09300300759501529, 0.09469000990153002, 0.05849834482836532, 0.09514260133084743, 0.15568728892214745, 0.5504823085389704, -0.31754313727991496, 0.053486920158707534, 0.2772894271823707, -0.2183279881700668, 0.49370794649248495], [0.2761579396747119, 0.4075206702415703, 0.09669703513346767, -0.5340637651747591, 0.08309143862194807, 0.026250246230310366, -0.012459793194855052, 0.1789460016190883, 0.5102878512631551, -0.34609553513518604, 0.16316714642779773, -0.061231194351639, 0.5173911635929792, -0.1848764119435446, 0.15070075646702832, -0.14728581839844673, 0.00012516851637925592, 0.20775713316248184, 0.2596920856579379, 0.08864317437850158, 0.2715486083590087, 0.06858085033842598, -0.1400195492030149, 0.4888921502680699, -0.32057257101311815, -0.011544477202183783, -0.44649574796814306, 0.6079159105335293, -0.025344820780064135, 0.12230045895449987, 0.3385357050731286, -0.5462918361335155, -0.4779438992800217, -0.6359180189179353, 0.3048819801998764, 0.22695259709419355, -0.2924484830996426], [0.3019980469630585, 0.19038257457161345, 0.35100899566338617, 0.41352835289666884, 0.029777741119778003, -0.2116582127820894, -0.11842305559803934, -0.1927054489790173, -0.11825350989086661, 0.11849583646203615, 0.0007416995348706391, 0.4244239201866816, -0.5848700734609931, -0.53471466974669, 0.5505060101766457, 0.32207390188357465, -0.5091284051233756, 0.3968093010973014, -0.21819121584966183, -0.11243870633236715, 0.06394441186179013, -0.3932706038747051, 0.4785001732987724, 0.2980361979204766, -0.4588271284269546, 0.5227522396232297, -0.06650596134774371, -0.19721903456490147, 0.02778758957745188, -0.5261302731175654, -0.07258350669202568, -0.1754111659372794, 0.3143666289096799, 0.170696803915151, 0.10369264675619455, 0.12480174058601355, -0.4706360173925044], [0.06813314818979005, -0.012614413412747936, 0.18013075827879563, -0.23464587071114965, -0.030781895263903316, 0.13804441363803266, 0.45569970957885253, 0.05648248147906792, -0.05500683690559834, 0.30434471604524743, 0.08498426216887192, 0.29448037494979484, 0.40502309755308946, 0.31209577960203205, -0.2757360876450192, 0.4252404843834159, -0.2851115968008171, 0.18377227791041734, -0.14361629087841246, 0.27339411266790475, 0.4421540409216994, 0.19825620010408873, 0.19239162574540747, -0.2903831770669516, 0.4578102693506056, 0.1276080281658837, 0.48967987388576556, 0.18619693249443847, 0.5063920037733489, 0.4147008078145483, -0.02997194571875476, -0.2960598797741313, 0.01123192927056269, 0.15274978860889737, -0.12637475478404026, 0.6134936392163499, 0.3976063890114697], [0.03998845868244387, 0.26637982368947694, -0.0991786682634539, -0.2701548027988192, 0.20729763635369663, 0.1529245169800057, -0.19331734579991397, 0.2723275231655532, 0.27128212660482787, -0.384534120164191, 0.2057176987694202, 0.0011045493460557893, 0.31303595639850873, -0.012762805638683152, -0.07808803749993651, -0.11446898907928772, -0.05132273824896622, 0.016873062559759445, 0.3141219960826145, 0.2559902853440005, 0.024431707473193783, 0.1421860112299536, -0.20141925153861742, 0.0702578163905289, -0.366189299089517, -0.5730526936131762, 0.20345070102351454, 0.2678856617228552, 0.07703683384051135, -0.005956386379314583, -0.03171823489631024, -0.34694723526848903, -0.5351710425600668, -0.28772446669572677, 0.26452140104952016, 0.37763897136528274, -0.212083637135367]], [[-0.6020735906379464, -0.597366245418793, -1.370124256201646, 0.012315793385830227, -0.9138802667372453, 0.3232703020168759, 0.2778291423746732, 0.43743216396922907, -0.15865692495270142, -0.1265209531723597, -0.08967862334580012, -0.41215737570219696, -0.005838741303673426, -0.4067856797418919, -0.9943482679845972, -0.9427464650001135, -0.574292147570333, 0.32624899630237103, 0.30081196002454186, -0.046976887404437485, -0.48670085759200254, -0.6026280294094961, 0.30230577239285844, -1.5077957768053287, -0.02358582015942203, -0.7838077702294929, 0.38348029851698484, -0.5962948116824204, -0.5914793272624385, -0.9829313039046029, 0.10182401386550873, 0.4225208073657031, 0.4439625153193742, -1.3546159883056654, -1.0607751728363233, -0.01605468193402224, -0.4284015668327285], [-0.4020496449057463, -0.13948859520706527, -0.33691740302049206, -0.593460738413328, -1.1049742873462538, -0.6128670384020668, 0.38897866898342354, -0.3589780319628848, -0.05272609957350973, 0.42676832022079053, -0.1274853382312358, 0.18602494412196938, 0.20145455577218113, -0.3594137975990345, 0.07387085694014868, -0.21697096110859637, -0.10327752498071922, -0.5727149312673094, -0.6752340765309085, -0.4966177004921745, -0.7822999049403561, 0.25068746990324603, -0.9123587142476453, -0.3625060981689359, -0.7936373957591613, 0.4076064249027841, -0.2893409820337338, 0.3505398131916621, 0.42344621247805736, -0.8350914627395932, -0.5921126396485263, -0.3524144882595765, 0.6990603995395936, 0.3022769456437184, -0.2693872859114131, -0.34184944100218667, 0.19976555824188852], [-0.5018959931320973, 0.4398843078619477, -0.3027398338931445, -0.741281918280798, -0.12124697665451778, -0.09966374896146235, -0.3182436714187136, -0.9986123855055765, -1.220190092565363, 0.06858935779218674, 0.4717712277799361, -0.2125253094543096, 0.22495091247935559, -1.1045229936078842, 0.1762730311460295, -0.15136782893079206, -0.8786121156225534, -0.3374734297000984, -0.8730092130075305, 0.33707572921327594, -0.802294748998118, -0.425697308196102, -0.6781248771588713, -0.21560598022913136, 0.384060458866006, -0.35418069948397823, -0.1509901239107688, -0.44004441135099454, -0.04822149286478834, 0.12476761381029115, 0.16548463022866064, 0.4490028497742002, 0.26840565657325965, -0.3439763105579673, 0.3273650211705723, -1.1045617760183954, -0.7547658719103134], [0.331057346280421, -0.1976830664766294, -1.472699135784734, -0.04127774520200549, 0.46556978417766204, 0.08530025369798891, -1.0037050295898013, -0.022383449910252005, -0.7177218727432593, 0.24466648036199826, 0.18347836468025874, -0.8120982935503459, -0.7001455180332489, -0.44568321583538467, -0.774471215564327, -0.7404125168487782, 0.17023371175541305, -0.7196965465889202, -0.010861993097186669, 0.1295822431938251, -0.09523536595694493, -0.4079473610877555, -0.8017933539637777, -0.5864496202629501, -0.1576572401289186, -0.8792699820253506, 0.26299862539311625, -1.192344363808209, 0.2148807227739492, 0.28902242207525225, 0.34449673045810825, -0.3659518473603927, 0.00811002295086297, -0.5155469429546164, -1.459297472177074, -0.03202332074927894, -0.18289435949644997], [0.38190389613877934, -0.3398481576856265, -0.9402902551640494, 0.2666119405512826, -0.13763274388545335, -0.47611229908864966, -0.49569261202205656, 0.27142176216132663, -0.2866664202175905, 0.22504839989895148, -1.7999581067679535, 0.11032761838269159, -0.10813386183995197, -0.16760843730314456, -1.315847730075357, -1.0684575601486084, -0.5466586977837576, 0.4303756611116944, -0.6777608272478236, -0.1495315229690027, 0.4786317585440669, 0.5013979008117503, 0.3601193801264421, -0.023127254173301394, 0.4319146179228342, -0.36358638975340696, -0.47487441500191846, -0.44304639617727287, -0.2070804505661595, -0.22935658785235166, -0.21088574630462442, -0.6379702604212492, -0.48130132481395793, -0.4760669775571318, -0.12024401285412437, 0.11699150554092937, -0.6416617803272121], [0.12150614258232707, 0.4212322451633199, -0.11566726624396526, -0.9881784498709738, -0.4933449417981224, 0.20993453716309177, -0.20673330824491798, -0.16912312804249682, 0.10695215467792886, -0.641773892354381, -0.39037546927785066, -1.1511580115533344, 0.37197327535261915, 0.6786668659444042, -0.0675731660314171, -0.567318528247563, 0.44356899705500497, 0.25753401429811845, 0.3721677294983298, -1.021434728710726, -0.1342106149667501, -0.43888515106573595, -0.195294301614094, -0.7143637246420577, -0.6732444967510823, -1.292484679254659, 0.33875931155842787, -0.5107120419921938, -0.6389561911858417, 0.412100254239669, -1.1243241269138635, -0.07002116504571458, -0.2771268517351807, -0.09739794454265165, 0.24394072086089663, 0.1494397384284166, -0.18493219653024895], [0.32827136273551405, -0.2516833073393536, -0.3714563020185153, 0.28731882629187794, -0.5402752739577017, 0.32466111363861766, -1.008886395233157, 0.3084671440114349, 0.31122433826641704, -0.3879265716452907, -0.2223281820850712, 0.27044434670613665, -0.41584326283470735, -0.6565810814759799, 0.016254397591206466, -0.18330050431806683, -0.11021641147595158, -0.3700499903760946, 0.16690898674758664, -0.10673966209464729, -0.8890359808196002, -0.549558150158484, -0.3292571479903471, -0.11990773712384635, 0.14172219004388653, 0.272258893824378, -1.3189027006489913, -0.8822105495636289, -0.8672062471538983, -0.25756177445232914, 0.4655014090286613, -0.04920722393577865, -0.31634183957389034, -0.7201016676054552, -0.9232068680687452, -0.09795454531353542, -0.45124650747967987], [-0.4303910702632541, -1.3677100755094846, -0.005017179792129977, -0.030834690611754024, 0.12248535691012516, -0.664888212658587, -0.3099243750085663, 0.2334284481802177, -0.33667678590233246, -0.6868799348711199, -0.28639276113808776, -0.03272117706822203, -0.776996960607126, -0.1729050457186027, -0.024937587475360137, 0.47130913990782747, 0.24205076060372072, -0.6874277367692443, -0.596194477385878, -0.027819345242450028, -0.1793231877136948, -0.0947850744162798, -0.007902938813744707, 0.2941485636870852, 0.23157934892581403, -0.46145498060053874, 0.21982607171816396, -0.33641556170598486, 0.6055502424564416, 0.28037199139009844, -0.3031431394948421, -0.4768396161763416, -0.03633959816015563, 0.6234938683945374, -0.6365909591225394, -0.16131255458222468, 0.5235002906999291], [-0.608666493510557, -0.2721856136205838, 0.39945410634475714, -0.4219097124517186, -1.111114614913747, 0.2662400837583941, -0.2902888705821653, -0.4201189057732928, -0.15528886097732644, -0.6733486130192767, 0.09769855510296979, 0.20641483636426128, 0.20181908530674553, -0.6092147132270385, -0.05904946607312498, 0.16853010733088414, -0.5532196691089198, 0.2164364958476123, 0.0813415733874278, -0.15080845106875312, -0.25810517765133145, -0.08721615488846067, 0.0013294614836922099, 0.12411856282360782, -0.48190728675071004, -0.16704883034197887, -0.13215155762851105, 0.3556005197950746, -0.6429690543115545, -0.518240487430465, -0.23463701113848623, 0.185574377896074, -0.8247887605646045, -0.041971718253248205, 0.523225708326974, -0.24981701488244665, -0.6819804381783425], [0.08840019931316359, -0.05650116102920324, 0.3142962121040078, -0.43448316866621106, -1.3966494672886758, -0.3228678065862906, 0.299272479570747, -0.6172531088904841, 0.2003954720897718, 0.456293855388646, 0.2020116357151415, -0.1607855368984568, -0.7400052750657437, 0.24239351123211225, -0.2751183874787877, -0.43134163433317024, 0.16381795800078666, -0.6312418185999175, 0.06900259731952514, -0.7489088611400554, 0.03230153639999023, -0.12926555452000035, 0.18217405003294243, 0.22830647881986474, -0.470834256760526, 0.24649477607472314, -0.5280873707248638, 0.09262952260269287, -0.4882877116584694, -0.40249020130673085, -0.5842816974456388, -1.3861101087469487, -1.0119150379132538, -0.6027471267612847, -0.09407462547915679, -0.016558043150905342, -0.8447459361962426]]], "activation": "relu", "output_activation": "softmax", "optimizer_params": {"learning_rate": null, "momentum": null, "beta1": null, "beta2": null, "epsilon": null}, "optimizer": "adam", "loss": "log"}