{"input_nodes": 64, "output_nodes": 10, "hidden_nodes": [60], "batch_size": 200, "max_iter": 200, "max_no_change_count": 10, "tol": 0.0001, "verbose": true, "biases": [[[-0.026752650588786106], [0.33085126091320155], [0.30200963139406767], [-0.0658274297704461], [0.10543270740760104], [0.054515386494875015], [0.39034489705803616], [0.127882756948233], [-0.10862432047938202], [-0.054400673763437574], [0.00908517503406803], [-0.01939426939228386], [0.21763113905940926], [-0.38744130933970766], [-0.17885344235838077], [0.0607627995284963], [0.11263722849844318], [0.2504406563879287], [-0.2762606157964489], [0.12593136654192164], [0.6984599656677523], [0.22569674446779245], [0.2814055869690094], [-0.12760407343341484], [0.07639914412041976], [0.04380930435978936], [-0.2957385630947057], [0.14509365523103646], [0.06757545162374297], [0.09610649315228666], [0.06618269041644917], [0.08655654997072552], [-0.3733288707594939], [0.14294421334214022], [0.19131514645840364], [-0.3019266094294749], [-0.25660837183242713], [0.1239967184026217], [0.21512227168243622], [0.02941393584714918], [0.36470759983910794], [-0.06454255171324874], [-0.05630176378151599], [0.03570275985268769], [0.06400461136994935], [-0.32445953903097563], [-0.01414914473291819], [0.07106122447839026], [0.23785089333902748], [-0.04625075338602514], [0.05341815286206161], [0.06783748374763438], [0.037948022599737855], [0.13230885031136452], [0.21307656099065975], [0.019675090101234236], [-0.18435963543262415], [-0.2766272194433157], [0.10959031994050979], [-0.09376366456217786]], [[-0.19392880716184158], [-0.1136094108909426], [-0.31243466458989955], [-0.13486623177032933], [-0.1953541387289701], [0.17767736404491133], [-0.06723049587325008], [-0.04072800504125914], [0.06994926850439481], [0.05150834436763302]]], "weights": [[[0.12050254700196353, -0.1878216396364957, -0.045282822269096724, -0.03557629438793713, -0.5699779027423618, 0.0388851289862019, -0.0453389855969511, 0.025864569437175085, -0.084411100708439, -0.24889613580211678, -0.06356046621935228, -0.08895014974852533, 0.18018922905675422, -0.1548230544121818, -0.14207175323045956, -0.11955545756631653, 0.0698754010427277, -0.05511771351848888, 0.12126351080732609, 0.056073963997326746, 0.05588670884998423, -0.22852549800628333, -0.031224227475664702, 0.042744583562905884, 0.03278481630959443, -0.015899075948403375, -0.11998066508189947, -0.3046968293378779, -0.12625255001691893, 0.3066051159666147, 0.29755375812040435, 0.1621370933707004, -0.12471715857586743, 0.2347064419481436, 0.15838275414125802, -0.1672360276213328, 0.23389589479441603, 0.38037926448621556, 0.3067815588061479, 0.031379249214499694, 0.01834372218724851, 0.07179397915625653, 0.041135724159329146, 0.6390093813387372, 0.18064753498973718, -0.24459590610648724, -0.2371172526586373, 0.23105294690058703, -0.07946217138438666, -0.07159288455681535, -0.1526060234537401, 0.41586649754646476, -0.006150158085509901, -0.18140510307436056, -0.2391019042479309, 0.01016789936357501, 0.06227123165555549, -0.19607786040588632, -0.02740157488751289, -0.1920498228272429, -0.035527160795093216, 0.11229831163719955, 0.28855958008669075, 0.0174583681964845], [-0.09378518732397736, -0.024898359673450166, -0.23656162803812003, -0.054966228992309546, 0.2381045411525612, 0.3186625008179713, -0.25479055936761774, -0.016103387193746543, 0.04722667801218378, -0.20848934822468648, 0.013614507112452006, -0.2875830511997137, 0.15777515679729945, 0.25429950166951937, -0.14570692652310996, -0.10537985737090358, -0.09898105881139119, -0.002873833169050674, -0.31472062770164644, -0.09785638546903032, 0.47572140901739707, 0.002110182810532351, 0.17672190517592576, -0.09584414355833339, -0.21130511232732935, -0.1795207593662998, -0.5562792308786628, 0.04533788155817332, 0.01742562952214765, -0.3165782053939286, -0.30576190233496003, -0.2934355429174678, 0.047777966550931056, -0.07900687329404912, -0.08247583742884607, 0.36768055833206187, 0.24623583442914168, -0.018025361408411, -0.23901512805516012, -0.0689724930729349, -0.2050351273634459, 0.0861839918204637, 0.3468223617371878, 0.2501890714224828, 0.2681558291537202, -0.030651766740386714, 0.07613249539805711, 0.08307761132766114, -0.23856515098162293, -0.0850070539960127, 0.10696633095466324, -0.042686506531040454, -0.07724799456602502, 0.21787513094691224, 0.31786171950930964, -0.20841272521886212, -0.10764814797914772, 0.11496494878234087, -0.25281406199364204, -0.17906862699943477, 0.023239895886659707, 0.16375087107339859, -0.003103619130939851, -0.09858311507213474], [0.06679824210261326, 0.1709209367411021, 0.19687815400395392, -0.4781373269958831, -0.35858181476967427, 0.0891155409778475, 0.16634586566639953, -0.20933474785419123, 0.08972559273620105, -0.24047494492216714, -0.10128001860280217, 0.13066511436455575, -0.45593895016112657, 0.0013063438334693458, 0.01760283946228418, 0.01715452317947331, -0.05822520325820051, 0.1979928751835152, 0.40007971517992924, 0.3517593132613128, -0.38961137051608336, -0.17467254116948094, -0.13372669372839693, -0.02251435688351851, -0.11187932133269939, 0.13440799379178955, 0.21977435630479544, 0.27882462274363545, -0.016166037257069107, 0.013633165892058681, -0.07056255962421411, -0.04292919089845444, 0.12350275845670203, 0.04018333588099118, 0.23549241070106627, 0.23247256764054133, -0.2212726181267653, 0.07249870374409963, -0.020547083404303404, -0.020703231362964036, -0.14122279865305343, -0.04600925986892267, 0.34289193066611257, 0.1882140994045097, 0.22772014519517164, 0.12200978270440027, -0.05514388359311402, -0.22284277473115455, -0.020939484817556094, -0.09631824312462448, 0.19677771715991058, -0.10512793494328684, -0.24483302734901422, 0.042367798679648315, -0.3130827902413303, 0.02975711500230885, -0.2982588464688694, -0.05895517613648769, -0.151776598668717, -0.034501091517230686, 0.1491714610300182, -0.05068353182904713, -0.18288115957385728, 0.11968489445512151], [0.0019894972283149848, 0.023484582778405327, 0.05070633871272003, -0.1302311700098436, 0.15463664195722537, 0.1448248241634266, 0.1710731762714677, -0.052505079770344215, -0.1095967092416299, 0.049941315904881274, 0.13804276977684413, 0.22437560318467212, 0.027796492821858393, 0.20269749055959635, 0.14389232316929587, -0.012780974158170234, -0.028038447710516216, 0.13977151888961517, -0.14829919258543567, -0.47489982358169774, -0.22188333270117844, -0.4506123140034334, -0.1340103166329361, 0.02696732890851489, 0.0010334785857435995, -0.02278586936703682, -0.25974983945027613, -0.18996233502763002, -0.09166407631849076, -0.4360368882418284, -0.36447220996262214, -0.059594135756118986, -0.01132955528127444, 0.03854253660496845, -0.060912530140962595, 0.07201165505209203, 0.02273030751794344, -0.28697935343511494, -0.09063865794963227, 0.01491594853856193, -0.12149726107670514, -0.08667191099543686, -0.000987513795745227, 0.0029254105118277545, -0.03518895968424054, 0.3752845628705524, 0.4597525353688888, 0.14611615373419762, 0.006710373855939803, -0.0897163151680999, 0.03291920499247266, 0.2587023744938615, 0.15585055883916368, 0.40079967049157866, 0.28623760401380266, -0.05555058258482044, 0.1109116950962009, 0.10036042493477809, 0.10501032326798274, 0.12068358628605001, -0.10830326581140629, -0.10471866660471878, -0.10718320823533109, -0.22574366841766902], [-0.029291172442791447, 0.1536619353677004, 0.23430519562747062, -0.04674385465751545, 0.30079063161125513, 0.2724185831563668, 0.07637460570455336, 0.039334646277442445, -0.11510703571888384, 0.1649046999811695, 0.4289518297292521, 0.24935287505931514, 0.25689277388960874, -0.09055900712242025, 0.13619491793410948, -0.058093649934484265, -0.05090342156873317, -0.0672047033658523, -0.37821972382999863, -0.5954397111910684, -0.25655505404208295, -0.39410429479091946, 0.04268970782487326, 0.08371136977712523, -0.25737364267654667, -0.2350483953434663, -0.4591269658459144, -0.35330700746083454, -0.1414273401529279, 0.04582561877303415, -0.09301333840698063, -0.2813928020822522, 0.11377810418787018, 0.05725555444135328, -0.33648028230852445, 0.2875670998364206, 0.16406205369070176, 0.02960804155682045, -0.039108750487662144, -0.0007985468617514313, -0.11418686468849808, 0.07945190641679817, -0.126730886043375, 0.010806005235589514, -0.029399676973170426, -0.0551171099917091, 0.08424641810431524, -0.1562419481331913, -0.06576566106232098, -0.06852764517214027, 0.33523682385671005, 0.12873898475117165, -0.008363280664148263, -0.03695415790798169, 0.1385385319567615, -0.012089398254770853, -0.24692120840480988, 0.2237771589570143, 0.2051916534559956, -0.07174796229942637, -0.21985992088961814, -0.16347092202334548, 0.07130300778005794, 0.05622117180509554], [0.0987879910279757, 0.23298705206402015, 0.031251307154776926, 0.292044657122165, 0.09285974706698132, -0.06075328031996537, 0.04069687555198033, 0.008065646915293762, -0.10115768254345678, 0.057590407824136464, 0.05067465639249918, 0.014074431833306625, 0.2593298849074087, -0.03463526978521351, 0.03728353022929105, 0.0647643490076978, -0.003981120573606211, -0.25595217318421815, -0.34649781134734087, -0.5072873114907503, -0.11976621873983405, -0.10630656037359303, 0.17228740906031265, 0.09968932762430363, -0.09745940105167007, 0.05364332841510719, -0.37906116087527386, -0.3446578021531855, 0.0681524428010296, 0.26585956230483526, 0.00883171631823548, -0.10206194110846513, -0.09312376984072929, 0.2289964850399068, -0.1389794376718724, -0.04191056887474671, -0.2515798698739258, -0.08028057987896191, 0.2684679961134166, 0.08877864667203836, -0.10338514214522482, 0.1905070381572938, -0.04651446207745676, -0.08351804911250468, -0.5518934587398606, -0.07873970160118626, 0.047317267171710614, 0.13043492789110905, -0.15136382412022156, -0.10210573369678841, 0.09091540217320014, 0.2972614813156507, 0.025064613100022906, 0.2309094943959717, 0.3833139028897816, -0.19140695080857228, 0.12214247185803113, 0.08111006665312841, 0.25885067441560644, 0.14059015817728857, -0.19146374365691354, 0.15622178925704772, 0.36433194157288395, 0.08659767962888874], [-0.04028287090159463, 0.004847110783876301, 0.16792997749723412, -0.39002181340731384, -0.32060292292839515, -0.03953394445908299, -0.3940275669686342, -0.24833279884640244, 0.030774812902115912, -0.07150935727395023, -0.12395089035542937, -0.17357973957603304, -0.2998661720746469, -0.09243568673132609, -0.0485587447302613, -0.3089186432776572, 0.0021727958849138682, 0.05008307963156447, 0.3722241246292679, 0.2143994261987724, -0.3084232306045779, -0.19801406040323818, 0.021754673809212102, -0.18874910301765951, -0.12156762043693033, -0.0041287729137312, -0.0005009112605101495, 0.16212914175233334, -0.4585250497877834, -0.06767541987871449, 0.034137703355678034, -0.07514797390915622, -0.08629124481891054, -0.022332789577510608, 0.12548771095994565, 0.20091501019592825, 0.07790183614480632, -0.062237074150810916, -0.30036335825979976, -0.11875861881005811, -0.2992941290307014, 0.12169894392710405, 0.45067025958797874, 0.6011050354832767, 0.12189508233618133, -0.06658911134141443, 0.02719551510331559, -0.10446888352533747, -0.07774164130737252, 0.030997872087355067, 0.16471271574492508, 0.3003831629844975, 0.23471452523487693, 0.30913978945815446, 0.039082960850622656, 0.02788462585634992, -0.07446395604643775, -0.0004012872172215542, -0.2738377920262573, 0.07535864699322939, 0.23998075791702134, -0.0034750165026299967, -0.049290469655236056, 0.21069850145590213], [0.014665052260247252, -0.14053584507498423, 0.017312419970061527, 0.178698190699892, 0.12492391660523434, -0.25584610991126916, -0.24460564130934925, 0.02969982408739225, 0.047858624519111465, 0.1962027990562794, 0.21766134629533102, 0.16867826937938596, -0.11688503462692935, 0.18258348394900287, 0.2316451063208194, 0.10913911416733998, 0.03099146601414477, -0.11078823484763635, 0.015501765341560166, -0.31249178227553975, 0.048877380037788506, 0.6724051369130024, 0.4400091532563447, 0.021751962543393736, -0.1232334499812288, -0.028706101560470154, -0.11415792047230564, 0.12892066429143395, -0.13013781302562907, 0.06364680493657959, 0.24634749955374857, -0.05842463802070159, -0.11803462516140367, -0.293946896517682, -0.10351708797888831, 0.2650666834702473, -0.0909817345028503, -0.30968937903280425, -0.47227227709470426, 0.09324722285971931, -0.1327103476765469, -0.04647304628167145, -0.07253406969934857, -0.10285765924352654, -0.1608438273915931, -0.13887744620962436, -0.13742446695645613, 0.008856348628125678, -0.08242012026863374, 0.09838799364223079, -0.057479100482646414, -0.17106446598373107, -0.2491911337237123, 0.018283732850129786, 0.29163925522857836, -0.05848682764395982, 0.03581995271243828, 0.031414060761800956, 0.08171956805460713, -0.08567144402068345, -0.014873751049217813, -0.08455034581862665, 0.06853660407268503, -0.02548859052014046], [-0.0029593682535038746, 0.039843716665392784, -0.3289785076110454, -0.1681549090953901, 0.09775911867376422, 0.026021507873465095, 0.05586778926856835, 0.013073926500185611, 0.01088174278441644, -0.12736813323914206, -0.23509806041865333, -0.08340778420169966, -0.15914653596634915, -0.056232566793907146, -0.16276990739021002, 0.1390286987600892, -0.0035709352524757377, 0.1136644044636414, -0.08660261164358078, -0.09539294406300754, -0.12543972348341964, -0.104812986323201, -0.15176331965443177, 0.30016723914062565, 0.2670800877965707, 0.18467194074697266, -0.11196956157185267, -0.4551065484211847, -0.10225449563348911, -0.24090882573721592, 0.18383532657264856, 0.16262296046265856, 0.10947843162099608, 0.17923232852340631, -0.09337240169919428, -0.2415507019538108, 0.09141166202213626, 0.27214272720725424, 0.40057540335451186, 0.027508515801724337, 0.1673729965356623, -0.04179262107650775, -0.41170192130274225, -0.6710481901429349, -0.04504905993124784, 0.32748627620272835, 0.10901878236553703, 0.0699366744700415, 0.05197823201906697, 0.08211480656807824, 0.14474566686942314, -0.6536044171625844, 0.39826316238475923, 0.14022816094967686, -0.03540622931287467, -0.11149655714718418, -0.040499325836044174, 0.03292591282858785, 0.2623175029318678, -0.07274616949576544, 0.14981311850452525, 0.07980296602796501, -0.09323801970897926, -0.03669510021763077], [-0.08793886871456524, 0.3166534608988216, 0.3522516664343525, 0.2595661808057734, 0.014452675074206667, 0.22610570950460573, 0.3577734406038507, -0.015725959534276038, 0.160711106251527, -0.1563208921391896, 0.024841492328497815, 0.18511284592978652, -0.007201095759233275, 0.04612814220533267, 0.0363970774007365, 0.06468989922444109, 0.06696803599976342, 0.06832254982381922, -0.2128636383285715, 0.15269840807485235, -0.4446810835274686, -0.3909719067507325, -0.10601517335838917, 0.08239405574581157, -0.006259327336212808, -0.18143641474433408, 0.17363316938370546, 0.2643848095383817, -0.07612576281541239, 0.12465928288580369, -0.20824788348949774, -0.05185277334817712, -0.018388198464244054, 0.08674891151288368, 0.47148714229298855, 0.2909291674431945, -0.2692983497110477, -0.13998695340529055, 0.14606548368553102, -0.01946843115686983, -0.08164421229424963, -0.30171356758273093, 0.5667248151630347, 0.07142814574469149, -0.18851472406912725, -0.07163592665531178, 0.06929174412250513, 0.011527012278225248, -0.0043517808799609856, -0.15895742815316363, 0.41797801046978567, 0.11630180384616053, -0.19081710707120025, -0.02321104025321304, -0.006117001132929148, 0.031105406543377675, -0.0037660321917336254, 0.09186799882401736, -0.00995393744139347, 0.39052638166083586, -0.09727690890136817, 0.048026111986897414, 0.14914166356621988, 0.17672476910671522], [-0.12180114652283172, 0.0742008714508315, 0.006630157964584831, -0.02614257041466536, 0.32717125713946066, -0.24752631187967178, 0.08994223342561428, 0.058124556503386306, -0.017787091154319222, -0.35206959483743017, 0.04241070017092438, 0.22488811259576755, -0.14864388583036495, 0.047424500836843624, 0.30382480353801755, 0.3371277161942301, -0.055208180952694266, -0.3475916187876989, 0.09079517157721098, -0.10376789652916958, -0.33907108201802705, 0.0208140857676007, -0.29117077018093845, -0.029550982380439676, -0.233693498739842, -0.025363720014133877, 0.12278706880401238, 0.3158359126290447, -0.03704342901410026, -0.09436973274258482, -0.30120736101816464, -0.20138698735517488, 0.008098908942055422, -0.14495116849249728, 0.07085970795924895, 0.24156839129597152, -0.3350665379737582, 0.10410062246114381, 0.19013148033347732, 0.010370643752104752, -0.24104775172227988, -0.32638722223349187, 0.0052388333261205065, -0.5109805122322748, 0.022001452446622147, 0.1413214882067886, 0.2464029309238258, 0.15917768715253547, -0.2617135415550879, -0.05500986377734461, -0.0071399336235268805, -0.06607075281486743, -0.12390351020792288, 0.11646675687052686, 0.18635488166540415, -0.271214681443287, -0.1414187418709272, -0.14774029841658193, 0.037609964423847356, 0.09995196489995004, 0.07908382903468748, 0.04083820819928639, -0.04890282919402903, -0.29796148368406467], [-0.11073307534875404, 0.2551941388668376, 0.37039801752391627, -0.04989308484556713, 0.0717090639200422, 0.31044128218970907, 0.027619130165987892, -0.05436685244156255, 0.07365861935032693, 0.019579308324351324, 0.3171190114412644, 0.45546579058518705, 0.22896030668322115, 0.004131061427906351, -0.09511843957121836, 0.034296816547451474, -0.06893788626872487, -0.12068859490433802, 0.24743121974137802, 0.02506343067497124, -0.497006575554183, -0.126335621929377, -0.058998257426485616, -0.04308452194063522, -0.21720464543099285, -0.08624566393933868, 0.22029592664698558, 0.07257453636420699, -0.3757546119962013, 0.09870972014589438, -0.0916799956905977, -0.2477408707457627, 0.0024781423716113415, -0.013029246397036866, 0.14319521446243033, 0.004337751630336994, -0.2713603278043519, -0.23232458468427047, -0.16704139129204182, 0.018477859191209756, -0.18506318852998704, -0.3155914666694802, 0.37638866202185345, 0.065333061256011, -0.12016850636324353, 0.039241128515668404, 0.10812263123083254, -0.21110257138302177, -0.052896360966895116, -0.3044588990260657, 0.21985143476174765, -0.18720777835370844, -0.1920733588503042, 0.09778728749831564, -0.1321229947520629, -0.18105186305803667, -0.005906277934368624, 0.07823637467234734, -0.018746560170956977, 0.11752212057544652, -0.05133432467150046, -0.0032980530746435557, -0.06791064560719229, -0.2003097959486931], [0.0286715420539026, -0.07698208365273493, -0.2667726705670117, -0.02333221913998417, 0.02821382048250661, -0.11068452627441981, -0.19977244316803808, -0.03289558201759144, -0.03836578402979482, 0.003403081278409743, -0.23209880551661213, -0.20187507642363842, 0.40228530220908115, -0.2685807423729218, -0.10403108109004712, -0.2728386866156517, 0.022352852098525125, 0.05386309049898707, -0.4044758231955405, -0.0017340262632186305, 0.4989897853514386, -0.207621281291751, 0.2690464593596863, 0.04487334451368242, -0.21078484636760028, -0.11813688302976809, -0.5325965567619788, 0.03388135787435714, 0.08826743604978604, -0.20181312252428898, -0.1029341091278849, 0.08715152566442544, -0.010890887048018688, -0.05499248035906653, 0.01585182978125568, 0.20258578698508012, 0.17193977933132962, -0.0849361445463804, -0.12826918168064042, -0.06607782543225452, 0.02177700029066927, 0.3516161465325314, 0.002879324064928846, 0.17583334362991904, 0.15684885907756027, 0.011182873025729978, 0.08543558097747089, -0.20520777403133858, 0.07151676517600812, 0.05468684946671902, -0.11735318228520274, -0.22744612715599685, 0.11425246780050788, -0.09923599010275246, 0.3411092817075145, 0.010587987886398977, -0.03490147310791954, 0.20344811287803496, -0.1031505717721606, -0.25254713659631034, 0.09649448969052093, -0.015386833203191142, 0.4363875621653595, 0.36572656644924006], [0.07108428288618301, 0.2090779658347591, -0.004100383461429463, 0.07718581144093668, -0.21747733612819073, 0.18152917668866614, 0.02923589483258545, 0.2347394065485208, 0.08075326060412226, 0.17493718110717146, -0.16232937438318468, -0.10490781764278359, 0.14746758416025216, -0.22912828434435384, -0.21114339480994254, 0.03786295103610881, -0.07376486079334936, -0.0459992007906152, -0.31034302727154484, 0.0868849310924851, 0.11710031684199163, -0.30509279070455264, -0.11985769076359008, 0.1828822686646085, 0.22384176882010626, 0.057952844538403214, 0.20915362098430598, 0.015990366874131256, 0.24812530856291184, -0.0650968453122451, -0.0028202100480767627, 0.3131294494774635, -0.11898226405616197, 0.10147625773415833, 0.19140002837170447, -0.07769157133504562, 0.515327831029892, 0.305602045316138, 0.18538051600112052, -0.04921771474244119, 0.2677092583611028, 0.08543311024155804, -0.12823949561740325, 0.21900394453331687, 0.04367815821393487, -0.15616157346017015, -0.07324462920711153, 0.03114147774784729, 0.21537801136122411, -0.122187745514066, -0.33022355283946, 0.4323989940823312, 0.21553727448922808, -0.1657764762926241, -0.47980052602100315, 0.22629101974917656, 0.3789246474545689, 0.18223434677201417, 0.20922335132679465, 0.06801861149272478, -0.19928012123851202, -0.12330548928203568, -0.05060175012482997, 0.3181796073717814], [-0.10239724057556746, 0.0009147918402812884, -0.06021076547963521, 0.30018588137807817, 0.04594544522686925, -0.05748463503331702, 0.09106599825755249, 0.09446460613647761, 0.06578473112914636, -0.2017948805744147, 0.1439415861466515, 0.0014764273729471738, 0.1928710631770545, -0.0329116457459017, -0.088299998231264, -0.02964599155923569, 0.060022435206054985, -0.11621360446197647, 0.12103895910589291, 0.13359144763945507, 0.1698927342276772, 0.667552011067048, -0.043952625342471824, 0.02855700269869385, 0.04470751409961771, 0.05139346670170439, 0.24953258719284677, 0.06011775886734996, -0.14158760093705233, 0.28573783529067187, 0.3680586233027859, 0.02985445403079898, 0.0873647140466649, -0.18119132163559115, 0.21284067958657335, -0.043975481719179255, -0.1711257222863282, 0.10027215959511206, -0.16053851093430127, 0.08277652335608707, 0.008999293494308992, -0.037736349188596675, 0.21952538349165882, -0.22028145227971552, -0.2560238741014501, -0.13194997628335786, -0.19847435087383436, -0.033753529999455655, 0.058455455651385414, 0.15993203287601596, 0.002986933232087306, -0.042384250169061756, -0.25730125709264035, -0.45813849962304204, -0.17343693702433527, 0.17598386271152724, -0.031208166864234988, -0.2632918331264747, 0.06268859244445908, -0.007908350537522401, -0.21708797409082525, -0.08282370265429675, -0.11925163055869216, -0.14969653392054483], [-0.06426135686337278, 0.09753128199398532, 0.10485371806743246, -0.08415626350935804, -0.4058924569202156, 0.03626635693893517, 0.4948195307643499, 0.07731116477234581, -0.04864288231061725, -0.2761091717867037, -0.1282036773392552, -0.04913414779231397, 0.015838971812896892, -0.16933076534299718, -0.04556581215803099, 0.024718284304198822, -0.15672926656893799, -0.1274141035815693, 0.021573231591120824, 0.1495984360393199, 0.11758311146514298, -0.3881022037702303, -0.1267637527368314, -0.17220419159897646, 0.014923940153589945, 0.14405596830983322, 0.13556850217071445, 0.023603784096632958, 0.19291770866780472, -0.1685878925703091, 0.13496420344951615, -0.11999808232968534, 0.09301650250509436, 0.16388753954207194, 0.30183688758646643, 0.16259311017270583, 0.3907276998351406, 0.10447396522408298, 0.25193090697214693, -0.03089690241885018, -0.0002892983185347278, -0.12840399920018572, -0.3219688820763195, 0.090475936705791, 0.42052702369870476, 0.12075340122908171, -0.11845943819277738, -0.3379649551578911, -0.18552528467197643, 0.039183486526694275, -0.16900771975884046, -0.17873235508088497, -0.10742523659857417, -0.1926860194096662, -0.1582767751492708, 0.14158450149093713, -0.2526372285377092, -0.11867851975721802, 0.01661744673928616, -0.24766275565067056, 0.0052132963682372645, -0.19916575476458664, -0.2771041652650443, 0.0135087306511218], [-0.01835996782154717, -0.04529892305067239, 0.14953210520858237, -0.19985297437929292, 0.1478096336285481, 0.34307133091728687, -0.3228457559367463, -0.22222866513276515, 0.02961756050201756, 0.021648209595411208, 0.24611175579426056, -0.07297878533827325, 0.0025522750922281324, 0.17040355273371444, -0.03764972572739468, -0.11960352194948526, 0.040214090613927084, 0.0707193393318919, -0.060029995824322106, 0.08061922056752682, 0.23568281046862785, -0.21934225895051127, -0.08942776844599827, -0.16177654854932702, 0.003943778481884186, -0.08371500710450573, -0.24064076097066833, 0.1481768636471305, -0.05143294280408437, -0.10919516108517084, -0.29120536680774484, -0.03982594998889868, -0.11640078639642046, -0.11730974672288837, -0.16425105062086262, -0.09579666844598297, -0.11590585214919084, -0.3049240448902954, -0.591643230833152, -0.05500594106488127, -0.08353098327943612, -0.28530754407584613, -0.10092050456159245, -0.09898356472633962, 0.15312549075870616, -0.08607025964051303, -0.16078454473264225, -0.20838206397816514, -0.053497370233103865, 0.17459215447514514, 0.1449335983398704, -0.25699300776307715, 0.1714157930184905, 0.5050620123400084, 0.2366603899264845, 0.1304229330765595, -0.018016007683257985, 0.19033299358507746, -0.049711558214885807, 0.17989167855744773, 0.24430428575298932, 0.5609071114652502, 0.15429972778026244, 0.1059257821862383], [0.0704483373735024, -0.09701572161686199, 0.03772518725848322, -0.28960019641457246, -0.22156038383322008, 0.44783709232832186, 0.5201406222009789, -0.22863158673321246, -0.02440790512590466, 0.05880431276502704, 0.0034517245562325598, -0.13358995309226582, 0.04438572040520579, -0.009814716100994018, 0.16950827828825138, -0.07897161213543, 0.07231472844200373, 0.3130743576243773, 0.14519071294027927, 0.02399734462505922, 0.09896340235259918, 0.03509617650637405, -0.024772486170622166, -0.045207693862019734, -0.1321004723778837, -0.047457031103927114, 0.24486199864647257, 0.20163789781289576, 0.39574012227210564, -0.05633754243545751, 0.016166317495604713, -0.09352792400426153, -0.02934764634237491, -0.02429845091610516, 0.008894559224433583, 0.29543061159034406, 0.6002888874802407, 0.10832788379725806, -0.3238542598701379, 0.060284173237708405, -0.0010938365828379233, 0.232849235705288, -0.001329114235503271, 0.4093509054188354, 0.16522091303181266, -0.12293460488947872, -0.32184492770042855, -0.37985148279656067, 0.05299942641608935, 0.054009297665465555, -0.31971843014927637, -0.16552438559852203, -0.20398419251006977, -0.43020700812169466, -0.2514466730500403, 0.300223273330936, -0.20435430576705427, 0.15170136989003674, -0.24070540587285152, -0.18280767911144635, -0.27277093487075954, -0.36748305615528626, -0.2137174268928249, 0.3327890605280699], [0.11252760260744515, 0.24714632468752432, -0.11799662006408168, 0.06319254228030995, 0.0603276532648968, 0.05772798611736468, 0.08118638270170063, 0.038462235895878834, -0.06162449348321704, 0.07695405120213164, -0.11179380099236025, 0.011213354671074562, 0.6555220016652634, -0.125241855949375, -0.030139996803823923, -0.06537916427298848, 0.07256588793883051, 0.03426890679962027, -0.32366256590072773, -0.07899148633661186, 0.1453425394112966, 0.16756197103525317, 0.12064128286024252, 0.16332401160857035, 0.27277115834477395, 0.02005635793383233, -0.26190462931428765, -0.3907803419391577, -0.14858635871445833, 0.09867925975483446, 0.2752890802213311, 0.24348121476409612, 0.08910865692380895, 0.1907234640092173, 0.09152738622643898, -0.3583400491566357, 0.1726301139891306, 0.3922479114446034, 0.20548491154905557, -0.09444491831612617, 0.27435874568110236, 0.25960166326337236, 0.21721454682626892, 0.24212704823901968, 0.08656182402480922, 0.09038114110019509, 0.026723625376027568, 0.034239779013017675, 0.10417078303706861, 0.0702016262482057, -0.046143134493392184, 0.1831470529387375, 0.024752366788498056, -0.1263695785089757, -0.32570827230005134, -0.10522363316143861, 0.2078664687735534, -0.05047285242510834, -0.11730406564601879, -0.06579891647027239, -0.1606249384176806, -0.26832511336635034, -0.10353330164204896, -0.18001231322621858], [-0.021021617911341856, 0.19883128326854277, 0.0060445601018559655, -1.9337633900891235e-05, 0.0748418244630956, 0.6242433328677351, 0.5629340577833467, -0.2169483114512627, 0.06798724383335845, -0.37911361052805875, -0.12741166913483432, 0.11874050043874104, 0.07488103816505293, 0.11670931139926631, 0.036896839714289004, -0.11155302986511412, -0.0299483475911498, 0.022225961913358353, -0.06592161484048044, 0.1282912249072933, -0.17070022367041182, -0.3961812534680478, -0.065124365642912, -0.1272918241406297, 0.09553484743141476, -0.16136761807818456, -0.023475739375737593, 0.22530351210483793, 0.3729483573217446, -0.2021102585619419, -0.37859767699243596, -0.25202315925729085, -0.07869535826395319, 0.05546272008633131, 0.13950588081720947, -0.07633524694652924, 0.21774595154610313, 0.1594506456350661, 0.037755025919274446, -0.11153295005116154, -0.28088993835133697, -0.2801207358295654, -0.0637611978807107, -0.16407433589638593, 0.10097563011582812, 0.18577087550145846, 0.12244514047112848, -0.07229376180656713, -0.24840749116987776, -0.40136137560261725, 0.041407979224636966, -0.008861771886399257, -0.09607368028461565, -0.1392988573931153, -0.11167437494835718, 0.04431501058781526, -0.2185126064740167, 0.14712050581157837, 0.08786394578235417, -0.0004331674081362823, 0.05514870296460725, 0.07756270639707313, -0.09328066431850018, 0.060660103076450395], [0.016101240373951248, -0.039803404461738405, 0.22667202065047545, 0.25586266173254296, -0.4305897165012785, 0.2226741092070106, 0.0005311770230561544, -0.06312580300134633, -0.14590689648944624, -0.1162988717366044, 0.3014205186304714, 0.0700757706358349, 0.2752366750094219, 0.5348162479133667, 0.1195091973116508, 0.00024230023920503995, -0.3833787797995661, 0.11488865681709855, -0.06569425935693708, 0.057654116306704244, 0.6834543846250676, 0.44672404938750204, 0.5591509400385047, -0.12724089243839992, -0.48080043188326793, -0.22972463513428212, -0.36234857716473207, 0.0892517708468611, 0.560840124805769, 0.1305824400504481, -0.38771618284810316, -0.7249466730705417, 0.020198239374692423, -0.30491396357891465, -0.2746795191259728, 0.3858634314849895, 0.30577918887672434, -0.1626353549795798, -0.4842203405473267, -0.005777734838796733, -0.561724300630695, -0.2901696783836491, -0.24486770645838404, -0.01665786296241822, -0.07934027489259463, -0.14784616849172488, -0.35085860698100513, -0.6155804474289964, -0.3752940132631539, -0.020378207533130688, -0.09175859584797712, -0.04019845002777302, -0.29343680393465743, -0.12647456474337895, -0.06825584061525633, 0.26491736690079054, -0.1617539862070802, -0.21330933620536016, 0.01388946745171317, 0.03463084261086099, -0.014461397371127586, -0.026777061998049023, -0.03436136737232431, 0.22678154422765734], [0.008248831469920836, -0.005479835017742363, 0.16709670557603834, 0.00469248787174337, 0.047418757062390425, 0.5374330328377495, 0.4516497329053455, -0.3542854174241005, -0.10900884821223494, -0.10751412581334961, 0.3216238530070122, -0.33735770285900807, 0.05089523075993826, 0.17185814642040315, 0.04206647633687813, -0.2314059839241904, 0.10392561318776657, 0.3118591575749395, 0.14463650650359358, 0.19908993590880744, 0.2711335236455271, -0.22031549420878382, -0.21099213201753453, -0.16695068339836536, -0.1227237299506972, -0.08793721395343661, 0.1535635982307818, 0.2276450198447033, 0.46071818573382195, -0.2585502330004265, -0.37104085613030413, -0.20699521029503312, 0.06599086266344661, -0.34086860290774457, -0.16050450673430983, -0.0631382448698505, 0.3940100854592418, -0.021135819387527316, -0.2850002049995308, 0.08418203382423362, -0.15034642505471313, -0.1324997661534147, -0.1940966583664826, -0.0749979199203941, 0.05133355925146219, 0.0689203560810904, -0.1976992993435524, -0.3927671443390163, -0.22028500605765328, -0.2291963926685689, -0.1981637984956599, -0.2689198475718797, -0.1680456487236819, -0.15441389475742315, -0.04812994822260444, 0.15650046146921898, -0.02968808184684079, 0.04437383192177666, 0.06835504630748203, 0.37153050537043003, -0.08785453454697781, -0.005717745182377408, 0.07679047496291844, 0.025813397280757988], [0.013259962535624059, 0.011755225636584734, 0.09671777209499222, 0.30637724867417826, -0.10932668789411247, 0.18601561542146194, -0.1400737386171311, 0.0613649044628985, -0.1648298659683108, 0.06724781875949035, 0.10555231434215681, -0.24727213814050636, 0.045917353270112225, 0.125818469414554, 0.0737218056376263, -6.200551585743647e-05, -0.01204297737413088, 0.11264026440268898, -0.08184063028562456, 0.001399627553010126, 0.41628884426138535, 0.434070674443188, 0.48415060705466606, -0.2155237813235489, -0.06394598492288285, 0.06551438155440717, -0.11524037862153122, 0.090283767423106, 0.3167690683340455, 0.38700169235437254, 0.16511226606968302, -0.04940195542788644, -0.025141163146022272, -0.4158834397765475, -0.22333259782494996, 0.3344385036845475, 0.2171940361794304, -0.2633825479537353, -0.5277257721208346, -0.12315404073780575, -0.23432257960386718, -0.1607319240489529, -0.173305457286625, 0.317222036884241, -0.09075567002117886, -0.3307255245074245, -0.4086971175790877, -0.13386611028793702, -0.04920452650035618, -0.014642963307985509, -0.22572498661439874, -0.00461665217465379, -0.16178398919676185, -0.0078015212003105785, -0.006655230242794222, 0.1420599181053315, 0.011870413231616158, 0.00427753572461656, 0.08813600057934783, 0.013458522786378659, -0.07336370791847209, 0.10451977333957352, 0.17968794085533327, 0.08308125378926988], [-0.06695053572729759, -0.010478368541106153, 0.01677856201698882, -0.24455698015289434, -0.027358587115755128, -0.04943502048703946, -0.05341476455853336, 0.02582228378687597, 0.08519166761048895, -0.12080619210827624, -0.0679612598092386, -0.06616245552324336, -0.488371676110319, 0.02878166476520733, -0.09958530704350095, 0.19160136554223153, -0.0023249884457623563, -0.12485470527940383, -0.1402748060547556, -0.1362422035704515, -0.10329883318108625, -0.5467823056245182, -0.5120433345938284, 0.008057255151093165, 0.0328375738444973, 0.007100452603351768, 0.11530543100111901, -0.04752856984364564, 0.13793142125376123, -0.4341877182010482, -0.28329667794775804, 0.08832661889202241, -0.09679789701250721, 0.24960791824332515, 0.02582748771871446, -0.09113333160898723, 0.18479799942697492, -0.011048252862697748, 0.36802177178543855, -0.0520952735370363, 0.09741532239669223, 0.07987113871715032, -0.28302715434547887, -0.2272400055628135, 0.33677159774309373, 0.24380104386307655, 0.3781426517976879, 0.08486444376555, 0.036415626023393835, -0.053939355350026225, -0.12362602680092444, 0.045620952829697234, -0.0710840477535467, -0.007721877063956911, 0.08425968673718694, -0.26585798079964157, 0.11680598960701034, 0.12059215537352526, 0.332569124110195, -0.06286108345028642, -0.10953015721558461, -0.13270340320842244, -0.2751648072147251, -0.3433492481749615], [0.013604628535776792, 0.004249942083615928, -0.06758686111899855, 0.027564502408141185, 0.0070608060409899955, 0.0019985656042704157, -0.1597411387626276, -0.018092199007083642, -0.051015465726983684, -0.13629132052129775, 0.07475668706962349, 0.05625404216189795, -0.31949892364145677, -0.09565278084431972, 0.12893554273123034, -0.04081937554374798, -0.22148031974802046, -0.0678287080596996, -0.10275957281567265, -0.31139932303650253, -0.33889368863580654, -0.2155715685743356, 0.03072099434225103, 0.020538965922066353, 0.0582682943409431, -0.14367260897346562, -0.1660861629269977, 0.09314849827456856, 0.1717239081914915, -0.030788878638494808, -0.07073533204503094, -0.14475936260005712, 0.11723286098675587, 0.07019207719622238, 0.08084134125674554, 0.5321140138267518, 0.4068934473170748, -0.0411248506101063, 0.15175075210626313, 0.041889035079199666, -0.235235185364664, 0.13072207814163916, 0.230639150628495, 0.06374898801684155, 0.43427237095579424, 0.47595637906550503, 0.423912741918046, 0.021419260023643548, -0.19949699761020365, -0.14073766997020032, 0.025035598907794263, -0.42801776476176956, -0.37430996561669133, 0.2786768857994302, 0.3301303686607286, -0.15263046054834448, -0.06573097689560535, 0.017512417549555178, -0.04977408198086089, -0.07366201565575115, -0.030724879922021966, -0.12784209009195674, -0.1451443600086295, -0.2986291678711507], [-0.10672614805077482, -0.09858320561137719, -0.2953153767582141, 0.15547575759077653, 0.012060808314203851, -0.08890138976571534, -0.2719629974720136, -0.03955597933492264, -0.008545840996036919, -0.14055366148230367, -0.1452148145606617, -0.314614546728796, 0.14067033757339667, 0.21239593571712537, -0.12875683307368022, -0.08114098800347253, -0.031960257243002464, 0.10989170897243346, 0.19116499785638827, 0.2388207429051247, 0.16357715900209246, 0.7612559638329381, 0.40136789772628645, 0.13951358366853717, 0.09823236611788702, -0.0055258447083696895, 0.13014514670589944, 0.0422531930520987, -0.2672249015890892, 0.1796702403176041, 0.4831802722762822, -0.06262207873808134, 0.026897105202523752, 0.09277515155645796, 0.05884085253248206, -0.07266204284050885, 0.13784560796455356, 0.11735162544602404, -0.1675059080434409, 0.07884205593457363, 0.006498922271267908, 0.05198829631281604, 0.1448902560953104, 0.1593684745119779, 0.019356630171404515, -0.17230910486513937, 0.024660118260328334, -0.0016392558100186516, 0.07060285051057572, 0.12429581675799886, 0.03042299515295844, -0.08305558219220795, -0.3340392533874828, -0.35535569203010026, -0.22495634217465876, -0.14699659660838812, -0.08963146690322016, 0.05569164701757622, -0.516487460588909, -0.03804129442605843, 0.007877234410516382, -0.12559978737165378, -0.4375614107622433, -0.20493275877045428], [0.07068589598571001, 0.11198270798238699, -0.054944506534931055, 0.31848600372808145, 0.026981887908267447, 0.24099007239164916, -0.02932658351343997, 0.0152628386731415, -0.05305600431739838, -0.14225715408192507, -0.2662670769478762, -0.047707756326519614, -0.16490891636231544, 0.030558207308672886, -0.017164018069483627, -0.09241851566646943, 0.05721476060607406, 0.11696719042415069, -0.08245368994358752, 0.03621385214745483, -0.1352843311846524, 0.26207155111963676, 0.006850892358357466, -0.10167308377575177, 0.0633843294435759, 0.16054126119431714, 0.1394341525520694, 0.13199483112948052, -0.26948643355774404, -0.0769028375849626, -0.06647130693473643, -0.01597155992450785, 0.10060321451482207, -0.06892428506225651, -0.07349056794522427, -0.09951215785602961, -0.4169934970995807, 0.010492523712062374, 0.2111078290650006, -0.033607940509129214, 0.041880440444346204, -0.3663872968522079, -0.4289658035732474, -0.8142070432952635, -0.08205778629637214, 0.2703597053799494, 0.07025658244062015, 0.20844252282790912, 0.027025345892211255, -0.031314233931555996, -0.042476044214593084, -0.23773014090235475, 0.12554633100140924, 0.20942931244590882, 0.09549204394980886, 0.21791623209817537, 0.3085466624924692, 0.04955848122477432, 0.2577028947333472, 0.09689590472693783, -0.17857658506147286, 0.18886530304495633, 0.1411833473926772, -0.024137860974988854], [0.00800118267572078, -0.15881607460502944, 0.0805686095279925, -0.23945858981469764, -0.20386612811639054, -0.11058622115593707, 0.03422232476555803, -0.25183260097624977, 0.02545392844882318, -0.193908773412025, 0.08996937982484875, 0.03714305351474655, -0.5194917992517003, 0.10094401079383089, 0.08519106204562282, 0.020201887915550096, 0.039617092362856515, 0.030580610297507582, 0.5972718655479351, 0.20641964177024866, -0.31435393465949996, -0.055560474946332816, -0.0658391424277394, -0.09566617887642372, -0.0017675396468337975, 0.1556095963171649, 0.23888686766049455, 0.3998341656105541, -0.19441675340619644, -0.15931524776047035, 0.08083706480961957, 0.00591795464776472, -0.08435465275051438, -0.008101544738524154, 0.11373772641134032, 0.24641551131698497, -0.016397001046381327, -0.3017060790086744, -0.18159271717855532, 0.01128337069468352, -0.2031934760651093, 0.14627601732079892, 0.32079211819025943, 0.14284016824903287, -0.09924283457876543, 0.2476533414420721, -0.07978664999391312, -0.309138991284554, -0.3133084345452718, -0.09589815297796443, 0.2987861863466004, -0.005752625230681483, -0.21820929121945395, 0.09354936832248785, -0.19453390848377294, -0.36928788073099555, -0.3262288693029767, -0.17572685646357783, -0.09712949661789788, 0.15065358613575672, 0.06629226311586195, -0.03402651885933303, -0.12079911675422347, -0.35965449414784056], [0.10179548066616517, -0.05569709198924982, -0.3788333627368746, -0.015759100165632683, 0.23660369387344132, 0.055044527726049404, -0.2844278675439842, -0.11721091477765985, -0.09840851449477823, -0.09764594321366295, -0.34715115683895614, -0.27978051860449527, 0.11129828795683544, 0.23309003495746597, 0.03961600445596083, -0.2693891274269602, 0.13775960442884957, 0.1447423079525654, -0.19972274995646994, 0.11422336763997709, 0.2763405181335707, -0.03397291243806063, 0.26268848771141096, -0.14999765602287563, -0.08356476502966681, -0.13044468116659616, -0.508742117254118, 0.2563118450222838, -0.0891227959071893, -0.3220886432180983, -0.35981161107801973, -0.03647475916971265, -0.025611557869588825, -0.034091147639807834, -0.17868260779000444, 0.061791108899555795, 0.18524795720232526, -0.17649490638987958, -0.3745962706605229, -0.07241673779688679, -0.241369553699254, 0.05217399220396947, 0.23506730617071006, 0.19751265022549344, 0.002375881351942511, -0.05257101980224156, -0.054510550729179694, -0.21041306521842262, -0.03968136142999059, -0.03528392298278523, 0.37175567526880643, -0.05984556764813607, 0.4330397420277686, 0.43623325378944355, 0.26495804326026184, -0.07499522347352554, -0.04401040726035878, 0.05087198724121406, -0.16239330864957052, 0.10105402478849174, 0.13446196651372105, 0.24807347023990398, -0.007755720825710336, 0.1238876675769264], [0.07510190774592815, 0.24784969260949097, 0.044565822870292815, 0.04689627860817559, 0.12848637253140546, 0.0995505334022997, 0.10574769828961743, -0.015339054147977354, 0.01579882511991083, 0.2233293341330153, 0.15393221932309442, 0.2944030319976328, 0.3261933563330368, 0.04763405512144178, 0.09873363987917724, -0.03678512469085081, -0.00412806435012608, -0.13836348085763658, -0.507470991443205, -0.6592683845177089, -0.3152981844368994, -0.35490622736248667, 0.13104205560044954, 0.050933781720099255, -0.15081431491287006, -0.3250251690414033, -0.6392092819463617, -0.4907106193164878, -0.16202520695906644, -0.15815031405788327, 0.019144240916729654, -0.0649804726272948, -0.05845445302367247, 0.03018033487073541, -0.2633735334346701, 0.015615139018030657, 0.4638887156237601, -0.0012451397174254872, -0.21745913542230014, -0.017744556131893435, -0.10075384539455377, -0.28498519204538086, 0.06928262413579589, 0.30335134373276657, 0.11301777528512755, -0.1047678588665906, 0.02070944305769158, -0.006818182290222818, -0.13056210907944044, -0.08883438433309439, 0.23499226332709605, 0.10448958259460057, -0.026958323040285084, -0.0570242932548477, 0.06218906552364196, 0.023328398304752914, 0.0059316740362112515, 0.22251724996875766, 0.07617469694644859, -0.10453315037634654, -0.008791290481371583, -0.04856155166304838, 0.05963662528663234, -0.09604985431703668], [-0.046975516075732915, -0.0168158678535488, 0.06727514209097206, -0.4386295281647626, -0.3541508349747472, -0.24289456981347324, -0.17062516283579418, 0.0351487578897412, 0.08992385682834066, -0.08071643587995425, 0.005439758419556956, 0.15337468674149, -0.20713137538433055, 0.0333889471005832, -0.17657690729802988, 0.004216212227936776, -0.025041682222863765, -0.1223354024015465, 0.1644112855155841, -0.14783182051975138, -0.3402195921478693, -0.17334676349791095, -0.28735628009959385, -0.07132345744884622, -0.0968797572353383, 0.1871103649535717, -0.062386011886317205, -0.24859152983329347, -0.4309798593889053, -0.023358556265831956, 0.015921261012991808, 0.035210122247335565, -0.04203499043092371, 0.3243534929510415, 0.10439515892133565, -0.3643684348847937, -0.14684031545638251, -0.029731702062472685, 0.2610568153820368, 0.09102239359032796, -0.10145029481001025, 0.1544850792911916, 0.06821024261997981, 0.12374883379463181, 0.3766526975425594, 0.27334820658422115, 0.03802056229830332, -0.028418506584372772, -0.04357956747851903, 0.059240263232763435, 0.10000403789882416, -0.0714964481140666, 0.18359935133745153, -0.090207669961386, -0.1360894628883867, -0.15269958965085537, -0.08171110586003798, -0.1552358512378446, 0.010616940937493121, 0.1302977188138477, -0.21553729753994297, -0.33118824735707114, -0.3607331518287346, -0.37368930554273555], [-0.05109388521912847, -0.18219102658720912, -0.182978785626853, -0.1653590431979283, -0.18938251597059233, -0.18762283281537112, -0.3151779540996251, -0.14173500827307461, 0.04654605382180089, -0.12372850741432237, -0.3261969558489437, -0.2544323760814092, 0.09582992542599568, 0.009161888408596932, -0.10165850734369769, -0.14914926542583537, 0.03982337507038477, 0.09141520290620567, 0.31462070462156644, 0.1822320270674258, 0.2258894081103282, -0.18055362180747847, 0.12425722846718666, 0.028382665945283676, 0.04099343923510095, 0.043334391378378995, -0.06984436696948397, 0.2509569198302096, -0.4215364123182546, 0.13843836001114218, 0.02193099479035776, 0.023729066881268284, -0.10485744338552247, 0.1263207235855911, 0.12343702845674902, 0.056684230180479904, 0.07508427130581814, -0.0887856835312829, -0.10126411938193128, -0.08609390488600802, -0.06075278302744396, 0.32296982465769064, 0.5219524286098651, 0.5831570194049369, 0.39789875021527477, 0.1445105384079068, 0.17672330224910382, 0.05590507617569793, 5.9215671516454166e-05, 0.14403373763249108, 0.05099248335139938, 0.08830568074790414, 0.26456965547969047, 0.09738767826817342, 0.2067622334727593, -0.22683903543997058, 0.0008375811377433398, 0.15497687273543106, -0.4806664709764625, -0.16911782688425994, 0.13844494092307813, 0.05658632252898268, 0.1210847843628911, -0.04364514317982084], [0.026614133432011605, 0.13027983138512136, 0.06336554140720155, 0.09452083715063095, 0.09275148346251677, 0.01693804816878194, 0.367361176656662, 0.1312004745177271, -0.01178653649710317, -0.027240299757707816, -0.11483294967383494, 0.04421960608087551, 0.0059316096091429765, -0.27259222018971524, 0.09520860446277497, 0.25435751665662587, -0.05056209062757425, -0.06705897916228307, 0.12234141079875746, -0.05341030904707733, -0.5253286003581099, -0.6611792285574188, -0.10520321460507483, 0.09871682977606538, 0.3511777307686895, -0.039242613156348256, -0.09662389675923062, -0.29536787708878287, -0.2795956181362319, -0.10768893234978602, -0.08858983721967875, 0.14204525705920398, 0.11020275493686643, 0.01957175731741721, -0.07562243859251892, -0.08791317712035313, 0.0022901557915700555, -0.31330336281057036, 0.1772589552121011, 0.08435731438905794, 0.2055520069108927, -0.00601748021221346, 0.23261317906620624, 0.08701914817919332, -0.2525892399617398, -0.37946777772639123, -0.0808895930935808, 0.28011875014965226, 0.3238666252176827, -0.19429093421961555, -0.10194926830630442, 0.6499491240824288, 0.2723168044833898, 0.3254537343973324, 0.06621027026328416, -0.04362384597489612, 0.4114743071071839, 0.30232150119724804, 0.3282381973376647, 0.09796493273615944, -0.08948548123261556, 0.29899855912748474, 0.1230048369207975, 0.15482191851521623], [0.014095752969368824, -0.27586223982147073, -0.07126736217677701, 0.057466237767257795, -0.059221284138230856, -0.059748468467311494, -0.085973414684325, -0.0006460921387931196, -0.24443854669875723, -0.4722402735788737, -0.33343932553656047, -0.09381042468925002, -0.059208556617871215, -0.12650282458358483, 0.08382034535307617, -0.052247454295974646, -0.013220087855819731, -0.06837296114889033, 0.17786532371733738, 0.565377228045861, 0.09679804277880343, -0.010298792123287675, -0.03059683365775063, -0.2586345470664903, 0.04362168920169583, 0.1589586294511024, 0.3691954084946562, 0.6396316702621649, 0.2867273970030396, 0.29221388408565147, -0.14835116388187697, 0.02137529856031221, -0.04309705927400112, -0.030835066025611323, 0.16619603973389163, 0.30302573430298807, -0.0680237048529464, 0.2587016279026546, 0.2040779426702927, 0.027053462071500722, -0.37685862354446725, -0.29717241410761636, 0.06194553937696903, -0.37287008975094355, 0.18528481978235545, 0.19204624506655446, 0.3228823208117165, -0.11595436097048928, -0.3387615519270053, -0.11562290137871473, 0.0076933720465842985, -0.25861283954044906, -0.09218588885857677, 0.10676986263812942, 0.06569610422326833, -0.08770762547588073, -0.3254128147971973, -0.25372495621128094, -0.24649295839088783, -0.05405873820688333, 0.2713769756121004, 0.160407931091234, -0.10870534797551311, 0.016771388862906664], [0.1234319789105057, -0.08411696371176587, 0.10509854957542053, 0.13481175361381895, -0.08351880793930952, -0.36669405663438587, -0.239936237689034, -0.037238478784486134, 0.08577413334667099, 0.05368846888388765, 0.1335801383064851, 0.27375809632557985, 0.1470513312460851, 0.2118410347898343, 0.2732405654696175, -0.14624381612660312, 0.01213820523118051, 0.003170993088772401, -0.11909896315198175, -0.036476536688031524, 0.2299545461929646, 0.7975307004282745, 0.23245190421625375, -0.18634222694867308, -0.04919981342615026, -0.16272835766311985, 0.18902614492354353, 0.2512271879018259, -0.1941772969897795, 0.024569595113255394, 0.056985483812512276, -0.16045636467539648, -0.02050737860149035, -0.20603022108265098, 0.10059300985746794, 0.1045918298922553, 0.021909623221913484, 0.06932080040162278, -0.11864318805525384, 0.12173448082868005, -0.09369957959654422, -0.03767323324253703, -0.08135036830754974, -0.2050261024831709, 0.005344292229576711, 0.20130732796294684, 0.18187974453202677, -0.3187455480567683, -0.22125933679895946, -0.06452003437032926, 0.101318040612513, -0.3357560178744489, -0.38237726542161177, -0.42424925357934373, 0.15386886157405744, 0.10661919908820724, -0.013079234421982494, -0.14837609972872542, -0.2167471671130964, 0.09116056274853637, -0.23573563371462553, -0.2684071226808492, -0.09509925993560256, -0.22680482588610626], [0.08089988449581204, 0.035214573510426915, -0.11084156784496488, 0.17163624257774346, -0.03045405405960675, 0.24246963875210645, 0.2747799246504982, -0.09147959796235282, -0.0112667686356871, 0.15593744144319208, 0.09228658461726823, 0.05590264728939718, 0.3719015299675717, 0.22693737527684837, 0.08348435870269527, -0.01949977573389598, -0.0005866577962966882, 0.17080177221541057, -0.25179763304896563, -0.1699449214717927, 0.3054436608613748, 0.39783940917913757, 0.1380730385761469, 0.02873412459433014, 0.18556477144213715, 0.11331001946270877, -0.10819825027383197, -0.3802244941090124, -0.03646316066156725, 0.10262186542521158, 0.09661695125779782, 0.30721819023222247, 0.10561407528195349, -0.05362790421496686, -0.3298015749086321, -0.48965109459981676, -0.31388115560171975, 0.10247222594202704, 0.28598738815477764, 0.09909075577689619, 0.3431908965278114, -0.22050952735389273, -0.5291025933474269, -0.7399843296297335, -0.01373812243514706, 0.03083655227540364, -0.09450434235907029, 0.14650671410769767, 0.19947514014661877, 0.08878355297517508, -0.27943263496751225, -0.3746554952374519, 0.2971991070165172, 0.1213065992056563, 0.1519731081109374, 0.2184145397405379, 0.1976904945911889, -0.1631859275363603, 0.21886269803011923, 0.03862142306555885, -0.09531430783185758, 0.16418907946612182, 0.28269426057517766, 0.14238071316281808], [0.04726221249163495, -0.01610055841317146, -0.175134347882856, 0.06599856802325335, 0.018838133833623233, -0.21482867670292155, 0.15090214664291238, 0.241201847579294, -0.008262904214021044, 0.2954403019595419, 0.13378302509720846, -0.04090595755758219, -0.05806894876292605, -0.43392164157703095, 0.035759144432378064, 0.36581579242725937, 0.10758861742101566, -0.11221495317535436, -0.05837336830046926, -0.16884040707843515, 0.15532389765175375, 0.24433123197754053, -0.03506914308242576, 0.29872216466025875, 0.40575802157481855, 0.12204561669641335, 0.32752236314604954, -0.04134851259911042, 0.2816304987544904, 0.24414043737866503, 0.3406669372534707, 0.39820994485005295, -0.09265852151097947, 0.020134034162948667, 0.048819204240546844, -0.02152961588540683, 0.1397678751460837, 0.13088052216533508, 0.39153303912808035, -0.006942301021983371, 0.2379009954214321, 0.37140225179077535, -0.2888752503861801, -0.19445778760250645, 0.011447060355032778, 0.08819115820138063, 0.18424051314909481, 0.14600677277579038, 0.32118424570740894, 0.20663594381600206, -0.3950281296004462, 0.1143440435196873, -0.10264731427360015, -0.4447786341376493, -0.16266484176777982, 0.17979031572856957, 0.1637952297567749, -0.29524861931111307, 0.2213831305688332, -0.24016310703451973, -0.17747759850537484, -0.4470802171005342, 0.008270326640021456, 0.2112594056470085], [-0.07475330893269955, -0.02001131364832037, -0.026709539215246346, -0.1702080484033009, 0.05933340190954001, -0.12603404642465696, -0.21288415768319313, 0.0746609677402369, 0.04421644490953144, 0.15133766706529653, 0.058708823534573525, -0.11040598881365486, -0.08413453171676705, -0.04679723061347573, 0.0934460519526972, 0.05900287229502938, 0.01689063232506103, -0.0762462771086954, -0.13403887298134584, -0.5765646592905226, -0.2101179055098749, 0.09447282834163427, 0.15677322158593873, 0.17372004811998382, 0.06082392316324572, -0.14102940081567797, -0.36753262529035663, -0.41421059454496445, -0.13842465274294602, -0.07908746968973022, 0.13890010689790075, -0.06797090168625804, -0.11886757766348732, -0.007719504015288055, -0.11200501709290912, 0.21223577892850778, 0.5588906970089157, -0.06606616026458138, -0.015221542977678481, 0.0816761702409032, -0.14714912016621384, -0.008190355405196999, 0.22866035692715972, 0.636721836516123, 0.33478232701642735, 0.13835957684862754, 0.049170958557874865, 0.07535128610181278, -0.11657002436368717, -0.10391248202499423, 0.14367204713495807, -0.17671941286770304, -0.2127881432576624, 0.2214710234604834, 0.29070042327288037, 0.009994426716385951, 0.04079534759190525, 0.09976045199002082, -0.03275597006402282, -0.16822577394310967, -0.02047422299355699, -0.1773328559848106, -0.033413037946294744, 0.06572772266157186], [-0.09543588572178002, 0.032892407223402344, 0.2985458122704999, -0.08820604659500934, 0.1250758942636039, 0.17508121113845979, 0.2795649752283229, -0.013388951323070787, 0.033636851238259054, 0.2690588710871754, 0.39220466936561316, -0.04528996162439338, 0.10510034026262473, 0.12703903989306575, 0.08740349365181461, -0.026236804394212113, -0.09761019064146943, 0.062123682224342267, 0.030116241580495848, -0.5247273046220152, -0.06017180404485842, 0.016299835608093293, -0.27730195048179934, -0.06619450712428941, -0.11628515428837762, -0.18077620921639068, -0.003069622761956081, -0.04970522799680795, 0.16631947227092, -0.15489947354166325, -0.3586443727637044, -0.18691208169320722, -0.07676587525271439, -0.24015605332520995, -0.1382615692300697, 0.3176405591973699, 0.05639316146784421, -0.14568577491356116, 0.008646281607864766, 0.08853845524263626, -0.2128980841577536, -0.08458275237712425, -0.40489890463794465, 0.1140211306147425, -0.1251413612548342, 0.2734744665895046, 0.2454982342854746, -0.17213061109485847, -0.1991199810367295, -0.009249619155440012, -0.013908486172147095, -0.09577387343164134, -0.1857729810417051, 0.1713331683690099, 0.11822484874264894, 0.17690661687481882, 0.029306644845366943, 0.06597140334070756, 0.3317217787960827, 0.22772587146732817, -0.29439137481280725, -0.25506825597770516, -0.27326726412560687, 0.05577260312061869], [0.05669471181065547, -0.03476357234204549, 0.19441703913741354, -0.04518011451265673, -0.04452844585773772, -0.24220492164284865, 0.15453715628116904, 0.22867119465169622, -0.059405723881125624, 0.15219723536791555, 0.3763465292268699, 0.21702051984578194, -0.11279264660239115, -0.15840346673835567, -0.004478789955466431, 0.20963125409206157, 0.01809348254231245, -0.08999980743756626, 0.14993148586757704, -0.18413207211726912, -0.3905486871734247, 0.14966588932973388, -0.2302247655870542, 0.03388190645266107, 0.03871578873105568, 0.23057452622977032, 0.561164080501325, -0.01897995913332629, -0.17160850870553426, 0.46721251178590356, 0.2731789393211247, 0.04713937040215568, -0.004303609112446427, 0.16559949735125074, 0.19951476291018064, -0.03611333457183657, -0.3897214540104513, 0.14299471067500366, 0.4208806478589281, -0.041109612119840905, 0.02510898408804571, 0.025579917569918675, -0.3671893698836489, -0.14946949127097922, -0.15835892072473115, -0.19059752154367457, -0.21770045734574964, -0.12690189014345066, 0.04775648650046026, 0.24810274022583761, -0.15778121663358774, 0.02861726367353693, -0.21881182454963732, -0.3261596580705199, -0.12712977463864122, 0.10075522703578542, -0.11279399569469091, -0.07240253296887866, 0.03721216663639775, 0.004126133852628517, -0.2643740410715628, -0.3267333865645168, -0.10147487279580764, 0.02057036434813937], [0.06987444327621808, -0.044941410823348606, -0.19017276236247183, 0.38414986641912185, -0.052345220558699494, -0.15689146456519515, -0.1163157992330481, -0.0668416840127856, -0.016346698959193943, 0.09724951474533801, -0.1965686308135738, 0.0317776734360721, -0.12368152657343887, 0.22172592200059835, -0.04472307904092571, -0.13126131507778732, 0.042318887590109516, 0.04475598664239231, 0.22294024498713685, 0.09940123035104538, 0.13063804209699323, 0.5248814558140357, 0.3098488715500856, -0.12784879585409512, -0.149736779319889, -0.039012853623903145, -0.09096603248981328, 0.11174117143585839, -0.21151435732095056, 0.2630474668557028, -0.03702269771559493, -0.260331844140865, 0.0643176531621831, -0.08079660349139758, 0.06320637135993547, 0.1888978615527313, 0.011836090245891226, -0.008948452264088358, -0.16062774093184737, -0.01278715410884626, -0.2700212962085062, -0.021465892793156242, 0.24047282790132257, -0.03945920708836126, -0.20877286758812363, 0.004036270401849978, -0.08971204732686919, -0.020038967234404036, -0.28886383181308517, -0.09057693909930052, 0.30654748117445124, 0.17123978858438918, -0.29818883193135937, -0.0809009595454232, 0.27484581257888047, -0.07038444160705908, -0.3107930088523157, -0.1684422198856638, -0.24957167849355105, -0.3092410711506742, -0.19272273136295076, 0.07525663232298965, 0.2736105938397012, -0.25169084926513785], [-0.029320731554133173, 0.03588486371491096, -0.07266370151342762, 0.0022797097706419183, -0.26801417573292446, -0.2830900089463191, -0.1474836569140667, 0.11137872805192954, 0.05224557335138, 0.1056237216359632, -0.08578912996611839, -0.2747307370308953, -0.5171170536264648, -0.005260205590668309, 0.031041381182311232, 0.04762952048018083, 0.06131533031763836, -0.051768125098459856, 0.17745735049449973, 0.04759817143653012, 0.20666464929747322, -0.20215596517672696, 0.11102214491448656, 0.11008700042641921, 0.116761908670861, -0.13044442149506846, -0.1431390883564105, 0.06969344631309149, 0.1955612679794774, 0.006311727381184837, 0.1329561070904775, 0.10430125208172786, -0.006549005025584004, 0.26013893304428964, -0.000972734508669722, 0.33165579146058616, 0.3558531887564318, -0.060879827980845645, -0.17663493981523476, -0.03633090034419298, 0.1596748164215477, 0.43705158940547156, 0.2547702160205772, 0.8141362462747772, -0.04748339901675645, -0.3413176016281286, -0.033197569538176236, 0.19595618691535985, 0.045463232028592176, 0.19431555413561472, 0.26721480483527255, 0.30084948081804347, 0.10028132873197652, 0.14494516421152054, 0.02268423477898173, 0.04999544157694843, 0.043381461937387754, 0.03306414653740201, -0.20692936431750092, 0.09291165040734525, 0.21237591217615412, -0.015294156244489153, 0.13176488043481674, 0.22680079282194562], [-0.051459355034000204, 0.027568128573074422, 0.1224538176732262, 0.09021094317635484, 0.28921854014647486, 0.19308122655956045, 0.2990898535401151, 0.0024940369478861127, -0.040320261275224, -0.08418709007965604, 0.20883524629845437, 0.42111223719348834, 0.2635032030320553, 0.16326001813593838, -0.03889646189649203, -0.01572530591946845, -0.10691990608464247, 0.02817663541070242, -0.13721350985687067, -0.14172057933283919, -0.18739837527457903, 0.07151416065155758, -0.04897128466681271, -0.06842004160818452, -0.05891307061691364, 0.014997838415323114, -0.010750171528429348, -0.20761216223838455, -0.22300421850482594, -0.047588596631571035, -0.3552738733903004, -0.0743691278038797, 0.07202686964767996, -0.26875886180393843, -0.08828603318859868, -0.26401951738519003, -0.3243267305480753, 0.048386180378437275, 0.29266458792204847, 0.11230953330621288, -0.08686943792207985, 0.04366099584694328, -0.298437676541095, -0.815842245767794, -0.04304020420879701, 0.24444726892455304, -0.021530495037093266, -0.18646872006526397, 0.07045605321861317, -0.04131005346502386, -0.3468844658337024, -0.26416584448250713, -0.08758077657045887, -0.352897763256255, -0.08137315171267082, -0.07207090608269809, 0.12295273141539295, -0.20206275167259455, 0.1331447405217275, 0.10969794365545601, -0.18232498418502183, -0.18023409208196342, 0.11555339277956982, -0.2524586626340031], [-0.06360351463938088, -0.08241393576915772, -0.25861778894789417, 0.08742700605331344, -0.29056483108897385, 0.0039531411300686315, -0.12221904047424856, -0.07946194308121442, -0.032432042431796204, -0.13355404313924418, -0.10698582170642945, 0.05328379655400619, 0.01984215497336961, 0.091210069156005, -0.03283380505161145, -0.1386954986355546, -0.08796261945027195, 0.16233408984784017, 0.08594814551056924, 0.14735672259151616, 0.014504036710679428, -0.1719435014645503, 0.16260319111623497, -0.05417621174322294, 0.1287469751704109, 0.2042311011875355, -0.1829453297461742, -0.10279191328731115, 0.2724083986897113, 0.23253667210580792, -0.05217519260273547, 0.016712293142032143, 0.09159775317166172, 0.07318076147627231, -0.13623181419276667, 0.23007471203925622, 0.13352795916748605, -0.072894991289135, -0.25882935555321346, 0.06825865967527728, -0.04449559444827075, -0.1053968587260344, 0.23343795438099493, 0.30535257362516377, 0.009273880196042871, -0.07582281537950776, -0.021191886868439307, 0.16742405219951584, 0.14134149859418368, -0.14007858567756168, 0.4037404570219354, 0.24490845012139628, -0.13567755574886392, 0.3772364539581614, 0.3349656555646579, 0.07013533986292628, -0.042588533725002896, 0.22427023705559923, -0.3907771220312643, -0.01988197822663864, 0.22804431510136988, 0.2555613765324633, 0.4367176814421322, 0.24801788385352877], [0.09266683120065367, -0.09092025393353587, 0.15202521065263294, 0.311790330072088, -0.0698291407732854, 0.3399596632845104, 0.1507978242034654, -0.028800944302609557, -0.0005155328432734308, -0.13964546622762788, -0.01758165269604134, -0.1143939541760464, 0.2152368319025912, 0.02827932830379524, 0.0760236464423417, -0.044415496148324685, 0.08023876397416314, 0.279218708376854, 0.1255388306980846, 0.40189899126479345, 0.1079816334142935, -0.2570366623829295, -0.07231943335597367, -0.06225770998490383, -0.07909476967924214, -0.013147642039603348, -0.07954205362877889, 0.4246308675135607, 0.5511265475215037, -0.005229082944039519, -0.3454207055635905, -0.1448573277835192, -0.09430190867294641, -0.2934744693025023, 0.05064412406118878, 0.12913536106900245, -0.11260539946206316, -0.00907842453719976, -0.08199826167508369, -0.03405419324042033, -0.15909954463708667, -0.20094218983000972, -0.15169550338719148, -0.5538550708901679, -0.24050001088191006, 0.1038658053555848, -0.11149772578553016, 0.004469726544091607, -0.21229542107325675, 0.16725906048927766, -0.11150557336445947, -0.07197396456259468, 0.02551691736439856, 0.14984484312870225, -0.09229515721955332, -0.042272437902642034, -0.21542911621076533, 0.015193961668847922, -0.011303550850033548, 0.19025619717034253, 0.19618585562960245, 0.3492175678803395, -0.04322496733639868, -0.1623954803908003], [-0.0927313055979064, 0.2026286161042388, -0.09132422480691714, 0.09299337616833912, 0.14607358649370597, 0.0015074246399959163, 0.09464013276790186, 0.17847961915393448, 0.19516133180778694, -0.17796479876090418, -0.10885172100291345, 0.16793833474038894, 0.7902751678448088, 0.18835048765123216, -0.31373500329733, 0.03452095446405404, 0.17866040546844472, 0.06527982085473802, -0.15119018777331453, 0.05002752789396006, 0.18455232336973032, 0.2573142350745452, 0.03924678049637775, 0.06022196557536373, 0.3704614241983816, 0.01938229986198485, -0.0020082721496101036, -0.3861603149791906, -0.14884399120280906, 0.11053092372536841, 0.20603141982553744, 0.16752501038145262, 0.031611830882762315, 0.3219668931047676, 0.27397669648286893, -0.35815878472399837, 0.025528418631178464, 0.15808717514726434, 0.22517051399166613, -0.09678501933840766, 0.06766980008794576, 0.0027475345712928553, 0.3467684404920045, 0.1281740706608785, -0.0314106600826233, 0.062214132958326465, -0.05336723174254606, 0.07536501507357013, -0.17627950885871485, -0.20913644906010614, 0.14977900440329373, -0.11235529773827678, -0.022030243310085157, -0.46847308471362487, -0.2002124109352914, -0.23040886109816316, 0.36644189365304625, -0.05445368118687606, -0.27614583305078344, -0.18898936912294523, -0.14988378470578426, -0.137901379940568, -0.23606529061366774, -0.04641128992145837], [0.03241879987333629, 0.005175565582924803, 0.11680369180888586, 0.011337726249504805, -0.6358905240364229, 0.1780610485926558, -0.025936307623693994, 0.012586603269929776, -0.12963697947409406, -0.19553623105979237, -0.12180705286318373, -0.025161619683831286, 0.33597716768281927, -0.2539513747183134, -0.26554074386566134, -0.06052426678317616, 0.11092448997828865, 0.009297589729961395, -0.0003467136237822161, -0.013411598126833449, 0.11989170999084506, -0.16003179817034494, -0.03179795550893238, 0.04022527235615425, -0.055347603130557955, 0.016059229178242953, -0.030387408986604438, -0.31426995249849, -0.04808407043337677, 0.2522946901653513, 0.33787132812020965, 0.17720240223235084, 0.11920696089274227, 0.08227798955656265, 0.07811462615964794, -0.3287502015349244, 0.1319644610389658, 0.1398985785689369, 0.13048168983680428, -0.006494347694069785, 0.05896571702946622, -0.0070294941769472995, 0.05306303189844396, 0.49456935460165213, 0.07149916739384747, -0.07062248818619683, -0.28692962108270237, -0.010950052881067495, 0.2069469268798177, 0.001941089903056205, 0.007364388110497487, 0.31400078648189034, 0.20331491982397285, -0.07015651558874475, -0.26654152304012296, 0.02453434998543369, -0.025925233835127133, -0.09298875621666554, 0.017797199232831084, -0.11233875044136973, -0.1719218011436043, 0.1375288789721256, 0.03287371089690379, 0.12105486846954801], [0.06999549736610988, -0.038615485913471206, -0.5134749282550646, -0.0004396652561165159, 0.039649075539165454, -0.16064520173761165, -0.0875899553238689, -0.0077703419077797455, -0.018415760139957542, -0.05189434080340512, -0.14558812261809906, -0.2440199020289114, -0.031179827675126205, 0.0850802858074294, 0.2876435257435288, -0.08805663110294593, 0.05900117499023141, -0.004780596930587926, -0.1979578247687005, -0.0805773080120176, 0.21613409801789735, -0.062153665149117826, 0.08332731729671301, 0.0005818706387434252, -0.01260544983373882, 0.06474419778191845, -0.44801723168482627, 0.27019409536331424, 0.21382117124572886, -0.29723140398469833, -0.08769535697612772, -0.02821528557587146, 0.10440429130485912, 0.17077105098689582, 0.0757801486657147, 0.048306415019451134, 0.23326454892609388, 0.03015606261055634, -0.006779284416521482, -0.06811701388378741, -0.0034602133042323548, 0.3033457175164847, 0.006207262525815849, -0.1898939752385044, 0.34381696704781667, 0.19150403550057163, 0.054939924037491435, -0.0031612536671300753, -0.03121433735929369, 0.07174146946472748, -0.031578996026365276, -0.27050364111071146, 0.08567212981147761, 0.03267911661745916, 0.21057151418438289, -0.023115753818820934, -0.1387479816706858, -0.011519906764680883, -0.10196030604192838, -0.46257768623185497, 0.17530468278878034, -0.13936302027447695, -0.011553749340193242, -0.132859048394019], [0.0846959440630842, -0.09022243764742818, 0.12252319130244536, -0.12601252561475815, 0.4091310490417833, -0.13638383655151418, -0.08620922561811614, -0.27540616237138177, 0.017605373899950975, 0.44801286992401834, 0.2867519804834354, 0.13719386080890703, -0.0945571419206998, 0.18979258713071365, 0.24315494052336978, -0.1330857831706689, -0.11273129313519602, 0.05276244147542829, 0.14158164316416497, -0.2734364656738744, -0.12264263138494697, 0.46593945153839217, -0.04196516556623785, -0.08334634073549724, 0.05164996051052646, -0.017203457718652206, -0.17592305061880426, -0.07804950760652068, -0.04521402568884237, 0.014082373998780498, -0.46836370962091434, -0.2522369511675577, -0.06432553624770213, -0.3355947416571286, -0.24007468113507635, -0.1354803980298143, -0.29673524101756943, -0.39114674612738026, -0.47582412060371565, 0.02373397767897445, -0.1345838977550847, -0.012198261000152042, -0.08344376166042272, -0.543854736680319, -0.48049290537115896, -0.11902079717489625, -0.15555849424820045, -0.03549403352632826, -0.09705865273577687, 0.10008315481147606, 0.06765245985773702, -0.35356945118476807, 0.11480814186049378, 0.1296928596054069, -0.06138188130330939, 0.027470476071428114, -0.006596537571478476, 0.03040278429621523, 0.08795446106443475, 0.12030931043468288, 0.38895817899237756, -0.05130124170975956, -0.10048338267327735, -0.08480560134590076], [-0.0397746178355593, -0.08821625969856028, -0.06795906093494514, 0.25742906582680347, 0.2413585642193362, -0.20729311928268024, -0.21610276195618475, 0.38584409298719463, 0.0592646379070011, 0.2173763712507507, 0.5179091581631344, -0.05628543720582977, 0.019259814368172777, -0.011093215463203068, 0.14035448092199393, 0.23688436514790212, 0.11345332388850787, -0.06616152451679655, -0.05271664887686585, -0.3633329481482829, 0.34113077482791154, 0.6205718247076687, 0.36571238352361773, 0.2952918890574782, 0.19409251591105967, -0.161824282918617, -0.32559911604504155, -0.027370222692901455, -0.019215188458341536, -0.08769419868783591, 0.03187274001859261, 0.10763693646085609, -0.06772853326048817, -0.19558604610390137, -0.30755784589971125, 0.1442247852273114, 0.19534350800683345, -0.18123561064754734, -0.32847976191526473, -0.12447755909068936, 0.14011337624544126, 0.13552781926297214, -0.15798021259485928, -0.1501507833787167, -0.08317246558885233, 0.014772973602611214, -0.05581947818465903, 0.00012783086048041042, 0.12964481873574232, 0.025170127001571563, -0.015552814506174326, 0.08655806632696642, -0.38774653495885236, -0.08124967007617541, 0.36103371197928225, 0.093706398160087, 0.08529103507516447, -0.13680173228049475, 0.14447533026763823, -0.03588158113489232, -0.0015906824058550017, -0.06919850275329813, 0.10417116376134437, -0.05154586094320665], [0.061994326218845375, 0.1371353399496917, 0.188434088647631, -0.1343740159008977, 0.06459344944682176, 0.0983207360670175, 0.2644623916386344, -0.016102081476756517, -0.056031864892939306, -0.18866704153177524, 0.01137275439056723, 0.29314018478749115, 0.06709029648005477, -0.2248693151204059, -0.19586498515790818, 0.12942691535281822, -0.04755107474916308, 0.05671625244071137, 0.04766846712502607, -0.2513835926332415, -0.6882333698480695, -0.5410086762573902, -0.46226222790588933, -0.13341023560480791, -0.12337294327337804, 0.148493964974418, 0.022798727618339055, -0.5790847845084843, -0.16487116700564292, 0.023754966046100213, -0.23873735026948228, -0.12074505296210467, 0.08697206999017487, 0.07635185471215826, 0.0009944725460811754, -0.334894199363679, -0.20404706392744273, -0.02898029326378636, 0.20496648386375696, -0.05645588097131671, -0.10175363669346249, 0.10688485802234435, 0.1876923198015157, 0.23511223139895213, -0.1812716872884056, -0.11224793585082496, -0.2949281917368007, 0.2709687714954799, -0.07871993876740642, -0.22037478647466655, 0.10921105597898055, 0.3290292309900679, 0.15791579935780253, 0.06100772869603786, -0.20025200189048986, -0.2166041975896094, 0.0532504487320134, 0.033053294150844584, 0.1638058276310528, 0.3104920383933244, -0.07751372458506285, 0.08736199326785642, -0.004868306766552926, 0.07635003289563971], [0.11838883780751377, -0.4687358397392016, -0.1544496468134187, 0.04884006304307311, 0.02819409405565082, -0.18158456320495417, -0.15582201643478616, -0.11351609171048554, 0.07386635854663103, -0.14008303900148436, 0.10580136505050693, -0.1493836531698889, -0.5378189374460534, -0.16312410624485538, 0.07672101663037083, 0.05662373931359242, -0.00967791854477893, 0.14954239617084814, 0.4550981560159315, 0.47328352512508726, -0.08152963280211724, 0.2404742162578836, 0.005163573491863265, 0.010823024422017886, -0.010243227374600655, 0.012901080355568329, 0.38367199641682104, 0.5696174643914855, -0.06609967438024719, 0.09795963439621275, -0.12596612309940253, -0.0016383507381354564, -0.016251598846756393, -0.1382989545011113, 0.25391560730200957, 0.33516857199364336, -0.12470784060791354, 0.04091192733972659, -0.23555104644825722, -0.11297259721908057, -0.014786034549957939, 0.10305759313555246, 0.30787017369579367, 0.2196756064849168, 0.21747991028978061, -0.043712574091256694, -0.08169782597103097, 0.006989127295762415, 0.02261689581162353, -0.02775801258089076, 0.22267416257905198, -0.15197809168819315, -0.18395706692829347, -0.13259777800642095, 0.13623122236314145, -0.033205885338846754, -0.26839571960373, -0.41949373240183985, -0.1622503177912247, -0.004735789196259558, 0.1488204185454675, -0.03203705084815962, 0.12327547463551376, -0.016611728915590773], [0.07938746035389982, 0.002320477699787835, -0.08499624483895216, 0.02248549148297658, -0.23444530719180603, -0.3268975007615176, 0.18773808607653067, 0.11096039461116378, 0.18343800268507449, 0.1500760345709033, 0.021389579404402826, -0.13846013393411613, -0.021585234257067938, -0.34863246860747826, 0.052703455551385385, -0.07375248151194262, -0.15351198139815253, -0.15266957312784202, 0.16662511789775916, 0.0253237386021985, 0.05160417738138869, 0.39894213849149107, 0.1884280850350795, 0.009773617914221972, 0.07165806724458014, 0.05365263708143354, 0.3124216212564012, -0.14971810096972774, -0.3005645593008397, 0.4503304711426572, 0.7418002726347686, -0.09514764551929633, -0.04657209864452613, 0.012381687464769236, 0.019284176677073637, 0.027641753967797573, -0.158615877629047, 0.16699597095143112, 0.36151011108714937, -0.03441099285812396, 0.08807667058756624, 0.26206294143009495, -0.1627530175807139, 0.1635166666659239, -0.02216673750902091, 0.00882212753228811, -0.09072280438185223, 0.2553778918581271, 0.11809135397912206, 0.10142657995538412, -0.6225223405573171, 0.109048260643295, -0.26036095631200784, -0.13453263845134933, 0.02866247754613397, 0.0789890270669558, 0.06018496432232034, -0.28445283956035794, 0.003871341122828775, -0.27633606963426405, -0.45707207681591444, -0.06773325399826996, 0.25903496046904206, -0.19330711534928358], [0.07552843447269106, -0.018029490319552817, -0.055507516623870296, -0.24616948962331905, -0.08865609241915529, -0.3515208585752639, -0.28009773641986646, 0.004881884173491677, 0.12457494806027836, 0.05999791755872599, 0.013507663834691328, -0.19097449092569577, -0.29096559956498425, 0.08407952469990375, 0.026849083131765178, 0.02245840688309317, -0.06921449073425981, -0.07026385887207554, 0.22962646430397862, -0.1875771981265154, -0.12440798808228978, 0.11208048323558155, 0.02061419290790003, -0.01171470308133936, 0.04130590110586509, 0.010445605870396366, 0.11166572470090674, -0.038765278316821326, -0.4924120681952562, 0.045976111135532204, 0.22612408586769403, 0.0407569550852031, -0.019974450049036002, 0.3434039264456055, -0.11355335781650618, -0.11026081480126912, -0.041997146586772865, -0.13971042889141716, -0.14786851230554324, 0.016834533111245553, 0.05381488867364711, 0.2790599447177193, 0.2947456237967049, 0.40180892223990006, 0.36261427434877963, 0.11787855580171525, 0.21642494465400958, 0.07821282415747294, -0.09093396415203713, 0.039241944060216916, 0.01870232487788957, 0.006443504396426269, 0.044568778899588456, 0.12006477416194486, 0.3259750953286588, -0.23259043775530733, -0.1624817355883277, -0.0435350752948061, -0.2636571952526839, -0.06332723496812796, 0.06429922403053936, -0.14173343716162048, -0.054177365489791546, -0.06131000169670557], [0.08964783215784669, 0.17030154671873132, 0.3443999669855027, -0.05801379292642314, -0.5880885254571147, 0.47642746274481773, 0.22679192036008888, 0.03255711811518709, 0.09020799283489342, -0.16800463766352353, 0.11876856119722187, -0.022008338979330737, -0.16537407299888532, -0.07703418769823007, -0.23150153748159533, -0.02077041075250675, -0.012988859916879227, 0.1269086488514853, 0.18957860105242097, 0.2642436790962037, -0.02758142940759027, 0.051699776042106314, -0.06870727560308781, -0.12715423670355236, 0.00865330988520944, 0.10006451684383465, 0.4206158840388411, 0.23187137565060167, 0.39780237532466717, 0.43272819254712935, 0.0007789299452684523, -0.20980552954360784, -0.055587109050248634, -0.14156517553863873, 0.20605769924101294, 0.1516832425230158, 0.18151864218678118, 0.19440082734598788, -0.1798204177011006, 0.09703174574727691, -0.13522946424576204, -0.37654410058618687, -0.18617939388159008, 0.07248775922957591, 0.014250273304388484, -0.12952068605928796, -0.21947976388249346, -0.05192449899641644, -0.03145312479301712, 0.13931442626601695, -0.08507032286524588, -0.07811729007455329, -0.43260565515489247, -0.2631349617707332, -0.1924290851237215, 0.12384058065323211, -0.08451159667193181, -0.08091372112141727, -0.07736453635248172, 0.03099750118103011, -0.210044267411816, 0.038392329707200155, -0.06061024848482714, -0.019237662398640977], [-0.0445273718669158, -0.14743960924747837, 0.020920151774646498, 0.1875701832149923, -0.19240951696920416, 0.150316973666987, -0.24480963407924067, -0.17328542035360994, -0.01207339299873547, -0.09611549949340871, -0.073519347688746, -0.13386101260578895, 0.1870682398010699, 0.29834586020826187, -0.17828441049486182, -0.2397064598103495, 0.0828388493160666, 0.021701744105358748, -0.09339013265959649, 0.32870424355197425, 0.4993979987471062, 0.21756513758779317, 0.27698734263432423, 0.03270478496599592, 0.03095981933412349, -0.07946885540950159, -0.4077166393197314, -0.005815063184092474, -0.0672027195572075, -0.18749477914181634, 0.07711371339530926, -0.08384941268967319, 0.1186093915605505, -0.232514829314349, -0.31721477145628546, -0.11401234534914642, -0.071875871220143, -0.05844353757048345, -0.5417684933423403, -0.06764712403510278, -0.04379092784919612, -0.015173662688184547, 0.023063204262468138, -0.10453065428764757, -0.1863589716692691, -0.006009142383608635, -0.12290866565199313, -0.15226269090038827, 0.000949389912054099, -0.09797561551330082, 0.20987464707946127, -0.2883600264339076, 0.4161095668018692, 0.41522561555322623, -0.02243018551362824, 0.11405702676689637, 0.07053553130556768, 0.09805432029560339, -0.05845489706803687, 0.40605368409626114, 0.4196794728962004, 0.1869452085679906, 0.07231368269805157, 0.15219032151993303], [-0.052795162681783386, 0.09468792329340858, 0.11873690739022406, 0.08808097165305276, -0.015094039515514617, 0.3106217936351563, 0.276508185225546, -0.06746438956827883, 0.042905668991055905, 0.1488492240052688, -0.15902466090864473, 0.05981559762433473, 0.4497354044770073, 0.11223211752250642, -0.09785400778706278, -0.021766543121107918, 0.3115193995681218, 0.009990518203802564, -0.3632056639350415, 0.2765541378106123, 0.11655129179741466, -0.33693359106128107, 0.049392019884735544, 0.1305315356495931, -0.031895260101165925, -0.024354640034518326, -0.217630868571132, -0.26100347758750336, -0.02395263641650063, 0.014578130277205422, -0.24129305909700943, 0.09410319118871839, -0.060143174052833426, -0.07357117095883062, -0.18924410782153298, -0.08865388737549047, -0.03730909610946632, 0.18788654099817936, 0.049999500048563045, -0.017406985344141507, 0.363479413066975, -0.1998185280078043, -0.15007965525409772, 0.21560930677015303, -0.020856391748667432, -0.1870127091965741, -0.169359352793023, 0.00833121243145294, 0.2684428074630606, -0.0769508877354905, -0.060990631740049026, 0.446103565857252, 0.25186658881948903, -0.03368147429068479, -0.14819439653896543, 0.05558317180099641, 0.19122220849340865, 0.2153926892391758, 0.27405036045689174, 0.0055735405281820555, -0.24604900285670217, 0.1080249055502061, -0.04424487160977586, 0.1690052186954091], [0.054333631143361705, 0.16299075346788355, -0.12260219079895751, 0.102469514694812, -0.05055472832888077, -0.02644553706390953, 0.01601910756055932, 0.031059254521987923, 0.33962602292496996, -0.06664386972210208, -0.06382170153918872, -0.06634024341989674, -0.4007808073260704, -0.65434122369498, -0.2737405214391257, -0.07491334925328229, -0.04205964433322678, -0.057998769111364354, -0.10075052091139304, 0.11530272642229715, -0.6673414937762236, -0.68687550420333, -0.257892539452186, 0.11813387514693184, 0.004963070564104806, 0.11641124458142198, 0.427801358268108, -0.020036916881499927, -0.276121976771095, -0.05785984447019127, 0.34631341779273234, 0.5133397383611349, -0.1057663946167196, 0.24510011664516834, 0.35153645662313165, -0.2385545053374732, -0.1680874137085412, 0.2667332573300309, 0.6230142739209176, -0.06843246334502234, 0.41867670479046176, -0.03194998682700919, 0.17726738105045123, 0.1390996585742705, 0.4208521031081664, 0.013966700297238817, 0.0633218164933448, 0.19488371738588833, 0.3405279098057, -0.21223822142377075, 0.019060246892698012, 0.22930652501644352, 0.15141091731307604, -0.08658133815285597, -0.29181276539523654, -0.24891145547231217, 0.49135476869547956, 0.05985289494897051, -0.07338373465606024, 0.11813801418353093, -0.08850760785584016, -0.06192810864421452, 0.08391782284569262, 0.08643122067912566], [0.04562309299042891, 0.03999161518939373, -0.14715111277471088, -0.45873069590526483, -0.19716454680556278, -0.20558916872817898, -0.007491630139777175, -0.051677425344466184, 0.031051881551757397, -0.17403711137956998, -0.11074009454508257, -0.35131892886330385, -0.08474669622026544, 0.1933232066473543, 0.14016926315821704, -0.15781799275007594, 0.003237272879825648, 0.12805513745853653, -0.3319751866083126, 0.05253935699339736, -0.03622694582805055, 0.4953193557401321, 0.3281045499620918, -0.04453882781582372, -0.03487101492555738, -0.1262924185002931, 0.09051953933937107, 0.5000694314321256, -0.223989237340146, -0.043444772644202996, 0.1951644977907916, -0.08364130447510047, 0.09768703462542505, -0.012112155609399464, 0.18495927746067242, 0.42087276887482705, 0.15251041933662168, -0.07866353448684203, -0.3878616003935071, 0.06568866839343268, -0.14649796059539763, -0.07647511721411349, 0.010285946041663004, 0.5917839096533382, 0.6114610972355237, 0.09830576369555262, -0.07351139944867581, -0.42092580864204204, -0.2637747509442969, 0.0557223914498513, -0.08916748873130609, -0.1591669409585614, -0.12417661830284253, -0.17840251676574762, -0.1420019710955543, 0.091515492026946, -0.09378339100825542, -0.02501705752060623, -0.4069045201072856, -0.1377773318738211, -0.0459251098915723, -0.3514631621225633, -0.10842523904380595, 0.12585154282305003], [0.10215943792390814, 0.09785465584649164, 0.11187721214999409, -0.07243393269731237, -0.12803386328124788, -0.007088518103664661, 0.47921531342319273, 0.19249984825806585, -0.037485127455880514, 0.13295895807894897, -0.14462067329887685, -0.06506968999644346, 0.22104468325117815, -0.44102705265023134, -0.24754026034296747, 0.2533223669283805, 0.007880738159663054, 0.06656357604490695, -0.09953209607584729, 0.09970156585298758, 0.053032338891082394, -0.1400302879844856, -0.17647727034527824, 0.31252091931839365, 0.19415024326442493, -0.07397234543059865, 0.15448587396293734, 0.08991082172288492, 0.2854672449526468, 0.29444667400889757, 0.22981946345162, 0.11970981029614648, -0.011213210571227483, -0.12207739113527194, 0.06888823214172446, -0.0616957751992411, 0.3131331688310941, 0.22388998574103197, 0.19361314795531925, 0.11107634580727441, 0.14415364020295174, 0.18991959554606747, -0.3505896815147173, 0.2882404290585318, 0.05433647829754374, -0.3663037581627359, -0.22847163183216804, -0.0026606555205151215, 0.11720123813625509, 0.2452452007389137, -0.31963342088676294, 0.2298811702719251, 0.05444856789540854, -0.2658532721542361, -0.22179399993854645, 0.16167316419408728, 0.02129820350483994, -0.05089205191163024, 0.27993399007375197, -0.24979048253106223, -0.11432843099644593, -0.013567779401684478, 0.24743056344872738, 0.28413824720939296]], [[0.10635195867128248, -0.8198875363927955, 0.1469138347649547, 0.37658145194563747, -0.08691400916417248, 0.45647107200329456, 0.4305230454872661, 0.16695056453734264, 0.20281078538282596, 0.4484123296201765, 0.10226022997199276, 0.6636672914296113, -0.5369919357059428, -0.4762739873665712, 0.5394143286552127, -0.9084325810702385, -0.5473168773306499, -0.7391419900446611, 0.7608398642684591, -0.5840623415172167, -0.9640642374017683, -0.7849137179670749, -0.8003396807700236, -0.6078391028361143, -0.7858913828607823, 0.29931029863159814, 0.8354771864359979, 0.31998751193758856, -0.013199171414139505, -0.1546901802746971, 0.615790888744206, 0.1789648682953277, 0.4731130975097595, -0.4882451050594371, 0.39531557980014964, 0.42674956952131243, -0.5064114058457416, -0.3925171695563522, -0.662628663942234, 0.4241525751450872, 0.22842047666609297, -0.44756730957616475, 0.2890474305886586, -0.2066259791785635, -0.74968720522302, 0.8763100607157734, 0.27992552278277594, -0.6212503715023255, 0.11903334590618823, -0.37706096184082005, 0.7192010442504954, -0.04938061886797802, 0.5550247581942412, 0.724683389910925, -0.9819581379490323, 0.05586666947864641, -0.26015634988213554, 0.8691176238548618, 0.03601153756544883, -0.8780201375891472], [1.0229792830566042, 0.29684654409940625, 0.11837586497955602, -0.6806411416498168, -0.6491349763639414, -0.39293344053392965, -0.03578294827080611, -0.9874090903838157, 0.08261554428845325, 0.4858993496770838, -0.6869408554926832, -0.3123240982249365, 0.4570358578954611, 1.0693015759951023, 0.013525253914593735, 0.47310522993000315, 0.04142241630158044, 0.40612534164070213, 0.5472413977362406, 0.5681524431302599, 0.5554508267269588, 0.5657154122630826, 0.4577112412255154, -0.5011798845516254, -0.6233915470791994, 0.33902208631681724, 0.3287536100288379, -0.5278656509894906, 0.4034912158143414, -0.3727291419656966, -0.6171700670396716, 0.5101966268354919, 0.05389567248674946, 0.5196812285726492, -0.4100736440885266, 0.06690361152954936, -0.4087341093107161, -0.5602989985865616, -0.7129383135247286, -0.47892278510140734, -0.03318184115472965, 0.48086214922026926, -0.4150246292467746, 0.6594578888485152, 0.737702106227847, 0.40896072757256446, 0.9112324992299004, -0.009471819261105945, -1.0469905093264866, -0.7384523468271184, 0.01675818701620491, -0.2298545005260811, -0.49893208988797927, -0.6861368870712743, 0.7394550547158001, 0.5296236302825689, 0.7689841625655334, 0.04578291885520277, 0.11449295636143764, 0.5540068362959834], [0.3901951990257796, 0.037437683837468774, -0.857684196091637, 0.2308192369456119, 0.7523845205150205, 1.1788567612037042, 0.5823160541884943, 0.43182126409813426, -0.558534014235767, -0.4513642861854714, -0.5288915432997474, -0.002042430115785088, 0.21885002286548555, -0.14094849939629026, -0.5145134948521563, -0.9072061011399578, 0.5372076604826432, -0.6285284533630925, -0.10571343102257004, -0.8785030762570175, 0.26093553818479215, -0.3504284236484308, 0.5339164409399251, -0.5203943551429954, -0.7689712426021417, -0.41719767252445505, -0.6291738090358289, -0.2189178604813254, 0.5350137085095178, 0.5736967383857634, -0.27284937020891087, 0.08760341394189707, 1.5461257487199591, -1.3835950455708264, -1.4583440026265866, 0.16340050827618435, -0.2734590561630678, 0.590954764641411, 0.20942738764648303, -0.5593535212676485, 0.12024659160773629, 0.8519847773162335, -0.8965369189413823, 0.6994726360476365, -0.3305314024517828, -0.4354704672430931, 0.46630511483812154, -0.7904906512864577, 0.4228942572271387, 0.6373809277916769, 0.987899126102429, -0.7035103460073996, 0.2303192813790608, 0.28502153951336445, -0.7007278387326699, 0.5714562963633794, 0.9232191679531573, -0.3848560754329189, -1.0984146312898264, 0.030631133270308877], [-0.5834436414317715, 0.2874764088958089, -0.9488408335279909, 1.3101820882354307, 0.7934301965731909, 0.4926918391851971, -0.7781549856254708, -0.20231749607330596, 0.5222146755038356, -0.3904919819340993, 0.07633164943755652, -0.5814881257286045, 0.6757765313232127, 0.08403141196978715, -0.8672181420885262, 0.11906439210941167, 0.0508120952409593, -0.2204227371339942, -0.0092062256766598, 0.3530018956723963, -0.029741241564510468, 0.29896141578362173, -0.4463421750841253, 0.8500892584220938, 0.6243687381396271, -0.8357973451439391, 0.35934654441759356, -0.6786258060736852, 0.6867684682049251, 0.8823853275555891, -0.13140841258652566, -0.32757054397055346, -0.13549361157907802, -0.48326229120085773, 0.09650510988799166, 0.8409656461523562, 0.002253777254177382, 0.2128490415930702, 0.5204523874101595, -0.7761842657137611, -0.4529216219325817, -0.4573337091037237, 0.5290112889269333, -0.2451035338989171, -0.0781254230786286, -0.4037440335973016, -0.5753740941579121, 0.9279778229143625, 0.21140799015831319, 0.46002818747230134, -0.26204779234708975, -0.7626337128287002, -0.8166682660072422, -0.2491412575890077, -1.05186662657451, 0.5268289943474164, 0.08691561218777291, -0.1388417342874093, -0.0121951905210429, -0.27315069156133165], [0.5765188590468353, -0.34264538201849715, 0.6061096019615853, -0.3114561539016312, -0.7292018630113895, -0.6887682911421477, 0.45047291034883347, -0.01679349343355395, 0.3064392738185291, -1.0873121196808062, -0.5540097621925263, -0.9921765787018715, -0.06563774103293273, 0.9964222373537331, -0.25255409562302134, 0.5733832355779607, -0.6866648944775069, 0.26445961980665306, 0.47420738370197685, -0.7548589492237118, -0.5877561459209163, -0.40768532624290643, -0.45257526176814844, 0.5177216321817182, -0.12660411644220718, 0.38755397732290414, -0.6991286238314081, 0.14562420284348362, -0.3069006180290933, -0.7665657449613739, 0.6795772394110878, -0.1551037480893085, -0.06877188550580195, -0.20198620393010427, -0.3205189655935153, -0.36016800703281937, 0.9361774621894188, 0.6047057912272988, -0.1668873683231069, 0.2663871136878001, -0.5147904690363847, 0.6826905216953827, -0.6826708690238209, -0.5404368011848453, -1.1265466167133733, -0.10657641799926419, 0.3859719944534583, 0.13933189818888478, -0.03327877988199386, 0.40882895908928796, -0.4395980911842573, 0.5828562265486184, 0.5114075278427068, 0.7327047827962921, -0.35508183725472126, -0.5587258266424115, -0.6219637521072567, 0.6517132764207823, 0.4340344788291577, 0.8406881803859826], [-0.3952303760800328, -0.7313601622468946, 0.7446806672685272, 0.19346666182573738, 0.24944244449223446, 0.047027239116699995, -0.29510014136615575, -0.7868809493352167, 0.35807133633805877, 0.44497044085038495, 0.4217924931433886, 0.6944500880517412, -1.1245216421682742, 0.26301609077022087, -0.3179255375703585, 0.1705028684068774, 0.3679162297241429, 0.31972647372939605, -0.357394176692694, 0.6958718227489588, -0.4918857726827299, 0.47732508102494536, -0.6677197340767552, 0.7500171928192749, -0.236666642939758, -0.8989557782692766, 0.03919543634384278, 0.5269337962294202, -0.8466307164446464, -0.04810282086810043, 0.37633346081847563, -0.7101707238029699, 0.43146055941681477, 0.10518690111689295, -0.5786829957547913, -0.09664905150651125, -0.19634692370016188, -0.1714125414278469, 0.5961920055457381, 0.45311019450403267, -0.9713747852407256, -0.5342537847887159, 0.5302647128081988, -0.5698206950517548, 0.3558871196738763, -0.18144105661661025, 0.09053206945154009, -0.6798122518256936, 0.3549613730246798, -0.8509537141848316, 0.8952190234269545, -0.2971842967968294, -0.35977063434023043, -0.35977686316098023, 0.4821089642370465, -0.39190729310178235, 0.1070847538034076, 0.5046992819460704, -0.6185441798183192, 0.09481897716961298], [0.385717648036867, 0.37458295859017715, 0.09484317595971449, 0.47379397507389737, -0.25841166831105633, 0.2420449227668794, 0.4046039558477288, -0.6427393367312969, -0.0094111151276576, 0.6242912993384678, 0.7537951761471713, 0.27096214326763995, -0.44436205291072706, -0.5220179192343778, -0.446383751133412, 0.12431977271201305, -0.08872508725712065, -0.48820763987444027, -0.5804690706965433, 0.24284581393587043, -0.9345931685133249, -0.9154223896976084, -0.5975662260854111, 0.5182922982686464, 0.7472369417221041, -0.40909995045733133, -0.23850387045076063, 0.17501319160838388, 0.08989634702342475, 0.039666430801801884, 0.336918406877255, 0.444877041310077, 0.590904937451347, 0.41815430458295527, -0.6844767247957623, -0.506501661293553, -0.251213896602908, 0.3410871883096155, -0.6673845488777028, -0.30607364474887655, 0.49764087762359577, 0.6598494662441886, -0.5457770119514213, 0.6909398194284031, -0.07747627119194023, -0.5259095799899031, 0.15978479116511007, 0.35451834175809777, -0.7531692638746142, -0.3894173009902236, 0.34790755185968497, 0.4243037274189162, -0.008074808136232861, 0.6212037934146494, -0.2867405983205937, -0.7810170408046124, -0.14511798294228767, 0.598421771035828, -0.3195743402418398, -0.580351995494881], [0.6540507054663436, 0.23834681068405025, -0.4420984969607042, -0.3977627405926359, 0.9303724100973412, 0.5668831606561487, -0.774948325198416, 0.02872771563002547, -0.02132773908541324, 0.14920295164970176, -0.06061441940040567, 0.38552296994853463, 0.14906748681261986, 0.4766595250265027, 0.3988021829195897, 0.5774571674466853, -0.9195086589485709, 0.5250260664389486, 1.0427681220349563, 0.3901092526323705, 0.4509266735845535, -0.14154194339307297, 0.09284160811637371, -0.16802083178901417, 0.4690482300577539, 0.6648519779947888, -0.4377685499603368, -0.8700645628614383, -0.3985614321358644, 1.133510627593259, 0.5120491805959542, -0.34769926477935437, -0.2500857211475344, -0.689079082523187, 0.3781035969525834, -0.1370143655007878, 0.9150570187446709, 0.6617416096426219, 0.28637574043947867, 0.3975472212240868, 0.25511966530828084, -0.13380124353446973, 0.11710413611527143, -0.4976513544092898, -1.0209543532322598, 1.054261274617127, 0.40226930601227384, -0.21863171530148182, -0.5225048322177805, 0.37107805849510284, 0.39830528033680784, -0.8721415483718954, 0.7559759297876664, -0.17060432565288106, 0.17658783195346056, -0.8133162736297682, 0.5923140490972396, -0.013366087836383472, 0.209357446322878, 0.3229761651979687], [-0.4738083080265912, 0.48366204415906655, 0.740156627000097, 0.12213664972971594, 0.31915843213513667, -0.37505285712431696, 0.8861716561764771, 0.6376987909606402, -0.6750402130223099, 0.16507834783687422, -0.11542375780664003, 0.42004765066237243, 0.15936013508996616, -0.9443788510396376, -0.08030900318526067, -0.20465048444327294, 0.6126957720074493, 0.5508599526693734, -0.4404525976387817, -0.11511652729158756, 0.38825987406347834, 0.23223476095094955, 0.1920069557526738, -0.10122176728821344, 0.6294031476414598, 0.20079699310163457, -0.38816944846155405, 0.7668077343992844, 0.43889545810476777, 0.24577768831677138, 0.28017313766434043, 0.6549107354132937, -0.7136713936580281, 0.16663561717318828, 0.44070524118246684, -0.8476657698435173, -0.5224060011802057, 0.5745726720197536, 0.24697832908547396, -0.2781166921447037, 0.31596991390281803, 0.24748532451850355, -0.2947657345006454, 0.19023465582784774, -0.033286244240877325, -0.08537292671087361, -0.5202116812041045, 0.06503391494662329, 0.6593128027988961, 0.08691256933350382, -0.3308075718089931, 0.5696836772415844, -0.17015326975087172, 0.6757337632019025, 0.2452517985736527, 0.32361542858773795, -0.6197088418011607, -0.653717198804563, 0.5998904283210329, -0.6831882426785336], [-0.3711810211173522, -0.250290174057974, -0.5058854733030527, -0.6204615284244266, -0.16530393339485017, 0.10193570819912053, -0.6610234157133691, 0.7261550072890495, 0.16908669973955587, -0.4491780243806135, 0.5083091465512797, -0.3404654918231413, -0.34351224697527627, -0.16503543322300712, 0.8124202128772479, -0.31514021761207744, -0.15005893047924448, -0.5165555620064507, -0.4388656786291716, -0.44816446002973515, 0.4019262877658519, -0.23748417846493658, 0.5215268217799636, -0.5186770433191807, -0.3403972508646947, 0.29191493116827505, 0.5804709819873795, 0.27544487461934425, -0.39490993697471855, -0.9552349066958417, -0.7164822479696582, -0.6805521834270196, -0.08875200874590623, 0.348392680832761, 0.40056258372481446, 0.6260265779674221, 0.6439875780415271, -0.523744944443099, -0.023399922668872093, 0.5047088347628607, 0.5131398715072821, -0.3020188548935122, 0.4859273832400582, -0.30003713173255436, 0.4088173081770314, -0.22939358015920758, -0.5279746235325635, -0.05513819830818227, 0.492726468974148, 0.8215664575689821, -0.4450994634149411, 0.6482030108680359, 0.4838224245554793, -0.544285858945579, -0.08079669137068156, -0.17184762571736806, -0.2770415462611579, -0.47988741619376146, -0.24205041372637473, 0.395628203675154]]], "activation": "tanh", "output_activation": "softmax", "loss": "log", "optimizer_params": {"learning_rate": null, "momentum": null, "beta1": null, "beta2": null, "epsilon": null}, "optimizer": "adam"}