{"input_nodes": 64, "output_nodes": 10, "hidden_nodes": [60], "batch_size": 200, "learning_rate": 0.1, "momentum": 0.9, "max_iter": 200, "max_no_change_count": 10, "tol": 0.0001, "verbose": true, "biases": [[[-0.08190894672754107], [-1.9253474692749812], [1.0155326946290046], [0.6970628677003394], [-1.1646809666203377], [0.9356358021322255], [0.8107729263052486], [0.4204364761655294], [-2.3564567631302022], [-0.6459284769466266], [1.7481547898258905], [0.07129041277346551], [0.06715986249722568], [2.404116807624893], [1.530322511256948], [-1.069700371458379], [0.017567962964076998], [-0.5188998917539382], [2.030568686765186], [-0.07584392185769628], [-1.570015077930935], [-0.7853001981891853], [0.038744321177060385], [-0.39804614294011464], [-3.0111320892978157], [0.5183112608069863], [1.871923401518496], [-1.0824893584366033], [0.19896146765402117], [-0.7793310978880141], [-1.782648958682165], [0.6612584891048435], [0.43790724611685833], [0.3377243301457841], [0.8725713000624411], [0.8742206532859412], [0.06037062840063994], [-0.7815324448718981], [2.156726805528769], [0.31703237081859864], [0.9820929687836039], [-0.6577069260033358], [0.1612796857166171], [-0.40115807404723114], [-1.9345798226866344], [0.9870028083387375], [-1.091509772094687], [0.0757367646635369], [0.7734659631217983], [-2.1292092144827066], [-0.5737904223402209], [-0.37509619111829634], [-2.807866368301172], [0.8619863726394768], [-0.8461317763977839], [0.9764126076946974], [2.1059608517045425], [0.8826346284784446], [-1.7283708182210435], [-0.6008262173959407]], [[-1.096042876830487], [-4.169425080458827], [-3.2643662655731505], [-3.1508506608063303], [-1.4340100286488704], [-2.0825333829063415], [-0.846649151508206], [-1.474488446221785], [-2.497763478832193], [-4.337814130057554]]], "weights": [[[0.11646121932256473, 0.6502850822508038, -0.324728623043686, -0.934704816246376, -0.5028559761761568, -1.113098385654965, 0.5894591544682557, 0.9281630847905344, -0.011391995385693085, 0.4532452606684767, -0.31070404729409423, 1.4938929497899567, -0.654657826276417, -1.6708070909139074, 0.24434872750610626, 1.1727279557227686, 0.08958420609550491, 1.0042752417305623, 0.31468763576973074, 0.2743530279349035, -1.336304751525718, -1.3130741887656, 0.04292473762041687, 0.4691478722478727, 0.0936545709305634, 0.789898383304661, 1.694100880943077, 1.6373800157857865, -0.1045475573408822, -1.0862515344802455, 0.5506876533287014, -0.021957157925533, -0.0422513106573843, 0.7297182296787168, 2.061275571902564, 0.7224089293363531, -0.6296978652682683, -0.6796584104003179, 0.11022295015566062, 0.06871237682677139, 0.10307222283454806, 1.1651513798483308, 1.2177898873740367, 1.3807396079376977, -0.28342781612853957, -1.4526396244364765, 0.04727886399883364, -0.29973272196477035, -0.07612475458818939, 0.8121170906987943, 0.35435816356717836, 0.7545772794903438, -0.9545078062743799, -2.4007296243946024, -0.8259789976691626, -0.12904179493427423, 0.12510273646779302, -0.022740526997463643, -0.4283860015854711, -0.5828252318895142, 0.2145572185738321, -1.4640039545724146, -0.7103997492666785, -0.0812335117918879], [-0.08148263680995665, 0.17077773367765076, 0.5023166169119995, -0.27009001442311603, 1.5656998499834343, 0.871408162864839, 0.016364247483541355, -1.5832318106752812, 0.05939432280015845, 0.29546544219341553, 0.34958934227382776, 0.6095217207282011, -0.33680886320785897, 0.031208471726034043, -0.8485306988703871, -1.0284967477582385, 0.1159079210588036, -0.6470396488086826, -1.479578128933588, -1.73630995674295, -1.1047198632769306, -2.2334818336040834, -1.039832524566128, -0.10967012505209583, 0.6253888890355622, -0.4992264604431415, -1.5194007011005042, -1.7897379214908966, -1.2710483740803475, -2.793596886082006, 0.12013874231992018, -0.22569326430410008, -0.01610280090723354, 0.7095564468207332, 0.2772971855055117, -0.7898003020546777, 0.9943860223873148, -0.32441786553674146, -0.05008447011387713, -0.03158751102312182, 0.2721089350798223, 0.9541707710875932, 0.7677499684684056, 0.4284931637464503, 0.9261202218238416, 0.4744602056430417, -0.3769180222832719, 0.005124081771847611, 0.16090327221372108, -0.9615004045410868, -0.8324000249345956, 0.6799714898244984, 1.527295576886141, 0.9520772648687665, 1.4642850799819869, -0.8335746255660494, 0.09172368767803903, 0.036549445225283354, 1.218357796331338, 0.7074891969472148, 0.8172989892382924, 0.9770825410685734, 1.267782237757456, -0.8106423507568827], [-0.014388448813141386, 0.3946801410693285, 0.4351117095263653, -0.15563786465982532, -0.7867320727065638, -1.131028243365649, 0.8346103061810907, 0.3147730403485666, -0.2659500852924145, 0.1134509944576861, 0.6497654819939852, 1.5081331563596845, -0.783437913438715, -0.09133233990279065, 0.2971371905295777, 0.039179753813206354, -0.039364391055240984, 0.09927429163169431, 2.3973864804118192, 0.21939230252932368, -2.842222896759551, 0.09013803223553453, 0.428614492746363, -0.2414469136770432, -0.013642211201866181, 1.341031193119406, 1.3426503679776536, 1.2072113790162884, -2.8515504427315506, 1.2552855883689957, 0.04906609938505236, -0.1633680975450629, -0.07018758265462638, -1.307230531646801, -1.5020451382168598, 1.0397551133085206, -2.04997265587849, -2.7500175412098016, -1.3462643093698998, -0.07970027406092839, -0.17415141238725868, -1.365896000966501, -1.200709602139687, 0.6947909584017194, -0.9268489561516514, -1.572413738054226, -1.4644349838554656, 0.10259008195737017, 0.9511833742535967, -1.275755985169821, -0.13479153842136485, -0.19750422918804644, -1.2201036856982932, 0.36866422043190833, -0.4972808904726424, 1.2464905452467727, 2.5295680364307076, 1.1575692527458543, 0.08623007416348517, 0.12375577241457723, 0.17988840568575937, -0.6795293063505297, -0.006999682702020566, 0.589952983476416], [0.019200001267882683, -0.1818373183307162, -0.4280617374630983, -0.35394866637434363, -1.2662034203067032, -0.8754670144231478, -1.438992939426169, -0.6275874866360791, -0.06898073787669878, -0.37023407683241477, -0.5845539308767485, -0.203487201318898, -0.1859329048793501, 1.0782638569216632, -0.27926404608019717, -0.37393087439071815, 0.0864825236452608, 0.45030601426692096, 0.2988001053095681, 1.2500457807892182, 0.7709764221815847, 2.1353471278705287, -0.4193529282861246, -0.1700876091103847, -0.15972907620844512, -0.06592729698290012, -0.671674057917552, -0.9775177796860943, -1.66427559800604, -0.10067230413667945, -1.1456593604792409, 0.08257983293864651, -0.06953002408563683, -0.7586641695780304, -0.2599521688946495, 0.053781963961263245, -0.06659655685981815, -1.7472579536182644, -0.9715974356157937, -0.062201515222774256, 0.05420777471251957, 0.27296772427535343, 1.4161520249807464, 0.5569622298072, -0.5238174221846601, -0.27451803151393, -0.514013172587653, 0.38913792249257345, 0.03666000028715114, -1.391265520877679, 1.17645896593758, 0.5133014537277979, -0.3881187912399989, 0.539664799571876, 0.8142695205215469, 0.32245969984630357, -0.7539485450723877, -0.1962206118166414, -0.6347263609608763, 0.5915563747124387, 0.45005975722378116, 1.6596842042525024, 1.365969913100668, 0.4986029914640603], [-0.04009398815834611, 0.37164999439578, 0.887753107787929, 0.7923544820174077, 0.8516713841291249, -0.6467270386289874, 0.6875938185763655, 0.5183657462600265, 0.3725516363477102, 0.8098244146586354, 0.5757139803169635, 1.9516524674144196, 1.681115608415175, -0.001999268438810317, -0.2973304587148399, 0.6199970840103208, 0.10843906912831826, -0.13711012867143313, -1.711917693804908, -1.8086952017123605, 0.41814879267287847, -0.6448362682087975, -0.08512486572340536, 0.15384813893860388, -0.05709682134730089, -0.5562285228044718, -2.7163457600619982, -3.0728558321975865, 0.6062788944908083, -0.395683244583431, 0.37503320784765126, -0.6056915774116911, -0.06103049450646866, 0.19089987011971862, -1.900217512554399, -1.0846146361446092, 0.7258478942559274, -0.7665795934914436, 0.9261833187042082, -0.0674065903035374, 0.19135114023682992, 1.2063464791554093, 0.40018128133151665, 0.785001817045642, -0.25060167648811704, -0.16052070909602906, -0.22578590249162203, 0.0020330824332481083, 0.685144340712599, 0.8676758768952956, -0.5361119467943812, 0.07392314909468573, 0.40231558386798555, 0.4454589987219594, 0.8239885340626122, 0.05866465866862573, 2.039558212495876, 0.3236988372832851, 1.1067370573581696, 0.10149290603870624, 0.06588333493485314, 0.44778766795019787, 0.6045358814818693, 0.4548648423240143], [-0.05463740786959054, 0.07258011505166338, 0.024590306749049797, 1.2418743503814786, -2.1511568770499725, -0.8666732782294815, 0.8614198731969064, 2.2650218995414995, -0.17742644031937416, 0.40388392999655376, 0.46542245549634864, 0.040344579187074917, 0.0427742929681245, -1.638323858912219, -0.2933657188075198, 1.9045030445036688, -0.4874782214985804, -0.9045164735192999, -0.9881359603772967, 1.2037810160985842, 1.5966575703284378, -1.3014713881166373, 0.021830746246982936, 0.31831517911917767, 1.5521866554048354, -1.2292766319944775, -0.4578536062442485, 0.275312439977467, 0.5689031750408733, -1.6121352823849198, -0.4514253349474312, 0.029426490035200092, -0.03973030224980065, -0.7468041134098928, -0.29984261325857264, 0.0889069229248794, 0.9754856114122906, 0.38250579410212066, -0.5732316549431592, 0.09413013750967855, -0.007337025501730827, -0.2855032549184644, 1.0298756682739252, 1.5163092119948163, 0.432551904857256, 0.636038914779783, 0.1274118743078949, -0.10943167948960596, 0.27312120190955225, -0.4922154513666729, 1.8498600252571384, 2.1721207675861227, -1.657393550767663, -0.5350811583658638, 1.0608639414512413, 0.5181557892285256, 0.09665938761616326, -0.17864613807650478, 0.44211548483145585, 0.6250845752984984, -2.735037197518567, -0.26730500299705645, 0.38742375618061387, 1.0701549632471765], [-0.008766146643685857, -0.6379592104849547, -0.6396105787106702, -0.47184798327380717, 0.03653275543200412, 0.7561436263998735, -1.3534313577799566, -0.6999906462494151, -1.759550922907237, -1.5242437926149215, 0.10040157596434272, -0.5749587289234916, -2.0293033384220527, 0.5496679331803616, 1.89691318968577, -0.3340660094339243, 0.46754815640912745, -1.8988566346610427, -1.6215687264441245, 1.0263968733241464, 1.250425699527614, 1.2391211496229777, 0.8982345284404446, 0.05719509261934408, 1.0922343838733866, -0.8945688711390825, -1.1536432028992187, 2.1748019677031616, 1.4574661553232102, -0.8343590289743987, -0.476192684071874, 0.6686207394235947, -0.09908007411754638, -0.5709307248156836, -0.7272050868596762, -0.3284094253917729, 0.5613286013322508, 1.1142623857285376, 0.468828535065383, 0.025885528085940662, -0.0707604580488438, 0.11810776807164285, -1.6162692356981485, -4.247010842907282, -0.3692585234957656, 2.3448059266693972, 2.588292111055913, -0.22722204606845006, 0.05322959681563059, -0.4321636717759859, -0.4420397297077211, -2.4323936160055606, 0.027247521488735986, 1.0805589928059915, 0.955175567730866, 1.2094021804251889, 0.004548749491693387, -0.8692773855324725, -0.588800018729219, 1.3982105190446974, 1.6447732368003263, 0.21723010026272954, -1.3973118403388374, 0.8953515923701699], [-0.010205865776352352, 0.12391338513120236, 1.028287076469212, 0.8044761278180063, 0.3903193369977517, 0.346619619127526, 0.6587816561160873, 0.03668908442908959, 0.06873152348610137, 0.23844168345005726, 0.9587874734331288, 0.6945799814750553, -1.448551256011494, -0.08173423711087816, 0.3465706916575116, 0.2539605239852098, -0.289742633319546, -0.3781041652637874, 0.7149358090292072, -1.5163418295823599, -2.3506306913933233, -0.49827295353364487, 0.41547444032777425, 0.09220951192964932, -0.1793417086376024, 0.7507008727263719, 0.8426074136250397, -0.83058513416517, -0.4472500716456586, 0.8430001728382374, 0.3272832520697875, 0.10342196290224477, 0.02465392339034836, -0.12900257214405136, 1.0025413827086453, 0.811503789588604, -1.1532880053272017, -0.5171444583526196, -0.5880643503462852, 0.01163176997254406, -0.033671204952167015, -0.36862310748152277, -0.2939553118382029, -0.6964972408215658, -1.181935363082113, -1.2796794334432071, -1.4573668369066757, 0.07080948958581945, -0.32894323529940617, 0.027264293278191114, 0.19950084657561826, -0.9723681682893914, -0.07500388911415252, -1.8319765336121625, -1.4448490616432257, -1.2497411174203505, -0.47563339006857214, 0.02368614143721787, 1.5062229572150108, 0.7191655628425597, -1.2549352988694231, -1.744427598483692, -1.5572736540872298, -1.842399703362547], [0.08798780709991405, -0.30140701639255885, -1.3414672672135672, -1.1360322881713105, 1.0892629566590435, 0.8237279255579265, 0.6219576136399592, 0.17439071389628713, 0.14068914578579444, 0.21209717100591155, -2.11235932062458, -0.5918040676611861, -1.6439420346284472, -0.3463786966855835, 1.5741130556814087, 0.187501068962397, -0.4838809085990298, 0.16543136237745695, -1.8502629178921481, -0.013035654670056457, -0.5728227586824369, -0.10372353710359485, 0.8303075207016826, 0.24628548973618955, -0.07313174333907564, 0.43452767204454323, -0.5879878017580629, -0.7520875958442024, 0.04159003257320833, -0.5907496825034665, 1.0346362345095663, -0.2708743421087065, -0.08635177732845994, 0.9158168112113824, 0.559708332907469, 0.48554400662982267, 0.8105901070313548, -0.46869943116676643, 0.11680430569708197, 0.039937285565628367, 0.14162114693956238, 0.24712666488765006, 0.2754265885445277, -1.2786212575556508, 0.5474054832743565, 2.244843429959473, 1.2455817217523741, 0.2862707329730336, -0.02914588989030993, -1.1065872563834995, -0.009202093176620957, -2.186875458133785, 0.1733032860004899, 0.2694792770345992, 0.5888454123603482, -0.07390830065103648, 0.15114159948350478, 0.46364554119801127, -0.22240588343470516, -1.675558519979527, 0.5492943657494663, -0.10509753073999124, -0.012110261696955825, -0.7733146598587414], [0.05781886492740468, -0.322595150883115, 0.17282128940425984, 0.12748079977631316, -2.40873797860185, -1.5790513333963492, -1.114190399448441, -0.32740331881073664, 0.13430155826250786, -0.44667819013924237, -0.39411551559813274, -0.6489218494814357, -1.2071679342711783, 2.174974561724645, -0.5037396572633807, -1.1411472834535268, 1.3442758724280695, 0.23059001871499454, 0.5704132065111157, 0.9089590314542646, 1.4104975888786009, 2.6953924930438613, 0.9482742943182967, -0.6608680798056716, 1.2988729053639894, -0.4687652874026328, 0.8188918755229992, 1.6744669859270933, 0.23189728624775302, 1.3936418274945672, 1.572958126206531, -0.009341316087511431, -0.04850453007088368, -0.5213946832403271, 0.08714300891860782, 1.0765495108857985, -1.3049939671487114, 0.26178620511077366, 0.12124169669076454, 0.04207560399134144, 0.059551532388736804, -0.2212853572791662, -0.09136243295643184, 0.25763319125729617, 1.2588170390385693, -0.17412690114374535, -0.13253118064538386, 0.2470496633097341, -0.030247389225358776, 0.2986512763716796, 0.10089156976228689, 0.07956543550048564, -2.8808640432692694, -1.2111401455251125, 0.13692782805130652, 0.006553887352507561, 0.1000520398579972, -0.4731987870471384, -0.23192805311634593, 0.6901759514762823, -1.9381279388804646, -1.936065882273762, -0.3750255717686122, 0.6626054973017089], [-0.10388444922913997, -1.3408126347665623, -0.07518151311229743, -1.28446835169129, -0.4054485780820321, -0.6368350091730586, -1.4938663224423734, -0.5741141269531198, -0.20645517373838898, -1.1749607957445778, 1.2669502616818291, -1.1694131982997034, -0.5038235750135832, 0.9577672821082511, 0.23208414504656763, -1.237376056182088, 0.25093639620438024, 0.16222765018825308, 2.416757381715196, -0.1335270087646936, 1.62406068510138, 1.6238246747600742, 0.37236886397678287, -1.446362980759807, 0.10595085843363525, -0.1667867139598542, -0.2934776314786287, -0.0995892981551987, 0.525701621760911, 1.5694511133436728, -0.7641757872343362, 0.07691173697136357, -0.07823767541903834, -1.137761287764426, -1.4439103015776438, -0.22021864756132142, -1.5956131819416, -1.1526480410574091, -1.3267722635250574, 0.0179810644109053, -0.03549986283770028, -0.33655345306441636, -0.15371639558556421, -0.09445123262462422, -0.9634234038904061, 0.5028458191712033, -0.629346466435554, -0.03722784828542612, -0.18122259625119666, 0.11046995015235184, 0.7969172470847318, -1.1905560839256308, -0.29573286298057533, 1.5749683379962505, 0.38538883036303834, -1.193671914195222, -0.10955427235906266, -1.5036893549334562, -0.8256067898449694, -0.0011642938941589334, 0.17222091585358656, 0.3822204161610649, -0.728869285712866, 0.1040080772599881], [-0.03938819188920767, -0.0157732279532566, 0.4958534649479888, 0.09116412550497266, -0.29743060290690226, 0.9994607002844151, 1.2054821164410443, 1.0217629340342085, -0.6205416862744357, -0.9314954132086514, 1.3393881207721883, 2.0829337768453353, 0.672250455321157, -0.5957234702204329, 0.16737807145700795, 0.6625930702337748, -1.1475799897020333, -0.7849948084459041, 2.65192595534857, 0.7453740808606572, -2.0123321256277706, -0.8858119152151305, 0.3366149558667581, 0.06319156264569227, -1.0632040029276597, 0.4966404836837917, 1.5773860211361668, 0.006291392869889944, -1.3231518573013974, 0.622507911896673, 0.20652691390946143, -0.6620354648271591, 0.05848184500102438, 0.4401512179735568, 0.034318137760075536, -1.3107692912115354, -2.5657429110669763, -0.7917698788030054, 0.2635502208707754, 0.10815081299236634, -0.5269740565026038, -0.40964022794187355, -0.31033630226239695, 0.7598034789500199, -0.568288336050707, -0.03307852819994461, -1.3773701998793841, 0.1404795962317036, -1.416394690637775, -0.10603266952250648, 0.7088561666553692, 2.979907394779856, 0.8883551261253285, 1.2088346660700413, -1.09200825529376, 0.8857698977213512, 0.08358646277791618, -0.0888561761570149, -0.5298692644017386, 0.645827628379474, 1.3400045295913159, -0.027234698779662773, -0.16791963444038893, 0.8546079727584623], [0.02179723649838966, 0.4127944283573486, 0.5104210200725373, 0.7016537076753117, 3.518211592470363, 2.1800012140121487, 1.1957168130932445, 0.33328896802536606, 0.01638788368463749, -0.0859710560976106, 0.9475940289013319, 1.184299877884436, -0.5963473339315122, 1.7080790393027618, 0.8897660322083634, 1.7764232292096003, -0.07618425764066965, -1.775717952149493, -1.410636423924888, -0.8772877607854698, -2.231318353420797, 0.32343275720624565, -1.4873845633712885, 1.3023965755408358, -1.2296598888990495, -2.5813196235225018, -1.3430147871288127, 1.2395522560620056, -0.8593689560669197, 0.01833038700022015, -1.6452392898512413, -1.1440542021430113, -0.028413467142854087, -0.45590700198959544, -0.08729335746339843, 0.13391015338735948, -2.4936248614117336, -0.050346438125945255, 0.8586412290589412, 0.0752227385012276, -0.09633737748761574, -0.1837378300818706, 0.19855838328665928, -2.9009227447018153, -1.7106387091478592, 1.7001050249775744, 0.49022755461524536, 0.08902505616828478, 0.4909939124472367, -0.7752225786516524, 1.2152587289784564, -1.6021114987792644, -0.2421916830017158, 0.4466609995776658, -0.29989731823038385, -0.2848373623794321, 1.3186084570143528, 0.2725192368330244, 0.30583345260967976, 1.3841998598081244, 1.6128954881104767, -0.7390182547569781, -0.5917979790510376, -1.0500211279444611], [-0.07760956525745225, -0.18296177962900526, -0.20025206149157565, -0.7098152103789508, 0.24691302060841658, 0.4420945862657277, 1.2401251386726964, 0.5149384510558878, -0.11273745662079744, 0.06934708058440443, 0.16103489226612816, 0.7970632269398042, 0.5779353270076739, -0.3682133303233121, 0.808869621090261, 0.6503189927162858, -0.1597422208274805, 0.29953530344191814, 0.5432003587313909, 1.5000808043484823, 1.2622837088707608, -0.6590414038302418, 0.34890021816613803, -0.08417314271880999, 0.3239907999064251, -0.10445926134690518, 0.0597169765594133, 0.4335544101292771, -0.6929017928003421, 1.0734553414283008, -0.4012461822962701, -0.2053643029199375, 0.06563133112704403, -0.7595882877630682, 0.7684017436694877, 1.5896567910943704, 0.6965768542945561, -0.24378443554528134, -1.1395063619080255, -0.0110159675109959, 1.0298296648063574, 0.2931209152944727, 0.8611050609067127, 2.398061849035114, 1.0196420692438004, -0.8160372809373053, -0.4546559633852858, -0.46738836360351227, 0.12381732214002733, 0.023991722120840567, -0.7615198990686637, 1.1550595244377821, 0.2335940329340234, -0.9921136436369118, -1.144387128017866, -0.7606799324491941, 0.05553352973767199, 0.05261936314360863, -0.95978910346429, -1.2772898584069794, -0.22570970081753552, -1.3173206413149028, 0.1301033220147905, 0.7005023447270816], [-0.07791196537100106, 1.439626106949464, 0.873661904352395, 1.0058083190668676, 1.3219972468378198, 1.6604715326906034, 1.357639722912651, -0.7403766906030019, -0.018756635676702677, -0.027869383965346994, 1.1133162203249545, -0.11282297204997803, -1.2685044915357553, 0.762388969627389, 2.0925229912964665, -0.23406584701788005, -0.21025595020455173, -1.5476470058226037, -1.0465902189330154, -1.4711821461517585, -1.0607052616326467, 0.25047463838676964, 0.07304660932194174, -1.0283803302876622, -0.34388385542575267, -1.0201777866195332, -0.5127739868540957, 0.7794711125585189, 1.6567926112392217, -0.24242983991661649, -0.32970078693417815, -2.0775979938131695, 0.07061473101494714, -0.4476428431789349, -0.10199920362587762, 1.909835721408932, 0.6479592615720113, -0.4683471949030841, 0.17332217748200449, 0.03771699618964289, -0.07752399052213856, -0.6874162937725008, -1.9843164590591236, -0.8182902732023732, -0.8238881091537503, 0.016048218058400118, -0.3310201544585374, 0.10916833044115634, 0.19335377282389446, 0.45495502215485106, 0.17269110963543094, -0.208360582304949, -1.6594988592017443, -2.1448741731400527, -0.8741140850815821, -0.21163067630795526, 0.06560088715231004, 1.0068822356402214, 1.2505425071277474, 0.7780520251788565, -0.7429807486287726, -2.1624226312171255, -1.1499273654497675, -0.7670104771166205], [0.028260949482454195, -0.23860873862246662, -0.4211472855910056, 0.08615341941861394, 0.026951521494494264, -1.255490378975448, -0.6595173560871249, 0.6526725797803317, -0.9680780629924458, 0.3400272664056107, -0.9670433056926038, 0.05826762738044961, 0.13849293397228774, 0.3437479966851867, 0.4147081689315717, 0.4326553120815774, -1.501342621903804, -0.37465183024819876, 0.9066044273739916, 1.4490310579893972, 0.0840999028067665, 3.398486930822636, 1.9018911781203787, 0.052845767408632595, 0.04862565844133071, 0.1604859289670541, 1.9767203202836292, 0.18982057836851346, -0.8802226230654474, 3.994183440420477, 2.311461895821234, -0.03921113743165318, 0.07189819310397319, -0.9764450042652324, 1.0817818999964217, -0.3794111118032774, -0.9260308501278806, 0.5081836243677301, 1.6978286571413805, -0.09832669740790378, 0.17152656023071705, 0.46867700053023886, -1.3304777235650593, -0.6910740725195058, -0.061053996840945216, -1.6652204028209627, 0.16817288239577868, 0.050665375321615067, -0.034379686767503886, 0.4522388051930389, -1.759451647253995, -1.4127044203338408, 0.584000251228158, -2.154818724508645, -0.764442044831835, 0.07410105959449388, -0.2193614082185662, -0.2836377499984262, -0.0746173576634185, -0.3273550677135642, -1.3250281870518736, -1.618060979231813, 0.2277062342770836, 1.1961002373481016], [-0.061296921827760614, -0.48975935864263853, -0.8045676556499686, 0.16264932851837718, 0.8695055502073901, 0.23865125214821087, 0.6900015798372428, 0.25521103292067604, 0.10404907727995326, -0.47404556934388414, -0.060014367186212336, 0.3761861333992546, -0.3813554343591059, -0.6518275630835221, 1.3645558966351397, 0.9408157005815748, 0.049919820501777984, -0.9076452495706392, 0.6481608559554964, 0.8298873148838802, -1.1319336481239175, -0.6847608067381407, 0.4398399006506717, -0.19849449640727382, 0.030761852440095255, 0.15566114571992376, 1.571999849130989, 0.3116944085162714, -1.1045423326038122, -0.8979977340134733, 0.716431212304167, -1.591298371172605, -0.06907824886890682, 1.0135574375159353, 1.9605217212694115, 0.5567772986851411, -0.8584450927562854, 0.014049077474476201, 0.3299980499260459, 0.04602831824327952, -1.0947775741143992, 0.21512635899068872, 0.7204667589719345, 0.2753505185402386, 0.3170278707984292, -0.6028268131697524, -0.18142318007835137, 0.43061392983595714, -2.9136016291529234, -0.6452418194311269, 0.2562918210496586, 0.4761711156648452, -1.6052418000111304, -1.4198779394731273, -0.27381897207640504, 0.1722943754767952, 0.181177692870163, -1.0594247999994275, -0.16907462026079007, -0.5408502152271076, -1.4828210462976354, -1.1337796831465998, -0.8426528873912444, -0.022854644429047378], [-0.06804488255105798, -0.2449333872465618, -1.1361188260632602, -0.5036479077711171, 0.4739106034981288, 0.4492308234972117, 0.8868366498309779, 0.38349458903018613, 0.16625247174769592, 0.11403645121895979, 0.4877994897557521, 0.2273988210664901, -0.059533809465696, -0.009803057416143285, 2.1731101891141047, -0.07834400329074988, -0.058863650521999426, 1.0686740056044142, -0.8530385695323068, -3.0624431325525143, -1.9506964605049277, -1.2543170988258754, -0.3631721667893394, -0.9723336910056946, 1.7379967392700195, 2.3565454877736154, -0.25514184407459867, -2.6251928791550836, -1.3004602321849172, -0.06889860918969094, -0.9120567071335687, -0.09026616838868765, -0.040019920573836215, 0.11332373021678019, 0.5667181589256017, 0.42806667190423636, 0.8612792940281345, 0.9946900707342397, 0.628415113297709, -0.10332864120053631, 0.037852363780591626, -1.2506764849388876, -0.21480630612032725, -0.4327475341736353, 0.09205506506468587, 1.0664338653432068, 1.294473320611688, 0.28645373965885174, 0.009251478259957611, -0.8460626210001178, -0.2945586009608869, 0.6864328872837059, -0.14124046184982683, 1.830892418409252, 2.3110690139286225, 2.041273086866958, -0.13330391711730144, -0.11656846872030723, -0.7766441815688488, 0.6680326451777151, 0.6257259465827948, 0.2176325309624912, -0.1556526758238833, 0.37233838688215165], [-0.036156542979211115, -0.5479422436206771, -0.008509990439907017, -0.11330647328807994, 0.6240062933097147, 1.1428035450365477, 0.0008815133724027977, 0.15348527284196284, 0.015416345907565328, -0.19918865439055006, 0.743791406746154, 1.203298665818054, 1.3521002117592833, 0.9515654365514136, 0.24620899413364195, -0.09306500001192324, 1.8376356770264406, 0.6247720415950033, 1.454071293435407, -0.5749157104441719, -1.0472127616879916, 0.3152080422583015, 0.4065646918801526, -0.5846042651481936, 1.6282951101620395, 0.19382966681636984, -0.12284089524756231, -0.9770468802978665, -2.369738039681897, 1.2939041437243515, -0.40719453406943806, -0.04411376132637393, 0.05067515203430051, -2.249117908672438, -1.8049774182966516, -0.7344732745266225, -1.6059090055321243, -1.3617838913563032, -1.2769479913843982, -0.03198499447475592, -0.03381974204442551, -1.002094718283037, -0.34803197202093367, -1.0039517462036451, -0.2959073141103765, 0.6199399903785505, -0.6928858656142864, -0.15300650443341887, -0.10680524627130102, -1.0439645178363666, 0.7401632974793662, -0.862713750318758, -1.2567696494644762, 1.4924228157159525, 0.6423095794993298, -0.028710507921455086, -0.15656874179995486, -0.6197532526280841, -0.1659710385624769, -0.8929232973009019, -0.2808243047355368, 1.5857905163160926, 1.1268840665901376, 0.7192236072224923], [-0.11466727997097026, -0.6055561088823036, 1.183283089366871, 0.9600730131190589, -0.20669633564866743, -0.958454949702825, -0.6400897289310226, 0.26167634365394726, -0.07674126121326742, 0.12016839855591052, 1.7375518736951439, -0.2584449730188038, -2.6100409714789135, 1.091634487710916, -0.04773587399996309, -0.011530099773306778, -0.18267735588366246, 0.5384526639933942, 0.9058045413368674, 0.05297099260392082, 0.698286075819046, 3.792964915069856, -0.07871170534223178, 0.3254266319752637, -0.377543082405448, -0.3783130798290232, 0.5917672881765591, 1.6808156338247042, -1.178959658810423, 2.2050170062695034, 2.5036842427074384, -0.06650172751434216, -0.018420673611238947, -0.3169740419462619, 1.0731196987778566, 0.25127466621191596, -1.9630923132370552, 1.110589222836206, 1.7007900006763967, -0.10456337631485918, 0.009630018660666683, 0.6654554559941113, -0.3017451428554794, -0.8919853231965029, -0.7359447366283336, -0.473625960682435, 0.857145885919356, 0.05982374258689048, 0.03225263603922262, -0.7777297703700572, -2.11071596043361, -0.9427069961452648, -2.0161651794118605, -2.4205611257748174, 1.0364808523012627, -0.4781876472067889, 0.08401746241014742, -1.8870241104836265, -0.034084395896531436, 0.7551605899576366, -1.4779253652286781, -1.0818613733195794, 0.9390494306837518, -1.1210541029268049], [0.10015575103033689, 0.30676921111921923, 0.6518751952156193, -0.15986685140013682, -0.44401485169422195, -0.24606471904070357, 0.7403747146588188, -0.05420999139287265, 0.9248759866728398, -0.09730947729835379, -0.0489638751527161, 0.030912928927983647, -0.08988674742998569, -1.4607269777527128, -0.28404895494793675, -0.6827411257553171, -0.49404593266704955, 0.08786118666126892, -0.501937168816403, 0.5923783141186667, -3.0581627939933056, -2.653656499017816, -0.7428129366305805, -0.6813751941851994, -0.921190222213363, 1.3296709051936157, 0.9958080791518912, -0.07444050846385811, -1.1531594194141932, -1.044002097521603, 0.3789272424385956, 0.16778267491301807, 0.007031115886620087, 1.0058921218607653, 0.26501930237616717, -1.4089770866025333, -0.9261932156022453, 0.56622909653759, 0.6920283218033086, 0.06467414921674769, -1.466506900446223, -0.32819874681154615, 0.9314769468070967, -0.3477189824636187, -0.6759606367366905, 0.058034329809864345, -0.4882884449688829, 0.28262792710585427, -0.1418349060433832, -1.0044691151084242, 0.7514128125796967, 1.0880125576116304, 1.480150222626507, 0.7013184152015628, -1.0075931833327798, 0.203952093902541, -0.0031444188896829445, -0.3645691098748253, 0.23147986395526138, 1.4606456652740465, 1.220785943063149, -0.36367510216250193, -0.24199713803132566, 0.9229547330864105], [0.09951736831290495, 0.015521605790101723, -1.2609360922980943, -0.5256136137506731, 0.8551594015367028, -0.6064357478385298, -2.2073342096983444, -0.32735838985969806, 0.09122140896690357, 0.3415640705991894, -0.7033689695780785, 0.4262006585690944, -1.1017194148616773, -1.01532964796024, -0.9412104455230426, -1.3925890556138643, 0.12563787871225449, 0.8023045798753458, 0.02898079436917166, -0.41171680178266495, -2.1917975587001877, -0.5974305875370309, -0.6168216104076883, -2.0938212147607587, 0.8639815865957136, 0.0020785086153751442, 0.050388800326929814, -0.2116215343732787, -0.9803520353004984, -0.6767040385519419, -0.08676967351352456, -0.004251412373287065, -0.04566430317128481, 1.1586924340115476, 0.5286569412617139, 0.5059240083549947, 0.9319360263872126, -0.38678144904420175, -1.0341860092990653, -0.11925810911276877, 0.09202126374083222, 0.8684217207548178, 1.7175464317457794, 2.0757483150016007, 2.266625945534129, 1.6477628607350479, -1.458585346080696, 0.3221015142443318, -0.07195532125637062, -0.7910219460158848, -0.6147989072223413, 0.8647213538415431, 0.44195398458684126, 1.6320296222062567, -1.4234071096199563, 0.39586286686342337, -0.265662586088628, -0.10208164685320767, -1.6279703686521314, 1.4167738881651493, 1.8326748012859941, 0.053050572701114414, -0.0935010548476824, 0.7721639355699471], [-0.007832215852751206, 0.6028550992601693, -0.31088934788738143, 0.8905660717785279, 0.6587353655559297, -0.7159158470975014, -0.29401094946608725, -0.055456865925509156, 0.0849833320661832, 1.6729325594743596, 1.9142936292141222, -0.6689777311639857, -0.5698426317385845, -1.074030142839819, 1.198534350388304, -0.10099480561240813, -0.03090580943685523, 0.9556507357653177, -1.9002886123752252, -2.293325727270007, 1.87001997834056, -0.2386828230042962, -0.20633613662213612, 0.015461917050771625, -0.4080571852696137, -0.9101040654310861, -1.2105106729582995, -1.072638567549497, 0.98564955755751, -1.65560452512073, -0.587122141113274, 0.003905869689741368, 0.0929552659434856, -0.030364445162779294, -1.0474076930815184, 0.07435102397880047, -0.3441564429800157, -2.4432999553628196, -0.27342575338536296, 0.05449863648932782, -0.10040409785143126, 0.1721212538646059, -1.5249292181969494, -0.44560197467264717, -0.4608071989107216, -1.3233738439478047, 0.9336995212770333, -0.38074288182230626, 0.11929741132847961, -0.3067720164539945, -0.5534691850493911, -0.412888164358297, -1.4582663654378578, -0.43173808524804036, 2.4656618525148044, 0.7620390910201079, -0.0936361337079633, 0.3992180910752363, 0.28807451332306105, 0.04312778158068871, -1.130817736169143, 1.1080011620867778, 1.4201412179860196, 1.8413107379758942], [-0.0640779980883425, -0.07868984599914666, -0.02662945049260281, 1.246242014876051, 1.0406890153663175, 0.5054781600958623, 0.18503563821686558, -1.798366496517617, -0.1770943514039843, -0.5345530828994098, 0.35898160032384824, -0.0317769353217601, 1.3834636136491851, 0.8659364343021478, -0.24071498611909498, -0.1064674974942865, 0.09713614521500107, -0.7073995130481984, -1.5904604335222445, -1.7808151146224165, -0.8191710256124948, 0.7897530650220389, 0.9299783070212141, -0.4768937623516147, -0.08085326606370503, -0.4951373736324946, -1.071716179277938, -2.3406457656282815, -1.110283316812132, 1.7093320261187404, 2.1374412473190896, -3.2380281820996135, -0.07990872679062008, 0.33006750362900583, -0.17662495141448484, -1.8163055865811382, -1.2326271605763968, 0.9960372023201944, 0.6585102143487991, -0.0479096181229601, 0.012517899905463132, -0.5902926375509023, -0.9416416923682356, -0.4688876620034846, -0.8545361111089088, 1.022225513922814, 0.147935840167254, 0.28093567696277155, 0.06266220467516083, 0.023266298976288267, -0.23695127911290542, -0.23409799823028082, 0.6958732369659774, 0.9388284822801666, -0.3543771984542877, 0.02928502796760767, -0.045938147979772914, -0.46435271829178987, 0.09405577667235131, 0.0479911542417529, -0.4711443149919242, 0.18769444875151697, -1.003726053830138, -0.051335139635191665], [0.06399461870956463, 0.2515807267054416, 0.5698774134597707, -0.030795792943985142, -0.04644802387366834, -0.28362185578735183, 0.2832012052576086, 0.42074441958377795, 0.22752663214828453, 1.434711334411688, 0.7294048034488351, -0.43735196035307483, -0.3296251702506594, -1.2582011439819896, -0.38253565245927884, 0.2878981899271003, 0.28001700591064765, 0.5000020341164441, 0.03879413138126889, -1.6313731975791526, -1.3487366916715342, -1.2791323385592925, -0.5406106653551399, 0.1397767689467649, 0.1953402420524338, -0.4548592670830449, -0.030351731995150462, -0.50571101571175, -0.3520134426886232, -0.8125122400506697, -0.44311348468878703, 0.06775821080376582, -0.05958103597300152, -0.3867125584541518, -1.2998689614375623, -0.6567778389811466, 0.36460713975437653, -0.18637487572595485, 0.513869149208834, 0.11426047235996628, 0.27421711019905703, -0.8434848118467104, -0.7171150760074733, 0.6776676417752218, -0.7755387683670893, -1.422915605738074, 0.7030145739746185, 0.3555219988297657, 0.215554529813878, 0.8543774881476537, -0.05671468396293078, 0.34793280773880203, 0.6039053492459605, 1.2720081178079512, 1.2681362937710727, 0.482328171918237, 0.1596502547092828, 0.5850688000893833, 0.7587519498664645, 0.883153735461884, 0.6964207769740915, 1.6496780451799287, 0.33898930729605936, 0.4338880027299149], [-0.03604190687699313, 1.1248077200377993, 1.886846274802092, -0.6527528988824881, -0.433193493180683, 0.456108379027711, 2.2454359073945493, 0.4479487929161712, -0.061817270229707386, -1.507229066615878, 1.3779208785281685, 2.9060880338045827, 0.39268714136327193, -1.2148006299820322, 0.9313620594905124, 0.24221266040580247, -0.08472144057196873, -1.608326427386422, 1.4774763998200562, 1.030929952424499, -1.179275286889819, -3.3452864455237, -1.146880989151165, 1.0018340285890563, 0.2311976970008966, 0.11396351213432027, 1.255843998312774, -0.60439058515628, 0.2983120525748377, -0.5819176230837546, -0.7384865267433007, 0.9626799100894579, 0.040605796429099256, -0.22796205054400132, 0.27580286276185684, -1.1057606909673257, 0.21879027562575912, 0.7391357478284417, 0.4865144625521958, 0.017402062989734457, 0.2527057734702244, -0.09695948390988858, 0.2531510719924211, -1.0470397116947268, -0.7299246426616258, -0.176332254163556, -0.4835715774202818, 0.22887650835776496, 0.7663591461139894, 1.2678336869432438, 1.8916876157702653, 2.150143433273333, 2.1785793613937314, 0.3657254109603041, -1.556826660509349, -1.7316374606338356, -0.09302789552862764, 1.4603805357544914, 2.605794488349898, 0.5137761887945684, -0.6698068144771827, 0.06349558666348304, -0.4061666037862255, -0.2681217313681746], [-0.03611828465418915, -0.44646512693050305, 1.486871902061763, 0.24393109873780972, -1.9897948633466518, -0.08211988668184551, 0.0713288484832378, -0.465522522190561, 0.554583265351084, 0.04942138904050489, -0.3173288265157939, -0.029096106792238265, 1.462877570963337, -0.44547428838346215, 0.8546236619775868, 0.03087567121695981, 0.17325305171002428, -0.8045436543219382, -0.3128004248571028, 1.312427504786061, 1.9912703876038353, 0.8512730393037816, 0.9929052959742009, 0.8495461661062635, -0.04389378510561254, -1.3177066560822885, -0.2960115875968696, 1.4558348487604438, 0.829926836523098, 2.478257418269255, 0.8286688328900006, 0.7768565294365357, 0.0011443281879999212, -0.964366868572693, -0.3363931991646065, 0.789272539754034, -1.6802001229076422, -0.029400468558697105, 0.051443838649337395, 0.027005007963150307, 0.5304807005557115, -0.983666086583088, -0.8078252891585239, -0.08608704585711323, -1.3053266709791205, -2.4595725364954717, -1.3889436930364898, -0.27922276009092084, 1.676886063962823, 0.1962917549422089, 0.07665394560256171, -0.6933875292861946, 0.8673215632841578, -0.5047642185108018, -0.5730987063521905, 0.35849100623645774, -0.10459460192824192, -0.03631359189453386, 1.4943679474006095, -0.17347441938531827, -0.44570605775822386, -0.5172544410375765, 0.39303231276631245, 0.7102279889332036], [0.11053116547847328, 0.9571079621155576, 0.3962950838902812, 2.35981401439493, -0.39110234275272654, 1.4661890330145864, 2.0513353613169167, 0.20876468504845716, -0.008918744398952088, -0.7750360673215643, 0.2686961542354931, 2.803618002933312, 1.4194239813862395, 0.10055319284810954, 0.13740345170767784, -0.8551289945438386, -0.06924682415368762, 0.011786532038834329, -0.4257391588463608, 2.2828632743501545, 0.5297813092270571, -0.6763229044498399, 0.2855511734234966, -1.4713811151136722, 1.3466686981150722, 0.3179827174314558, 0.16809690262538737, -1.3693618819265643, -0.42212061366878706, 0.5214847543451606, 1.574022285038525, -0.8181960092995477, -0.02480686137624366, -0.3912612574359254, -0.35779291668618246, -1.0809671889684698, 0.6023179303832452, 0.9973389078438041, 0.7516188567500122, 0.058974102677948476, 0.04884349595838154, -1.8638813667056446, -2.8247705071936573, -0.0375340443310213, 1.456481619002228, -0.37489722866988406, -1.7281097921249524, 0.06866481891329373, -0.2086905109972346, -0.7413881450333782, -2.0754339867685334, 2.8085696717916164, 0.48970479341793305, -2.3313078618950946, -1.2710802273730022, 1.1147850821738907, 0.09091786039339537, 1.3728139703296993, 0.2754843259799442, 0.5130302779898194, -1.571650543433221, 0.3201668737409535, 1.6210018408847997, 1.7380737584930739], [0.001113870090872937, -0.30692676014069886, -0.30811179090021573, 0.3656824017854843, -0.06766562880229796, -2.1458524026116526, -0.8843356976936988, -0.07590042691287811, 0.5176298795781301, -0.14816657754342186, 0.403595863646691, 0.4492698867674268, -0.685612680858452, -0.8817837940322278, -0.06672396491276852, -0.0797314832364009, -0.08523135310763225, 0.2218647551788954, -0.23806330620374933, -0.005674734458808579, -0.2284522901034573, -0.7155772544816081, 0.08059605414898972, -0.21441474458882875, -0.0811988837354592, 0.5758714922567562, -1.528258994007937, -1.0138151366689565, 0.48243478251275923, 0.05912410991913071, 0.29452342909954493, 0.024373615728013054, 0.05077139833004232, -0.31273205030148116, -1.6285268060315037, -1.2001516414734323, 0.22072766178585745, -0.18812937590326864, 0.9408705071941574, 0.06296023548166604, 0.10057475359203857, -0.3713592734412803, -0.32444111430363387, 0.3673218989732641, -1.424213885753992, -0.8108295009923131, 0.3380580533189694, 1.3239096133239903, 1.2044151459549404, 0.8137212645282144, 1.832213375332622, 1.5245811198413057, 0.08929062691489847, 0.9340712036898429, 1.0690081350589955, 0.6012174828999642, 3.148357218829843, 0.32661659285410966, 0.1360468109313993, 0.24374097527053423, 0.41904922594747607, 1.4483354305364222, 2.277417514674915, 0.5081395490800384], [0.1086361235623482, -0.48449213642494, -2.1256926834465113, -0.20321767806115973, -0.4234603093406952, -0.829448585587905, -1.2181427248555967, -2.2426198206690366, -0.04643754025813512, -0.5748289858713697, -2.361836002271554, -0.556288036757326, -0.5260381891170078, -0.641298488391446, 0.41446027435491045, -1.8497095677043063, -0.06783741198759044, -0.8668652014856589, -1.4764867553075571, 1.4491907386746459, 2.817586933220778, 1.478646490321126, 0.3603823629569029, -0.05605119515289015, 0.5894321399177747, -0.7655354389001808, 1.3990133452160916, 2.437637257221812, 1.8051776385114215, 0.6240909978165576, -0.6433291957905529, 0.25851184329424626, 0.02222182938071396, 0.17121668673982546, 1.200219542075546, 0.7563723306521914, -0.6302851103313905, -1.1783979496221328, 0.5613032655037155, -0.09201510979404307, 1.0009812278332788, 0.945559751661855, -0.2893732358504682, -0.7499881520928788, -0.9800079792683528, -0.5987795624489344, -0.09197671658323298, 0.05282783915946336, 0.24610722067430968, 1.3494567969609879, -0.6268577797149402, 0.02590811799530708, -0.0877104330753596, -0.47603103917311346, -0.8426745015847559, 2.3053477014265824, -0.11424775846855874, -0.6803978437877631, -1.5588831567420027, -0.12276379725564505, 0.34845857308075806, -0.6505126610560211, 0.06895440254157302, 1.5900713446043744], [0.1225755891486684, 0.43994205574671674, -1.1761184465707715, 1.0660922565175182, 0.9859387256724179, 0.07726521511180143, 0.6013686341599922, 0.7863181318494199, -0.029310279545986015, -0.3543916402544396, -0.9379628166291102, 0.3129005620858611, -0.9208515798165878, -1.6131921765696695, -1.341958877381391, -0.4455379296541299, -0.24720367956122272, 0.014033470154977558, -1.9116637511078578, -0.4023111631544912, -1.5553298980729908, -2.181986958894207, -1.4556163937404152, -0.2973624177013655, 1.1103759423285708, 0.3720649168081706, -0.24992275191921207, -0.36540253607553075, 0.8530749418779612, -0.6783739719391242, -0.5332576313415968, 0.6417649879696381, -0.09687393776310599, 1.1374274202066368, -0.6953835470670802, -0.7493481049330303, 2.054307215910068, 1.575730388798335, 1.6280150026636422, 0.10500900236229255, 0.08215969394879197, 0.44726617795748475, -0.5098847218151171, 0.43126967087043394, 0.3755334838275863, 0.5275402411593636, 1.6777176363461703, 0.21338463801643956, 0.1811789348842738, 0.36554375946945117, -0.5130177079072317, 0.27452632497185037, -1.053016365968886, -0.4192766767920624, -0.5137430007753248, -1.2996040752235885, -0.03660030194364985, 0.36498383062692885, 0.08251980191329633, 0.5805925822714827, 0.8254873634047516, -0.11668422302013494, -0.7019477440948382, -0.7663706657713137], [-0.056750306541699436, -0.3835532738790811, 0.7677733873532123, 0.7021819938618526, 1.2543594622238827, 0.593152059366682, -0.35204466446920213, -1.383024504344407, -0.052907868804796636, 0.7876282917900906, 2.1733728207028946, 0.008472950192391908, -0.48749273861113096, -0.38469279423408886, -0.7923764218831669, -0.7247826708930316, 0.15719355880918096, -0.00964103203942999, 0.44019917152000765, -0.46325575036361305, 0.4403523041179215, -2.5055988177762933, -1.8211574663211032, -0.33629973656877016, -0.3915239888218741, -0.3466832509142965, 0.0023103663665038137, 0.5126531524753796, 1.2597881836533986, -2.507685843280337, -2.190108598493907, 0.06765291383294945, 0.029363889976793234, -0.021006393239845947, -1.515667262716307, 0.4272252053830514, -0.6749279057838468, -2.0282769218699883, -0.5109546552587639, -0.018275800372639428, -0.10063217734596352, -0.46690071683872797, -0.6769954018997791, -0.4316961753994779, 0.8651160058748604, -1.5708582063030871, -0.328962845136199, -0.06037141016666549, 0.05665387364016029, 2.120137957094196, -0.32212089353895335, 0.27255984426199814, 2.7763173248295705, -0.784210856062579, -1.0349286364899406, 0.3035882261675338, -0.13505371321105816, -0.016043026225788525, 1.388717004335847, 2.4010782271220124, 0.8909919183735541, -0.383142105954142, -0.7479563742045974, -0.09401851788447767], [-0.015426776779654233, 0.3923280941713343, 0.9092674019166809, 1.0697477123701844, 0.33903685739146894, 1.3711206614080091, -0.20018071276521512, -1.00510426717441, -0.15930844826592075, 0.3563926816641384, -0.4325114030259924, 0.5223294158276024, 0.39743873706797445, 1.081311945517966, 0.20531904268736628, 0.39173154978113883, 0.058204872587601084, 0.3266011141890932, -2.051909089394031, -0.942661231846017, -1.028680931082262, -0.47240740419005883, 0.07247452121977936, 0.6593599964125912, -1.3563559311517461, -1.3264530825524496, -1.4261447117339259, -0.6977842900328297, -1.0388899361362502, -0.6918421844931952, -0.4799213019351745, -1.7391317319238313, 0.11794188255660534, -0.1640622785120936, -0.2545853337518434, 0.3623561043081971, 0.25619275187959967, -1.7322959434692975, -1.4067522343845262, 0.0006256115752026059, 0.04124816444810122, -1.5933796648700407, -0.6085965979136345, 1.1980129439246177, 1.3722889176947042, -2.133692917911178, -1.7754223541104142, -0.1870001188108397, -0.037694942801430126, -1.427648892149074, 0.44622856956430745, 1.4805570948971374, 0.17689085460635132, -1.150276780672258, -0.2552178520334188, -0.24256225184069596, 0.3826217644168043, 0.8808288083526212, 0.9396629342623353, 0.3423861994406036, -0.6139685181442575, -0.4941330572372335, 0.1703756012904854, 0.48593322320411814], [-0.06833972808810831, -3.914088151275685, -1.2394832227717882, 1.017104758021781, 1.8805091113463643, -1.627878404790474, -2.395538306128344, -0.33681420341409235, 0.36254541404760576, -2.1341446128993358, 1.5498571542434738, -0.11637523156154186, -2.8422345109319673, -0.745365803131604, -0.5803319795346553, -1.4170273750352, 0.11007138317737611, 0.46271850336433085, 1.1829524782055314, -0.24189436276101853, -1.9433005212502314, 0.09981773823020408, 1.0667740974066515, -1.6422032136675369, -0.06989222062458218, -0.39822693430734035, 0.8674876189147557, -0.5980509016704378, -0.06846360667945904, 1.5577096880858734, 0.6579979496097248, 0.08453805285605023, 0.004220453435459459, 0.36355547029897134, 2.0869657579724312, 1.1022013656955079, 1.8896021073282974, 2.1038893871199855, -0.32019452954769134, -0.048882613928739216, -0.03669227540873632, 1.002024428051009, 3.505851494248118, 0.7954687628345529, -0.6560489454363025, 1.8245625147099311, 1.3366868985875957, -0.4675384154452196, 0.05944883739395877, -1.5699309344050105, 1.0509211393201665, -1.248204935380946, -0.8390790112687592, 1.8660678740171508, -1.1742265545469053, -2.2825810046576556, 0.07326911638999062, -3.8799602128228017, -2.698901070345899, 2.9399372890684643, 2.915269276011615, -0.9752995846888332, -2.8458306937405218, -2.2817772361595594], [0.1165536864615267, 0.3259456689651997, 1.208882091800668, -0.9560340168061122, -1.5166223543079713, -1.8413531296726162, -1.553192020897933, -0.4504593251647778, 0.2894722111081157, -0.7859294497823744, -0.137692764424712, 0.15196089053178283, -3.081433155575023, -1.6105647228787934, -1.1008117533952197, -0.6344046565209079, 0.16019488410005683, -1.2663197311352965, 0.8205073812977169, 2.586907384510451, -1.5897158671342606, -0.9896051583009604, -1.438861187751246, 1.5172259076393708, 0.07774658378130662, 0.3059551158394174, 0.6679641153424944, 0.9893800205286268, -0.1706596504759961, -1.4902914829570026, 1.1618487635782435, 0.1549875900439648, 0.08324487949258072, 0.7556637785541902, 0.7245153267263535, 1.6260295830161917, -0.24906705373778534, -0.8919744503975143, -0.022392827209406142, -0.1187786978088558, -0.14989194138524123, 0.6335852632490558, 3.0186998847518907, 1.4729699594051304, 1.1928315235571523, 0.2844662232266026, -1.2398120259811036, -0.07970788900320934, -0.3170629819953423, -0.08897037904733557, 2.996521475420434, -1.8086362059384822, 0.9367929527353839, -1.241452442096228, -0.4054225572716553, 0.9151974292694841, -0.16349413773210048, 0.5492924517917986, 0.7469891672548635, -0.1644174818301506, 0.15289674612302814, -1.4687273342314644, 0.5149999727827007, 0.9234315694794596], [-0.059823027830830044, -0.6814804192470097, -0.6956879450443136, -1.5761756973662462, -0.8265476490702176, -0.08468482891735399, -0.2859436939613874, -1.2437356315180812, -0.10718894609591914, -0.6561550804139928, -0.259612737805437, -1.3501435359250789, -2.0981665209182854, 0.48568629927663337, 0.922019716976417, -0.8885667886315649, -0.06657984079872895, -0.044194400486822105, 2.435795453354341, 1.2333916318180207, -0.15615654088819558, 1.9618291721374426, 0.5901958981254556, 0.8775688824498565, -0.10632676455388795, 0.23058587129570898, 1.6979912189921365, 1.3302816482987674, -0.09039369509126577, -0.04223999931836415, 0.48626139925072365, 0.069917663117314, 0.03657014002794354, -0.8711677598204498, -0.10087403208318359, 1.4192003127467783, 0.13906318612430507, 0.012430824632648404, 0.1662272749777893, 0.10512953714133966, -0.0898501515126668, -0.8195930804253759, 0.6397441553035706, -0.668316338363295, 1.1066841634181777, 1.4524601685857887, -0.879916984703524, 0.34181913312700557, -1.6764067456064358, -1.6159870878814502, -0.061684915762228926, -2.531911630587998, 0.5327094207562677, 1.3176606899748027, -0.42694304174832065, -0.20519117762950048, -4.5668960708645185, -0.6725883206060882, -0.6156151773160199, -0.844430088624565, 0.3417216797622409, 0.41384399135182304, -0.1509198207306347, -0.9095976395107308], [0.09858938467135955, 1.1974891814404236, 0.3635717347604993, 0.27526778986055456, -0.6770597189295923, 0.9245486074578304, 0.7179307241311919, 3.0982041809017358, -0.2097291849112056, -0.2217932185858199, -0.03934420859585984, -0.26849561261946164, 0.6973413955678612, 0.46650372770291504, 1.9767844899838256, 2.5342342583643136, -0.10796866601169576, -0.734042082711306, -0.3894196882625064, 1.4584967468525916, 3.1307001118464655, -0.4291658516690573, 0.5222178507258621, 0.15784977922115037, -0.07846028148029685, -1.1993185860446605, -3.755753131801684, 0.08629639197957933, 0.444159861423918, -0.4486063964608977, -0.8384998920293258, -0.0941255620165275, 0.06574332151709136, -0.8903372820955212, -2.510874405378294, -1.7977288936239397, 0.8039524115245519, -0.2975534181159553, -1.1289149829648188, 0.039945082256224146, 0.08920725108045065, 0.22780565623851418, -0.21035501747332158, -1.2523872049903275, 0.47978514707452413, -0.5351781527640584, -0.014066000226063604, -0.2942823270426347, -0.061296045481668726, 0.2833441230658663, -0.6380426243403284, -1.330967730507286, 2.392378334774726, 0.5159008333938745, 0.9228422653958647, 0.8460306372406735, -0.4595608535706265, 1.863992322640144, -0.20237599577499515, 0.2610215866051399, 0.6665786323114289, 0.011030653988889505, 0.6440838768803581, 0.07855513114880572], [-0.10631579490074378, -0.7423920633788648, -1.6158507751828002, -0.5317295030316924, -0.48835431537756885, -0.14436383890833482, -1.1190816477341707, 2.51298822756115, -0.019465346024355495, -1.5817009729364837, -1.7253507929235574, -2.2267716838943548, -2.4071734176086395, 0.4483085024149987, -1.4186189764931298, 1.8709365702747764, -0.0019689000973063006, -0.9898104606444994, 0.5180939192682688, 0.8272519630123017, 1.2244883694426656, 2.3855453341214083, 0.4358560276696205, 0.5071337957399549, 0.479165617607728, 1.7819942211178743, 2.530008997866644, 0.15931678409029343, 0.12193319119701072, 0.4135534801776693, 0.9211987249055267, 0.2931950123866546, 0.0012025408567217233, 1.0468802958643315, 0.3535800666870821, -1.3142727727823789, -1.284832043549776, 0.9568671917228248, 1.4242926432790202, 0.10546211407725894, 0.18081039240085986, 0.8196161486317243, -1.462405071831239, -1.6364340266485242, -0.18638290385438755, 0.6548538463869116, -0.4032197230146258, 0.05129337123467024, 0.2988739940573469, 0.19043027186791223, -0.3321964741428268, -0.2392585389966391, 1.248531979644833, -0.33193295869197, -0.7759236338760449, -0.04775160869254892, -0.10332164602468141, -1.1439364894816701, -0.6414398288922533, -0.9224530654944507, -0.6456132871170653, 0.3482588278213464, -0.5178132339911339, -0.7430881318619055], [0.04518841301060014, -0.30570330463008877, -0.6518793512689773, -1.0782451087208245, -1.1252694735964588, -0.04835782189144597, -1.7945263999060448, -0.7096378186945943, -0.13555914888680803, 0.26313872433349095, -1.0820330179186866, -1.9297970603587875, -0.23576313940325272, 1.5314400438279847, -0.7703840704320587, -0.751517450643132, -1.7798549982881768, -0.6713888834683194, -0.34529207623275887, 1.5127940077742728, 0.3815868152473925, 0.6781985667818874, -0.9390873783369366, -0.6363136323569257, -1.6261727838398226, 0.4959217423941072, -0.5572693895982154, -0.8894977942913372, -1.5424097849278766, -1.9128081289881464, -0.9286939731353999, -0.1320759082409323, 0.010418153452749213, 0.07613877905746398, -0.6595313071509835, 0.3588169147423532, 1.3519213112795403, -1.6076801055938597, -1.1776123417375566, 0.12087117723108273, -0.09081642740846096, 0.07677108870594772, 1.738625453345634, 2.286321708083319, 1.6442441443655715, -0.019005223558665213, -0.5826265705454109, 1.1094053663975523, 0.04379748446734073, -1.6225040700619486, -0.2247672045911412, 0.4022016634944132, 1.1889423665034624, 1.424898597205655, 0.9656060595717672, 0.3046094283367064, -0.14103590028471358, 0.0878321399516393, -0.9634528140017572, -0.17855813363277304, -1.1012337730099353, 1.51085433922208, 1.0492248741110375, 0.23290569687979903], [-0.08438567889809062, -0.4837880448718462, -0.7868017584717892, -0.8706195613505734, 0.8314840727638753, 1.1947982872654705, -0.5404801266082349, -1.677666654611073, 0.15949672201873702, -1.6328524854970738, 0.5625656970383593, 0.5986888557629805, -1.9516797670091481, -0.13901922658246388, 1.202877197321201, -0.8442496355514925, 0.12401228310174303, 0.5582266939268937, 0.06271098291397795, -0.2381349029121552, -1.3487818467716282, -2.2907228045308288, -0.10171433706409447, -0.13382760969289995, 0.4056217351893246, 1.007053060227958, -0.7762745488080437, 0.20479743763244684, -0.31829198921478197, -1.4332446930164169, -1.493317804480071, -0.010190575722441138, 0.07364279028418214, 0.6923518125265085, 0.5002174758412247, 0.7675665244368268, 0.2182168498040281, -1.6043851908717977, -0.7399342725010571, 0.11072711880126718, 0.02384519491419804, 0.5999255829923692, 1.1159152680558484, -0.28852090881536957, -0.5804104798527361, -0.2752068977230748, 0.9070682367580227, -0.06886583833099602, -0.11816651141007907, 0.6339307913216478, 1.8826581420086625, -0.6104425658316577, -0.43786719928740936, -0.18545151054006923, 0.6151839667118352, 1.1130458814362494, -0.45954239804690084, 0.8119506046586866, -0.8094540980375236, 1.1948023079452041, 0.8559999165612631, -0.8640115474019776, 0.2000008062279322, 0.9038430395509577], [0.035508700220907685, 0.09231807513030393, 1.4069870890523506, 0.23903071039187723, -1.6360083302639252, 0.7181311012689834, -0.3862157210051946, 1.3873749539866778, -0.1869155521878141, -0.08420167044452868, 0.8784805125502245, -0.451205713798134, 0.19615908445146044, 0.3693581638294227, 0.07700844016487357, -1.6862344418323028, 0.2870565492970594, 1.0426792416508368, 1.8914173380902772, 1.6846073057707311, 1.4090236775142828, 0.44937036281602, -0.19589827922413314, 0.015085120559281141, 0.356136516812489, 0.10169723953671816, 0.2794128954496597, 2.4660267433058234, -0.24233210611722267, 0.4470784548454708, -0.7164514064667978, 3.081784141507313, -0.045194563513528685, -1.920707511664957, -0.9897620856025464, -0.02225236487047395, -1.2770688825680012, -0.4969870691421291, -1.2097983783487318, 0.10619970499317516, -0.28514128316472936, 0.008400846367046645, -0.902425941572561, 0.43479895956376, 0.47765482896171985, -0.6696057700765607, -1.3627867241855218, -0.12519460635588953, -0.1711849774372845, 0.06304903620462174, -0.42432666515202555, 0.7158364630415409, 1.1120737777865364, 0.530341879252501, -1.0706791123938277, -0.1966421672011687, 0.09340558995302206, -0.4194194232827265, 0.5941403490469745, 0.4458204567621161, 0.07948051810963269, 0.8539458227686624, 0.6180391733437355, 0.7487169287492468], [0.03656967687704929, -0.2224433791532709, -1.4219477594328849, -0.7152164226820535, 2.461065994486715, -1.7944010644349142, -1.4040700287384338, -0.4926078669251721, 1.4273875037740071, 0.6356243566529264, -0.42418702588745805, 0.0075460245746624905, -2.181279628592725, -1.085385222563474, -0.7816221321167637, -0.010746544566705034, 2.0003069566287186, 1.0683351340828489, 0.0906214419263436, -1.3312260019190247, -2.0462660308697718, 0.6918366614105435, -0.7113389837451826, 0.12947705644450114, -0.04710325536687607, 0.22413327561210267, 0.8319500241696886, -1.3477974081246162, 0.19001089231999327, 0.28188552813048456, -0.04967207164955405, -0.961082263592127, 0.0780780159039752, -0.4628820323574616, 1.2484075514051043, 0.6453990179246094, -0.9360717113400233, -0.22824474973059042, 0.23135451195175413, -0.027860793302036696, 0.08680127066531201, 1.4303374967968459, 0.6289879645902507, 0.5596534920739725, -0.023687168584111375, 1.1707936993230266, 1.1074458117684802, -0.41642012807090917, -0.11075147252497002, -0.40820458325929515, 0.011296508228386496, 0.5771324171109598, -1.5879536680435244, -0.38292548782707625, 1.8600230064408745, -0.22124764691782356, -0.10878168076067851, -0.9898917357130728, -1.4415501093709036, -0.6098056772522623, 0.9707980222811667, -0.4771998677416848, -0.7678185964773948, -0.9761328314634571], [-0.04230204610981331, 0.9415893941050445, 0.16797319594349744, -1.0130764392656528, 0.735903081944965, -0.19319664641020065, -0.728168821499678, 0.43856261707521077, -0.08629231938157082, 0.4740851071411047, -0.1580945669740788, -2.846351908687183, 0.37302438567664686, 1.1403665857000849, -0.22900729950970064, 0.9705803344369301, -0.12633135861723532, -1.2502882340012473, -0.5324820649564023, -0.1099039180122278, 1.8663522368317258, 0.6985136231667203, -0.8754037064857493, 0.7330649305429616, 0.5635150620755631, -2.4085114693541896, -0.33579739054946645, 0.9167004263736331, 0.4065429719601773, -0.6118149877041674, 0.23479422124282645, 0.10798316669412585, -0.07600792768792394, -0.09943171651463305, 0.7861273088697365, 1.0507921790945483, 0.8089025395317081, 0.18245740132629226, -0.48521614429873133, -0.10230491673219999, -0.10055868438254646, 0.2592169031958393, 1.8491329528827478, 1.83110240722285, 1.9648476744994743, -0.34790255411655463, 0.09404914135455016, 0.046512986542864516, -0.05565623876902937, 1.9407197408438175, 1.046378344978772, -1.9428697864024707, -0.8458221228834999, -0.7559161106755018, -0.008241115300352443, -0.7882590965838954, 0.07715220549349495, 1.073404964313165, -0.7276442293083978, -1.6906498980185445, 0.3268731723475028, -0.33450743400876676, -1.597422301129121, -1.3852794001759536], [0.10643023053647807, 0.10341635991336919, -0.1902968537093033, 0.5578062887758951, -0.581580615503433, -1.138657689664653, -0.7494365179521868, 0.30952146055365204, -0.18553525969020748, 0.1942866474088023, 0.09989774819698163, 0.709468802722274, 0.2496456956171034, -0.7493984006582157, -0.8326619238564218, 0.04420971731882631, -0.04217489292664408, -1.282866808785857, -0.5657450352724176, -1.5093589526416877, -1.4257013209775131, 0.6162675367273647, 0.6000660672285848, -0.19563142845194958, -0.5358982968135048, 0.07918048582466942, -0.7726376230536905, -2.318856695826575, -1.1223885565407428, 0.905179621312121, 0.6024123721697501, -0.06903000391111548, 0.05166964065450802, 0.9186351225469686, 0.36557695608689295, -0.639503367835776, -0.5291209909281712, -0.11749222992923608, 1.343219372709238, -0.05228722103211242, -0.0748823797944305, 1.3621525261035707, 1.2783317326219885, 0.2373353749809119, -0.9769748547982833, -0.5451358674672301, 0.5362265417270446, 0.11861309228872625, 0.1004780480477864, -0.2861161402962441, 0.6120193737169949, 2.0237399270941365, 0.8383486742180686, 0.6227535147122238, 1.4795450228307665, 0.47560484480121545, -0.0564884031503645, 0.36084000283496426, 0.10410770770688178, 0.49053929168061566, 0.9508735202888354, 1.8056392660183704, 1.6166404487459605, 1.846740313773612], [0.02678364913112663, 0.48806657852719676, 2.0090061515421334, -0.0025046096548838144, -2.3388121477770354, 0.891067596169216, 1.91301568366535, 1.0923727912958685, -0.77346855611932, -0.07208423196678021, 0.16898591286016576, 0.17602946455487722, -1.6076577170604867, -1.0794694346194222, -0.7853994839010384, 1.283599222988749, -1.3385857847834228, 0.27769038223107423, 0.9988591146471492, -0.09562571285461825, -2.984563929262332, -0.9922182761811909, -0.4566707235957115, 1.1045648860720834, -1.2797064778056333, -0.32559464854929554, 0.25000558715920523, -0.6576805800851111, -1.5509570564230621, -0.37566266248776936, 0.6364963394829544, 0.037960489472389045, 0.08261979083195281, 0.8733162627762547, 1.5434968523402062, -0.3248222535529716, -0.6163673626343708, 0.2508034961754127, 0.32429242038975986, 0.02285360487479471, -1.9348895672427768, 0.7929893522965024, 3.0631559924445915, 0.6660625408015073, -1.1001923196675127, -0.3333536195769719, -0.758937069684863, 0.15291497409951224, -0.20985759330600903, -0.5946686942981423, 2.9091999255094003, -0.8174996473589029, -0.41885151541102705, -0.22165513176542373, -0.7738924646471241, -0.06234314221643678, 0.5290060884036031, -1.0451738804698187, 1.1628847034798109, 1.216137498309972, -0.18354318292710461, 0.5493256298687236, 1.3535332599484913, 0.5145549968381354], [-0.014800530019329933, -0.26094097869809746, 0.24372369468317068, -0.8005852562843606, -1.9506840595126846, 1.2297080568217211, 0.9137119804129501, 0.747511496164345, 0.6645919740386236, -0.3830723633790746, -0.17033559515054167, -0.15221876135684392, -1.7386107782015046, -0.05561358219925707, 0.526216045048235, 0.2930155488271925, 1.1105310621424322, 0.8810984011255905, 1.9214188100032468, 1.1140753186338506, -0.15941510134822653, 0.2196143007287896, 0.3439693848754702, 1.1848251343836242, 1.0383163648891474, 0.21198095415367058, 1.334795769554423, 1.4180501210267902, 1.7599813203864347, 0.8518207388667395, -0.6955734943596183, 1.302537582902866, 0.06380081649790748, -0.9881310090188166, -0.9165254554092473, -0.02747493664973436, 0.8462997202713549, 0.6779266976329041, -1.3370081407372274, -0.0540035738061406, -0.04141627798191011, -1.1377693525208592, 0.5941719960917302, 1.2106121144413289, -0.44541128184045914, -0.7662268977448219, -1.025897296833619, 1.1708362094712337, -0.11415682784642549, -0.3215133749334079, 1.0519880191633095, 0.4634455602169589, -1.9835887822834366, -1.0738289628972626, 0.7134562656380847, 0.6184189428666103, -0.13924383628618495, -0.6374882156595234, -0.4717785243544636, -1.74990105226594, -0.41255239795717275, 1.369761364759493, 1.171228030826642, 1.2670536121393452], [0.050024603336663975, 0.5392269323719004, -1.4496627287175923, 0.997855360307787, 1.9723772419128653, 1.5069065894191174, -1.6035094985062859, -0.5920856954650462, 0.14801207915226905, 0.3332465546029224, -1.0123536164873275, -1.0657640434647524, 0.20714019752424345, -0.056347195239726366, -1.7564927092188212, -0.8184240309792734, 2.5768766284114757, 0.965506966329592, -0.28994623335548725, -0.20266202051680302, 2.450073792146525, 0.17228379145680137, -0.12559486526290353, 0.19697476824095922, 1.6939580758928632, 0.2720356774234743, -0.6716075431814771, 0.23212845505336085, -0.06715419350830076, -0.9602172008970039, -1.0137867290193805, -0.07007705577940651, -0.11756013994335121, 0.8027953467675476, -0.14017820530182376, -0.5091993579841012, -0.4904409423059775, -2.392816586786981, -2.211531684341503, -0.05534071999864329, 0.02687274898255508, 0.34738214360131875, 0.44666685921951854, -0.45708455278528637, -0.7385932327526897, -2.019069528966662, -1.5752884766357649, -0.4966896744690659, 0.0366766692719571, -0.4453087190394734, 0.44634850255795316, -0.47670984354181367, -0.7179212397227949, 0.5702521227183249, -0.0969249268502119, 0.3245726120157177, -0.10914885801455196, 0.5991040400637688, -1.0577249969895262, 0.9393407871748329, 1.7786783398989532, 0.9352825609260897, 0.993894449041218, 0.6942861945533615], [0.10772101959824759, 0.002219610859278781, -1.0194221255006788, -1.2217227811574554, -0.05308605647425169, 0.33766411861900064, -0.7971123152753558, -0.663258370008879, 0.07884126087802919, -1.5236958426075193, -2.988179464791691, 0.6607527069600229, 0.794816755704088, -0.19360206157727916, -1.0874786501174636, -0.5524744148919895, 0.8352807336493401, -1.3747291012807688, -0.9901785653459585, 2.2306318480461327, 0.8108801827753952, -0.2852634786085738, -1.2147667484793796, -0.3549127190858369, 0.6375354656736597, -0.5767425115651268, 0.563900590717847, 0.656307816062441, 1.2237716651894355, -0.45600755485518435, -0.6476913005867241, 0.0956503151298341, 0.10366537302412951, 0.5610951458083664, 1.075114193849844, 0.1432190589782389, 0.5530545853273141, -0.16804788257035624, 0.3307497095717299, 0.0074325356735129855, 0.029591748302251104, 0.09004407873245732, 0.2397492108450316, -1.0231954165537298, 0.4203845416275236, 0.35020847981674597, 0.3615441175836368, -0.1701541615664301, 0.09471470180063654, -0.19442832737264998, -0.39741181665854647, -0.4164437238659081, 0.7278043935618499, 0.8196312545853148, 0.1726536592067035, -0.4499169240946717, -0.0302611625112857, 0.15201451400032304, -1.0575477894875052, -1.366776511581177, 0.38552105172470974, 0.33071701721942565, -0.4832679084254641, -0.7036661105958755], [0.013630072399657855, -0.05712214247474626, 0.09510629811181857, -0.3249820690889538, 1.7687097416847835, 1.779195143192738, 0.12740336669391644, -0.9180187611058227, 0.00827797148029727, 0.021352011182014352, -0.41287878704065056, -0.2718807535568393, 0.1492953410449793, 1.01575315347017, -0.23632315492841027, 0.6675641380414359, 0.07356817881312916, 1.6277863823867458, -0.31409825741178976, 0.2438426203632586, 0.9227111657147447, -0.12890194968356286, -1.8308029389550355, 0.41852349169642095, -0.5398381477499843, -0.7521956927016006, 0.09742094775630067, 1.4300019495612872, 1.919718032134663, -0.44749053029066754, -2.3043449016629762, -1.2559688359920735, -0.0629957902304405, -2.395653153996579, -0.5452923965367256, 1.8020759029543856, 0.9254229262775356, -0.6895388324335021, -1.7031977277251908, 0.05059227744961392, -0.032864480509522155, -1.6987029295082068, -1.7043064559802572, -2.1886142546122946, 0.44589622419948727, 0.9946793750038756, 0.26783892229531375, 0.22929170523182665, -0.1720738106537713, 0.4391840878847009, -0.579578214586391, -2.6809529347946053, 0.41629248074671693, 1.1258489173607746, 0.9879632193377218, 0.3251076657160482, -0.3415124031523137, 0.08644849491810817, -0.03192685668696083, 0.8122187651885945, 3.0260608771960316, 0.0935807554935186, 0.3398253414337374, 0.9429090304289376], [-0.02870890456471703, -0.8031810744029263, -0.08921421535794431, -0.5499837599621211, -1.7743975035763744, 0.04387954957059222, 0.4687249660507892, 0.6006378651650802, 1.054231561634544, -1.2046241289382822, -1.3058712028075439, -0.9987725570439614, 0.45448541338045456, -0.44063143761539814, 0.2924097290904307, 0.23796150545256237, 0.03643438027759639, -1.7660399603695949, 0.40873345882250584, 0.7609613115980434, 1.6720265960426055, 0.3175639424548228, 0.2520817996163529, -0.11978887051743826, 0.8941849727457162, 0.38385058682829654, -0.24828021849837667, 0.10865616329659104, 0.695493034486923, 1.0903430218858687, 1.377103591107674, 0.4291445130740824, 0.12489968275718907, 0.48928995363295474, -0.8171070107820583, -0.2505029264021213, 1.2112353952199215, 0.28750536223353623, 0.0510413146575367, 0.09546860732413476, 0.14589400047817433, 1.0924246764004775, 0.31377781291287443, 2.320677045371453, 0.9194756961168664, -1.37059769959234, -1.0900472231252516, -0.6631811264703041, 0.26733618063132725, 2.1923453346173836, -0.3228951402598592, 0.1438966955902488, -0.19249786830839116, -0.04976243006374164, -0.5496073184656642, -0.420172613735322, 0.12396663942924649, -1.3024262976758119, -1.1119665820480382, -1.427322643530193, 0.5624561722176978, 1.1736255311316712, 0.6427675781221676, 0.3968395197616098], [0.01144817247861743, 0.3126372336851987, -0.44159754115382793, -0.022229577141758973, 1.412539572071453, 0.09329460500606175, -0.22804318513080243, -0.09426794848795875, 0.056037118126936285, -0.5135483633915674, -1.213491582065372, -0.507334580865861, -0.7685978912256037, -0.7238043338953988, -2.003993624778118, -0.05721484281593458, -0.049717635949348166, -0.39962957919893627, -0.11009438212744733, 0.5801903689138292, -1.07122474989963, -2.059336150744959, -0.781281281599035, 0.43245069621092475, 0.10936504110427328, 2.062355932801026, 0.6678775292441207, -0.3880884543212807, -0.8899761173699793, -0.4963170041429919, 0.3475930865919435, 0.09576565829536354, -0.02737145693129253, 2.7526492290500366, 0.43133745637276566, -1.9630018552441826, -0.5114413438588606, 0.7943835398568518, 1.46795219561193, -0.01290116299337829, -0.03204468666766125, 0.2862414329809374, 1.2177084335988684, 0.979325349720135, 0.45647691503605753, 0.5696260082426216, 0.18560457799232713, 0.054238557898709495, 0.10292074018416013, -0.8083303613542776, 0.014265098491332171, 1.1406509320315683, -0.9125556681826971, -0.5321756741764992, -0.929816136103378, 0.13413176078941588, -0.04729102146262382, -0.005792822640676956, -0.25208793929451856, -1.0978209504241452, -1.1659923278251971, 0.036966824476425894, -0.2813696439191888, 0.2472085346026133], [-0.09669824945709016, -1.8673789160046643, -0.8760333870749196, -1.0714036581565123, -1.3310067933494725, -0.8042916494780661, -1.2129645796837196, -0.057636262869864695, -0.13529028045977667, -1.0013345951083856, -0.010787321538081908, -0.36096209223989906, 0.12794673125753564, -0.7611530390129713, -0.5312563025459439, 0.026223131035031964, -0.0620621154732552, 0.6207704403600388, 1.6419794176289508, 0.9281572715599028, 1.9124060439292387, 0.1942193303424315, 0.8191953709830515, 0.16546894716196417, -0.012403438641543323, 0.28379159120297615, 0.519035680940799, 1.8238247981074527, 1.7962966104767013, -0.4800738216572021, -1.0661291877844494, 0.31589970946861784, -0.11760680300326154, -1.4121525666227843, 0.2287296367262589, 1.945450451656321, 2.2944527277481033, -1.1298364494589663, -1.5257479403796756, 0.07876342557444654, 0.07573357939948908, -0.4127917817231014, -0.12818298589314459, 0.9669965166950258, 0.040145547330623164, 0.561175024931844, -0.8951160616174293, 0.16730629742953665, 0.3694869249075265, 0.05682232607378899, -0.5393767918877314, -0.06136198428714458, -0.29468850656850953, 1.025355297881088, 0.4347379263703343, -0.11173963671403629, -0.018273323549431616, -1.2599214040152458, -1.1619347759950813, -0.2097179256884294, 1.17270733268429, 1.029099372841323, 0.4566779463957188, -0.3163654320948208], [-0.024674134068026127, 0.13879090173027187, -1.8275347463191796, 0.1736804572879578, -0.1627984824670647, 0.809504365052974, 2.2104267935834776, 0.7318532015922535, 0.04031097474016648, 0.12412984002653335, -2.8699270802883556, -0.2045032772157938, 2.689707217183239, -2.3951810262531112, -1.2429351583562311, 0.5824379337452837, 2.6544208363733204, 0.15108219948580331, 1.257180453882481, 0.034466825507145624, -1.040581060456523, -1.4104209361110671, 0.9916870116279132, 0.38739625923905563, 0.2820776743686312, 1.0447730394020276, 3.6942787217768136, -0.16704379217133825, 0.7830269422824904, 1.2641292405433453, 2.053017767727103, -0.04808951026510147, 0.074245247092624, 1.7235719190692047, 3.133249789081076, -0.8540584268014897, 1.0330512055292869, 1.1560251028393589, 1.4625841076592843, 0.08987185366876782, -0.048297890696231964, -0.21276802060661756, 0.6801130772529937, -0.7471429238392159, 0.9818362076090543, -2.4441775339069363, -0.6059658947111785, -1.0674279241698317, -0.19460188604662987, -1.7320273535169852, -2.2272742844790487, -0.5628903690105396, 0.4011697409348905, -1.2992825718979997, -1.139682928346617, 0.7929939750212557, -0.014644884388089039, -0.03627964677867775, -1.064678103846613, 0.044689916930546275, 0.696122795080474, 1.2025050427700792, 0.13986803173478343, 1.5163202624397822], [-0.1215658516174444, -1.2667312724119117, 0.5422613755808429, 0.029094910810323824, -0.1753705342131713, 0.3678865298612954, 1.2529934283645316, 0.4005308963867185, -0.33384741797564127, -1.1195177339120235, -0.49798551185462414, 0.3558942463196167, 1.2370400782258533, -0.3971058322912498, -0.5791049536531887, 0.6171455367080255, -3.073397757158612, 0.6071145655526496, -1.356888214835473, 1.818223591939357, 2.160005946350001, 0.4943631492040576, -1.6252221758547376, 1.1973856994994947, -0.5634478494399701, 0.849838731535064, 0.8590185035331117, 0.6811028653127964, 2.16525543576117, 0.7738669389196191, -0.24174380084384742, 0.31044598957194863, 0.07637990739017628, -0.38876317889393924, 0.6153356647564582, 0.5240943291035739, 2.135319722664901, 0.860891501509883, -0.1863172189564222, -0.08976408631440688, 0.23935125097147864, 0.3022274979325537, -1.9704393782196987, -1.2354628352710577, 1.3702514528720457, -0.5280376418307329, -0.4770059313508144, -1.519574487931507, 0.5256418092302021, 0.447553381911965, -1.5679768522618376, -0.43106436075398924, 0.5007995407491371, -1.1388135125364056, 0.38743121705095956, 1.0073835922334557, -0.12620874459320516, -2.2085506896363163, 1.1856605795549935, 0.4437257647932725, -0.23433508121350033, 0.5111029829580318, 0.30880299521076077, 0.68427110523193], [-0.08312068830442151, -0.11248784836801526, -0.998549371204879, 0.32443445903738, -1.0184349651250635, 0.3341790808332623, 0.8437288453787863, 0.1332718098058177, -0.05679079565152047, -0.4643781548487745, -3.860340320390894, 0.1053334410077105, -0.3436198149611166, -2.3149591829712626, -1.192929795392636, 0.307869461118822, 0.06130857204559787, 0.18137279051334038, -0.5059036331698122, 2.1190028468824083, 0.39643311236148443, -2.835469779728683, -1.6072337677170745, 0.34684953964649434, 0.7996943538550091, 1.0848748268565906, 1.6836337156777192, 0.3296796256731715, 0.6740472986239662, -0.7415655567923412, -0.8853429955736982, -0.008217903755560866, 0.05912987373808434, 2.010030895789952, 2.0044376804768587, -0.22342372333767566, 0.403464505283026, 1.092643498605747, 1.0094168766202805, -0.05837617712232887, 0.15191503656110295, 0.34864519089223195, -1.333310203435399, 0.40273765563298064, 2.156307993842121, -1.2200137977464889, -0.05359945878962575, 0.13425991058588171, 0.11769216740338975, -0.9171163713168174, -2.100954014573067, -0.6560772408929904, 2.822729055770271, -1.4037662702385982, -0.3224018725671116, 2.0625381744491715, 0.1118491294557611, 0.42619316551602693, -0.9921930489986037, 0.4128031958851134, -0.06062831031126936, -0.26735689449974337, -1.7913625375225097, 1.694055386542559], [0.058819252915208314, 0.09474383754481508, 0.6839995549011909, 0.49866578007741624, 0.9021537024176226, 0.23914170034823937, 0.8333961313683944, 1.104886702750609, 0.06218725879960658, 0.25177529679993005, 0.36364501061616056, 0.4358856410818615, 0.511295378592655, 0.18300663694231423, 0.0014479567038514572, 0.5931691341843579, -0.045296250046462275, 0.2920483191881582, -0.08907037603745875, -0.7210086465731622, -0.5825650671994649, 0.11779077986467772, 0.0873548987680753, -0.17827822447346572, 0.023139038182812575, 1.0819303374388034, 0.08613915202245882, -2.369035047839334, -0.6381027857105821, 0.489428274960302, -0.13386301387720914, -0.18179347384715752, -0.10264966146248869, 1.3269894799151492, 0.06056715471357248, -0.31994794263546905, -0.4724102461039873, -0.5896623654898732, -0.025570966981146918, -0.017356855886222544, 0.03914342717794323, 0.4154729835249892, 0.5774246190360703, 2.403905385110183, 0.8451763014373728, -2.225479914437145, -1.166322756184452, 0.7432004682497865, -0.04523965178839467, 0.2626975667607768, -0.25726133908605725, 2.4363389001340225, 1.6303616083182606, -1.8802209399687742, -0.5543005943698435, 0.16803900293980278, -0.0329927813182822, 0.5823509070259658, 1.1069298146316686, 1.9646798353322876, -1.175019375408254, -2.1206450550259937, -0.23680704165284083, 1.3500568362816776], [0.024548980534254056, -1.0722432863559463, -0.15162057973399562, -1.0734294885074558, -0.5318826464942479, 0.5024302114907492, 0.08915905078908187, -0.32151238825104517, -0.10582726287841886, -0.35766544759709834, 0.19624813738512834, 0.3960250546271539, 0.8083143122166329, 1.4539136929807424, 1.2066009925527412, 0.40177301574043006, 0.1340804869799879, -1.2615627994966305, 0.5029693172675446, 0.9775981011339917, 0.9784965728393692, -0.5717197916433024, 0.3927306322334903, -0.30868567420584686, -0.1032312900524936, -1.1519352893258816, -0.925708249917278, -0.025468912474697496, -0.7753476113510097, -1.7337705163720967, -2.6361504415439034, -0.14944331764367602, -0.07653484314166409, -1.3168300018856967, -0.4063993753065269, 0.7917144228407572, 1.218525391703311, -0.05247762522160226, -2.2930958563644634, 0.07912211889032275, -0.12760191480197625, -1.4575115839643726, 0.3032888572403082, 0.2735858292094063, -0.3632634018602516, -0.4257806591417578, -0.8498706386276171, 0.18663708791785807, -0.1096188175576949, 0.7497523049370718, 0.8393931421169615, 1.069859258619701, 0.15652384644550968, 0.6004295871700176, 0.36719340338619805, -0.20513372517640194, 0.04373262656867705, -0.12954480544571, 0.03978151705297931, -0.7973778819679587, -0.6391086568075093, 0.9543883279139123, 0.3363294786210477, 0.08519766669537648], [-0.12238146553309617, 1.5417862954193935, 1.134402186298577, 0.9383137786727624, 0.5895949669349292, 1.7053034089648724, 0.9889158110177116, 0.034973817017324625, -0.11173327655236398, 1.4856145838737025, 0.6851879566405206, 0.8969414511599645, 2.599510024016592, 0.8799534283449377, -0.3777227415880323, -0.01015006402752365, -0.3731348849968945, 0.13042520571765476, -0.9671283687724336, -0.0632276569551165, 0.5472828533034217, 1.2626715185236301, 0.7573462624962091, -0.14037502138873148, -1.0857789333681858, 0.13138631259230169, -1.5008639968883366, -0.3141653306386027, 2.325207217964414, 1.4905276595715675, -0.1886925139278727, -0.04802957510090995, -0.02152863906958441, -1.559048892858171, -3.4643404694116042, -0.8989310711254848, 0.8989083737160903, 1.2575091181696072, 0.720017730975099, 0.08609324057852658, -0.1749862473432729, -1.8238821052497431, -2.9827733602687454, 0.004869793530569575, -0.7118543032535538, -0.010129942551749753, 1.1713213962498505, -0.2888220643003815, 0.07658931175330248, -1.3832889207689267, -0.6223445041344752, 1.081606365971928, -0.7503227963538774, -0.2768831260218984, 0.8568508742022132, 0.9044136371528372, -0.017470225010427, 0.3294674838961823, 2.5237537155871075, -0.6742969785725933, -1.2588803312286312, 0.3402654510467525, 0.9382901773468204, 0.4641512510327708], [-0.09314520677906057, 0.047374946625770874, 0.5431029580054308, -0.5647391585685543, 1.0505538792252471, 0.13243638232828706, 0.05100068046007258, -1.0579391742111646, -1.2613348495682908, 0.651904334132901, 0.1828277936823351, -0.6009939793528525, 1.4953309262464909, -0.8683141171151365, -1.0438410672389196, 0.17528146871405162, -1.8423971710092686, -0.5748540550816938, -0.6440994850292671, -1.166890198048315, -0.12420771246064767, -0.05937697896939864, -0.25930005923733596, -0.16430212513088235, 0.18217497346217393, 0.1949230011344397, 0.10030183569415298, -2.0605312875146384, 0.2944390897839922, 0.6268172423206391, 0.8595194121786448, -1.5579652515236286, 0.039559827282544896, 0.7597223233925707, 1.6735853493625745, -0.27328630089936795, -0.023030821319067394, 0.030327658803129764, 0.5776589611227284, 0.09435252074574435, 0.2528340127152264, 1.5606001586466336, 1.6004696700463885, 2.154381143094183, -0.4228843165680885, -0.9560341912744033, 0.29607818977696665, 0.07532482935047638, 0.4139384162207851, 0.6736852699485669, 0.0962666240491132, 1.6905310998090772, 2.2192095667023612, 1.767266856847343, 0.30939962194965737, -0.1697280556863909, -0.03406056245578625, 0.46619926105947634, 0.770764888939511, -0.24148176804162627, 0.6640473827798703, 1.4538263530531927, 0.7456798257879457, -0.6756183893644264], [-0.089199527808772, -1.6611884561210983, -1.5883330051598852, 0.953673306886838, 0.18434032272385564, -1.8015092079548234, -0.4928005956786102, 0.9955115693669047, -0.022215276153662356, -0.11507035517329356, 0.4609296308941191, 1.2140615845429548, -1.7185364793257678, 0.1317968159733901, 0.7517578773642565, 1.6840723602074188, -1.3189982969452974, -0.09347999669645879, -0.5349221548313635, -1.7654718066619977, -1.5846120401711097, 1.3763638892232593, 1.1989912457711376, 1.0446248423250644, -1.0574838146941672, -0.16121084765713828, -1.1899208561473882, -0.9702121715415437, -0.41910750128962215, 0.9355889547222616, 0.9365423299797943, -0.4201092774303789, 0.041337057957757245, -0.1496652666879445, 0.06468823654937865, 0.02114851434014423, 0.45458366510818354, -1.1026351479339667, -0.42982061386902376, 0.015232040146508391, -0.2853364436401147, 1.052064524771943, 0.7368071897802292, -0.13941336479048994, 0.15796691302312527, 0.31679476794901895, -0.9388934182662844, -0.005575242027106171, -0.6987314200959568, 0.7601542251839876, 1.234405277197548, 1.433849224090295, 0.21787462210928701, 1.7554286855698384, 0.34430698793083764, 0.3227951309276252, -0.10351410664977789, -0.4432664932754491, -1.5746936754132161, 1.2077016087762695, 1.8151778116404151, 0.7743711516665586, 0.5707875257340663, 0.8074422283880964]], [[0.8014426720557498, 1.3232427250040333, 0.5487741247578549, -0.4800267083066451, 1.5243536050521413, -0.8950377013144196, -0.5242387166081305, -0.4212192009029226, 0.49702000890891, -1.7796756525766553, -0.6785938909621132, 1.2887986106552665, 0.46123455757064347, -2.091243573753341, -2.407598799905428, 1.5936649464419685, 0.6014398801945442, 0.26372964071563076, 0.6492623696270358, 1.202603351377719, 2.3495030009557, 2.03139051217873, -0.030584900077011038, 1.7856118167135673, 0.9886065837908594, 0.5456892330997664, -1.5467472560330684, -0.2067213307295111, 0.1624985056198359, -0.2956279266917577, -0.18282174647086627, -0.4257747636517297, -1.0730953110037926, -0.38298260404992657, 0.8535662890274208, -0.47319637672493586, -1.9672934335512466, 0.4798885496878263, 0.36214647185969046, -0.4808919874044042, -1.8972338608944053, 1.687679835488985, -0.9813420238596106, 2.6547603488745657, 2.0896327315988223, -2.3052800909312583, -1.2169128444553996, 0.3506764732415673, -1.64905603877777, -0.5169733308550456, 2.9530192775708914, -1.5559507326291837, 0.8738379913232543, -1.9445219825533222, -0.5066526529690648, 0.2916103340040283, -2.541641584684698, -2.0144299155499854, 1.0507315504121562, 1.2884444622271933], [-0.6105337670406147, 1.8186413515851412, -1.5406515434427264, 0.14792163810015715, -0.12774155289888947, -0.5135266111242822, -1.0936196718709803, -2.614877706377699, 0.7429275041425953, 0.3836193132993699, -1.4544033037612965, 0.7867959990359878, -2.4583092450890742, -2.4416225671155734, -1.4098681974369547, 0.06532627364273087, -0.9642489729349387, -0.1850577518438582, -2.8792557932547234, -0.6585356556773309, 2.2883702433727806, 2.526963731232053, -1.3088479918169607, 1.5368886429699131, 2.262787377693646, 2.0395366191237434, 1.322733894859781, 1.9519585590392217, -0.8091032848708177, 0.6413582418662168, 1.6853389057224044, 0.023419564689633937, 1.086739177949376, -0.2196080252904759, 0.7466255329791118, -0.9500237120302213, -0.056169945625866434, -1.1204065976513513, 1.1308770159113537, -0.05187920270310255, -0.11140510538076288, -0.7471209258469953, -0.8198913268689252, 0.08405545171394532, 3.510046432957918, 0.22564602331474704, 2.2012497344232558, 2.369952207927573, 1.13470581461667, 2.6183069492370796, 0.1598340340707521, 1.643486320135136, 4.3014710107318646, 0.5115610597328422, 3.158592382294441, 0.336493247664957, -1.7776359086154876, -2.052090208938788, 1.6715913905434843, -0.8615395959275135], [-1.36859439482012, 2.2999928682810697, -0.21987216205511445, 0.4060404779273374, 2.9135970726844604, -0.438936427598506, -2.2133615490125433, -0.7714572466530143, -0.26987077755693983, -1.924639728710225, -0.19998980027637475, 1.2009651450914076, -0.5190030618007687, -0.4687331423137026, -0.8079448243153442, 0.7332561046867688, -2.4980226403304377, 1.3626188787166456, -0.5276524956364083, -1.7636641742269765, 1.242466931296, 1.0241464910011506, 1.0360372748602429, 1.6086614350686148, 3.0940158808789344, 1.0772162489924118, 0.07014410176013142, -1.1643981434166142, 3.0770614832601475, -1.1654146032935508, 0.06212454370452784, 0.3722611883441621, 1.531222500261981, -0.8444973260044178, -0.36968708828517616, -2.301318718962965, 0.39393936443058614, -0.35751580309033665, 0.9347111712453187, -0.32726481092695675, -1.0695278601429552, 0.4487621566803553, -0.16648635884375618, 4.119414040478319, 0.513218745854913, -0.12691336862705946, 0.5859276573259254, -0.27119335745365636, -1.672813636419252, 0.3848946205249831, 0.03969286390877809, -1.1565783987520755, 0.747122627047128, -1.8027490637765025, -1.2476690376962156, 3.0539540680927004, -0.16881820072202192, -0.1746181548020419, 3.2514431069310956, 2.484501272678521], [-1.7008228460610961, 2.2655202560374366, -1.2167260514180354, -2.377956953840892, 1.7681087643280755, -0.5196794379098811, 1.5115088169296629, -0.974397377456497, 2.185370032847111, -1.7843180312191813, -1.1392038900922854, -0.45145609555371596, 0.905015281824438, -1.9204538775777915, -0.9765933763298371, -1.449803016148566, 0.37796840380479224, 2.155049295199539, -1.2266773852762876, -1.7376069572546813, 0.6801004321140557, 0.14228178844089376, 3.101788406592085, 0.473790811856307, 1.6115986526630954, 0.953712072769024, -1.940579204097359, -1.2279228962356397, 1.4985184738216668, -1.4154517658473105, 1.3702162556279047, 1.2352355210213355, -0.19537437000702948, -0.7747265191577873, -1.3725604147410988, -1.4500287448519233, 0.318348996588163, -0.882696170405106, -0.4114433047710351, 0.2118332957281223, -1.500999161891793, 0.42203076788384425, -1.2066261057949152, 0.6047932871973387, -0.6185295281541534, -2.430273986002299, 0.29553255775919857, -0.05540734377481965, -0.08410298257123044, -0.5068857894179946, 1.2965118613542004, -2.1293995131713217, -0.901025553347692, -0.07401870613010346, -0.9200138571491934, -0.42265086976889243, -0.4054722747581594, 0.4762007446208074, 0.8984158137351088, 1.9115296368608485], [2.454559704508614, 0.9014507045718121, -1.0297804124259728, -1.3426507179591718, 0.3572491133124501, 0.23662387610408953, -1.454306714081457, 0.017679928454906357, 1.1139216187384782, -1.6239727223158815, -2.338697452156212, 0.6120122693353208, -2.5053332489317826, -0.007883480533946486, -2.1134577504298173, 0.6495694117823078, 0.9422397165969016, 0.14906027299935176, -3.381267874373907, 0.023856828614108337, 0.8217520148256969, 1.5982241983172827, -0.9562812023513665, -0.6479606041735215, 0.5036812598464684, 0.4156119731944859, -2.3789278521126405, -0.3052555090261049, -0.05816115149125942, 0.5482800839871373, 1.5164867702589586, 0.43237810169123136, -1.6326347412482594, 1.399355423411804, 2.3779976723479503, 0.3858067763979578, -1.3331315571922204, 1.9046806169785024, -0.20806943742014763, -0.26158394697169773, -2.255988951433348, 2.242172837954812, 0.6391967252882826, 0.6474190834875069, 0.45935589392081494, -2.0105882532213637, -1.6646923615827989, -1.1936259532553424, -1.860002476587253, 1.4258257285846965, 1.2753942707870964, 1.3172592835029824, 0.30121342624873815, 0.8464401981048276, 0.2205576357617289, 2.154539967443033, -3.61215667289145, -1.3893209334386099, 1.2029742380608635, 2.1130505460539624], [0.7799986762565908, 1.4063123674909173, 1.2795058680941818, -0.8916220661962747, 1.1730737692818478, -0.7671997210810878, 0.7376880935264436, 2.5462771114214466, 0.7073706664232783, -2.062499114279796, -1.14254808439838, 2.2141119063511554, 0.49651031332227347, -1.0517277158520446, 1.0248066912903702, -1.004842609459705, -0.5763521241601582, 0.8091721695999881, -0.16254878946067589, -1.5866176540465382, 2.5928856855648115, 0.9625291641785257, 0.19013919886038275, 0.09243765766370547, 1.5878208567072305, 3.884490711123126, -2.0212971259053227, 1.149126584422341, -0.604124765726012, -1.697531664973949, 3.7499723942555168, 2.0396319247197647, -1.3520769775597523, 0.307307187048273, 0.9237424808283903, -0.42513418349396054, -2.94012838612245, -1.2428695474917344, -0.8395687262050711, 1.380785381621696, -1.1694779876212593, 0.40731586098769607, -2.341075826508403, 0.5770425790820483, 1.9560960738310489, -1.0446107681656764, -0.5970888582359873, -0.405941715814463, -0.1307752941202265, -1.159844119088928, 3.3308271519044665, -2.212351319534007, -0.4391927068682261, 1.0857297400868675, 0.22908658022107228, -0.40910881887720824, -3.2744496352866475, 0.044476849649438134, 1.66842395113569, -0.31171277725785407], [0.027120809174367523, 0.9388006927653567, -0.5600276861924683, 0.7364771005306036, -0.5868437743300738, 1.2329142144272924, -0.22394887147550965, 0.240949249415255, 1.3674819180858129, -1.325656083120588, -0.7275456499787276, 0.6958679887483621, -0.5215531551839838, -1.3434496289904707, -2.8405141786915844, -0.7627560065944866, 1.4640280949087474, 0.651695665059364, -1.700594100690249, -0.5651246100749874, 2.1032282392650337, 0.7054846189045785, -0.9310241034014752, -1.0886350251238326, 2.2382882845006535, 1.2777140349282612, -2.2698986198534974, -1.6153458900210356, 2.104418781240044, -0.42457413226229107, 2.345648027300143, -1.3712488253458943, -0.36039688484579935, 0.13934012634129278, 0.5155417092186476, 1.6461590234825603, -1.0257510757811739, -0.5925576326843981, 1.1611182207572512, 1.6769643012796296, -0.5779344949371276, 1.1300433586495804, 0.41621876721597845, 2.733071999664439, 1.6756463945046804, -0.22687988925117583, -1.3627167562348035, 1.1915721570729374, -1.2178636605443829, 0.2222915904233438, 3.66818987397562, 0.37212964852235414, 0.7486779795979012, -1.8421685710996025, 1.1769477535327288, -0.2437194160060971, -0.49933580451664544, -0.8539149685779359, 2.6188306932829604, 1.3118864682947649], [0.14558760739852858, 1.760176368978614, -2.327265825038656, -1.0082241332154835, 2.143212003463653, 1.369337458802421, -2.1954330492445004, 0.3087378464079055, -0.6111379109445332, -0.8080308874229722, -1.6072810365859884, -1.4815580659064753, -0.6279315031002932, 0.2519779202140284, 0.9554752728611673, 1.280492985570692, 2.069462616835825, 2.132473271672088, -0.37884630348935716, 0.016771561475796167, -0.7416743375042647, -0.006661850408651291, 0.32346688006207747, 1.913846216796303, 1.1323057464015436, -0.1982622313060024, -1.9712288932422164, -0.636739899156156, 0.616998834971265, -0.2476952626725615, 2.039286296339606, -1.6157656649001646, 2.254025724277294, 0.11317423855450617, -0.6605504648174859, -1.3933604358105718, -0.4812369179560989, -1.4721827794191944, -1.2617620131921772, -1.5315336537509752, -4.297396425228181, 0.5728014728610884, 0.39992567122809625, 1.1051213616688371, 1.1634646724161786, -1.1153991227744262, -1.6879476164430338, 0.0343616994800801, -1.6237377834549158, 0.5805071533091802, 1.3826237868386764, -2.00250715977781, 0.6180302183287849, -0.28837616910703234, 0.2751525665369735, 1.3678139723394356, -2.0390740065201887, 0.09683085576224984, 1.373509217424982, 1.513208503986142], [-0.4391133751874924, -0.04647645909793172, 0.7975679178286029, 1.2076289962689388, 0.3309677136188436, -0.18281523754713108, 0.13807065937609986, 0.12770780125622566, -0.19830148080119755, 0.7586175831732885, 1.8303690437042723, 0.6461249798862073, 0.7832787118430686, 2.6412341498962335, -2.0117164007767645, -1.4230900387857808, -1.2316591069900362, 1.9792688773808418, -1.2519493431903332, 0.4274452843237375, -1.0524570022144437, 2.918712356969258, 0.42794098534071584, -2.0965605774847322, 0.04670979699514036, -0.2984746396918661, -2.5316387385247094, -1.4397349023292998, 0.6323098417932781, -0.9090463587435738, 0.24460766745158308, -1.3529546307180969, -0.6686560888563974, 3.2944069459326855, 2.091615307521512, 0.3004099685708068, -0.28049203817404467, -1.913135698061691, 0.39113066520116785, 0.95144625135431, -0.1433786156049853, 2.049241655874783, 1.1373089800759275, 0.3551661882263221, 2.078772227139867, -1.2220922301876065, -0.02655759983183525, -0.348798194426287, -0.4478055940041007, 1.138879333510004, -0.9436077811758303, -0.585333000219676, -1.343581304184243, -1.5844697874743456, -0.9110764326254994, -0.3403406196296881, -0.14440495570427592, -4.215649454535086, 0.3988190474392839, 2.3466795054653224], [0.8606593422986831, 0.7698922386982716, 0.31200645022485163, -0.2881225837384606, 1.2823713728628314, 0.08995809798991718, 2.1766314282488075, 0.3511818140030144, 1.0042268918256256, 0.36237038711668174, -1.4971966507283951, 0.6204564385412649, 1.440431363965201, -2.626050286990463, 0.9012363566673967, 2.426665481506054, 0.5360826321150275, -1.7945326655722205, 0.4787912518399491, 0.9319074360756577, -0.24136946167233264, 0.09421694781494433, 0.9543403910817655, -0.5378261732871221, 0.11516908551271884, -0.4873993670649791, 0.29916197598607985, 0.49685467032632336, 1.9676982782299028, 0.6675025071051738, -0.2626250718910838, 0.29087687354146213, -2.6657267123024333, -0.4481723009249536, -0.9998827354866562, -0.3088185069428461, -2.3147099247824174, 1.0759918863551425, -3.0172226735314456, 0.3125102370848267, -1.0523138064287623, 1.0235173208935724, -1.336390261543793, 3.195666422000583, 0.5134011824001892, -0.9279263628964394, 0.8405964743577425, 0.3402612154164889, 0.9795542630891478, -1.1028951448537079, -0.48098977501082557, 0.15232662320524917, -0.2670064568884476, 0.3753326627315512, 0.6073331279909348, -1.7089766992530713, -2.077511733447942, -0.5490494393846174, 0.5750882398408449, 1.6658846467101505]]], "activation": "tanh", "output_activation": "softmax", "derivative": "tanh", "output_derivative": "softmax", "optimizer": "sgd"}