{"input_nodes": 64, "output_nodes": 10, "hidden_nodes": [60], "batch_size": 200, "max_iter": 200, "max_no_change_count": 10, "tol": 0.0001, "shuffle": true, "verbose": true, "biases": [[[0.014233515215168559], [0.5389378175316818], [0.3828186485023985], [0.47047726270507245], [0.1461112600117168], [0.2552113795972892], [0.22187901440687657], [-0.03414233921676256], [-0.15428230046971714], [0.2644047291277107], [0.22612543994091333], [0.07543876718033704], [0.15358560761738282], [0.14661816442572984], [0.34984249538538753], [0.038584841017776886], [0.2533551457550169], [0.4208481416646154], [0.3153303013582747], [0.1557675461259764], [0.3434494933895065], [0.16900324835796782], [0.1901379185279772], [0.29862854022361324], [0.6020387888175842], [0.3271330863162651], [0.5099600476657575], [-0.09965064398064692], [0.15339303373139065], [0.39080439525946264], [0.22419642984293225], [-0.12712954997672973], [0.271391441722629], [0.3044670273601833], [0.17990914092920446], [0.24967801632782533], [0.2332340749977045], [0.2666915691301247], [0.26816628095651424], [0.18625138602598829], [0.1369348532803951], [0.5650513380004449], [0.5334453056735369], [0.57508967401574], [0.09413619706242363], [-0.0006120236178469018], [0.23187627873711142], [0.16814495072730978], [0.45064536288129675], [0.31354878027408595], [0.4174539655167257], [0.17552036706726812], [0.3565591287858174], [0.18723064381508417], [0.07111960831695067], [0.14363269588002825], [0.3143102889072678], [0.26563951449332823], [-0.03374762675893175], [0.5198370981858303]], [[0.13568175468545826], [-0.0015479302702686656], [-0.13505207338249572], [-0.017217709702392392], [0.106202188779635], [0.04279790716348582], [0.3432962205229786], [-0.08997747822554737], [-0.038625574407649105], [-0.21890356188888974]]], "weights": [[[-0.12480691178577802, 0.014328113859704388, -0.17633692150001548, 0.25213936435539597, 0.38103799913763875, -0.0607726274318062, -0.412062454216435, -0.12451024428515585, -0.1311943467056634, 0.4853720549948956, -0.10241902123731318, -0.1513502387813285, 0.5700873506850412, 0.07746987667678651, -0.14778907332564536, -0.18619474589906804, -0.06583861311323036, -0.0772519191878004, -0.4763524045357672, -0.1340150979885923, 0.6239932394323202, 0.5016970971293889, -0.09478628343432927, 0.09381774979596207, -0.1834548815881939, -0.20651668845686066, -0.2972148017579067, -0.1801301124154053, 0.36043956133859106, 0.16286728167664266, -0.04481457916672386, -0.20205886561391095, -0.06706018235622378, 0.03486610049819265, -0.002734448551745334, 0.04654436368374667, 0.20029951872503965, 0.4276805949346225, -0.08608630581923653, -0.05565663520503361, -0.059900559698754414, -0.13066797321411125, -0.5350967462354103, -0.3746996328848991, 0.14422357203107047, 0.001562393353710773, -0.0801475510406297, -0.05420511562124937, -0.15891472952809205, 0.14772060728096736, -0.18714016580706577, -0.0641729167322271, -0.06825601175184594, -0.04692321391901917, 0.04468741620267577, 0.1410344289842771, -0.09891807925161551, 0.18801514345433465, 0.012053908670774353, 0.0071810064745633185, -0.21120898058748838, -0.06386980471191032, -0.1746082594112293, -0.293768803703236], [0.10929801655059404, 0.04120892790290716, -0.3952800002899432, 0.17675942355480317, 0.003848314920351541, 0.0181721202246583, -0.25953223846731127, -0.37392821680407207, -0.5383466886437926, -0.2994863317934581, -0.041182338103293616, -0.048748804253768804, -0.24748254623597, -0.02416635910206684, 0.12512402116318935, -0.2830401162677091, -0.14260318796184218, 0.1652809323793352, 0.12518566892822358, 0.4056345084204697, 0.09047533979211163, 0.28129369036774665, 0.3472352294452892, -0.48479064959432183, -0.5881536850575081, 0.18240413157405963, -0.011406105639435544, 0.4662340592218959, 0.2776060331318599, 0.08809994332512727, -0.43972735331713114, -0.32760004220122296, -0.6250602353281759, -0.3133758106916099, -0.007419570162161279, 0.33441110312491046, 0.03719259860610251, -0.1875575689000116, -0.7110630918055517, -0.10987084044246387, -0.5081008645363412, 0.023886469685580666, 0.3017937438225825, -0.14038004931824624, 0.2907551808439997, 0.26589692839224643, -0.15853066394976367, -0.6325765093180421, -0.5364244287434726, -0.15585669467147834, -0.029055377874768334, -0.14732958897720955, -0.5520728096134017, 0.06436198620154178, 0.10765287396476024, 0.07228465704621394, -0.4860301344245109, -0.06034815099130963, -0.403616135165871, 0.15856665562839517, 0.22318650598733084, -0.11031319349564774, 0.11788014487156874, 0.14884140264549958], [0.123100145367459, -0.15626382386327106, -0.36959968580283875, -0.22881977675382748, 0.7629495218635295, 0.35928024730900565, -0.14775011283084577, 0.4107140692962092, -0.5463078159056882, 0.1429487655856352, -0.025182065251705934, 0.36995825183709946, 0.34680472570508014, 0.15668174197555224, -0.13509581094170448, 0.2874772597107678, -0.4616374692887472, 0.033219846622153375, -0.24465489132148346, -0.7699710485228443, -0.567653244594488, -0.5209352258877661, 0.11154057273644008, -0.07414156336168577, -0.4956059268547851, -0.2674243972663133, -0.5762229986349133, -0.38693118227689005, -0.13177333715650139, -0.5930258028314495, -0.4320990825854793, -0.5447929186393453, -0.4884823612975406, -0.057941581916785063, -0.09657411854479266, 0.07927840936979008, 0.34343275696652475, 0.0451727981042756, -0.10141762260011765, 0.06660567807721818, -0.4630134780464725, -0.36408435154321417, 0.3071308487183445, -0.01733877890574617, 0.04278223957019087, 0.4139868624113148, 0.5043166373913492, 0.10907403270885589, -0.5395294453425022, -0.2426958243894996, -0.2660832990540333, 0.22215092999338235, -0.27959702951923, 0.2739640428389253, 0.4089954483869539, 0.18334605731694983, -0.5091810860613518, -0.13135679542477005, -0.02015679871705494, -0.0839847882212094, -0.12325140856927358, 0.32192955681112173, 0.19926255784069513, -0.10882051704274728], [0.06503972374216063, -0.061130035707090725, 0.25405167211771484, -0.05705465149946657, 0.0003303008511341329, 0.2143501779949474, 0.5223902646994778, 0.22642069586669678, -0.5541987552428432, 0.03948856293337322, 0.6702649780019801, 0.3518460530806956, 0.4149757152093685, 0.0654954872762925, 0.11497528837534439, 0.0819372020867642, -0.3793089244457669, 0.11595593910289398, 0.12545593049607887, -0.7094701706836174, -0.047817273367822474, -0.45360173998576936, -0.40031721336464227, -0.10862418218348623, -0.5551138724988611, 0.15882368817456466, 0.2919600068127952, -0.08050571869248674, 0.2766196125693782, -0.29711588387478344, -0.31537317631711265, -0.6364984188584704, -0.4766795455623553, -0.17322032124183792, -0.36324404385397996, -0.09395803492702276, 0.14197841632699545, -0.4395897410626573, -0.04593620483817021, 0.041064160863103494, -0.5505591281575265, -0.7423420838535325, -1.003815917290927, -0.8031632985555942, -0.510461862066889, -0.22259664123889433, -0.11870285365790254, -0.14377962299348518, -0.6145566601439875, -0.05607278110350542, 0.08257917682544016, -0.12704560990260452, -0.14000059323052688, 0.14925575433319813, -0.009063858254327685, -0.11796372113205345, -0.5010080534651751, 0.03928409458587085, 0.2579700623601094, 0.47726684629752414, -0.2945570374561756, 0.21618614425781896, 0.11560637165907513, -0.270256832207874], [-0.07271194362074512, 0.05085505227347169, -0.05207029117221693, 0.4358044534082654, 0.0543462319230578, 0.1770760106466259, -0.029770982322799976, 0.05563646026501271, -0.1336420495720475, 0.02895270860398512, 0.019833705984294327, 0.13265317225635403, 0.45276149944703514, 0.26693533882965487, -0.12642124519312822, -0.13291582605363686, -0.07375140840925014, -0.07418030562695986, 0.15783263630981426, 0.5753995184582787, 0.5021097723760208, 0.3591162201477681, -0.10617659253361188, 0.13820446263950223, -0.07905551078452082, -0.2982414645990039, 0.08007362658884658, 0.0337475815486268, 0.27400821682724724, 0.5985871836100135, -0.10463978510992474, -0.11849549740865219, -0.18522802188352908, 0.15506017580272052, 0.22804564297369584, -0.10988628649062782, 0.03193136794043377, 0.11200101563073864, -0.12425366722789982, -0.002420462743143309, -0.09743241980884189, -0.2534385020561693, -0.0990640858015772, -0.10966241055113285, -0.18065434108696482, -0.022636454436981063, 0.045083835347904465, -0.09363967787156458, -0.048690262739832776, -0.22303881894047192, -0.08341217786580683, 0.08537002492581648, -0.32145273482659475, -0.20730926827103344, 0.35045939847058377, -0.26073440529104985, -0.06165261946498026, 0.04753318907830865, -0.11358801470199714, -0.1538759984278087, -0.12062615349111412, 0.007097157069516524, 0.16154344455843234, -0.262064279119771], [-0.11614166280090163, 0.16358785483664454, 0.10678654579665584, -0.2919271265192226, 0.09542715068033755, 0.11778966431721079, 0.03567697391787028, -0.019400803295516748, -0.15397915828177727, 0.08725230043220632, 0.10046633703728643, -0.44226311765917997, -0.19812185771459356, 0.6607086623988443, 0.39271209511687816, 0.03399985469228069, -0.05178378124265337, 0.21767748603601697, -0.2872372592424803, -1.1391550234751018, -0.1844405483926302, 0.7364103673136398, 0.39975422703243446, -0.13736900302711505, -0.15063608959291866, -0.08018548138271872, -0.6108329150368771, -0.5341135051106054, 0.3176514735326757, 0.1400176885841796, 0.3786518325858739, -0.15569750637261745, -0.23401491973484576, -0.1337465077564055, -0.4503092042649168, -0.22966466257432885, 0.0949587691841609, 0.0725429786607615, 0.37266202519862296, 0.12008912917246645, -0.08034100218170748, 0.1103016410554035, -0.3715294650964891, -0.2218722150876346, 0.10633589370725507, -0.5793887818191997, 0.0038854753770804504, 0.25822820084585524, -0.2086644406517125, -0.012911307451353979, -0.45955319998536903, -0.5021604984273917, -0.19431723336484463, -0.26193374343364995, -0.2980970769469293, 0.31720535902827146, -0.09981386799972503, -0.2896266319735508, -0.19967554609040544, -0.6011052202159375, -0.5363544947722699, -0.29247054175558784, 0.20349816016217315, 0.21684313604422675], [0.07573831186553268, -0.052064903345414484, -0.20993006765970443, -0.14703222196825702, 0.1343569210130416, 0.08254617999024637, 0.13746223625526666, 0.17212147428640542, -0.22291503400880916, 0.04277991903585972, 0.07594800766244947, 0.1099463847388494, 0.14107084526375416, 0.3326508782843907, 0.18749375849500485, 0.32695861625373207, -0.19539839392453517, 0.11536772103714858, -0.3894630819022695, -0.5836877588132243, -0.16825219209459621, 0.6744581804912934, 0.29383135410926314, 0.16565156333161707, -0.23004103784101332, -0.30284178620380586, -0.500322197599405, -0.5898813251723846, -0.35244140894406045, 0.0030442831391841296, -0.01140584224904279, -0.1431551768235195, -0.1256997987942068, -0.03293092658671086, 0.2022802390811003, -0.0022928617954005494, -0.43702138374784766, -0.17648877649931707, -0.03277617697095865, 0.07319370131624581, -0.09587345872273843, -0.009646313657926786, -0.019678867737040525, -0.6952511934575912, -0.26313599325516507, 0.4940729476005698, 0.12511104772686996, -0.07765378085570258, -0.156400602438699, -0.02720314357722293, 0.03491951246430697, -0.36074556257574264, -0.20863322289768715, 0.23692141989615867, 0.2230846291799267, 0.15833073243322635, -0.11319050963516332, 0.016211824624434466, -0.09156201649149015, 0.0708726568511324, 0.09141178292315931, -0.15238333237325707, -0.11661451409657578, -0.21176255880985462], [-0.08605229960958471, -0.3090143155661916, -0.3378838801476286, -0.5003191656368828, 0.2719660698489353, -0.4361896624978416, -0.33543904331712393, 0.13973012091894624, -0.017567272667060117, -0.6455990972971161, -0.28337890890611495, -0.29394473422883777, -0.06810593951828496, -0.5957153906557352, -0.2795832684348329, 0.12166220727601937, -0.16930575946665366, -0.3306420354674914, -0.08697176854284161, 0.08867614109049901, -0.23937570268603772, -0.4516681347692512, -0.021714600265928252, 0.05904804341357759, -0.1333038310917017, 0.3722260440178209, 0.567611086951633, 0.01931559612792985, -0.4250667757147008, -0.2425895960795936, 0.1948386443938156, 0.01122341021107141, 0.10357273627375764, 0.2515123731784179, 0.12625866388208234, -0.27060570282088714, -0.49315967897190777, 0.49720799281917516, 0.33871540105612735, 0.06887693535129857, 0.08632371331835294, 0.4441948912959377, 0.5499348155273925, 0.058784933190680747, 0.08954756934980175, 0.5742662652179155, 0.28115155551934806, 0.08847437949617, 0.33096754432392456, 0.19299357796054448, 0.28225852765762993, 0.30280844827069753, 0.6257903574819875, 0.331164890673543, -0.19477796887756132, -0.0506483736386034, 0.23406772003651838, 0.19243645189683234, -0.15502267956225968, -0.218579134287432, 0.12247466987086963, 0.11283312439121101, 0.0694150203788717, -0.014461878282367885], [0.054683092971042374, -0.23727565930386155, -0.03811994673646405, 0.30782723004393797, 0.12649441281366072, 0.10378975038263226, 0.1231403010212982, 0.03744060039058173, 0.009062169669378953, 0.06318186253571063, -0.2871643163811817, 0.11351458835471925, 0.5985664608679616, 0.11372805188680117, 0.01988846686699975, 0.021039020030350318, -0.11229381235723623, -0.14576949949562132, 0.02792616040668103, 0.36414610448375667, 0.39738134207806186, -0.3529710431301915, 0.007494988596737859, -0.03709071429583383, -0.0001076028682026607, -0.07744861957029103, -0.1529411393634921, 0.15558254961862644, 0.22570737314834666, -0.23704810813410462, -0.07473070579445562, -0.023855171550638144, -0.012977803741420709, 0.008480247790721498, -0.20227439841425862, 0.02487954317169351, 0.3493211699932447, -0.036108166250997824, -0.1550245398119059, 0.0367566458272893, 0.05204811620099919, -0.039148394820167236, 0.182274415949607, 0.3727369831505869, 0.12297376650023308, -0.4066629682118154, -0.36591977723481867, -0.0005782261146347796, 0.10077125353077247, 0.11774538740347527, 0.005762301000938245, 0.34744299080257873, 0.47603007899459193, -0.20165527896684501, 0.10172634522024589, 0.14678033685479983, 0.28159527913484456, 0.24614207041594535, -0.08807766545483309, 0.05001086769281521, 0.09686858313808162, 0.17577989807531033, 0.3212530050174794, 0.30486373390282856], [0.046719189101257386, -0.07177270954191749, -0.09556796207593428, -0.16391867958429052, 0.14342672203222703, -0.03727581837783506, -0.25027876946326844, -0.12181233351118788, 0.10719977447365171, 0.03409676322780016, 0.08736722422838075, 0.002869279810399939, 0.24311921556811714, -0.06445073399586723, 0.013316070259152745, -0.3976554550020692, -0.060165082267836886, 0.05591676668114355, -0.09166805712378152, -0.49235148744329665, -0.36474447159617507, 0.3151028713177151, 0.4184871603858107, -0.31908421548933535, -0.24615145571271135, 0.15735099520358517, -0.07602045823920371, -0.35295548213699096, 0.017263981068355413, 0.4667672412065392, 0.010518391623547604, -0.20900842023494146, -0.16555998405247546, -0.20639376175682939, -0.3256682895624988, -0.06388053766181505, -0.04858921405949749, -0.25303632994009667, -0.11171133407877142, -0.06364819976684069, -0.19977666956422496, -0.17712808152059087, 0.28113382903357204, 0.4995564512736729, -0.1659842003336497, -0.45318208582412023, -0.13735307139774033, -0.06658618459024704, -0.20515288540511584, -0.04222673530226995, -0.18074843672949462, 0.3441225643169205, 0.2115673675504046, 0.31820597796827077, -0.26246809639958785, -0.13544488766857654, -0.24615842770477242, -0.2724738263530536, -0.1695261849180573, 0.1867049520390407, 0.3041404744270252, 0.09233945380572288, 0.0008828290696684885, 0.11784284886211253], [0.01340309670189535, -0.11581839966910677, 0.1566350105627281, -0.26898468286082267, -0.03745815129775329, 0.40905431722787017, 0.017905055306527733, 0.3162950419419384, -0.1983761645294031, -0.05170677931175387, -0.3184533735693806, -0.09186926860404254, 0.3134464584289455, 0.1532985112609339, -0.13534060185463365, -0.03922271342313237, -0.22026326162958787, 0.11496672371880681, 0.42412537433907427, 0.5590351047869659, 0.03499545984009257, -0.18382631409962816, -0.42526207312680553, -0.37673287301430797, -0.10685939707206081, 0.09390553153500027, 0.08784328246063447, 0.15075562406194243, -0.022975941766993954, -0.0560151364910354, 0.10577781925029517, -0.13836085942731366, 0.09197251068967673, 0.17455963516136114, -0.019378046216233052, -0.36083505232290775, -0.20859425078872076, 0.017096718888874887, 0.3963913743487234, -0.09327133357968548, 0.16900400937629603, 0.28413631226472613, -0.07487333442673126, 0.05327499909788289, 0.14811358381176204, -0.06552374280362377, -0.08776160556414497, 0.0014486119065594356, 0.1264824913589379, 0.33231292379996596, -0.0032978923040965324, 0.07868373358728674, 0.7028723664147144, 0.18196430679593356, 0.16202707035821917, -0.04099069310235351, -0.21530389248771267, 0.203159565595416, 0.10476819186355119, -0.24217223649724068, -0.021373276007372786, 0.2411336185504773, 0.20924767280633236, 0.09678674122970815], [-0.11510576411840232, 0.06450084098285974, -0.2507253258737336, 0.49529874921492206, 0.15398163594413072, 0.08770389936857009, 0.169504505229428, -0.23353421843602534, -0.07178843873924204, 0.13139951185109483, -0.12300007111267199, 0.2210879008090216, 0.20307049771834337, -0.04424702249580134, -0.004433071706957922, -0.030736071995824923, 0.27915651352297105, -0.005306060587780521, -0.0027427930160647475, -0.05290346428626777, -0.06734961692797352, -0.5595819585387569, -0.07126922453814949, -0.011933291145509135, -0.04143359710076105, -0.12365476050846631, -0.42568214251035413, 0.10917870833005634, -0.24463905065121747, -0.5950140224606464, -0.2443341296878914, -0.0933587243817137, -0.19753984506152605, -0.056536194801347674, -0.2526461344922705, 0.2245769904436337, -0.029767137201840266, -0.3846966461977337, -0.2246205416935273, -0.051064612480931665, -0.06503171194895777, -0.19029931857107907, 0.07258242212523343, 0.3360012543144882, -0.13020923240824142, -0.465824954344561, -0.02024485156840247, 0.14197601834285406, -0.11269101689844092, 0.07344030667553741, 0.23672851849372134, 0.3648794208947545, 0.2844961079013831, -0.15072902697187984, 0.08417151889471192, 0.04996724141092998, -0.07982291673593613, 0.26502076688969645, -0.14293797892529797, 0.4818743885855751, 0.3415022288249373, 0.08015122573932142, 0.3222768338793775, -0.0465922009027084], [0.015005265815315805, 0.1031055022389304, -0.09024311229639213, 0.38185424224280873, -0.12564686512904635, 0.05129814135502433, -0.17061230540094707, -0.12510916187729682, 0.04294807210885821, 0.18630696687247375, 0.43121642100586915, -0.2513462225323672, 0.08479693880030141, -0.1637218563386036, 0.3012742748156415, -0.23550093077891873, -0.32051000131946294, 0.16704420366106107, -0.6700936665275172, -0.15217881015241905, 0.3900990875749564, 0.0710261548291976, 0.3291827578497994, -0.023623272423529056, 0.09591853638611988, -0.20255576278861875, -0.6807956398460079, 0.2641050997877723, 0.11811103366171645, -0.2895788508052153, -0.2430691757874801, -0.2565786480330275, -0.26818403482805836, -0.27538877951618507, 0.21724545123503403, 0.4447899340634318, 0.059577550867179134, -0.23707406270802733, -0.11459693297276204, 0.06294265544812278, -0.2002528664478506, 0.23757865288749533, 0.5446934952080824, -0.18772775870372252, -0.04311856936110449, -0.08644280797700578, 0.32328642797314794, -0.08818408299018045, -0.12392660897272882, 0.06351697587142414, 0.2915822792057325, -0.13607511642115272, 0.14567797942429292, 0.1775714254893069, 0.1443666228653822, 0.23767197666757356, -0.3491431401038483, 0.22927602862059202, 0.18592961394793564, 0.6796959716909285, 0.1266195546176134, -0.4141090062659826, -0.07688853905575953, -0.12236017073078242], [-0.11234068920191423, -0.21171699469405159, -0.009643368296916569, -0.02808535116517268, 0.16723013384004834, 0.3826619779768768, 0.08676250283890735, 0.054228639571516433, -0.058316891536163006, -0.04987744007931774, 0.027503278918604792, 0.5634305635246522, 0.09810824308135131, -0.28410804730498235, -0.22566369563591684, 0.08932049278175304, -0.13130322146890056, 0.2534920628524168, 0.27988374419684076, 0.0808584199561664, -0.3337295840832898, -0.8993471868742001, -0.5179499574483121, -0.26386948155860857, -0.2264843560740089, -0.07515421045081654, -0.18872082133219228, -0.11875915534408049, -0.11829217719996402, -0.5229003207504052, -0.3763343597650084, -0.26811131616666817, -0.27145422519027346, 0.035862720868012364, -0.04645192322386209, -0.06723867159482345, -0.1941233918956366, -0.22411740307039843, 0.14548291828851356, 0.05563924447357324, -0.2674733386540394, -0.3326192207910007, -0.298879898407337, -0.04890785604602035, -0.10059533418298514, -0.1388397922854136, 0.29862494975472925, 0.17997550225989103, -0.29348295272531255, 0.08040548900308281, 0.0959841917416782, 0.03467465753611758, 0.24065213249293, 0.21607660703912912, 0.2366956060822171, -0.03056979542990437, -0.28035865024245277, 0.10436666043064109, 0.23581105023170723, 0.36572608043704136, 0.1349304790143178, 0.23287580328638594, -0.002032979256651663, -0.0037838627167681416], [0.11523026551361146, -0.13079931759434557, -0.035718530227690615, -0.19913265325204407, 0.3886283211345235, 0.23020806655560472, -0.4346532680651316, -0.46668114240604247, -0.24451447924473504, -0.13854571973419444, -0.028329971405369844, 0.1131084089950642, -0.06030809737161974, 0.49188706151183753, 0.09518678024882249, -0.4471427228126435, -0.2826779965641099, -0.023886320852042887, -0.4079866145342506, -0.19818158652126475, -0.2702052393749928, -0.22758148186170657, -0.03380539988668209, -0.4626742133736703, -0.498885899084572, 0.0890483635295578, -0.10468615125509301, 0.008080130565420547, 0.05668390451866318, -0.6190118205244853, -0.6889914078442297, -0.549366689881601, -0.5018480830245171, 0.1464702083241628, -0.11957639856773943, 0.22762212528652662, -0.15243536808805083, -0.1856940710281915, -0.08771385906197002, -0.07167623459581313, -0.4142707433701505, -0.09440560019198872, 0.2460549985118651, -0.1990230826351858, -0.060834931098794405, 0.47953295562219994, 0.5196205795732087, -0.01942069002559391, -0.5131545290512204, -0.3973042585377932, 0.2672955917358906, -0.06751493471268268, 0.02180887962043444, 0.4771158001006231, 0.16637879149567317, -0.10126536736814387, -0.4518898626701283, 0.019784286694839094, 0.08347131901932286, 0.34388310454506055, 0.18734967404456607, -0.07159075705470146, -0.16445281829489505, -0.2635073257736062], [0.0977814012092795, 0.051774607226500985, 0.1918659375901981, 0.054383810626271505, 0.14993454382175014, -0.33551397396425203, -0.19932198061355189, -0.23267780931745352, -0.06038886703325457, 0.1520828429381176, 0.1883630793837293, -0.09536607137026959, -0.1480776681688831, 0.08952133273618777, 0.26897193442789485, -0.1102615016897376, -0.1559171927279764, -0.3730022560696465, -0.29412212819543626, 0.23787438718887696, 0.23661449252649822, 0.23076142247273185, 0.20323189791024396, -0.31944358166912723, -0.027704784780156647, -0.33338513655293217, -0.5906868164142418, -0.014197772575263716, -0.15406883050477066, -0.2194804031835465, -0.07327214416800759, -0.21026855231693956, -0.025719997427227508, -0.08763542010208794, -0.12812576514884416, -0.6645652080344424, -0.6364475984192558, -0.24504297276124315, -0.3189174639584725, 0.07372873102113678, -0.09508527333232356, 0.5690858421669325, 0.4038119330748962, -0.2281800994138069, -0.22508909705254213, -0.06563662187780528, -0.3312939104925057, -0.18384698750350167, 0.09519959030351197, 0.16424703941258248, 0.34870045535248667, 0.1599641466558192, 0.0189071209069742, -0.26101823994818085, 0.03923820780535289, -0.14323910651989466, -0.237167084737809, -0.07177984588092301, 0.23342561359800715, -0.10063086330735083, 0.04052454488461563, 0.14004477137583804, 0.4222478302196211, 0.04464068587489832], [0.017997590682027997, -0.09881201703750071, -0.04876385775199859, 0.18699375874575, 0.627055290299819, 0.01777707709177, 0.0952948602115957, -0.0001873537572698324, -0.0980642282971966, -0.125713710225317, 0.25597131599603445, -6.715811097150306e-05, -0.24170496552994977, 0.1694936609041928, 0.12411738753176649, 0.08284606325057702, -0.2187810656354437, 0.09844787407232979, -0.15045697498188354, 0.24512752064069757, 0.6026620583678907, 0.38134074033315113, 0.10096527876162278, 0.12236162120260717, -0.2263010889617263, -0.0923093348207718, -0.26351608601736076, 0.2958443821176594, 0.40658582955273553, -0.04450361082721741, -0.2599016806565312, -0.11687426919634081, -0.3958059415640386, -0.3754951513349612, -0.37091040971576633, -0.3315717122889484, -0.30765650411599926, 0.06512188699317516, 0.14844087878870726, 0.09431452814640051, -0.27354224313040293, -0.1838273163035922, -0.8562892097706161, -1.0527478866291644, 0.19265819635559323, 0.3049523945363577, 0.25832052602730154, -0.11331346970955555, -0.2358811772759997, -0.17391054403880388, 0.21674584587475634, 0.1872071796442381, 0.08169375574199746, 0.07427607029584292, 0.381760761906989, 0.17488554500135317, -0.40696724261446554, 0.1784554957978817, 0.30495281509647804, 0.4501821585946516, 0.29784039215508606, 0.1663809938842143, 0.4232404312393535, -0.08324839049722313], [-0.01871167455718384, -0.06134793876692375, 0.11689599899952323, -0.23494832553481565, -0.3283058966248909, 0.04749222207016384, -0.37396927927834545, -0.08322552795264195, -0.34631693827305216, 0.2431688144256919, -0.0004263960275908321, -0.5585073603086868, -0.8097920753302142, -0.30907310882116756, -0.020779036116145205, -0.012946942821309862, -0.37578028591993184, 0.38335819918989084, 0.2878218411717478, -0.17159196490316025, -0.4361204800702814, -0.046237758626399415, -0.06477879967185413, 0.23684490715491957, -0.3516055023629144, -0.10039973156350271, 0.0025844988636857524, 0.19533509960976037, -0.15227040767823885, 0.22760754099590919, -0.025439186669350404, -0.11999104827156007, -0.16387797137408816, -0.07433391932961422, -0.22844810812971209, 0.1950395378387829, -0.0486698465013278, -0.2564856372933891, -0.13519550039504935, -0.042378477620040905, -0.17038755956062385, 0.07177884132634488, 0.07366059099609996, 0.6379688365507893, 0.24370991949701817, -0.3788003319445164, 0.03823967591074948, -0.09279497658543788, -0.221442507480821, 0.21679875730554235, -0.053407658070126936, 0.11769433873296072, 0.09962884203823677, -0.040582683771804254, 0.033532259666752696, -0.21942722324883168, -0.4601291195322116, 0.0983003218151971, -0.177957735261367, 0.06707896908447719, 0.11220845364893287, 0.08303517752158639, -0.5292963261549701, -0.4267764488411968], [-0.08263271991986967, 0.20248884843081302, -0.17896299786004155, -0.007019055264302349, -0.09979128823512334, 0.15061760166091187, 0.316803047715868, -0.04487058933597469, -0.13800264412435712, -0.2529235101900239, -0.06832255522849374, 0.03576949912513202, -0.1919653692026109, -0.17915450983496298, 0.11880934568105343, 0.23941955394276326, -0.033841505862133706, -0.3430871557181366, -0.3072485711026209, -0.009585506521628187, 0.2448138589824942, -0.0032354020169380305, -0.10726028736487768, 0.1163377143635174, -0.1268385186052907, 0.03835658103136698, -0.18614371347070718, -0.2662950087182921, 0.2168732822448063, 0.03753927969992931, -0.12603735129161944, -0.35171307967846943, -0.18395975925488833, -0.2796010986506662, -0.2041824595921322, 0.17498621718233928, -0.30006699001515025, -0.0856504452669636, 0.21190349497367392, 0.09587455855606661, -0.2745881375234346, -0.3638171125029692, -1.0574860478226653, -1.299197463869029, -0.4478950322140192, 0.45420140355147226, 0.0352054669621572, -0.0032110724106795456, -0.22282519785964772, 0.2642618622873145, -0.020114712742704988, -0.4250188399649945, -0.18055037686575556, 0.3442520075139402, 0.4332595317792612, 0.3799821029097913, -0.29709893129863263, 0.230895956106303, 0.07675364474627006, 0.1287466193990297, 0.22918542362440017, 0.13333011714350274, 0.05369578078715665, -0.2013399595476098], [-0.10507294082795504, 0.020484113298364533, 0.28224357199932715, -0.14964321612007214, -0.4434837216003923, -0.13719496351837565, -0.11515239696271168, -0.20476500002892672, -0.13249509338363363, -0.15345684441489105, -0.27801800539600446, 0.03769371631935894, 0.06516181847611767, 0.18830777353911154, -0.11305953376086746, -0.39428913189855125, -0.10914531780501185, 0.009566358563426929, 0.42149890305917703, 0.37270364427023683, 0.20767486688914158, 0.25324084232229305, 0.10136836719839709, 0.0062384094814992765, -0.23048244017009953, 0.1993415729116458, 0.1840180354709904, -0.24805265624064243, -0.1569459215188602, 0.3985917382480663, 0.616779068259348, 0.05071879933429144, -0.3174999984363922, 0.14306006757412962, -0.121890532547718, -0.5924746511401967, -0.8807943525118437, 0.04871075576694386, 0.5695464179834415, -0.009318877767366451, -0.24632182822989607, 0.08370764491195058, -0.07185090799591483, -0.11694771420232988, 0.025014783249582364, -0.26598711096198524, -0.1950472921680119, -0.0009009954193303686, -0.31582723639392857, 0.1780048946979015, -0.2103701735142873, -0.14386720973435474, 0.37579038013657595, 0.26089874827368137, -0.042003436762213894, -0.03604196163387634, -0.2390217640117723, 0.19338725994803221, 0.146104791838607, -0.07656487117543545, -0.2263335986461142, 0.24459151297522944, 0.2818729395661763, 0.21028091927238973], [-0.0018833668326240227, -0.31223920912036, -0.389999405280581, 0.030452168863882204, -0.2779110857922247, -0.31110111185542294, -0.35430844094786484, -0.362449369970299, -0.28524754456153767, -0.3962763070012515, -0.5194881864880727, -0.47074030601736855, -0.1736554912394574, -0.28233605123762534, -0.09052689055234175, -0.10394940292203528, -0.40413728958239514, 0.35045988923308125, 0.3985710750714567, 0.4598631760261321, 0.0701617284064631, 0.18095326207604617, -0.09060478980288116, -0.46088993312299936, 0.09873525617032004, 0.1916260672443414, -0.09762228214736082, 0.5174584751746915, 0.016177364942054993, 0.24600170914006497, 0.009057682480077165, -0.17187214268202866, -0.37762012638728976, -0.24006600740471193, -0.0035970555355421064, -0.06082476069380062, 0.27260489131342397, 0.2969573595990673, -0.2965902308821341, -0.04027206480941653, -0.37261733467081987, -0.22233213171283678, 0.31406307083688095, 0.38148432795080484, 0.22319461618268296, 0.054050645260307215, 0.07030263877321445, -0.2018610943291637, -0.3448762994957167, -0.16731575051321446, -0.18934895894513015, -0.08998064857839212, -0.186433244725566, 0.31422707052906507, 0.054070139254299494, -0.3052303496098963, -0.4247889469903051, -0.10457014054224252, -0.3504794299598996, -0.554898023087656, 0.07593778788096904, 0.4437218855675554, 0.09910473061886492, 0.06683147859498349], [-0.02335299772773647, -0.014685675641118084, -0.15761937740959148, 0.006015077504525587, 0.10861988524983444, 0.11025043035675283, -0.2639336185401602, 0.07486264543906088, -0.14546616085398542, 0.10300829444294, -0.2920229590906668, -0.2784092941340908, 0.3518969425279617, -0.028695094014130552, -0.043071182386730335, 0.11300953819052156, -0.17665346493186077, 0.20022105994358583, -0.5014566492510785, 0.10441816111800396, 0.32630939269403453, -0.2751270039836174, -0.03843543368321181, 0.060265308915294837, -0.05250285087042712, 0.2814283034757855, -0.31108879707985276, 0.19967203894842114, 0.31868277240473075, -0.15879185425997938, -0.03828849948065848, 0.095394670428782, -0.2070962669436545, 0.11359399635958937, -0.22353162675050742, -0.12932713631979034, 0.33501619765704654, 0.4130168150590461, 0.3304601908158752, 0.04771653123278116, -0.002340427062257895, 0.0948163504088849, -0.22031534213447918, -0.00700762451720577, 0.6320832281433574, 0.5399105424723043, 0.3330583684484713, -0.10325419804713737, 0.13733946173407424, 0.01570513498813429, 0.009012995508531987, -0.18911573682569077, 0.22673030741117917, 0.3295141310879016, -0.10498327313124879, -0.16860633069121886, -0.046911994678009, 0.078753067558972, 0.1431226736618098, 0.06484691946753648, 0.1504719306245346, 0.0846074143405515, -0.4292604233694053, -0.2959136977551674], [0.07802988017798751, -0.041124455944141484, -0.16127367997440098, 0.31348774162865867, 0.11507781081220601, -0.013058196352695426, 0.11087601537048247, -0.28401756441776044, -0.22401553846007116, 0.38612488506924886, -0.12851564727525353, -0.17706485255374033, 0.3731936644490438, 0.2311029250569514, 0.15004506967575237, -0.03105978726617611, -0.20725605128435573, 0.19483531974889173, 0.06524066722102631, 0.024823373716164804, 0.4572628793372012, 0.5828701851215616, 0.27494588780269524, 0.2109193648374494, -0.22498825656904894, -0.14512254096755334, -0.18668374434712987, -0.12606363625628764, 0.37839456291231743, 0.4605359953967252, 0.054198800989269054, -0.07868666225741364, -0.0668925925889146, -0.026880441327970822, -0.1725347769707405, -0.029570067196868523, -0.05136926288753346, 0.46114314908239334, -0.14374857458829204, 0.019090288336185923, -0.14170744023744225, 0.08886529202424638, -0.5569844894105772, -0.3239468047681313, -0.0329185606121442, -0.22822279955896047, -0.31374681826399275, -0.03695013998508412, -0.20656444551034772, 0.11976110658784032, -0.16411934392419944, -0.15929441362725968, -0.09154755322099149, -0.025019841037639996, 0.15544211105794822, 0.11484381581905714, -0.24947703252384762, 0.10406316594491473, -0.12466400270569382, -0.10056117859353202, 0.04301873252106173, 0.05473038687520831, 0.1969474791595443, -0.021822453561082512], [0.10468846768835427, -0.05880634305196192, -0.06949132302921002, 0.05815292167796466, -0.4260116308551644, 0.17615457032831708, -0.2502534188074151, -0.046981232923787405, -0.3751983147108399, -0.2387820600257574, -0.05531518390521881, -0.31650921631714163, -0.17550133186800124, 0.22483598377837175, -0.01376298936023325, -0.017599883906449783, -0.3416031413656014, 0.07866969742534628, 0.5028875715855671, 0.5241290432784567, -0.029598614795221787, 0.35147862175282085, -0.08118901391484294, 0.03695747765144465, -0.3459343456303795, -0.2271743017237511, 0.013183823474927076, 0.5905636240095365, 0.14427029775810557, 0.22977024107122387, -0.18577111409216282, 0.009618314674259104, -0.2031780492766274, -0.1773953753222055, 0.2272770988118053, 0.031542947632464804, 0.30046138635291786, -0.04271551111093115, -0.5892912144026858, -0.005869817623995965, -0.35440649127530366, -0.009446568807129, 0.06051450402340918, -0.04913774337562153, 0.08031319788595083, 0.11012541959778888, -0.2432833865878374, -0.272999689240851, -0.25943588897055053, 0.10040558230014823, -0.027718804685592804, -0.35586496208207025, -0.3211200465169432, -0.09151407708754988, 0.3651861355168414, 0.030652429616433313, -0.38953474494787865, -0.10973330761365219, -0.1404719515066927, -0.017021535274263554, 0.040177475915986444, 0.10428812818650988, 0.10542821884700951, 0.11986085782089304], [0.0665139143210044, -0.2080192468014349, -0.1122152143917475, -0.30926264413667925, -0.19498018063035555, -0.40500569719360735, -0.43021701058833767, -0.11989722202134484, -0.1944021632485494, -0.08220781434876318, -0.0023394566953478936, -0.26058318185885476, -0.6010145741755156, 0.042393226288187924, -0.07189391336045443, -0.24088183570028907, -0.1121460995853199, 0.3362531101060184, 0.3388225919835771, 0.15786703529396492, -0.039744419286158926, 0.3573486609772441, -0.21846049383794897, -0.48900793945033605, 0.024148778940449273, 0.11131213090967544, 0.027824418767365067, 0.36153343707970115, 0.10357555900755487, -0.10989418541258218, 0.15666693923186312, -0.24647980066941702, -0.33245519515038346, -0.16111024977663044, 0.3725510115252403, 0.250103020352614, -0.16193254392593795, -0.3182923245167645, -0.21790012778590373, 0.07296676157192758, -0.33050908406440466, 0.2219379653353179, 0.7199525011031127, 0.16712103698925773, 0.25209483858896803, -0.025022349582327484, -0.21269933298611188, -0.3317262583143262, -0.5520202483954793, 0.1114482262407456, 0.3107464474383267, -0.411563052200777, -0.04100736105145597, -0.1736876938806872, 0.13618755095940097, -0.2111315851630063, -0.6295316805882109, -0.26709118273929655, -0.2603685829461845, -0.0369353601626298, -0.0545242277076719, -0.19924644828171184, -0.04536975419540275, 0.07396942451292422], [0.09950811043156607, 0.1440229874001337, 0.1721941146662541, 0.131578775539683, 0.08862402520700548, 0.3796058785731233, 0.23620540490525307, 0.16748383251421303, 0.0871267952562359, 0.027902061844449433, 0.3725711040778721, 0.048835755670784645, 0.12464818302984947, 0.299533408806032, -0.21424029695255084, -0.10764198528224632, 0.09678834078659274, -0.03507058724454082, 0.3554482864903641, 0.1444667497362147, -0.6570234928870535, -0.1897144983030293, -0.2532542631060408, -0.4094921346942299, -0.3393505839857101, -0.043330772169263794, 0.3286166877092778, 0.31070182156752574, -0.15909325211654676, -0.15312763824597514, -0.08687408281591298, -0.4298692560033071, -0.4181080446757346, -0.13213641735947856, 0.17369698311311493, 0.10552425039900362, -0.3477907135872079, -0.2562371727314779, 0.053834322645553226, -0.11959393963985968, -0.41410133017614664, -0.06568447097821138, 0.3161011920008944, 0.08356982612095075, -0.2657817964415216, -0.07837008655273386, 0.16802180900234237, -0.26928951010777685, -0.4351501478674515, 0.19753611684971759, 0.05294480575358907, -0.22846588027074916, 0.1860063807408188, -0.27529845088239724, 0.10381039977425759, -0.13898659009325764, -0.3429106735865339, -0.1258364971058093, -0.14687339258743087, 0.43894234457358455, -0.022536437556302302, -0.2077045134361194, -0.04567801463971268, 0.15751948083162215], [0.024428718648264208, -0.2991851838314613, 0.06367959805856171, -0.10601574512036378, 0.30666537570099256, -0.2892392839091575, -0.03329476142188845, 0.09753604430388804, -0.3298614407941881, -0.21514973399917137, -0.23304667992472158, -0.17680413897681563, -0.40301448771900356, -0.599767450020553, -0.0027738560602348725, -0.01682963337365606, -0.3808786093196088, 0.1254413202509427, -0.1263150905509343, -0.19795227243610222, -0.1230336051381444, -0.2927399443264718, -0.2292760004845667, -0.11865800762569484, -0.2950499331669443, 0.13785147272402062, 0.19332372639469533, -0.20666236894127463, -0.34631366357664434, -0.025398573848552274, 0.31109967972261454, 0.025603923570679442, -0.23770901682515252, 0.0976784083797945, 0.18685875068419178, -0.2756954496119749, -0.053481088667395094, 0.10361571994972006, 0.6828102681478807, -0.08444701794909232, -0.20050721403636848, 0.19198471579259635, 0.11419263200608612, 0.21078950741616298, 0.6257106714537459, -0.02572754031207201, 0.26206203661617916, -0.16345666115155788, -0.22006414529706006, 0.1904767864267849, -0.018396060925513994, -0.12871864845461953, 0.05593046181649552, -0.1333923320791029, 0.12383687201047568, 0.030882118245443346, -0.28754161416407226, -0.11936879176216415, -0.1552889994746949, -0.37125787065036, -0.23808964805568622, 0.19290297586422456, -0.08017872524120304, -0.35635603386709447], [0.013763604219625053, -0.26542111888941733, -0.043711214961013926, -0.40391625928421476, -0.19179631810563957, -0.4037876255473517, -0.05793929009166314, -0.04568472935122834, 0.00571023789968195, -0.22327728699963928, -0.08639745139112077, 0.1732733858063674, -0.8677796690290422, -0.4175972337465941, 0.3409192427549346, -0.10176104064404158, -0.13185714091194664, 0.08649085779328464, 0.8298035835689045, 0.04959155691599373, -0.7048632470531491, -0.3918236849305506, -0.17453976577945154, -0.1360714008853614, -0.008665293694016796, 0.19481474427097673, 0.5360073514414502, 0.0996682896322151, 0.4219135349076928, -0.07782931733141911, 0.15422795840316933, -0.026848398564123042, 0.037597234476201995, 0.23360214271048887, 0.6863626379799602, 0.4245913354997427, 0.3249250637728796, 0.6559254292555488, -0.006627281423401692, -0.025438124017864272, 0.09207181250657938, 0.18343223138004555, -0.009269279977898944, 0.0025669910299299516, 0.09001429777855738, 0.08136556322661267, -0.1298740438841818, 0.2379299737338642, 0.23091376989024165, -0.1853318053791226, -0.30388982799113806, -0.2310418051196275, -0.1413798848847015, -0.26826531924459684, 0.17875639473062932, -0.059898389112717124, -0.06472223291868201, -0.1059870515889723, -0.07213615693924634, -0.3179871003109179, -0.1296039076805049, -0.18205321838384877, -0.1097794436529743, -0.01794910164906874], [0.11655819346837223, -0.3508727238398298, -0.17649811081879543, 0.06569428606027466, -0.0027322165670971175, -0.6485731227864715, 0.17641860044948826, 0.16538735004966312, -0.23811301505550161, -0.22239874748086036, -0.1953540574267299, 0.05880822333859182, -0.4440566880871637, -0.3480285859354367, 0.0584638617864149, 0.2524025192641845, 0.04532163540989444, -0.2818224122219089, -0.01833288141337703, 0.3284062464453776, 0.03529127501527467, -0.6188939460857785, -0.13989632388995168, 0.07575940368921492, 0.10902806037994216, -0.11128305687638639, 0.32858158458760617, 0.4396018752586169, -0.11973875636174622, -0.34220554754178484, -0.03672664961369254, -0.059985956383815583, 0.025787791690129985, 0.1110888885784122, 0.368525000264195, 0.34518223502277307, 0.27142336578195725, 0.24353382415145466, 0.06117824285659776, -0.08232797603879097, 0.07424186508403258, 0.08830503537335876, 0.13578344364574493, 0.5491939940130185, 0.582934403136291, 0.021204303941574184, -0.032712712857727186, 0.09587542213866403, -0.06682036011406112, -0.22504429968425957, -0.010123785079616622, 0.7815124914288153, 0.2534791985856718, -0.33198008638149823, -0.1678153908001556, -0.2671322948008488, -0.041432870353598585, -0.04890490585266274, -0.04186120154023377, 0.0883907254253933, -0.21326338658080937, -0.05830985324836339, 0.17005540847159903, 0.1747138742306006], [0.08661828209352737, -0.07287876797144262, 0.27219601490300394, 0.3713354670190358, -0.09856619036557879, -0.14538932275047242, -0.3588408512764245, -0.10004433611608092, 0.1284853196932157, -0.06225996378299612, 0.6933411215056229, -0.26982923213312127, 0.09240086343956903, 0.033269040105450925, 0.26152208975063673, -0.3819819833649261, 0.05088264541168065, 0.05777271016594369, -0.0753569428783885, -0.23059987374534155, 0.16413599733029277, 0.16216654023715948, -0.1335424989325196, -0.351784328103924, -0.3850322726033022, -0.016199897183576846, -0.24460919704611117, 0.03546253221534909, -0.25880510399171, -0.1379319213639223, -0.34101935756037405, -0.3491437070167775, -0.3765488030801748, -0.46831307484486595, -0.32344846694159946, -0.20002928893482766, -0.26380113530662275, -0.37773667745283646, -0.2611105513928762, -0.0037563751521645095, -0.30311586897135867, -0.38891645693452925, -0.02453307217507958, -0.08677173930796606, 0.05426275697665124, -0.038137713790663476, -0.08726193132920629, -0.15289095528034138, -0.3062248359537789, 0.16395275863740882, 0.25256892831609123, 0.09795005154258003, 0.2416121438765181, 0.283361899006444, -0.13033083955994756, -0.010032212680147413, -0.23030544011672285, 0.1697005811571089, 0.27134192235465393, 0.5190582057322881, -0.03428932858862524, 0.08838341046419336, -0.055009114970066025, 0.11599954650880759], [-0.08934692197868443, 0.4102854105340013, 0.38885729587435885, 0.12889811649758748, 0.09413269548516807, 0.2683608709369995, 0.2625547314432423, 0.19723590143257355, -0.08764458779564921, 0.36926889623528286, 0.3981713855596342, 0.3989461215050509, 0.2647572099593418, 0.21515396943116527, -0.090116446516835, 0.3792603840956293, 0.02657567247621622, -0.03737500869768631, 0.09509157832606255, -0.16890902588319476, 0.013762971431041736, -0.10448043044852086, -0.24243238852045063, 0.4144652181541048, -0.3500805112078387, 0.13108619320850937, 0.4914496951756886, -0.019050241142435767, 0.05348125513266866, -0.06897935471836858, -0.14012610382610743, -0.13727926710015093, -0.34911609198876276, -0.01021685760252558, 0.1395631960068263, 0.4611243739040085, 0.276137518492391, 0.21209783134237373, 0.06309826451746663, 0.0505356803848869, -0.2890225708078384, -0.3541515044866233, -0.715762584853435, -0.6763687798068215, -0.033874089632048285, 0.438918119368284, -0.3822618339653799, -0.35894769330377224, -0.2435246890429698, -0.27052513424841274, -0.5740578591112383, -0.4194308323354188, -0.1815853974072805, -0.2540354794679217, -0.37274377521240554, -0.14127652665559293, -0.20795305986522025, 0.01995538926460317, 0.3149429237171241, 0.11766740480972028, -0.46802259590336215, -0.7888899839234753, -0.5002931186194263, -0.2903989786174667], [-0.008785153463416934, 0.029204715594390317, 0.13240094776885317, 0.14008060581398202, 0.10636456782872669, 0.013663441029259454, 0.02874188853309858, -0.3275591521247619, -0.11608091542000983, 0.2508984689944488, 0.12490264693870391, 0.11812214308655088, -0.14231316795846932, 0.1167530451288408, 0.0602134284925883, 0.01990983179354088, -0.0882282902565802, -0.02476388246089029, 0.2761934924044191, -0.10246825966625174, 0.24228149852916198, 0.30755701545559977, 0.059159680747102344, 0.24120518406542268, -0.01834338413237039, -0.17528912534805394, 0.3206300099222554, 0.03014341608536985, 0.47779738795110355, 0.43380529141754814, 0.148332752075124, 0.169394051036623, -0.00536019455250718, -0.08727814375780217, 0.04546222472678395, 0.3302831426174661, -0.35078756439965386, -0.185384517151182, 0.003267073355009821, -0.02403420905942813, 0.042491757020525815, -0.2190523359158929, -0.739354568509081, -0.769967226253759, -0.4668466472702677, -0.25657831183285407, -0.16739240143508846, 0.16079209877147016, 0.03026581679709824, 0.0016791242504714315, 0.07503540449744565, -0.26624931911076793, -0.4142739611112571, -0.3558138106833997, 0.09211438900656278, 0.22032521093695606, 0.06247305356720844, -0.06169173016157259, 0.11698868420417603, 0.011170752521783626, 0.00718303714483439, -0.17354101162601862, -0.023840666215492266, -0.23866539085483862], [-0.1091805632303599, 0.23476918676147984, -0.1018390903053662, 0.20597309706450834, -0.007221607191327012, 0.48884502048799344, 0.22290598288187072, -0.01118483579311567, -0.39911154841096125, 0.31897341822998576, 0.26312223723351397, 0.49071779788792647, 0.2713958663069175, 0.0797813091253397, -0.20178630164589198, 0.0018460759074449113, -0.4299016909038699, 0.0350125056815785, -0.618964480718004, -0.6201336026483348, -0.1591554333913307, 0.08274342895888355, 0.14663728667380377, -0.03215440014713427, -0.45050237806078, -0.296525705440928, -0.2945477407941572, -0.027540182390642508, 0.30648960370818484, 0.23505757763365506, 0.14967613702178784, 0.04128216281851618, -0.3705463871629186, -0.2840026600961785, -0.012661611406082253, 0.35124893646249084, 0.5505318848474541, -0.08150301060465082, -0.014406299833602466, 0.037573804991465065, -0.2375728755262946, 0.04726951758991984, 0.26713895600575494, 0.7118801738560322, 0.0081878300819674, -0.22477112723197445, 0.04258108437436163, -0.4374938312989763, 0.05066482039219652, -0.04197843116706429, -0.09494822710325411, 0.1746554055190902, -0.4994224686380263, -0.45818095176207224, -0.1368926463780619, -0.4876837264475466, 0.15889483100121246, -0.16890915799493492, -0.40279534288865537, 0.061556702478503755, -0.0608267293361766, -0.22418285516669834, -0.15364960607895364, -0.06707538642248824], [-0.11663583040555855, 0.3173425241539528, 0.32881947914834536, 0.19259954103019655, -0.32196937854001056, -0.0801685205493888, 0.16749773706644996, -0.32832352662620634, -0.3983598812974043, 0.27169045936778347, 0.19015521009305225, -0.06925926179072277, -0.21819378500364947, 0.18520699727234552, 0.08861581607491112, -0.296343910395367, -0.4050719140671814, -0.3292082553403842, -0.9527925166055055, -0.23223316674699032, 0.2439480857679224, 0.06930804504204839, 0.08993266333628556, 0.0917453172621736, -0.30900768679886137, -0.3941755320344933, -0.3067431759942922, 0.8075030805505624, 0.20089656714365073, 0.12460789586839303, 0.3234521849398283, -0.013682096883336688, -0.37615350418094556, -0.1919080555291805, 0.46772726594932523, 0.57169741158754, 0.2002728184595016, 0.13734366759069383, 0.08322934178859016, 0.02444819153183933, -0.47765438317980075, 0.1367197270494819, 0.4703889615807797, -0.1003531229576404, -0.06496534236473235, -0.12619197372255325, -0.09644657236039988, -0.20001430582672242, -0.3243248412721817, 0.03311968393934097, 0.12410943045475324, -0.29650471023726527, -0.047143922308648896, -0.11845720891980675, -0.054264968955909966, -0.1666220356600357, -0.18691648131731747, -0.03240201976807311, 0.1535761506847395, 0.1342256130754372, -0.34012011320044344, -0.2290044021029419, -0.07309835983426963, 0.18999474678889755], [0.056675366251076775, 0.041839836845920984, 0.26222585274259946, 0.10762834971559655, -0.01711469682463336, 0.46565632632584814, 0.21634276554560236, -0.09822781964374155, 0.020944026234551497, -0.27049969419584124, 0.09730202160236286, 0.4078605134816937, 0.26997620709707765, 0.06923446383788667, -0.3163237292665672, -0.27189707418106523, -0.035378307363087745, -0.017320306799748594, 0.7036827697340526, 0.09710928509261922, -0.6137676608097992, -0.25337421211756866, -0.469963020810279, -0.37555331920823737, -0.35161013440711475, 0.33028206976066055, 0.12904571505478138, -0.22653757782310646, -0.41774272227419745, -0.17000766478211243, 0.279020873616533, -0.28661853728038805, -0.08151713244961037, 0.19201877668356596, -0.19093329127310663, -0.3304501642703249, -0.606604639084834, -0.5788536215196203, 0.2551913547856217, 0.04492463706978175, -0.1115335752264899, -0.2873566533599386, -0.2940574852407459, -0.3701416910799993, -0.6075198385208164, -0.10126399974585946, 0.07975463281018978, -0.19670655649795307, -0.2850083603813084, -0.005737670925740966, -0.15886167155781028, -0.1851930409207709, 0.12368931707906929, -0.024753302024081266, -0.11476068647147195, -0.235137744053502, -0.30465283298918067, 0.13949114299641496, -0.028210069422208967, 0.28472171602857566, 0.056426028165800474, 0.01772658314307305, -0.19044122062131355, -0.3258884937047813], [-0.018927246363759115, 0.017888392747744154, 0.1429909233571135, 0.22054739839387572, -0.3131048663877619, -0.10080916870603573, -0.04069367854262511, -0.2891691773896649, 0.0036088809248681014, 0.012836709528935357, 0.477904607242942, -0.011951726924611855, -0.010947958797392287, 0.03791172508422206, -0.2436842574218423, -0.5364461207222087, 0.05046962908589868, 0.015682692173024895, -0.2582497640882047, -0.3121865543248125, 0.009829032643197318, 0.1723153167069722, 0.2079355724180665, -0.35603486555924296, -0.29814611472823194, -0.3762502896796143, -0.5695685513569541, -0.09868027858291226, -0.13942475608528632, -0.07230598963812178, 0.18775354393132723, -0.32937006099610383, -0.3287442857105138, -0.4376081626525679, -0.19707998237007848, -0.2789895349633697, 0.012998638963990899, -0.2594442253704845, -0.3619086706288601, 0.10611628990792393, -0.35916018828540647, 0.29679798965422927, 0.43751450867520436, 0.04203285115725244, -0.22212847879302303, -0.24867198524998269, -0.2319701557446192, -0.2746973600968179, -0.3467731228705123, 0.2570751841779954, 0.14747370763640624, -0.15924852436723677, -0.033456405183959155, 0.0820421819394507, 0.021275376921989633, -0.20583048696335135, -0.26270126134879673, -0.2997941280790157, 0.03347117359623095, 0.009128951029326362, -0.012714771911174884, -0.00417330093894588, 0.24130164587444985, 0.11949961815839372], [-0.042192021331891344, 0.34667946383508996, -0.07749654704735622, 0.2230368936634618, 0.014935618457953286, 0.05888607572331078, -0.25194292552209596, -0.015171597080468936, -0.3778778830601942, 0.1048938972915431, 0.18515442480310662, 0.38800639958938254, 0.300408071771414, 0.014232355061195155, -0.00880465740757984, -0.05659732026531182, -0.3297367603613489, 0.36638689257204365, -0.1817508766440249, -0.5189684880691844, -0.21209658751667418, 0.9286302891703727, 0.1845376438621803, 0.13206574994789977, -0.32538570816898793, -0.11652769052660503, 0.5204667575264392, -0.11252372622917839, -0.10242778889218274, 0.6615555353649728, 0.12540803160492325, -0.43391707125309004, -0.39738576941138437, -0.18227503616038032, 0.18009048747005288, 0.16031297069176143, -0.07306086672799651, -0.058975004685100536, 0.20896627275773905, -0.0012783030238221194, -0.22974306640718473, -0.19821986020787502, 0.15538429693416814, 0.03583329174666156, -0.062188797116862704, -0.09694985872474084, 0.30298948963516287, -0.28109719243419806, -0.25351743963006923, -0.04541828142148971, -0.08487012584216454, -0.007223264977219893, -0.027885251770070535, 0.2063658234488786, -0.04663490848120223, -0.5090305431029604, -0.35015118648729937, 0.011439689702812825, -0.24978736247886027, -0.155488245389748, 0.08008056335250148, -0.20654659745153273, -0.40547722279828896, -0.3767797112665006], [-0.12377697607978944, 0.011466182429776331, -0.040451080774573704, 0.04443596525765528, 0.1445955560556526, -0.005603819593662482, -0.2843214333336269, -0.14683407136120555, -0.29460737606670667, -0.2787177295218018, 0.5188951400574298, 0.10875625762449102, -0.09939995740861854, 0.3109217123608147, -0.052837199573171054, -0.3315769911935083, -0.44019990995875496, -0.3131157700795159, -0.08137521956102449, 0.0707500633650268, 0.26970479192969055, 0.1151586457427569, -0.4414388581884142, -0.28963729532441435, -0.28046212627650546, -0.1883562915671326, -0.18351258613259586, 0.3879386200826495, -0.036713902826405714, -0.5526194496540439, -0.2691922300020354, -0.4695049844935478, -0.2801238406918142, -0.14399243137762885, -0.3216158155280895, -0.15996822579932862, -0.21061244867758988, 0.1324869091487491, 0.24973304672028138, -0.029636366674014814, -0.2079443633809143, 0.12473597487652581, -0.5640041174680113, -0.7631771923472518, 0.05210575516439608, 0.2901858571231715, 0.15273927368805323, -0.29528614080613935, -0.33075772120399655, 0.12248959065048824, 0.2501893890197685, -0.3741267175203589, -0.3065947752295949, 0.02688251352728469, -0.272846250262762, -0.28605119373021637, -0.3775518709014305, 0.21169002484973534, 0.14112539509343716, 0.23367720678946713, -0.13959719532194548, -0.5208893988760281, -0.425501080364166, -0.6786924874223172], [0.01300878127543234, -0.04739226011638251, -0.1462069017266224, 0.20355277765345078, -0.24018809718811418, -0.5914274180572031, -0.5226546675438232, -0.1612497024013322, 0.18877988343459381, -0.22575986659696803, 0.15897450122045037, -0.01683146726664973, -0.01214714291117547, -0.5956998640299911, -0.4492434795133092, -0.3241521694261908, 0.15115607024375924, -0.09503048601175931, 0.044442737569129656, -0.054521838320743775, 0.09009970262280147, 0.29196949077016965, -0.15839787288019558, -0.24409438752618637, -0.3411216294392774, 0.21759669383722197, 0.21174244113777196, 0.16110200244271772, 0.4564780440764226, 0.2517818194587727, 0.03234766648644385, -0.12234312812290893, -0.3259875303473514, -0.06658985310136957, -0.09891808888738014, 0.2629965122687103, 0.45725565677163515, 0.3186727750487768, 0.04050621962854639, -0.008534236149615765, -0.30775469310524284, 0.23052794715284597, 0.06029906298220366, -0.3060188575178812, -0.4101117081596004, 0.5645853162074037, 0.2640449066128637, 0.0502725555864753, -0.1543127004103077, -0.06917047128437755, 0.11509024484339661, 0.18400191072566902, -1.0754453401092579, 0.37935353417953327, 0.17721748324008346, 0.0797351497244168, -0.2661279819389525, -0.09022787633023115, 0.124186672562827, 0.2851081575524514, 0.41988686849106527, 0.3497909016648272, -0.15749478995905622, -0.19630938619444788], [0.0011254280679721118, 0.1420509715284275, 0.6675521651818057, -0.0018877203227796212, 0.2626853550767204, 0.834735518334037, 0.4037161642300326, 0.025951419361086345, -0.07873406807078026, 0.36916472287886265, 0.18829925460462155, 0.17715815424175654, 0.35223169776207186, 0.27097674452175496, 0.015254259304195446, -0.04052965114647216, -0.041858087008107336, -0.10732938769858898, -0.31734014510238306, -0.27011465563036724, -0.4876520357819501, -0.4861992578780263, -0.07222821252906075, 0.06627326060646288, -0.33616083470671476, 0.19315552832678803, 0.408186649698029, -0.15390805652091405, -0.40900068315411725, -0.1102721261893404, -0.12851187513887552, -0.06570206008247982, -0.11286645206917616, 0.4640492540421306, 0.014658571587604608, 0.0767809530289536, -0.21807817171881994, -0.03762602606522045, -0.0479002174921345, -0.07251682903003642, -0.12075519724731552, -0.17988703732937875, -0.006565731568995756, -0.15496548656464113, -0.26750712958649164, 0.20365893325866255, -0.47012229342791806, -0.21064024024612404, -0.2398209803854723, 0.0696514403758044, -0.08991931936053317, -0.2572396989296944, 0.4428186401958709, -0.2974925280769101, -0.44674768632954986, -0.17736217475594362, -0.38463428204020167, -0.077757765644003, 0.294755386970584, 0.3425850302514384, -0.5820464450074255, -0.4394459067774481, -0.5200162113317779, -0.12559705266146917], [0.09884601971055701, -0.13996866312288372, -0.09029848650579486, -0.17404299622380734, -0.3133130515380807, -0.5967220955417342, -0.36087096848829064, -0.09788381511364078, -0.3357849443500397, 0.2553166664372788, 0.12550356515755662, -0.0578775653768009, -0.27216841662220925, -0.03742617935394322, 0.1886173652376755, 0.07417937511429233, -0.22069236774758388, 0.001824920478426452, 0.26815995490624167, -0.2552749978007628, -0.3422042818503054, 0.39367363404023864, 0.2929500955973527, 0.2550152095334753, -0.10207141364542455, 0.5627730752635438, 0.7187465105720159, 0.36453467648786875, -0.05460102818169358, 0.6941992437283047, 0.6917843667344592, -0.13393784941088782, -0.02654484462273773, 0.2150123430897738, 0.5903523799252864, 0.4964634356534454, -0.16602873396124337, 0.19320645027812386, 0.41984593754419, -0.006910125595279537, -0.13816685387876915, 0.22381667290784027, -0.08442127281314846, -0.20124259320116683, -0.4062042295041335, -0.29500468359465415, 0.15951776655669395, 0.11367527547168832, -0.1903254913262138, 0.03882014179279341, -0.3192915995263752, -0.43747393117037836, -0.53380621310586, 0.06372590539519278, 0.4308632355099613, 0.04578483601874694, -0.23238087680197558, -0.185572200210585, -0.4168763476514463, -0.04332836251087832, -0.07406265230191902, -0.00036917197922201376, 0.14739304440685613, -0.2152634758965998], [0.05216032728833739, -0.22905295999776398, -0.204936288548409, -0.0880948293931965, 0.03436414235844675, 0.6400938509283719, 0.08807549500146733, -0.048767415777932234, -0.5516842807601384, -0.1044705379598468, -0.10134290998226254, 0.08019673210992019, -0.30745427423437627, 0.32912547670656783, -0.031121245562829518, -0.07478684986667337, -0.5518968444012236, -0.16506785553690215, 0.23165646928131023, 0.24745686420533147, -0.13766982577142586, -0.051604438798683136, 0.2278549130168916, 0.09032064155972293, -0.437447744910155, -0.1309529649361525, 0.030846411128858445, 0.37038795949815634, 0.26447564412738456, 0.08811322730759735, -0.5327768726816586, -0.5266568452819925, -0.3579734397917223, -0.018788298088646824, 0.07330986175624155, 0.38728553592151654, -0.33384856016050424, -0.5192366006879178, -0.4158412155587313, 0.020594478159071394, -0.4690550695000253, -0.26935616194959794, 0.09979322955186165, -0.10879240737117139, -0.19901083521142876, 0.03789810477631217, 0.06797072088441294, -0.04534127682584103, -0.42080075444306486, -0.22875610504275795, -0.008140767136763465, -0.44187373133444247, -0.12321817814489648, 0.160061797426604, 0.1831643352569154, -0.06952458647265398, -0.4863089650316763, -0.19623805725529855, -0.3281313531289984, 0.27826943481300653, 0.1099215904843419, 0.2763889765066994, 0.03099568653543531, 0.009393301796455924], [0.09127620317348686, -0.1517346167960267, 0.0497936859131163, -0.12410410833379266, 0.32760018408806735, 0.6495800574375676, 0.06864250093218709, -0.3873278869035985, 0.0845000082452356, -0.14341576731027522, 0.2633356428918664, -0.0632973638365407, -0.16920147728658594, 0.7912547820009438, 0.08510405792094326, -0.16153890879452468, -0.029618938633661232, -0.2682690613920365, -0.1700095665016723, -0.0803378612491439, -0.3935181937919733, -0.10613847340264425, 0.1464016604011723, -0.46463569503306273, -0.5208897884059019, -0.033860224776502953, -0.05729963925206624, 0.2804490224090273, -0.31832126293346485, -0.14170016188038634, -0.5129448469171589, -0.3636474348308192, -0.5473386898730568, -0.10292921152121251, -0.08151584654245173, 0.0618574487396501, -0.28778000732286646, -0.28591485734583594, -0.44225443665687997, -0.06800017204303593, -0.47126381493591246, -0.24881873974240837, -0.12253528496429594, -0.47131538626226566, -0.26239138280335833, 0.35995540470520737, -0.03911866112428827, -0.4841131826977386, -0.4846311871776244, -0.29112291851510036, -0.17275926376208883, -0.17504658165272985, 0.3047322699159567, 0.0860505424053792, -0.06564338336486941, -0.2573251416219725, -0.4126797884712218, -0.09261897790432005, -0.05822918818232473, 0.3652627205118194, -0.04150956026847783, -0.2662544824424266, -0.3840585561262632, -0.3073641789149827], [-0.03691384306889525, -0.12984507878368592, -0.13035057294867008, 0.21903752773361232, 0.26340687837248844, 0.03718861102603469, -0.5518471694659073, -0.6423179006198068, -0.633211285080499, -0.06853053334746427, 0.5934632915155041, -0.158047586313665, -0.022657075385018176, -0.24155127591841768, -0.02375801045826655, -0.425225778539632, -0.11802528749524811, 0.2956539494992438, -0.037637376360638596, -0.308349268574135, 0.15823127525022493, 0.45835635856863777, 0.06867104522477381, -0.7013425208653488, -0.6358895546950161, 0.06307581307268885, -0.034879238536284066, 0.1560267418542925, 0.3173925839594868, 0.02914174289782717, -0.21549301433883442, -0.25714418802026706, -0.7177446844159063, -0.43349211022885836, -0.4430544402689984, 0.27273944712693526, 0.013031432701045662, -0.24988510873137165, -0.17429735337202404, 0.0061248764259942134, -0.5206494311263133, -0.39092649400273244, -0.32041727184663105, -0.033053722458474356, -0.17304110265394207, 0.06593818182790824, 0.01150865992887104, -0.5319584065260252, -0.6253710244016056, 0.046027611671221755, -0.017654741767656027, -0.01968393812495899, -0.4122040428906089, 0.3054096796565039, 0.09404114116788215, -0.06102612709742925, -0.52085159736892, -0.3153778969057275, -0.04038303871267297, 0.21339264822948098, -0.04713502003321268, -0.09080706180792798, -0.2100368554011426, -0.37839527922515587], [0.035874579917924615, -0.19332838616032572, 0.06291618101005259, 0.018844547387780478, -0.03197800515082112, -0.35402516111529314, 0.197196935980203, 0.31012392027287367, -0.16640154474828206, -0.14475079825496412, -0.2371146134769799, -0.14222367218810333, -0.4457090576957276, -0.030211354042376473, 0.1955156373743263, 0.09617450457557718, -0.12263898337362103, -0.26626377124278805, 0.03290331304919173, 0.13697655172709322, -0.04182025787936899, -0.5188503964124119, -0.267970151834618, 0.11642924284589688, -0.17823809560581352, -0.18854819520770258, 0.21812210934973564, 0.33564851112409766, 0.023708886567316807, -0.3650037685121809, -0.023312472732819084, -0.030056639145655834, 0.04675427995938668, 0.21225636296617412, 0.5806348919305614, 0.2087150578847689, 0.2770541783760414, 0.235258865559722, 0.012369665251513718, 0.11880100453881684, 0.15612575333657555, -0.009269105724690172, 0.36246239231515454, 0.6389085396660049, 0.43510927630311347, -0.07042945832285236, -0.16868727196368685, 0.14367702106932556, 0.024798494062341987, -0.12479320343593203, 0.03307806745894514, 0.5772399511085642, 0.06981664675141315, -0.40517150655291584, 0.06090996186690713, -0.0637950850581238, -0.01768492998907609, 0.0893768877883346, -0.21476487057254273, -0.13168211571057917, -0.13972374732661552, -0.04530485211934086, 0.2668716276799574, 0.1556481471775469], [-0.036926427385489596, -0.021628439556539245, -0.0834306258139828, 0.10151290999637734, 0.13747704142793374, -0.11592449691272083, -0.07371753124539263, 0.41894306031025796, -0.03549861956566342, 0.18426208203374425, -0.20588422477574503, 0.26008594000812024, 0.2655744033528782, -0.11932179427453662, -0.0888395213730213, 0.1777920339235307, -0.08153952100312581, -0.32593528131729826, -0.18219249014027394, 0.14124600516638908, 0.42831765681796713, -0.12580505802621758, -0.15244225652025653, 0.12103273188538644, -0.17986203480832394, -0.12175920552128679, 0.11239777830459816, 0.07227792280526063, 0.6334230088639878, -0.0007443202870985586, 0.06760224193841878, -0.00528394161139347, 0.08381342528722908, 0.11560034785712796, 0.2648762252411, 0.021075645545733684, 0.5632282286939292, 0.45698014170007467, 0.16262862036007186, 0.12080596177835334, 0.048872891268965435, 0.2167760123434785, 0.058186403104810436, 0.5679807726249589, 0.43777263734090865, -0.07445912448687535, -0.2873370929009239, -0.06691947424650926, 0.202137433134687, 0.1381632967906987, -0.221309623507333, 0.04501368078269345, -0.26965017179838346, -0.6613300764550659, -0.4651579247921152, -0.29830727389807987, -0.14380706559350143, -0.044464150366216516, -0.2466466139081946, -0.19675359106167062, -0.21455278123016983, -0.2951065335160923, -0.3007452480957857, 0.03925134536224566], [-0.10203621870068769, -0.03948528413183308, -0.07771925380533391, 0.10144752004165204, 0.07967211179742253, 0.1561042925280546, -0.16233175743569017, -0.054826860704070286, 0.11344957004311, 0.05259876265659344, -0.22390454744213853, -0.3051495657745525, 0.13613681688663437, -0.06289079850810614, 0.08092619916823691, -0.028777930010415533, -0.26149093797269046, 0.38317590953302216, -0.1987518952161785, 0.21620166021720905, 0.3068230569547538, -0.008133172190293105, 0.2020148674709459, -0.26486856829106936, -0.2349172493860107, 0.24704336321782225, -0.46499042658046835, -0.1881363280809759, 0.08421708120569003, -0.12536360920382528, -0.2668406339370135, -0.24150391739981159, -0.14496801370845958, -0.15971130487912674, -0.3766920023888081, -0.15178607146905446, 0.5471643717273922, 0.19857580520051, -0.270468050248951, -0.07673925709820772, -0.14268231819280397, -0.3889818951719164, -0.4365281500148566, -0.06223978818706982, 0.357354573064286, 0.22411162445653077, 0.2708403926758453, -0.20203915584228607, -0.22111478882068136, -0.1351139934262881, -0.15954875697395376, 0.20146501567040148, 0.5988460838573716, 0.5045801522466956, 0.07281988873757299, 0.00978833247149884, -0.1526668640009449, 0.20612407342439648, 0.24542209250448516, 0.10003454627345078, 0.04920235637040484, 0.21999128839131715, 0.23858515453300866, 0.2843860210479994], [0.012669858502990461, -0.16244071985125844, 0.04262967913342881, -0.07787511153106141, 0.27580840403322676, 0.08655124770187986, -0.12841992665663718, -0.14078841271788484, -0.034439132253566165, 0.273575903997793, 0.24007433139925433, 0.11964940289448311, 0.08789673171401288, 0.09596835514786523, 0.08351134704624927, -0.1937408266104876, -0.06217479308622361, 0.26598360160019663, -0.4850797127836216, -0.6879048156217391, 0.1407486292429223, 0.041440748745317585, 0.3586932998684927, 0.03451912830479723, -0.0438543346983321, -0.50945565736137, -0.8382394036067959, -0.24480473701841082, 0.34636903622954046, -0.1562540812134711, -0.20777914593740326, -0.18197821398680142, -0.11582755204982693, -0.003640408254192978, -0.09971053620942175, 0.11801498480287663, 0.36922068444085454, 0.048368489637516845, 0.03238330006446944, -0.09302499291635527, -0.1261206623971916, 0.10961536066124944, 0.07632954068081216, 0.18735829835146514, 0.20854494228359344, -0.2976372188629189, -0.030666506312314983, -0.13918364669330377, -0.146677525296694, 0.1917518138657357, -0.1310274110303103, 0.08111534818204053, 0.4021378400822054, 0.2570019536952336, 0.12587408780371875, 0.14441538727433564, -0.16803315314876968, -0.04269443692335077, 0.27252965575115345, 0.5338029034857141, 0.06761798864760885, 0.04753726028358352, 0.23244784192767237, 0.1499587357233386], [0.061453295287134, -0.06885486452815895, -0.025832025219705443, -0.05640215942008644, -0.12533382540633597, 0.07157144549710158, -0.0075519411570759655, -0.27290250533594806, -0.18204875145767788, 0.13195734844288967, 0.22190971407319923, 0.01606589929053839, -0.1421482923084582, -0.028749931687709382, -0.42361198494800706, -0.5287508893457996, -0.0987784630783212, -0.010270204114104177, 0.1771419917127576, -0.266498665977117, -0.42478725921714067, -0.32936094528007825, -0.4068482859043895, -0.40841423413356204, -0.3567268199244055, 0.14750455351414415, 0.08630204450422295, -0.11791995385719067, -0.23694773462371796, -0.3051767538295111, -0.17456144400782322, -0.42956738585152915, -0.4747736948990592, -0.028119222638197317, 0.12014484065950203, 0.13546917675809156, -0.47931377217582494, -0.22486773651368713, 0.227823481482283, 0.08052076981498471, -0.36479955234849226, -0.285702875654923, 0.11526713801775804, -0.07310073536599965, -0.6844141549825592, -0.1750826325874674, 0.268222460825982, -0.2623548222721492, -0.554494313778049, -0.28426784385185005, 0.35516173625800324, -0.07435497884120458, 0.09987415820535218, 0.21163349257246655, -0.13176763023161978, -0.16925962493811952, -0.5443709826275233, -0.26422296105609905, -0.06156493049146572, 0.5997819162447432, 0.1830121721863256, -0.06831016914591302, -0.6702317101135442, -0.3377055363629414], [-0.01849758201654053, -0.24504229244854261, 0.13490737382087528, 1.121039770546782, -0.02124688477224672, -0.4418157033678197, -0.1818385777679763, -0.08953486964224237, -0.20209293899667127, -0.06757421844688, 0.20330325217523884, 0.12682840483431812, 0.20068100247248954, -0.13782670787393142, -0.4938656858101671, -0.20607375567168035, -0.18597746133255186, 0.1615326842914609, 0.19868752660142597, -0.09023542643954192, 0.518950103414506, 0.20799422120122826, -0.43285637376706476, -0.0944708648901531, 0.09370074091760273, -0.12580664869860805, -0.06515291295551782, -0.030180679884558526, 0.17072794395765112, 0.5191127555815924, -0.22789198177948364, -0.15270765909547654, -0.15654195692614134, -0.058309295402605606, -0.15405472555063754, 0.03750980191235901, 0.40711397177908193, 0.02045603564910984, -0.4640405613299311, -0.04582309917353147, -0.1542607286864567, 0.05189675452908808, -0.10768112385499379, 0.5498399655983451, -0.3827577753657587, -0.2260513970786937, -0.3534765297242312, -0.2600492410991881, -0.34974144708150695, -0.13912027921367395, -0.2602057801655821, 0.40713957846834953, -0.3335909764007813, -0.20441619505674816, 0.07270020291887141, 0.11443123256770311, -0.2800468191356965, 0.021504165050143725, 0.10320306172718423, 0.2564138348230292, -0.2343632440152694, -0.06182472576423461, 0.6177812377296171, 0.1221398933831106], [-0.08583855460904868, -0.22112461915485926, -0.13826346018712093, -0.2576522995292158, -0.3117092537366655, -0.25884824105322835, -0.31949458446886525, -0.5172596021233126, -0.42566938208923577, -0.09317877173009019, -0.00818343919997006, -0.13148099900283647, -0.2548956224400579, -0.027456878167454735, 0.07676052640059802, -0.32258460083455964, -0.3540332459214773, 0.051224844524112294, -0.017039380977818677, -0.6586227483283017, -0.08617279281759836, 0.04588920891511408, 0.3187992099440943, -0.2955697156397271, -0.3819221422973895, 0.05810919893668948, -0.39690294431665396, -0.6153311319357245, 0.06802230963129222, -0.35114427509186047, -0.3903813458566221, -0.42519682143970794, -0.2907507131215763, 0.16076880961614104, 0.14765489434344237, -0.18168221225390854, -0.17449314565076957, -0.27741107262413023, -0.5671969698513812, -0.08452624215756022, -0.22049909650857638, 0.13414267636864635, 0.9115192575736057, 0.4788989939000082, -0.32074312179376707, -0.38814638385191325, -0.1765219940190446, -0.09392982503117323, -0.19916890550827598, 0.06264781708094631, 0.5982890990113563, -0.030216072489527467, 0.5196263551436885, 0.21951409796224564, 0.18705125656867902, 0.005229113583961114, -0.39126844332595273, 0.025031921758089652, 0.033362094132846576, -0.04232411115737138, -0.09884540363681027, 0.3920438732555095, 0.14062903589713432, -0.07582905608358048], [0.11665960328479055, -0.002690714513325107, 0.2743507930760235, -0.17655286498463874, 0.2592142657912062, -0.04690806860246174, -0.24381414068129198, -0.2230116414767462, -0.0855296932332308, 0.0026084556240937233, 0.21497166869740944, -0.09393852568680347, -0.11818985877793857, -0.25116653279486334, -0.005105879826076928, -0.29467207048673655, -0.05281786383261392, -0.05414496858620428, -0.15603751224304713, -0.6210904898596271, 0.20007360550553896, -0.08063872182805946, -0.09797554880890794, -0.2639721480627325, -0.1178715321340427, 0.1288946430784576, -0.338851236599528, -0.4246269053800143, 0.11894906383655038, -0.0932965781480879, -0.08597261558075597, -0.22798004124457819, -0.11821744067337313, 0.12743719149836677, -0.3181815623654651, -0.17331214654884364, -0.01631573753694153, -0.08976142705739018, 0.20134426785172016, -0.06572108148711706, -0.25746959266002606, -0.1164116533914364, -0.5858361450071133, -0.8955856542282826, 0.046246769473215106, 0.26788559274391816, 0.1041170149641125, -0.21435836249155896, -0.14180303840180555, -0.0610148380387856, 0.2643641536663592, 0.3447114356662947, 0.08426358317256272, 0.3008137593768303, -0.1200847291514069, 0.23649279322940533, -0.17546640588073675, 0.3624601241516523, 0.4734772856138152, 0.6444506555850873, 0.002535638852841123, 0.1589365739979554, -0.015334079725340411, -0.05473974634630364], [-0.08359691930288737, 0.12502195233235072, -0.16929766378983194, 0.11204887545650102, -0.14812128160938864, -0.05569314437519858, -0.06720502254018322, -0.23952336257802564, 0.02773390484508876, 0.15915773429318142, 0.14551594086856315, -0.4157239440014856, -0.5233799274779718, 0.040887201145511906, 0.3020783211460586, -0.2667984265750503, -0.03373236666380977, 0.39049833109972026, 0.49490273206770974, -0.2179300416064664, -0.16046937829689165, 0.6898290599923557, 0.42355829378436743, -0.3711538742748949, -0.3184980697294414, -0.15880145882665148, 0.4132137638035929, 0.43507953162218976, 0.10267717111846851, 0.44230262076339455, -0.0912249253556666, -0.1677560305026196, -0.37203488115253575, -0.5963084407971712, 0.08168443045540652, 0.2925632985238448, 0.1166531891202235, -0.30337183446636234, -0.22046711102029914, 0.11434929290643239, -0.336948794515798, -0.07674518436649895, 0.11687759254244187, -0.018205441856709432, 0.039501891363994, -0.08490084727672301, -0.10584304210440529, -0.14450924888223637, -0.254174738717865, 0.2926915547144359, -0.10508549377644928, -0.40828239318730114, -0.28264556617217057, 0.15419245783575308, 0.062401231433858236, 0.027784614324096586, -0.2786625352065646, -0.1372991692671895, -0.23452323411072035, 0.08072499040528185, 0.34683687568919114, -0.10012529786004858, -0.5284199285843155, -0.3472168750510309], [-0.022100806534379097, -0.08716030168521569, 0.10198405844686928, 0.020889087911763433, -0.05311545708306699, -0.31130718140728936, 0.16975304831714144, 0.00031837136020032857, -0.3035208822886769, 0.280384585475155, 0.09734060440482227, 0.3168831503749622, -0.4496142907543221, 0.1623522313522399, 0.22079144476876378, -0.08737064526908357, 0.03395919151467572, 0.07347989793073473, 0.18036213415204708, -0.1890420778958789, 0.2495742892522101, 0.7874222858462548, 0.18996543666852203, -0.13181136296484924, 0.05294989796524385, 0.14025958106004147, -0.008573667552562926, -0.24652264705192525, 0.6223272968143296, 0.4531094335474786, 0.2899544892152426, 0.07434299483514695, -0.19088067167067424, -0.02946208182445896, 0.14014183375849118, 0.18708531114736923, 0.44429796960052526, 0.2862592292549224, 0.36813580851225997, 0.04676326669168124, 0.0035681609349409115, -0.012624509617249213, -0.4327084206866961, -0.1933085862047257, -0.25729498443198795, -0.5889715021092172, -0.2835800688196505, -0.09965565779833707, -0.1992254029871377, -0.050407864386477645, -0.3727412825459483, -0.5066096653161963, -0.8375577073407697, -0.5703085828157811, 0.030419522005096674, -0.07156180159576858, -0.05039339722043, -0.2695461723393355, 0.17140962628643217, -0.31865058841352256, -0.26774988096458463, -0.3289368758157667, -0.05856908392974647, -0.06791020485078138], [-0.10408531569727389, -0.1550342390695897, -0.16876064782361352, 0.3231578097245664, -0.22593479721731358, 0.1582002001588477, -0.06448415655188315, -0.008540062186154622, -0.07148440651906447, -0.05750381247119832, -0.04902296515088698, -0.366352668735073, -0.14563928288571765, 0.33791372882460463, 0.22260993464618856, 0.03481203536825357, 0.12627144397210852, -0.02712981898717177, 0.17524406671792903, 0.6041130170717854, 0.36257686022358615, 0.054639300677197265, 0.05356359969225614, 0.11548876769150851, -0.0573490851320709, 0.2755585006335669, -0.1566592631457742, 0.48082838865279526, 0.3224929357014554, -0.0836275721848835, -0.40246964979005256, 0.0805771368887639, 0.0007445105292319199, -0.2549938680227025, -0.19874351856885436, 0.10902718645763847, 0.4088715820072587, 0.25154893321191896, -0.3794066765371844, 0.005236133155825051, -0.08720118812082131, -0.13225476492008048, -0.11876136139025463, -0.187334096828246, 0.46333048344512723, 0.162074777732514, -0.14793902068137021, -0.13002269086497745, 0.0003311037430769933, -0.0051416415601999235, 0.009681685846463804, 0.13490224687802396, 0.1575756406959822, 0.02966736300073563, 0.021791509358013807, 0.026439251836930643, -0.07271503918006798, 0.3658929005517205, -0.08216727700205811, 0.14575540484533533, 0.19126616972784213, 0.11284920681237924, 0.09603535772765893, 0.23298534234117763], [-0.06793760721268366, -0.1252623862738401, -0.13043337010403125, 0.14513129457009438, 0.12993010732371543, 0.07230375117232364, -0.03891413349467237, 0.20257091337399075, -0.013049988274107069, 0.08650926364340508, -0.13230137775470086, -0.42057346450993105, -0.0856967309331688, 0.20117849852432834, 0.1802664302806773, 0.34298409857326123, 0.1736448980438479, 0.30766871581769595, 0.44753294510436104, 0.7053885454450528, 0.043658259618958965, -0.10444371160416471, -0.19042967408067174, -0.3089244521662359, -0.101474421465113, 0.012147255044599894, 0.06600976998193984, 0.6361863140028239, 0.2662651752684745, -0.13348481077506444, -0.10198469289098612, 0.07361311557019572, -0.20939301000271002, -0.11888760790901814, 0.19581956516897833, 0.24079975267975376, -0.0020596579806457785, -0.003944388056070551, -0.2684295957499312, 0.03168936391037469, -0.050485043184155184, 0.2503499044855121, -0.17849933996890294, 0.3265022167653897, 0.7099893830255399, -0.14466257097968035, -0.5118180940975487, -0.3084841942233016, 0.10051560329107576, 0.17018721250939908, -0.1840335265194087, -0.3016800306928321, 0.22561823968702205, -0.40614235470968973, -0.2761657295354513, -0.23070981981869718, -0.08834565122554729, -0.08345013996328157, 0.24975930009705752, 0.16691375495183763, 0.11772474071364969, -0.48132276443001026, -0.4863095948124164, 0.32936643635243207], [-0.08761347509085785, 0.128032552803938, 0.2939356810058879, 0.6281376125919506, -0.17859021456584148, -0.5167105771370932, -0.5059102401174653, -0.11815641205242074, -0.07202122274085182, -0.099681069000603, 0.36117188732869726, -0.024428968478726717, 0.3744533765067784, 0.004963346010577067, -0.07831308315788585, -0.21232974587642395, -0.27223803211778225, -0.13426670504673138, 0.12269155081158646, 0.15208542020802251, 0.1738004515375308, 0.6866349361584404, -0.058238810145114006, 0.005054436943458486, -0.16342964162736726, -0.1653211026575061, -0.2194850760857567, -0.347243032831869, -0.6319620956235903, 0.36583534713611093, 0.2743668120871059, -0.23913663573018973, -0.022680929603673596, -0.0027618467144714582, -0.03708376597112888, -0.4758574392792746, -0.39281362758480565, -0.31353628711176573, 0.01995749473560215, -0.02203179160400387, -0.1585570903589169, -0.06435594417565413, 0.022534847444417846, -0.07460972751340343, -0.18929463009085354, -0.2402565032828443, -0.04173801993502509, -0.35150283886092404, -0.25614063899664935, -0.07236134866661324, 0.257566450681155, 0.1521069770165769, 0.30916220243718373, 0.18040726027591727, -0.10190222539229818, 0.15454102284455506, -0.1915328151550584, 0.029102830658173404, 0.05835656873242965, 0.24451657112885264, 0.09194989560023697, -0.09799314124692708, -0.103763406251243, -0.05969831820704308], [0.10102572994432765, 0.19168484770648286, 0.12359769221035283, 0.16203920527961296, 0.2757948078992745, -0.11916798526831396, -0.17979864548688834, -0.11047390946484768, -0.1808435385151719, 0.08883208098276126, 0.1315385150584778, 0.5005857682801496, -0.4238846993696758, -0.08627604529451771, 0.047974022001059276, -0.14931747580768356, -0.13393747206681728, -0.09061534868105603, -0.041183412560729556, -0.19892409309060174, -0.10911637516282513, 0.3197715991840442, 0.08544521287650969, -0.006745881197539773, -0.208884479780179, -0.10826907009250848, 0.04780221814183936, 0.04351936032838104, 0.018915550684164128, 0.10091697477680056, 0.2709104221343316, 0.018067881798420355, -0.24464691308776365, -0.04382733833189918, -0.05451975209282223, -0.30061360933193165, -0.16380659870006434, 0.08286805119681269, -0.011345543519944318, -0.12179460014768406, -0.06724287885813204, 0.19627133134068722, -0.38509470089674, 0.008936726546431366, 0.5141367343132976, -0.22305140324082634, 0.12528349249511303, -0.24752627537302205, -0.09703348205856697, 0.09830956563347908, -0.11246234737963647, -0.2922082821998, -0.10703822223102027, -0.8087283529414512, -0.5209598941855236, -0.20086289814453273, -0.37186072037330603, -0.2221348665231269, -0.14880206122877132, -0.438764387918276, -0.4624406975462879, -0.9506781883414668, -0.4666302404913604, -0.35766489938873786], [0.03156614691881804, 0.20298355517640354, -0.015862855915699817, -0.15135155899120117, -0.48359467898331515, 0.16027871804448943, 0.1573145928599819, 0.007221614489018709, -0.06663534206836419, -0.09824724715026174, 0.06995797020761367, -0.30279789320341566, 0.4643673409667334, 0.6383334598303774, -0.15542187893145004, -0.05383293994200721, 0.215052395569395, -0.22632023955245098, -0.3837537536716594, -0.17034793413575194, 0.11400043505906601, 0.7733989285875389, 0.48125846092770486, 0.17046333335230215, 0.18516715107534126, 0.09394740020025355, 0.010631289489945737, -0.3292853045041051, -0.6890369260544278, 0.29920267172131026, 0.2637195764079201, -0.07207932821044787, -0.0942649947487043, -0.17013338659600544, -0.15540276412625117, -0.33225050512744286, -0.18763345995743666, 0.20304772838705787, 0.11828287706834277, -0.12082434474252207, 0.036228836348776446, -0.16561000108373508, 0.2987984816348038, 0.22013309060559366, -0.0758996204060584, 0.2924472254465251, 0.1408339490961021, 0.026322373868169074, 0.04692525105732986, -0.06888218192186425, 0.0029872608365261893, 0.3643620013800072, 0.08957563049043903, 0.21219944457103823, -0.23273731038872228, 0.009582158751096085, -0.11252561542317882, -0.01893919162321598, -0.10831530126565912, -0.017657677201915835, -0.3851253459135911, 0.09610590228350062, -0.22796591550658502, 0.012093915698058883], [0.10689633800506299, -0.43599079207226954, -0.5145508583037282, -0.25573248778433466, -0.17713840779471055, -0.31215934521582656, -0.5486246263670645, -0.2732461492475408, -0.4637902402674955, -0.306507406342266, -0.0729311131532135, -0.10808712508646591, -0.25766653474290824, -0.10841591154121066, -0.07277387568244348, -0.47978833009893723, -0.07122979396483195, 0.510007323475941, 0.46997213666653437, -0.17261561134699435, -0.20097734123062386, 0.3920199012643854, 0.2538337502420266, -0.49404540384675005, -0.268864041739876, 0.5320258775956226, 0.4103635380006612, -0.1627527456515853, -0.04526907033275976, 0.11927157291936105, -0.130113127869657, -0.3404134513588708, -0.39819356626842, -0.20060637222138666, 0.02166867124479876, 0.10206639020137201, 0.14178704576405438, 0.052151576317710883, -0.25931840072034645, -0.11062478092753306, -0.5010335007688875, -0.46810611780385186, 0.5915671580125996, 0.4899643540347187, -0.2610407033824126, 0.5857321267493295, 0.09107970416999221, -0.059526982470569104, -0.4581121702194166, -0.3706292719808289, 0.14768264399842568, 0.15515855793524214, -0.2735298722307362, 0.5080338596372419, 0.012539236993945033, 0.14305952713219589, -0.3295249104285432, -0.3689325431913354, -0.17501537424882707, -0.009569968026694924, 0.30976189675137505, 0.31441013270397267, -0.3569198273384671, 0.13494431718620864]], [[-0.6466518162627917, -0.5969931262981089, -0.6803744964281198, -0.07504083774533962, -0.19425958609695487, -0.3517731979320321, 0.398633288142108, 0.21331178767826747, -0.8230814284023823, 0.2749386856153524, -0.01653372358008087, -0.7623103862832326, -0.4546963971218611, -0.4682301360733132, 0.2635433596479769, -0.20335704771644933, -1.1499228003574935, -0.8057235781633716, -1.1403630440627737, 0.5103523393217224, 0.1253782412704141, -0.5588319344204289, -1.369430080726596, -1.3165981595702856, -0.014638676327664801, 0.03698883080301706, 0.16440554732869564, -0.480745127142464, -0.6247074875881818, -0.17235416605584433, -0.5685413236926423, -0.7586501873371994, -0.6081155426951562, -0.7414700550493853, 0.45549853918821454, -0.400582832871796, 0.5679806664335391, 0.08359577887794806, -0.477821663034127, 0.3600134331676524, 0.2457220083354575, -0.9550275161720622, 0.3288393703840602, -1.1568501371242543, -0.8518741449492673, -0.29856789021588886, -0.8251678075503172, -0.527323922375536, 0.5199399996805145, -0.6824331139354746, 0.320904946460971, 0.10636239116739868, -0.5860692245156807, -1.3795760827355996, -0.724289203015219, -1.1967229305416285, 0.7671828309523352, 0.37450251768264237, 0.48538641449085485, 0.4547855071230675], [0.30224058829447664, -0.4872521197463785, 0.4940066060206618, 0.1288614438833306, 0.037479959874761284, 0.39324442923562397, -0.04908300820813217, -0.7553621492404495, -0.47986779458698686, -0.17225524546232474, -0.7406916453532374, -0.7485833760496643, -0.4822712575069931, -1.2771163953098033, -0.13806301110812794, -0.5299170149007744, -1.1395689657811492, -1.231899879080307, -0.49675194763466196, -0.618606180289806, -0.6065528095543684, 0.21252101011380298, -0.14829800598905377, -0.8460631168759617, -1.474956308054546, -0.13370950427012804, 0.5792754252626561, -0.6232348374705169, 0.3741749043151057, -0.5421180178268681, 0.23586303112442464, 0.09804489529845381, 0.6086168187529091, 0.6441213287113974, 0.11020533275480812, 0.08441482233804556, 0.3863370778623957, -0.5665923447204185, -0.43965713378511256, 0.2904870177881587, -0.8390469305358574, -0.8042660021291174, -0.2695771455835161, 0.07013221993288826, 0.2222981310579947, 0.3968370041721659, -0.5782242315530929, -0.1297286458247478, -1.2447291593066565, 0.2600316929195667, -0.288217581676316, -0.027443131252913963, -0.5355748143913971, 0.24787662643917444, -1.0019381895206738, -0.7746288027023849, -0.561421070981889, 0.3974214441411316, 0.1264779488654346, -0.8966747274215494], [-0.6578961652317006, -0.5634309702980177, -1.0091360380258585, -0.8213946166381109, -0.33260141936133936, 0.07047024707939933, -0.70336114068963, 0.6342406055696401, -0.7149120275742188, -0.6510844054449421, 0.600470297735767, -0.8331507498326598, -0.4804687486258643, -0.14259993813539362, -0.009490702707958914, 0.4080881107945631, -0.3804975685813577, 0.10789343586549421, -0.3418669824863751, 0.23305506245309918, 0.2147611909359479, 0.4695245731966847, -0.05070816665952829, 0.007923251786752732, 0.20675804907813025, -0.7495479595765816, 0.522759469597099, 0.560729242169611, 0.33326679585235885, -0.003595998221447899, -0.05685800841647712, 0.11107781259567023, -0.5205458548250872, -0.2473011594661664, 0.061864363015870706, -0.3680244025747772, -0.12418050335384873, -1.3770248390730826, -1.1874912694703739, -0.9865698870739987, 0.35306646293656985, -1.1868205712458808, -1.4836035296000336, -0.2575035017910994, 0.31117931235850577, 0.2323487350548811, -1.3370232682380063, -0.7176395255118468, -1.070091888936857, 0.0415836962446195, -0.046551004594751345, -0.8204139015123355, 0.027239089084641118, 0.38661997722522473, -0.1957788354422468, 0.23510626477929358, -1.0379314716022074, 0.1970468147599117, -0.4944759523780072, -0.586917500641728], [-0.5598529383037748, -0.06917443867890373, 0.5117673847247344, -1.2845903262241085, -1.0247527992207532, 0.06644480814984206, -1.5001016798228026, 0.2954447058418398, 0.039917220366497794, -0.009886806011782797, -0.2485383248324546, 0.2501919132242095, -0.3462076721094811, -0.025375419825642766, 0.5256376586755473, -0.20516381717310783, -1.2303072242323778, 0.2864367258698559, -1.1871782165843119, -0.4597368969230335, 0.13596190012138218, -0.49517565289346294, -1.3984194442537439, -0.7101733427954648, 0.21622599624098615, -0.2331509508261897, 0.14528836856296146, 0.1917791870260379, 0.19300917374998716, -0.6212314553456849, -1.2122784407721487, -0.16968714367895527, -0.9207901950689211, -0.3750022697998811, -0.1981450129811245, -0.405915513575777, -0.80544275096927, -0.5084491307869012, 0.4260072425948506, -0.09296310937605597, 0.31534301524823527, 0.3364442037205664, -0.23639445730930556, -1.3609199202013325, 0.2753953190128488, -1.12319403790575, -0.23925949824349926, -0.1227707424269821, 0.3270509517734416, -1.3145776119342234, 0.40289435349770025, -0.07428227218911501, -0.12036278857362805, -1.2074833656264734, -0.7302830378184533, -0.5819004069022838, -0.6100420059361326, -0.8007239406228579, -0.676916191920865, 0.5637500277806343], [-0.4565060550993296, -0.4996104478576033, -0.14688707049562746, 0.5835516531758388, -0.8741231410703254, 0.18674798704644002, -0.4734764838575167, -0.10159659731664578, 0.5204066180537492, 0.5735691591673978, 0.19628382979422895, 0.3785963628688209, 0.5965682999771577, 0.429972254697018, -0.6651349599434797, 0.6779366971264551, -0.34793140504550896, 0.1453530516463038, -1.0746871039834962, 0.296738111378448, -0.2703746209111693, -0.7263529860251225, 0.39683919660068034, -0.6547284587656966, -0.3815402866206358, -0.6131450907280033, -1.1898320286560047, -0.42122761409154286, -0.9235465244547282, 0.4516967022193636, -1.5333432082129816, -0.5848117282281685, 0.22203142610905485, -0.01056579631773998, -0.11869786003861157, 0.6154941488415919, -0.9884870829445425, -1.3083506196786792, -1.0420758408183768, -0.9227014958101774, -0.7506041423740926, -0.28113019935674066, -0.18034141299656783, 0.06365345092532161, -0.7155725680802767, -0.8728553808634619, 0.19959490031538715, 0.5413348120201097, 0.15894773978420043, 0.5675017038178031, 0.6097129523742532, 0.27441011447322394, -0.5873905664517607, -0.13785780698135944, -0.531931812428481, -1.5916476639638475, 0.23052850993957377, -1.2326340404413665, -0.12158367903761864, -0.6376846725102965], [-1.0337849617475512, -0.9620217325457258, 0.6049445586299766, 0.45551570151568055, 0.0320532527412025, -1.390783671989484, -0.7812457949099169, -0.5843308532984248, -0.16075001877760023, -0.678514326516921, 0.2919178920394151, 0.17793868090729334, -1.569210663142424, 0.4580313066600242, 0.22857694765896033, -0.652188530727563, 0.18170237599812147, 0.23828602262472734, 0.22725671300507877, 0.17303386161917156, -0.6998929313439056, -0.4492434736531556, -0.36766287161364447, -0.18154280361647285, -1.1698281209178354, 0.43893309178775564, 0.32541942920788536, -0.3509636842337301, -0.5955404083089568, -0.024512426542489488, 0.32891945003208656, 0.330354357946127, -0.752171319082429, -0.7163856240528143, 0.6986877697272732, -0.31813048687189754, -1.0547193742178809, 0.09797609187247232, -0.2998184903638962, 0.879319565363255, -0.33897194114661017, 0.41583052602251014, 0.3649979863593545, -0.3419713503389038, -0.42477064511402524, -0.4647775550280145, -0.4015042437088057, -0.7013026097553394, 0.3303974896570447, -0.8627343200159334, -1.1623856748512558, -0.0683183943438641, -0.4136726984695056, -0.7851112755969796, -0.26014023712035556, -0.09756653149483181, -0.024035679308295078, -0.47819007285709125, -0.3229588077499512, -0.5698967935884655], [-1.0474997267959112, 0.5417757983994247, 0.04331942474985998, -0.95581530919294, -0.20177807669131553, -1.0453095472635496, -0.4572038410214341, -0.7146220204536776, -0.4389973510737131, 0.2642819288990454, -0.43519459661767673, -0.25020331484904534, 0.35587599163355804, -0.9127378707384298, 0.26435382647039685, 0.29419733429343314, -0.22810556043052868, 0.409753796658273, -0.644625149368771, -0.8272484384997223, 0.27179598619991935, -0.35261082631440405, -0.6088778616412179, 0.3179183890302249, 0.46017856771353993, 0.2935827492807987, 0.05500984734896428, -0.6100744920919918, -0.4814046695844505, 0.2995610912842547, -0.7619423479673273, -1.023116847810646, 0.08496828111180875, 0.2487610559365919, -1.0584190966030687, 0.39681678894863237, 0.3961403153227939, 0.20662556388267528, 0.5190192509642175, -0.02819123746695999, -0.3523066381944196, 0.43345995243895163, 0.3792190367812692, 0.3484743455561827, -0.5521529810515082, -0.5216846831905889, 0.013820350442660518, -0.35477973216323333, -0.21965802426732794, -0.11106377537972262, -0.08612878934311678, -1.375421369285516, 0.5585721337550197, -0.9410536671553194, 0.0646746557969285, -0.00790060830216962, 0.07344771455464814, -0.03639932417609235, -0.7381650369236891, 0.4586752015130595], [0.5125350411021798, 0.07132968402935229, -0.7936475555283633, -0.7693374725193372, 0.2890179843207473, -0.04654026404054641, 0.0624109673770381, -0.6864265127217309, 0.3606261459025356, -0.40181970165901254, 0.30600303489521835, 0.38511307763921676, -0.02687053072593549, 0.3235772157165642, -1.0491961912478796, -0.6756725464440324, -0.07938673083953383, -0.023878040614272615, 0.14886107264482656, -0.010827951373090304, 0.22148237436356813, 0.6330352432119206, 0.29735143830586125, 0.24110928836255546, -0.03673255591400775, 0.3534563485647472, -0.9789898626913001, -0.5083239158878947, 0.25316856800431725, -0.5700914572027352, -0.7558245227977685, -0.6139397903397318, 0.2107965170356375, 0.1796128597207087, 0.11861222996110958, -0.7458861044376419, -0.3219168710143009, -1.1199919410384993, -0.5616706873672079, -0.7822705214508053, -0.47392623556575153, 0.003736506078091619, -1.0439090371266118, -0.7869524212682626, 0.3570367694627144, 0.41165060038505324, 0.6355566249196751, -0.043374428811224316, -0.1353001094985637, 0.023416655886420768, -0.4167009543812244, -0.2757697726239199, -0.6446104502918014, -0.19494049104685618, 0.43773153855781927, 0.2100816918769312, -0.5426345329654231, -0.6221242373640326, 0.3974028067009351, -0.15284619891173698], [0.44312029993066515, 0.2242419890857668, -1.356893192374103, -0.11140348699388183, 0.2920441541497914, -0.1928979314489924, 0.0957621297243182, -0.8745674521130465, -0.2562367584592393, -0.46368088418362124, -0.7316436888013405, -0.5846902627665537, -0.74435852345712, -0.8626890013585167, -0.8500554047884747, 0.4322485299296104, 0.2962713343657319, -0.7371016472033086, 0.31060302490985275, -0.47331947880860514, -0.4408072184774723, -0.6780697585178967, 0.2593811137211553, 0.008272761430730823, -0.49681798083971906, -0.5175247588898487, -1.0186565918759063, 0.2028065445722594, -0.9933012295239257, 0.057673781432629655, 0.12816294366444847, 0.4636354057143096, -0.5185398394896625, -1.3656954025883856, -0.5329985259038019, -0.2583731704878011, 0.24198204307665022, 0.17617791877358716, 0.2803483291264117, -0.15243845791328928, 0.30855955636968174, 0.2254192029889725, -0.10972618957063135, 0.2117577027569959, -0.6268342288947142, 0.03256237379866201, -0.3777356547632908, -1.0786087794996078, -0.34461876594843815, 0.2051639506812416, -1.58090314505467, -0.10303788307256338, 0.23766571172922757, 0.1630033613060895, 0.06230784209856434, 0.20814450386101288, 0.5572842417129518, 0.04834195560469773, -0.3734416732273778, -0.4570932935299623], [0.3667858282239623, -0.20762457075874602, 0.23306051747482076, 0.2888438752459234, -0.824184564604599, 0.4731528547681274, 0.5262645229432258, 0.09083728484417926, -0.5038305637897376, -0.33182860324172686, -0.33801426989912026, -0.45648911024367195, 0.5455701173402019, 0.06100040812897022, 0.2960816869299047, -0.3937538734645853, 0.3694132121491792, -0.7271968831645902, 0.3218262331312304, -1.495059114889829, -0.64527676110367, 0.33199371378861803, -0.20485493510618225, -0.6440846401520708, -0.7892150101671664, -0.7331800557588846, -0.8717088441511535, -0.21644571026038847, 0.07449943082398361, 0.08483436453108957, 0.27900166662166886, -0.18247559163636495, -0.5754690926358441, 0.12515171973002248, -0.5991068640116757, -0.15278114197517179, -0.707791141696046, 0.3589461574260817, 0.17501132310128897, -0.5141370845268697, -1.5430727673584403, -0.44819555367868635, -0.06990420187686261, 0.15431601567982703, -1.3192594727388374, -1.1559715592033077, 0.22197845786190587, 0.5227449416858453, -0.09301233429061252, -0.634347970415424, -0.3613219842628658, 0.469381746669381, -0.9725871698660195, -0.28736145310963945, -0.0375809104630195, -0.17899378768232724, -0.8096522235069363, -0.6129555944803559, -0.5473713332843675, -0.1845182608048654]]], "activation": "relu", "output_activation": "softmax", "optimizer_params": {"learning_rate": null, "momentum": null, "beta1": null, "beta2": null, "epsilon": null}, "optimizer": "adam", "loss": "log"}