{"input_nodes": 64, "output_nodes": 10, "hidden_nodes": [50, 50], "batch_size": 200, "max_iter": 200, "max_no_change_count": 10, "tol": 0.0001, "verbose": true, "biases": [[[0.238539966103649], [0.19465356240666484], [-0.027236303328465397], [0.16503384371253516], [-0.0780614947812124], [0.0962159515515284], [0.23031973709575604], [0.30201661735224344], [0.15032685450776428], [0.2768064633314745], [0.242339826677106], [0.17119558435810933], [0.17320724588789105], [0.2001524412752356], [0.3095024667374793], [0.3377766341020397], [0.2611700299902932], [0.254264765668017], [0.06857710184841802], [0.2592825524489502], [-0.10186288876299968], [0.10112133267606979], [0.0063526055537999745], [0.32721983338964034], [0.05435406801467274], [0.31923069403349513], [0.026603840333633576], [0.05041866895640099], [0.22882919361792628], [0.10980528549317418], [0.24416082802321765], [0.22274537814889736], [-0.09671386232988263], [0.2123783057699331], [-0.12441182798430768], [-0.020240389210412914], [0.3970178947139289], [0.39608364072151564], [0.033960824229379724], [-0.08144873466030095], [0.0769793969834842], [-0.28882634193387885], [0.2802189353472721], [0.2540653205665689], [-0.01840703889382076], [0.08976074542608119], [0.3630622208947563], [-0.00571009464527112], [0.08320722184503761], [0.2956204650956469]], [[-0.027870816565827718], [0.12968293145519846], [0.14241152095284976], [-0.19654186905920515], [0.1398212313771393], [-0.12362503983850447], [0.04445422250014654], [0.0741642147668081], [0.17888472916756865], [0.10089076135928274], [0.20288530968556762], [0.3729328373703772], [-0.10545763912900298], [-0.14041959086667105], [0.011908230956292872], [0.09475878977551899], [0.27417966632449664], [-0.04896364548501462], [0.1373642288926867], [-0.0981279639199271], [0.1508998889650443], [-0.015435773427525409], [-0.12703833226106376], [0.21578974607449875], [-0.14224518929583616], [0.2989222775783053], [0.1424578711678798], [-0.1168992453880094], [0.23519579323755452], [-0.1395788757442526], [0.15046987723640945], [0.037395349171629816], [0.303571005566166], [0.29448543533955507], [-0.06494768399688168], [0.08248490984479512], [0.12213619412507681], [0.0987013921587839], [0.3325938844823066], [0.1592263594302661], [0.014485368992250036], [0.18206200472188935], [0.1723997403587811], [0.281200563171208], [-0.08652500863241562], [-0.09043149221421219], [0.10755681969187234], [0.16411369643068902], [0.23019462312468444], [0.03776245290116231]], [[-0.025095794642485608], [-0.1351040430352216], [-0.03287499530417039], [-0.09567468633450528], [-0.0629784743635969], [0.0790576082614936], [0.14093958979264823], [0.009337966650171321], [-0.047173964146913265], [-0.08662024179901646]]], "weights": [[[-0.0703674842202916, 0.0621123158290385, 0.0657269717312916, -0.08686965409447227, 0.3434958446389676, 0.2108832900897599, -0.02688626596871832, -0.036012898693851096, -0.2495350541501443, 0.10776218911257739, 0.03470623322902194, 0.08072374761181897, 0.2736653476917115, 0.16019848640889064, 0.06325404791819336, 0.006411331151000263, -0.13334241672874142, -0.09972762467086335, -0.17489033815216903, -0.3254486899545481, -0.06642906566735196, 0.09202132164243394, 0.2140602300409208, 0.21042828286391002, -0.24037255230411755, -0.1579983918269383, 0.08641415093427512, -0.1442604437520041, -0.1459630954858856, 0.09872983182702556, 0.09594010473999072, -0.07734700936850414, -0.0277798389105943, 0.03486395877236806, 0.015366838515098933, 0.21557645359893646, 0.04148767217377636, 0.2473109429530164, 0.1918091619246872, 0.0030595306652330123, 0.019347597222270783, -0.10397918763968793, -0.10375118875680236, 0.0015787317266159153, 0.07949178737271692, -0.02866444868262323, 0.030655183916135902, -0.06718406757210056, 0.006867672605991032, -0.09029107001488391, -0.2006228695961317, -0.1749780305681064, -0.3204584085532038, -0.14736632008218498, -0.25310012925104236, -0.09390136209715846, -0.07759104791086723, -0.12968104433428318, -0.23641226379930952, -0.4170405326434069, -0.11409081024379515, -0.3341836166499934, -0.29624858925830805, -0.2227726917028543], [0.043593135894782475, -0.23303568791865703, 0.08623486553414973, 0.10412297576300016, -0.16478870150549527, -0.5042237323973596, -0.030828716432661097, 0.028685816710851124, -0.4217169618686244, -0.04637171614153759, 0.049253201692224434, -0.10603202562612313, -0.5242699001408847, -0.22967376917636947, 0.17636804650269122, -0.2051280444696141, -0.3068366475113665, 0.021891138903603502, 0.15657459224842576, 0.19594639765902075, -0.08756509807896097, 0.01266723747765119, -0.07620047328570223, 0.1028219725345695, -0.4114553229759093, -0.11486403692022973, 0.08318250514677711, 0.4773865249059268, 0.0465009980616808, 0.0996344690779992, 0.07773340011058183, -0.09403151683083111, -0.07535019764876301, -0.07918024996871562, 0.254447649070275, 0.3204141934426954, 0.12759016168823317, -0.11407325076595623, -0.07698480616505816, 0.0831769808739942, -0.2160758294889869, 0.3406964587735099, 0.3981857609221313, 0.15472992287677603, 0.15745470245878732, 0.0578282859823014, 0.044964010526049876, -0.19309932869594945, -0.10506409296194487, 0.25462585555361056, 0.3432170024455672, -0.12506800859528158, 0.03186498601526805, -0.24176631919709735, -0.030047415356714895, -0.09250393217930546, -0.2081743596605818, -0.08131785825457923, 0.03335154183546034, 0.07439476628156562, -0.138685842996131, -0.11979529982295008, 0.19071286812538737, 0.04703514778963066], [0.07304098180497509, -0.1359347650454909, -0.14982867292106722, 0.06467487999959132, 0.42555308728067, 0.06759757792380826, 0.27032452753041214, 0.16369378578415972, -0.0382273044854141, 0.03982260586863479, 0.041763889231884746, 0.5570987771385182, 0.1362946029555033, -0.15648849713542978, -0.025312089132336863, 0.1977365041841426, -0.14837789419488343, 0.19525757202738034, 0.1792240124906708, -0.10544159621422815, -0.2070034763802985, -0.4357578411585486, -0.18861870648088389, -0.22110332056557822, -0.1920339780700558, -0.05076534765752281, -0.0766727959497596, -0.2781063482711685, -0.1015018384198713, -0.3748011478396515, -0.039032466538048906, -0.17310736167333907, -0.2142074191062286, -0.10443641687101828, -0.24519694315103815, -0.009835813615219385, -0.0698465850098453, -0.4433957205008885, -0.05170948196479175, 0.02859920056728163, -0.07253595869061705, -0.3460939702004581, -0.24760241976031488, -0.10023413528044847, -0.2153843605257592, -0.2753377288123314, -0.07819828043256583, 0.16567395101487173, -0.02098571105732143, 0.1290254209057995, 0.08400153571002557, 0.30242584962779717, 0.14255002494978278, 0.16698035937490172, 0.11855495437868728, 0.051211661898688025, 0.02684561718650281, 0.12173492973938888, 0.18870675010982774, 0.27553800546546947, 0.24988655907209195, 0.2704766235604254, 0.12910547292075697, -0.016747426690614308], [0.01847936412245038, 0.0024449833046626037, 0.29517898961025624, 0.34262591995721653, -0.11990268866091582, -0.22057571794952438, -0.027381288170306467, -0.07700751106138544, -0.06196844101803582, -0.04261918403671415, 0.20017266889349006, 0.2476551011374373, 0.028387684490596955, -0.22524090006763828, 0.010176867227669313, -0.17518591558796917, -0.09000051011401392, -0.08084811656605229, 0.14181362705612108, 0.0771548788086855, 0.15715012990526617, 0.014558526972693995, 0.040280357098742656, -0.02468674990963498, -0.10433547745096773, -0.1362910842912599, -0.27231908197506355, -0.17377076177020429, -0.2526460815285203, 0.11263243287968983, 0.18767736165042986, -0.01334541161468191, -0.11589284340132437, -0.16702782482245376, -0.35524247282911375, -0.5029138836215699, 0.05342303569319574, -0.32121931278069155, 0.0378354888003078, 0.0029756064922586978, -0.054276546492134474, -0.1464069317120769, 0.055937780239225465, 0.12409558791220127, -0.3557657374612706, -0.42168156215396063, -0.3398341993330581, -0.005284368761021709, -0.08054905541487829, 0.19501667775179363, 0.20107167445650956, 0.13052385907948716, 0.1282681786568117, 0.20289768540399125, 0.09205053640302725, 0.02258014720866188, 0.1811966880486312, 0.16675847047527, 0.08670185764560082, 0.16760533952704781, 0.07946952097654174, 0.3148903636521026, 0.2323435327785829, 0.0005136644095498416], [-0.12247878168180384, -0.03927316979082315, -0.046118594681052, 0.15294109645802512, 0.07925282911583642, -0.14159175291407436, 0.06609393205025761, 0.020147479977619207, -0.0601390466730963, 0.001043496509495792, -0.17081294348865156, -0.023938190672055243, 0.03629526621876633, -0.2524293119932174, -0.073726716432667, -0.015404994581333932, -0.01380305447774853, 0.014462918302221937, -0.025710176954646554, 0.2861841389869118, 0.1427954160551184, -0.3175405613684162, -0.14907527829841546, 0.10216602983477101, -0.07862397013158436, 0.08118888206625156, 0.34154516750734193, 0.40757157608645417, 0.1513289423842161, -0.030564068419434952, -0.15106525236305104, 0.14435094568760787, 0.05591790912290287, 0.11714143656472611, 0.18541120292460828, 0.16070223463014485, 0.21706371828029, 0.25728696835271125, 0.10993469673678359, -0.08929683805364758, 0.1306377354615954, 0.19556446858098456, -0.02259658784671314, 0.16904714102609417, 0.3118289202056849, 0.06255128114132445, 0.008870933011466423, 0.08361076106208079, -0.0066847949162950095, 0.17046920720899209, -0.025130093204667532, 0.2207749898519413, 0.18421640306511147, -0.10433673192155091, 0.06905497065093819, -0.06270093886822445, -0.04049320514130836, 0.1824360577133672, 0.1226918111380233, 0.08369448770320072, 0.1969713683493716, 0.024641261650078163, 0.1041257576706418, 0.16844489325891884], [0.011108975150347838, 0.13276509379862025, -0.07221300306416663, 0.333405179143195, 0.25998378805567857, 0.19318419784412852, -0.04077957372522756, -0.05461090151244842, 0.024501797562534854, -0.041503621625896575, 0.06439954113108155, -0.11994955549918214, -0.023048235258929888, 0.1138877448102349, 0.05615993598439474, 0.05147693810209619, -0.053497406384146726, -0.102273190006609, 0.3481987154057444, 0.41827289671411466, 0.2534530752256252, 0.08579898958717615, 0.08375577175235475, 0.24181540212382577, -0.06538565942711488, 0.04037165833260912, -0.10996854834031457, 0.14083635179455148, 0.25732390202749483, -0.028177343545233484, -0.32274399977798646, -0.001172415952514671, -0.02762835384401321, 0.09967548994828071, -0.04833932470757358, 0.05287696257585405, -0.09739958284375573, 0.1208365834043332, -0.2623582288829048, 0.07552905977746155, 0.010223447954385068, 0.1192265940548805, -0.04402745689367501, 0.09888014853014365, 0.5389648024059751, -0.016543469296003723, -0.43262035281610894, 0.05422166632106464, 0.14414532381411915, 0.1279597187365647, -0.04322654871011194, -0.08001800980093389, 0.10405378483298924, -0.3508230832237654, -0.3856479408465432, 0.031850972771148116, -0.08733222669745387, 0.016546999403661514, 0.20047410651447678, 0.03268937357243101, 0.03957484882142273, -0.28661384834318077, -0.33795160243190303, -0.057230965014988644], [0.08687061937965693, 0.025158869588110224, -0.0645590253411056, 0.07204226545641691, -0.025115912153313793, -0.16319726008206206, -0.03803522807640585, 0.020667472091010577, -0.2865354821083349, 0.12405492992377189, 0.1728685831556735, 0.1740719940580694, -0.24723718974176906, -0.06065944906511949, 0.18212489927872333, 0.05478363904535726, -0.19958338797946557, 0.1488538763207525, 0.3090253837667355, -0.1730556711213834, 0.08374509698344054, 0.42824668867341054, 0.0671799124017556, -0.16097397790626472, -0.018543214954893448, 0.08402489059109791, 0.07768774565678696, -0.23556742241536135, 0.28514539610388495, 0.0737195567476333, 0.10714835600749845, -0.22997619977915373, -0.2437000938136152, -0.002418124427516465, 0.10325720387413562, 0.12988918168063443, 0.17339253626196893, 0.11540620723352138, 0.07936378109548399, 0.11235469735848413, -0.19974472999445964, 0.006737572208708889, -0.3224148538585052, -0.33624273905146634, -0.10217310182501316, -0.2104843307648252, -0.14558801624055323, -0.002307809954081929, -0.13506645469773987, -0.10039799765357349, -0.3286688988040486, -0.22104831311178494, -0.5580113892613915, -0.36515105834326034, -0.03851239493563965, 0.07538453202364534, -0.22523485211376, -0.3023644512736976, 0.053053807520558396, -0.10144285899025648, -0.10483200514452944, -0.06162188818529093, -0.030323875868226796, 0.1447925395050424], [-0.11843409050320713, -0.14709591000367978, -0.1428078596554256, -0.11444810992876292, 0.24943681140088397, 0.2352148568261101, 0.13529662203428533, -0.00472377126575587, -0.21237291630296734, 0.044567326769741, 0.18206244307045463, 0.02561722825859873, 0.2828212689653599, 0.2860685572098494, 0.2205083380659424, 0.00822276995031587, -0.06518860913774444, 0.045808454201753786, -0.27058115711081737, -0.7665194330763747, -0.01412647881961836, 0.5295603864078897, 0.27850719460268514, 0.044493435799534124, -0.22068695943740033, -0.40713099937180963, -0.5065863754040019, -0.5033404736016562, 0.14868289489009923, 0.18790609478340792, -0.022529748443861054, -0.06619823193811503, -0.29517954749199493, -0.06177530659257569, -0.03265729250416696, -0.15779829483127844, -0.08667908664227132, 0.1588689213707276, 0.07909965156016595, 0.12221786979804325, -0.13349507156372667, 0.048591961121588007, -0.31463982688996944, -0.16585050208165875, -0.03297277449995979, 0.11797045196243378, 0.07309248211557252, -0.174938616956551, -0.08001712238643806, 0.10640611207118308, -0.2313164184749613, -0.32032063002520733, -0.0684445998409508, -0.061471396226759865, -0.029678156284379763, 0.19413998145698536, -0.2904318392987062, -0.052085842426218325, -0.07281875439434718, 0.1719021624389397, 0.004269754752707149, -0.03185049271012391, 0.14551660793745347, 0.15538990222035623], [-0.011996101620472849, 0.03759920120044448, -0.145722674940067, 0.0004856686579286096, -0.0852984508394146, 0.22405585813818943, -0.23678374958047457, -0.24565072384746264, 0.016882341934607182, 0.13634969171404268, -0.13800037197407536, -0.22452723519324294, 0.1504297040999681, 0.16955693316771353, 0.020962697833152296, -0.30578500282639715, -0.2528830708741803, 0.2808957293403468, -0.07080424357627216, 0.19378480528531022, 0.3160573542180486, 0.13896150596888385, 0.22241379016349935, -0.34364513162782623, -0.34913662620774655, 0.38646425102798826, -0.2709041213185284, 0.07809783846473861, 0.20832113042385159, 0.14863170921504992, -0.1898698573687958, -0.22861462810276797, -0.30572695326286353, -0.08273890727588287, -0.21516536417348936, 0.18643055149275775, 0.3729560887927853, 0.1405559352947235, -0.20072605779732264, 0.09982395539048375, -0.2917490762912293, -0.2372123562091674, -0.26853225436806344, 0.15156226389333574, 0.24833503219349568, 0.14820207368095817, 0.13452255057572407, -0.17559556994725253, -0.1983442641824692, -0.12336681676514233, -0.16843770942114225, 0.04539780424705147, -0.007295628289653549, 0.40431315816251334, 0.24984041657537626, 0.058825105523524455, -0.34717027584786647, 0.1273478065492569, 0.042448491600709515, 0.01087422303447435, 0.15928594371487384, -0.00874590473280399, -0.021115434846781335, 0.08735880732119107], [0.09079722798528073, 0.1270134831020108, 0.029165824678902184, -0.25200877130162624, -0.06033861671398214, -0.22354267879823445, -0.26766392846930187, -0.3066324235723445, -0.18490670646922255, -0.054229503524760844, 0.07983221763695343, -0.08354562858257511, -0.32501243113902606, -0.2697371453589222, -0.07933015328499962, -0.25656489008549893, -0.25787129742158943, -0.031089903363303518, -0.2583464686723852, -0.21583569885328935, 0.15107821619968384, -0.2764612382337188, -0.08092269567092131, -0.13381252781121256, -0.2219292862377919, 0.01147043054602048, -0.2481317621082766, -0.05466347101022998, 0.47227382316405686, -0.3026422404862899, -0.12781413382126436, -0.20771006755714594, -0.23941078006768865, -0.10765984588173823, 0.13043891969125382, 0.1530180045700863, 0.05898069942381864, -0.16680900497302872, 0.030350919827535128, 0.12453163953017696, -0.13044158066778516, -0.038360310797944316, 0.3517942828967682, 0.09756153424880142, -0.3986414741460705, -0.18138884882182543, 0.21220866379639117, 0.05089637929317037, -0.17993595391393147, 0.0034657310458129685, 0.342245254861403, -0.09938395999572804, -0.11831109317366038, 0.1458765108784734, 0.07397430761539261, -0.09114321506814102, -0.20573191961047946, 0.23803220460946373, 0.040633513667872344, 0.20278863907696937, 0.16825451387365634, -0.05727409690995849, -0.3233032063825231, -0.12360138680226306], [0.0948368359858616, -0.0769245867890326, -0.21214240793931258, -0.31732827901401145, -0.031287315015630854, -0.19989627280679123, -0.2881301895935489, -0.1263147542567376, -0.10669998421289521, -0.03694877423417538, -0.04639353625617941, 0.0030961674365994917, -0.06206023843012601, -0.24114421843185216, -0.08009236883425519, -0.25093169383830344, -0.14154659301890138, -0.16775492096857797, -0.2802978215756085, -0.03652443247487875, -0.17415115707810755, -0.40116054584472666, -0.10146237349711214, -0.23939912329274518, -0.18613444283009592, 0.20153832840095806, -0.004432778466040984, -0.12640291070762505, 0.2252887354217322, -0.1118840076059016, -0.08198696954588998, -0.25170970994312913, -0.1514311184481017, -0.03303140796227345, 0.03086634175454235, 0.17312221545431442, 0.24238852600033578, 0.317674455563613, 0.25249026548207143, -0.049184959624231, -0.0713177898047781, 0.1461920956179293, 0.12949785323540222, -0.07621809570710568, -0.15416824485403635, 0.24770064652598456, 0.3456440050354865, -0.10926222289005967, -0.12694066912745078, -0.13423267461377425, 0.4555095090661772, -0.0158657268793431, -0.3416386389054408, 0.1421678773821539, 0.208543066814512, 0.11071636757567618, -0.19807793673161958, -0.2010104822561153, 0.006840666858837565, 0.005682597644578877, 0.25357647109273956, 0.19676264998043552, -0.008988232956037248, -0.05585396501119371], [-0.020697468783767103, 0.42398539128245, 0.012447770610007916, 0.29857388665112794, -0.07671005618109716, 0.17332323765114807, 0.12138784768317103, 0.0532483325524546, -0.03938880483944078, 0.08574505720891498, 0.12490093359779222, 0.10815421853161372, 0.31878839102914586, -0.18549483843786205, -0.030554775206968143, 0.12487439505007403, 0.21131662583382918, -0.17823936673411173, -0.2223812170918361, -0.40692576746007647, -0.4079224311888462, -0.12405463690813306, 0.13668968260885284, -0.008602048671950987, 0.08624429781799556, -0.027620056204009712, -0.05506602069749587, 0.0034003695866108197, -0.3143205422363425, 0.014411465344847278, 0.1271592474576226, -0.02568461856670365, -0.20274564478416393, 0.08899327930184131, 0.023864724510445617, 0.3207954633786199, 0.20409354417215808, -0.13378140988419274, 0.042622948692805966, -0.030236188074468512, -0.07502491430508806, -0.08205661241134135, 0.016875299652271965, 0.19341597254896323, 0.22980546770897248, -0.17285384956006353, -0.01826973430977617, -0.23538660763641456, -0.24181696614186918, 0.04045708075262704, -0.14821816335669472, -0.26066148171337933, 0.023915830338922892, -0.19304302705608037, -0.20381410316507736, -0.06167486450327184, -0.24748927208109897, 0.01575284064452044, 0.04132058839738674, -0.2137884829636153, -0.23024685971502967, -0.17556158734483637, -0.2300039503962959, -0.27689041273456577], [0.11717520654212593, -0.3417370038973953, -0.22474268976701317, 0.14704959095825645, -0.21262885444163823, -0.08943112792697791, -0.08477999932177084, 0.09031618349482426, -0.07782870706128046, -0.0415953641577557, -0.04461880405066439, -0.31712352021214874, -0.14905274853815356, -0.1421763426434331, 0.13403830206270945, 0.10020696785003089, -0.05779528733850944, 0.22570068693211712, 0.2040794615622029, 0.28468669928945484, 0.2915445915527268, 0.13900173417539313, 0.015612698434596652, 0.086001025001255, -0.13675661093692904, 0.22150565283611726, -0.01252359664641207, 0.363998649253071, 0.27161065931156886, 0.15271200244321653, -0.05772319059501195, 0.001481339747869365, 0.08906513123683049, -0.01344671495677501, -0.06771200270745587, 0.12618439073618481, 0.17930571277726023, 0.14509500565874436, -0.2867879275517385, -0.025671535086985414, 0.04040636214116476, 0.08096038189042504, -0.24669466140475205, 0.13186536467103036, 0.1890699765217078, -0.06663215750691392, -0.32154456103245543, -0.22888745288568219, -0.0006593633280014339, -0.014009580748349905, -0.33333682447332935, -0.04040062964970997, -0.23904662363493714, -0.3091045225525317, 0.0210950690419154, 0.1227668253014606, -0.19647753288053038, -0.15417717321843544, -0.01471767056314787, -0.1491147888014625, 0.18297949092389135, -0.02182244678791321, 0.07134959041851528, 0.14034594426564398], [-0.002345804442353161, -0.0266993827142042, -0.07552444043814457, 0.006228474119063048, 0.16479208681024451, 0.21659596462758415, 0.2151875803896395, -0.28113191061906856, 0.08405804617181417, 0.1714311946829494, 0.17950963837802486, 0.06271863058857309, -0.050309332395895204, -0.08218076513442031, -0.02645120356167064, -0.2055144993166615, 0.0012746097654119507, -0.12104070210973614, 0.23238279320906483, -0.22253702200037986, -0.46322813873613977, -0.39239579660431867, -0.28924879910094475, -0.13264656434817493, -0.1281715515525371, -0.17043895287183872, 0.08470570199763104, -0.09808232679067397, -0.18540940631361819, -0.05198879189114197, -0.04564279138457628, -0.1513233530881092, -0.07454155594211456, -0.031227038322526678, -0.0592954722794711, -0.3043668114862579, -0.17608760679038266, -0.14389108202566755, -0.08289882471751985, -0.08988391878046456, -0.18268935815099566, -0.17348695996712324, 0.018513380105076735, 0.09652455345924982, -0.16689828089394182, -0.14018768021897474, 0.06645819004452412, 0.07441572616095118, -0.17420733462388274, -0.15245073846742002, 0.16851305923036844, 0.09060619256622092, 0.29551046827390715, 0.06326710571754729, -0.045386077257377457, -0.0562154202773763, -0.07229454736560512, 0.11698564094243195, -0.13518381287048212, 0.2993700661640673, -0.06480784933120445, 0.04654814390827464, 0.027282950229044173, 0.10590406561363154], [0.026456647397063132, -0.09317026698312707, 0.16538040243040514, -0.10709251388395491, -0.2601450419396379, -0.2716890777681849, -0.26438534014423504, 0.06214497557053098, -0.37186312188721304, -0.27072439211564453, -0.01706000009386201, -0.04798081708007148, -0.32179908724305684, -0.012917157586638842, 0.019467924551401193, -0.07537968915119449, -0.2640168997335479, 0.009002631738399255, 0.19424063054736224, 0.04573885300813435, -0.017693636564073252, 0.38253304813124134, -0.18246447749989633, -0.20571401296391675, -0.2961243389402777, 0.08438124731525934, 0.03614982087354804, 0.09129419340147435, -0.3001301457289153, -0.07417308292036022, 0.39217819032052914, -0.2603560074751692, -0.3897876211985527, -0.14793259813818374, 0.0162441989395378, -0.04212333212240181, -0.24439826011294016, -0.3478048137242167, 0.20615294574401674, 0.008652828249119476, -0.0709027691208049, 0.2026493286561236, 0.1476707417338297, -0.024156621044667974, 0.1611038781534538, -0.08191410100248928, -0.0742480396892142, -0.11682676856075447, -0.05496485150642919, 0.11864064052096848, 0.2839949330975735, -0.16651573408644674, 0.2823010144612653, 0.05211463703120198, -0.2583253942737031, -0.12967876721574903, -0.2987062686775795, -0.04987913516290658, 0.13993354594425308, -0.1857598049784951, -0.04176076168672131, -0.024054011247483777, -0.2542248658704422, -0.09442421636698038], [0.06644203230632842, 0.19041308161416975, -0.201155160170442, 0.10134429157673819, 0.35584443715197, 0.3588941527140074, -0.2702743928623015, -0.0743227413689382, -0.0923407386542745, 0.03714744580553397, 0.26362037946511474, -0.06504768808818912, -0.18518961161204195, 0.29430770358119984, 0.052710751178174885, -0.12424247384533141, -0.2187289042013441, 0.10204830704319182, -0.44264256880187175, -0.015487468462779087, 0.05298002316382009, 0.3423376986822744, 0.2769939257999943, -0.3891823879819536, -0.27945949407231874, -0.1907480499232201, -0.229890340291612, 0.18369937102476566, 0.07999631869216041, -0.16578029747030434, -0.10043653233212527, -0.3332886996977179, -0.2739375470516729, -0.16379085532224702, 0.1491998051219092, 0.1322163459410309, -0.19478524644208092, -0.09685924736015696, 0.027504763776724665, 0.0761278603772231, -0.12586816185315383, 0.20204975935411545, 0.1395636954023546, -0.22120782136835504, 0.193152856698234, 0.011326389304083683, 0.10313827868933517, 0.0829923099349748, -0.29197166482444264, 0.14434494022473363, -0.07868610632585094, -0.23475037099885565, -0.09900034308281522, -0.10395427256167852, 0.2663472830496788, -0.13649686516373438, -0.3295942124196648, -0.0681261396838117, 0.005010049554942508, 0.2863087134646902, 0.04721050187372845, -0.27587797698816874, 0.09259788117392448, -0.08587896658727133], [0.010213184798091302, 0.23979723291726113, 0.03803246013639932, 0.20544517587823333, -0.2993423851996566, 0.07031239773046903, 0.10684882790893437, -0.13393188506246154, -0.10691877934300616, 0.033542398041711385, 0.16490859644112513, -0.03964241219869972, 0.08918050505669105, 0.13198428907746548, 0.02246821305263596, -0.11040151316394232, 0.009799981019283428, 0.13450190894906114, -0.16844396064619424, -0.024224516131421608, -0.05393142150562108, 0.20654217453137047, 0.4053725529014837, -0.20927359812979654, -0.20789837510467504, 0.1789253814858103, 0.032432627529690006, -0.15167562326097014, -0.1356232378426534, 0.24664015969564934, 0.07494793169343315, -0.25870056092914945, -0.06893194988974195, -0.09918238250279932, 0.21209382132188462, 0.015218774337698228, -0.21627335291300034, -0.13622183977118701, 0.10880319849121528, -0.011486808694584266, -0.08175633523702328, -0.11230190921519996, 0.5439862602688373, 0.11532557667714452, -0.3428913057451984, -0.08986542618667698, -0.2250464887065448, -0.1753153715304923, -0.19999612280789025, 0.037282162579123625, 0.24833222854166181, 0.14652471479866858, 0.307144724004359, 0.04134863035066016, -0.22360301632235585, -0.006791980225097306, -0.10980791303709357, 0.10614511028455621, -0.10717657948250423, 0.2838818402720045, 0.25327243468991156, -0.09631308933858136, 0.13581589484378065, 0.1171564731812713], [0.07379248920226902, 0.026184998758273435, 0.26697077046269546, -0.07340774955507551, 0.1714869561340695, 0.22416609954766417, 0.10626240116414792, 0.05166259620281106, -0.3571798041883504, 0.18907265194167117, 0.08993803550503054, 0.22400978511528363, 0.26461295136566915, -0.04532449446604762, -0.12320256295871404, -0.05398306039997188, -0.31790190776570093, 0.11243170594892503, -0.3562433673758514, -0.6566046504725735, 0.07889814600012532, 0.0043129665082894, 0.07792219400929214, 0.03228213971007345, -0.34235034714158324, -0.1413739486490774, -0.5376428511125476, -0.3178862000501189, 0.24923749903491188, 0.012640759316905654, -0.025198451200370498, -0.22808116645749477, -0.20189279254515685, 0.11496375705185524, -0.17178840340175391, -0.13877973104588748, 0.4558863475075134, -0.06751644041471436, 0.17383217806868922, 0.12205705427263722, -0.3142362656614825, 0.01716424200425747, -0.10324008185803385, 0.061085250634573034, -0.230488146742031, -0.16417018053264776, -0.1205238334640095, -0.08231016072621869, -0.2954788395386147, 0.07586319348985252, -0.08073673667314576, 0.15382362305570255, 0.12521084629694468, -0.017244330210352255, -0.03163184213996998, 0.10860836341097892, -0.27880191000728, -0.22672657813815525, 0.1187886858203935, -0.09142179722681303, -0.18567019187325645, -0.013175508913853023, 0.1777367991634356, 0.23198585600884006], [-0.053823160603887976, -0.10953979379869358, -0.181237655633285, -0.16211754733659445, -0.031021957050616042, 0.2797310525503762, 0.4450816824254371, -0.10017745178401576, -0.09660836566754416, -0.17000901570304783, 0.09705622703476262, 0.15082196167237394, -0.2627070083876453, -0.06271624122790564, -0.09266800933482683, 0.17329319326701048, -0.14405577253945015, -0.25890607948971217, 0.2688498408829365, 0.03464249405215074, 0.1280240588216807, -0.1515845728733514, -0.2633469828653317, 0.1888091965719309, -0.12199218556564391, -0.03774160599110146, 0.04722062068382046, 0.026996597271675197, 0.0938131909286775, 0.004726855661133773, -0.03603491667687408, -0.18959224456716947, -0.13700171505788886, 0.0344163556647882, -0.042953477348775804, 0.05689664370904926, -0.11605266962397734, -0.00730948723435767, 0.13917093126844823, 0.041868489884046706, 0.07118834948845065, -0.12754666719448005, -0.2129273681500722, -0.4396020696881973, -0.2496508539485639, 0.20749392753521212, 0.3235813422766996, -0.08091595743466137, -0.0647527444908602, -0.044236545621410495, 0.21462436654324352, -0.16289087562801727, -0.19706712653651728, -0.09142515568666636, 0.18926970650515473, 0.1839012458074399, 0.01225022586022289, -0.10110314878126939, -0.10848837993424654, 0.1495221330961606, 0.0783297332897086, 0.17057443591458585, 0.04748416672357618, -0.19084298370938796], [0.11759068624195576, -0.015114371881909786, 0.22792767597429897, -0.06707339259267966, 0.2719286023109228, 0.200779327939058, 0.14714401596588741, -0.02269387235119372, -0.32114317832322153, 0.11034822290462354, -0.04698848883897809, 0.1618864556174659, 0.12622930770278265, 0.10382144409695297, 0.17038854390494365, 0.118768299007944, -0.14548335559345524, -0.06728481591314905, -0.005058761598970083, -0.25779276240403204, -0.04451344524804766, -0.31716343013630094, -0.3004616700246156, 0.003812489933493046, -0.12969355914076947, 0.022891261483105076, -0.10558597910706774, 0.19309783659514473, 0.1981376086276482, -0.30702741318535287, -0.24396246081542247, -0.3370936508121157, -0.10342988055111499, 0.02068683361145887, -0.03547953994373631, 0.21097189934221153, -0.14269248073287846, -0.12382612416716277, 0.1256817606906316, 0.09437911540714339, -0.17802866659134123, -0.12457836075996177, -0.5513118867874596, -0.5146282605691537, 0.005155600198203808, 0.21478124278760619, 0.026376233932500406, -0.14672239852276095, -0.281603711891965, -0.15378296795834165, -0.1583922336824446, -0.24946396598402087, -0.033983678257966415, 0.1836494632622509, -0.1075611110370878, -0.2280118829834035, -0.3296124879264745, 0.171998518944609, 0.338644945622841, 0.33982489123016746, -0.015551450647789523, -0.1627093716771184, -0.3501836495478705, -0.21869390673269024], [0.0684535402081449, -0.22343665758344894, -0.12339279317359941, -0.20395238668110563, 0.09221892652022984, 0.01948490192015382, -0.1936812822656132, 0.13752706646677676, -0.05012715653613146, 0.067742152357466, -0.43562593538948524, -0.1213909333984106, 0.17351671094474455, -0.08329441502824438, -0.09516076391967886, -0.0016808638299435402, -0.004566709419778691, 0.19654564888271173, 0.022772001568567197, 0.3794962330995664, -0.036763060100078626, -0.22452747629446718, -0.049384315898589944, -9.538519518624859e-05, -0.001793987857794807, 0.054697945303383136, 0.03265732255236979, 0.12057769799199837, -0.008480048249045437, 0.10824365083308901, 0.15815703830088243, 0.053991606004285674, 0.1675477796458273, 0.14345344292450635, 0.05482078202448765, -0.12595211868722403, 0.05229720695950654, 0.1986496026768393, 0.15833332727296826, 0.01479801271868561, 0.23534361182158564, 0.12888848671022463, 0.0878652606568686, 0.3317545585578118, 0.34515231492991577, 0.09793515639266337, 0.1084993041738981, 0.07586563486060233, 0.20419253349911815, 0.23016396251065022, -0.12582374134698282, -0.11829288958873384, 0.6066120009488408, 0.1019049255806425, 0.02504223986149246, 0.0939020945068241, -0.05091161775474545, 0.04584534254886731, 0.09726145505140688, -0.2260399063255283, 0.12688874287462082, 0.24064311225577192, 0.19536930634078606, 0.07203615894333773], [-0.09028284873406198, 0.11683131929843504, 0.08747374820101442, 0.07041669752799856, -0.09583018365183997, -0.059735088718963845, -0.05586125090365288, -0.20282523381398604, -0.22878531878863848, 0.29121074082364246, 0.16661791627355793, 0.10703017966300077, 0.11672497995415865, -0.026369911383396807, 0.11149642205515632, -0.12016440588233541, -0.07307940645140673, 0.07091378251994834, 0.31228152407997517, -0.08655932646809314, 0.13235420154399039, 0.36676710589020617, 0.01906455792984615, 0.09291858328321641, -0.16135014111866397, 0.14572696554887687, 0.4448811929133238, 0.0008468019489354842, 0.05174383907137106, 0.48726340941041535, 0.10653513655368661, -0.06411080146492433, -0.15378848251511643, 0.07932280181001072, 0.11173065341281134, 0.05425033303695696, -0.1305837771305214, -0.11270269080504128, -0.04559342442818146, 0.03423237680459765, -0.06535961379184518, 0.042094027487258025, -0.07235285798224243, -0.17689738190916082, -0.1307722026549489, -0.22597249941928374, -0.17174731840492125, 0.07824128331561407, -0.11056265786388378, 0.03553212969167871, -0.07987241787604302, -0.028520023324012215, -0.2791648281189719, -0.16290378028665334, 0.05485143528803947, 0.031622723040769844, -0.19627205629016425, -0.0993476733594905, 0.06471225913868485, 0.0631830889569108, -0.23796243146875085, -0.15495974555582745, 0.03994806203263372, -0.13910181411851313], [-0.058089074451369654, 0.1578359764343163, 0.3994978874353912, -0.11946454810084436, -0.07723001630598429, 0.2793123073795752, 0.35073511342587294, -0.15639222018761798, 0.003944901883792936, 0.0160666589208094, 0.09913560655070369, 0.21327833496831128, 0.1971684784113747, 0.09557377277093926, 0.20079518226069468, -0.280988793471382, 0.08357485094528001, 0.09352667289237163, 0.07475598264448842, 0.15074977256308805, -0.2978255117293472, -0.3090314223188131, -0.23169821675672406, -0.1060988457195479, -0.10364515004704736, 0.00945705233470913, 0.203565347827669, 0.3078072306993805, -0.060346217981701956, -0.2503164516096201, -0.2362568608695096, -0.09330636085425906, -0.2192464356311229, 0.09409898964345702, 0.2167177897250074, 0.06283354346065642, -0.03839019893516133, -0.26050305257209166, -0.07402796601852343, 0.07754924354031822, -0.1527360192912787, -0.1999904752457671, -0.2561382054144425, -0.3250577541310903, -0.047674873900071475, 0.10623824922185413, -0.04238020142642115, -0.17231377267189094, -0.1852867410723629, -0.07643496985755004, -0.3408006074114811, -0.27404040013227454, 0.09809596351180869, -0.04242962653205346, -0.06759397970381334, -0.11901028627766441, -0.0517447046251813, 0.08256285776936698, 0.28662114995152704, 0.3569292015144143, -0.29457587358327025, -0.1563684098583725, -0.0800077727611812, -0.014939130996634804], [0.06038980820840173, 0.2555556420822733, -0.006009367616309823, 0.10229160763401969, 0.2279500111691001, 0.1511173223374113, 0.058712842949401885, -0.08357045815447099, -0.17625259006357993, 0.17479348827535404, 0.3277149154991696, -0.0157277521594611, -0.11512547319857601, 0.29094181808537334, 0.1503261468633838, 0.09066834830553379, -0.3342142610183281, 0.1488932500854224, -0.09391176428065481, -0.042707528906195516, -0.09071694352139618, 0.2722965168854501, 0.16900752463688676, 0.14126500818811027, -0.16266610116555144, -0.2250267319453631, -0.17267229400232365, 0.049490189177501025, -0.20776071913317742, 0.006477756844217893, -0.12761559067294573, -0.29730911396936577, -0.3236664480472549, -0.12051437982881326, 0.10403236255135433, 0.41880791319939104, -0.21732183813150419, -0.13675005348462152, -0.11421439023705848, 0.08698456916109346, -0.27866786283681155, 0.1377395838781681, 0.027175352448772772, -0.27134597110529596, 0.02781454655283004, -0.11009176462448485, 0.06871717635394967, -0.3014393479775068, -0.1745167511433546, 0.2376459760379194, 0.033062181531591434, -0.36580077220947144, -0.04352084789758139, -0.07079151189858608, -0.05513014427885116, -0.2916676374254329, -0.2103711043496998, 0.0043983346242478655, 0.010443140845904432, 0.029856142327312516, -0.10141476276304816, -0.16660620213708058, -0.27002963090391413, -0.3539254344255473], [0.0860423182856726, -0.07965387061135308, -0.2137006949367042, 0.13849139320554207, -0.3192090981523943, 0.12643122690586986, 0.002458168856677762, -0.09513138935344223, -0.10363767066111731, -0.34637694553502424, -0.19078857742875022, -0.046136879467996925, -0.0924605826042188, -0.052020392844409666, 0.0785255536003038, -0.029157510999585655, 0.1753172692191797, -0.008199622802803095, 0.2483826799067184, 0.28073593928605617, 0.10942041819379887, 0.2292417599163798, 0.16270120574218888, 0.16224802291611032, 0.17398813402383348, 0.0037810502906914048, 0.013969381641137401, 0.1602512195401234, 0.04899600866568385, 0.1807426379286842, -0.0542266635152812, 0.04070448182266399, 0.05700904141105298, -0.12224562190953615, -0.022617826923367133, 0.005984202939661195, 0.1163615333576152, 0.020571394453270574, -0.31753324600434973, 0.1188336254677767, -0.004252568968221749, -0.011192054078004035, -0.06751000370432968, -0.1653405447005224, -0.07553998338777027, 0.1166520030603697, -0.05209948906351108, -0.0050113411773658875, -0.011753011682441946, -0.10984473433072607, -0.21368303882744316, -0.45570722591201895, -0.3949059456427332, 0.21155247230397967, 0.13483027147543364, 0.13058679970414871, 0.04240529938780044, 0.052232513218292066, -0.24663281231548134, -0.17946545089052854, 0.18728708659039903, 0.32558428847897375, 0.20448554017282317, 0.2563048810049738], [0.009534367597392346, 0.1636433874551948, 0.24624852348633755, 0.09044997058616447, -0.07302514893399224, 0.032562383679945794, 0.22567543379752264, 0.08631934094567345, -0.3443111832356262, 0.12672428003435285, 0.13488997091285237, 0.442616101059056, -0.21534939771146996, 0.12363071420385355, 0.060864948874150136, 0.015406429745920682, -0.17962502706718825, -0.20225471963418548, 0.13402252950032903, 0.03439931573443183, -0.3928841099749031, 0.2567680825762443, -0.00041203383614250866, -0.1987839561025475, -0.1865021447547348, 0.07750683222448974, 0.41576440917147917, 0.11334663242244059, 0.19960612231387334, -0.20000063149637748, 0.284869149127338, 0.05779998764074863, -0.20903944868101218, 0.09161225759053804, 0.07290057334235814, -0.04471885510226541, 0.09308789017654251, 0.042258884930188506, 0.14862981177956294, 0.0702895792576656, -0.34562459540128154, -0.07466260753784527, -0.39344886509213384, -0.058076089943784895, -0.03476155579708845, -0.025810534406800426, -0.20320452012294554, -0.24076496233958755, -0.3649471276893899, 0.15573076558376805, -0.3215823177182826, -0.2917960254614329, 0.22196108661779734, -0.26634294694331606, -0.37933767525655465, -0.3802214931947526, -0.31602548113303386, 0.013710161191698659, 0.30215339810823905, -0.06533746706612512, -0.47490964037650774, -0.5478644237278796, -0.6218134392517521, -0.3343917526260318], [-0.06986649107824613, 0.07476894007702824, 0.1675605115255364, 0.2943156631886508, -0.35233414585213446, -0.4661501381879718, -0.40953037999110103, -0.1663996670274639, -0.028165111307852698, 0.03570723666860364, 0.2035925328817406, -0.026430597317296866, 0.07733627853053382, -0.3026001371585068, -0.05576608230721249, -0.24862398974776737, -0.03823898622092004, -0.0744085299894549, -0.31547025374047855, -0.02443315816776914, 0.4926595958734132, 0.3442557566805298, -0.3512676615046591, -0.2582862334058119, -0.23217731881657, 0.03440669572300933, -0.15975134184648485, -0.01839400869898156, 0.2811234169225389, 0.05376204403855045, -0.03160518321032645, -0.21250982817022662, -0.21259539411355458, -0.20902781298255216, -0.09791050152068796, -0.04764396907125826, 0.15747942493462594, 0.07095303941785823, -0.13868294203612952, -0.06864778589310594, -0.24582096727399777, -0.020151288250977277, -0.17271747211289465, -0.38495015011861644, -0.18932772398069528, 0.24890507283387628, -0.01979130096421246, -0.08047280831201499, -0.24968023405885423, 0.1040455385649704, 0.10749782366280176, 0.35879369070984485, -0.3248993684250579, 0.16496953796005598, 0.28184740754622595, 0.143017764182252, -0.10991189951846345, 0.1985709131365591, 0.24827923193478663, 0.09623294533248611, -0.10757589506188292, 0.14972583103518564, 0.15638021800411486, 0.02227112971140284], [-0.03476145225306396, -0.30076171117437933, 0.05548497018178032, -0.012472411491316103, -0.1251377006837667, -0.06651113570044082, 0.13039813448605794, 0.13205054652742168, -0.008005039391031013, 0.2122020423753581, -0.19203811164172535, -0.04472136462391564, -0.11970291875081714, -0.10818303293021829, 0.1502127466058371, 0.0066821289771442, 0.12731409207924713, 0.07142742800155187, 0.09228938551761305, 0.3149466151651598, -0.050704599598321805, -0.027275962309462724, 0.05855495745135916, -0.1332351770830434, 0.05428719790325135, 0.0782514382240258, 0.162469311454, 0.11780508119593631, 0.16209494589348236, 0.05294709113533066, 0.06405582776025304, 0.1213258745104101, 0.09760039063628156, 0.16697639076857906, 0.11115575160770161, -0.08654400348322633, 0.37683181376250546, 0.10699185664095728, 0.046754798036012034, -0.12384384479861893, 0.033564806117072646, 0.2066666165290283, -0.13287045241500628, 0.312449275229468, 0.3635727627848857, -0.3110624503995998, -0.14120342229932592, 0.04671892019689483, -9.759664955795551e-05, 0.093194998932503, -0.11334771235012016, 0.03079545528883527, 0.0002235000221746875, -0.3264543647202063, -0.16857417264937236, -0.10358903828840743, -0.06495786215519855, -0.08151615660940613, -0.011672625989486922, 0.025686720171619607, 0.09723985350549876, 0.07864689895422522, 0.07050713696872543, 0.1659103355825052], [0.007642740226649736, -0.2717248275665768, -0.02280547749499362, 0.14599271816596815, -0.07025789662426937, -0.1912149491257542, 0.021706681255859502, 0.16675879858505965, -0.036928238889396385, 0.17434733365332994, 0.1867415884732675, -0.3120457704739703, 0.05374946093112001, 0.19693739246721595, -0.016776057924673796, 0.04878044885851476, -0.24989775998113797, 0.13643713674720379, 0.12525397585467268, -0.08220365905567537, 0.24985816654659473, 0.05823838485303701, -0.18134686898209315, 0.03234987298266315, -0.003568702915296644, 0.09047795152757314, 0.25537947830411756, 0.14599055459571575, 0.3618591529938222, -0.03571250477542889, -0.07053708801484597, -0.019279706608717966, 0.03975086322379316, 0.06090726876011797, 0.23288125818660352, 0.4135890912314798, 0.13076183132298566, 0.2877691478993903, -0.14343300998759104, -0.03570716072351285, -0.06687654886878246, -0.12668198094967323, 0.3020756231090592, 0.3587223489039142, -0.07748054973340696, -0.07660942987605121, 0.007282290781245978, 0.11912479835363964, -0.0788436312409825, 0.04219064855535307, -0.056958385799269234, 0.23118771230274274, -0.30617818295010635, -0.21640551635335248, 0.07218162329760211, -0.2875242355280698, -0.06626732247939876, -0.13063525858768826, -0.10929434654731579, -0.043578330682760937, -0.2602935122184378, -0.06508200810099449, -0.039494662496011454, -0.06813992360495165], [0.07402214773471974, 0.16294331471435333, 0.13855393180502212, 0.16388601843681302, -0.10695839014831245, -0.02596167709437882, 0.060721581387213425, -0.3132899358507947, -0.20071701916349388, -0.018968765361807877, 0.20500058902904786, -0.23743630148093764, -0.17782153692716893, 0.17958942423874766, -0.03613036548034326, -0.06951034207092, 0.07035743521017086, -0.16253184827197203, 0.14080917395635506, -0.006383533211896145, 0.2880988994172843, 0.2446450036551262, 0.1744792725358069, -0.04977231865950885, 0.04089157518130089, 0.18547351644203283, 0.27205672245565, -0.05189706783240535, 0.008822522746141419, 0.36100188333508865, 0.28302668576339185, 0.003531450242610882, 0.10076749431151706, 0.05370960353184217, -0.09161014591031413, 0.03700852236836191, -0.28919208904301735, -0.00042627338781722545, 0.40138249289169736, -0.0037082323465313094, 0.09198798769505832, -0.01814745855523127, -0.2972701111016648, -0.4432747452778153, -0.28053358925184535, -0.22185442008139508, 0.02477784069795937, -0.0846514745957105, -0.03457915619534924, -0.022430879215167614, 0.008676502985690731, -0.1400660473557144, -0.20999767369297567, -0.05943473213487832, 0.07356533916107155, -0.10308148314492523, -0.05085878291335022, -0.06473116050687017, -0.07064052678508755, -0.06757890165049323, 0.22926202126290604, 0.11262159724398199, -0.1282088095623824, -0.2073163900303148], [-0.08864105146618245, 0.026235257784769355, -0.02138045104392944, 0.10072961559751643, -0.3547406023100327, -0.06673149745066605, 0.19264321151378205, -0.0018691779756962916, -0.0026947890932588355, -0.39407351192264106, -0.2592070848469191, 0.17226453017663665, 0.47505523840022523, 0.301637825290085, -0.10568531762422553, -0.12987389703991672, 0.1686572694756274, -0.1057775074066507, -0.025966017231146693, 0.5777795885430852, 0.43323525281446484, 0.27306418364286694, -0.046080741209670296, 0.05051216781987149, 0.012255016987203944, -0.09542548611371045, -0.3267480697572839, -0.041237653420512964, -0.16477217234715505, 0.13482139629429307, -0.05746554261299206, -0.045941603393429856, -0.2359994340128201, 0.13887621773814293, 0.050762529449704843, -0.07653541068009455, -0.259275577667558, -0.12829322147175334, -0.010369963369310165, -0.059889069068962825, -0.05490680375809089, -0.35142991882422725, -0.026007964260244567, -0.051972608520937935, -0.000701226225934903, 0.0850482915569634, -0.20433969762000484, -0.061443449054510435, -0.08425427079037062, -0.21478162587621294, 0.21717847644079022, 0.05533027974727307, 0.1816587141765223, -0.08309015620581951, 0.006180072600261398, -0.015460721743295778, -0.16972715615762307, -0.05704698035796469, -0.03154172321456677, 0.17490496078225665, 0.01061205326646626, 0.14902430990524188, 0.1326540569749476, 0.10367053915156395], [0.08957351633385766, 0.03292813781151869, -0.09777306534121659, 0.17780462703789413, 0.11252701009711323, -0.02762070622780903, -0.06086425666646612, -0.2774124016459799, -0.330536106895758, 0.12123206365562468, 0.1301601334781026, 0.03774215850460517, -0.1790139498545241, -0.04260794224356095, 0.015075323702360243, -0.1944656767138381, -0.30336262538488173, 0.1833868550938977, 0.30232602885695975, -0.2135949235964652, -0.34550769423093863, 0.2901078911146677, 0.12819827730783784, -0.03152534638173442, -0.24778022070883352, 0.07616571807107489, 0.4267235482977575, 0.30597403495108383, -0.052922117094138264, 0.4540073698951036, 0.021619623511735322, -0.0033670303633271522, -0.2896373857144919, -0.0738427760192032, 0.18356572435021073, 0.11934499983343323, 0.03345808771204056, 0.021480491938024326, 0.05082834257522729, -0.09469142864568242, -0.31158356123519826, 0.13784300118141787, 0.014548035211275505, -0.0764098818894143, 0.06595123892568966, 0.1086785763856825, 0.051807070636498184, -0.29012211961083273, -0.318984356078775, -0.009516474125198992, -0.1806995576597978, -0.03628554408767228, 0.029790179173533674, -0.07407496049943826, -0.16382031234238634, -0.2634696330726648, -0.2731038601935473, -0.30869253789676593, -0.08045607878170534, -0.1723902721592519, 0.11260293584179273, -0.25368851695821754, -0.3136108616583424, -0.3716554110284236], [0.0849080563287084, -0.0695590172955865, 0.22453223793846339, 0.007802744386618428, -0.22754110439413522, 0.041699080612615416, -0.1074815176410973, -0.10848014288206151, -0.045240487739050955, -0.13786618740357445, -0.17579141912923774, -0.15998543829790718, -0.30136636069142925, 0.32041372050119743, 0.07785963723271655, -0.07911847501426965, -0.24280504844731202, -0.006695374358584697, 0.3055424962267263, 0.18553615816444352, 0.4014674692220058, 0.36528538033638003, 0.06415509129964661, -0.10446720351820853, -0.07152351391177317, 0.05193039732067943, 0.09118804991377098, -0.10660513760349741, 0.22184960876246998, 0.21293186113489135, 0.11300398563900285, 0.0018035362091574556, 0.02690637454944557, -0.2294904069699436, -0.21275526992489735, -0.01442396569142784, -0.42288050625896695, 0.1098238277273101, 0.4196495662113331, -0.06436899960247341, 0.04341516171239741, -0.2716966003326442, -0.5414237891848386, -0.367825659782818, -0.0626293226692622, -0.19686810688769363, -0.1846305550431542, 0.017115272951715343, 0.015141155894534936, 0.31797291810790707, 0.14946567170044386, -0.03849911601899285, -0.26232520947633176, -0.15827653096277064, -0.028187264369992925, -0.1673557597456358, -0.04347327923132648, -0.007952188950022514, 0.031731737666051675, 0.041824272409991155, 0.05949564952892959, 0.2563282626888173, 0.05642047852439751, -0.1599758988391309], [0.0055532666893616245, 0.1289456499894314, 0.11973301571631556, 0.06894859198083675, 0.10803068602692341, -0.26658978758104634, -0.32155975374368245, -0.14450731023129723, -0.0803167051144762, -0.030166934430916174, 0.1127370970730447, 0.02398957165774798, 0.08295478715626696, 0.12913996388246138, -0.08201679183964719, -0.08547350987551829, -0.04959794787836393, -0.16922907967110842, -0.21923740344620554, -0.1799180111832747, 0.00301323732990285, 0.46749218204787774, 0.1363194808480054, -0.26485148227334676, -0.11233516215734546, 0.04641571308416377, 0.012681667467008018, -0.25536433388378627, -0.28042040193394513, 0.11744165858656022, 0.3579265980070077, -0.2284592965952256, -0.04112335644954393, -0.06120949361365121, 0.05802095238758654, -0.3212029869395105, -0.16816358151036404, -0.055605659769174434, -0.007898397209566085, 0.0159076045374949, -0.1108036440944801, -0.07474395037001445, 0.004335490326191318, -0.14727776296235137, -0.18981582901782415, -0.13294106113866547, -0.20373487941023719, 0.018058037906104385, 0.1269204798295484, 0.17606415208868864, 0.3592585922988463, 0.47794636042601524, 0.1658090439421786, 0.3734096020999855, 0.10324093449029857, 0.23169238882944873, -0.00019282234283574248, 0.1235551563990576, -0.010579730052866833, 0.21712294126352308, 0.0025868970713339807, 0.30974744606227844, 0.10664403441991663, 0.0036009871508347548], [0.06846093321366908, -0.18346103755180565, -0.0005320931158074951, 0.23230783974330865, -0.12426997606989912, -0.17238211041894977, 0.09924527952737977, -0.045470853426798116, -0.05164348165065277, -0.032412150215826344, -0.25884471765057615, 0.0641944294699905, -0.17467497137080154, -0.1742726219878682, -0.03821154914960523, 0.15531087882737324, -0.03843405912726237, -0.09647144375610296, 0.20184061289740224, 0.3121315658023431, -0.004540969190136665, -0.23258043599936254, -0.08544769979082736, 0.05355940728111954, 0.010343027447044578, 0.0982731722598493, 0.20887456581447145, 0.42911519012340105, 0.06610231122455894, -0.05580905082140957, -0.021452648717849004, 0.1254801103963754, -0.031117397296576255, 0.004367918277406158, 0.08612155122044256, 0.11023954246123922, 0.23592891406608496, -0.06442131010292158, -0.0005059631405150326, -0.03355167548510443, 0.12215202093547481, 0.12814039895989915, 0.14626020729241568, 0.21696737603965688, 0.3755824303076762, -0.20823336830893543, -0.2338768962544853, 0.015576209146095784, 0.10823276500350348, 0.03589253009475907, -0.018213212974719947, 0.16653270765629327, 0.18880657659650607, -0.030057512464569825, -0.11226132695836785, 0.11802548998473524, 0.055051583528218505, -0.05568774642234112, -0.12264251143411158, 0.18550007981762026, 0.253552023630186, -0.06645353381890222, 0.3039782463963616, 0.2677919571477418], [0.017985686411974067, -0.33936264814579264, -0.14002632675433685, -0.10503239441975509, 0.05858215269605096, -0.005850600426561079, -0.264096913133584, -0.02280540560752988, -0.04513232282596815, -0.05067460297657152, -0.13131424384617535, -0.05187097529097135, 0.11394208607146132, -0.12665452374100464, -0.07498994400908404, 0.059734530899167824, 0.10149376554849698, -0.1558718067663372, 0.017970861699644004, 0.07804326769877219, -0.005364909286743005, -0.20034731624173827, -0.18646847771103905, 0.10008093213425598, 0.033823276873099134, -0.2447818283786095, -0.15039448355693474, -0.07941894129719138, -0.1740022553617976, -0.015863665071506754, -0.04531094279121782, 0.016888051095056474, -0.08781875408084953, 0.08528389099265014, 0.3164702055019477, -0.004615962613834162, 0.040847377882453684, 0.325443463076045, 0.21150154860207185, -0.01777431661660009, 0.22885034865612724, 0.10371009285545431, 0.23533509853807882, 0.36421040768653096, 0.2804928279964265, 0.35530342812992377, 0.23763142109421187, -0.11648286717966008, 0.14444208664549843, 0.08709718179302542, -0.08180909063385391, 0.20627884431995236, 0.5211059624640119, -0.05944452949920289, 0.09330241205844343, -0.07005791515269089, -0.13723030088136481, 0.20417454152111938, -0.19194613305355426, -0.2559849537457325, -0.0009548849944454703, 0.12486085213702097, 0.08384330958536154, -0.06592033871157817], [-0.12084424906619587, -0.13032770021167642, -0.1151741680424821, 0.3140656488438836, 0.027323132052973008, 0.0321899557918818, -0.04854104247851871, -0.3738273166759524, -0.19764750138035564, 0.05797289113498475, 0.31994755392960483, -0.2553094296500747, -0.04638283706595299, -0.16980167977084418, 0.19574498923940997, -0.2918868908742337, 0.04277264112347074, 0.20808074001776203, 0.030376484424784814, -0.10273370805435464, 0.11557435177485163, 0.10327217311458699, 0.14358603754168894, -0.37396116466817086, -0.37925843981463014, -0.16788024910269414, -0.041114019435190295, 0.08483456888734985, 0.1343195719076349, 0.1686767303227093, -0.07609589249372734, -0.2593504955113734, -0.20420479532514135, -0.3012532339297218, -0.016337667302046447, -0.032792661745616465, 0.13725315827021117, -0.30003801583203593, -0.33062392040792415, 0.015046415808482289, -0.19650693480567583, -0.00019678670807375066, 0.13949921159163042, 0.4049290890950729, 0.035951480194213, -0.3960223352644641, -0.380601158755477, -0.0784629299787253, -0.20794048926927128, 0.28113615350213045, 0.008496018757562064, 0.21293335858991255, -0.21162483413502509, -0.12650727702619344, 0.021047882752740717, -0.08329763507547965, -0.2667127301243662, 0.0458854748326346, 0.017391288798572917, 0.3570907042038033, 0.2734716529649469, 0.12415190448593813, 0.3792881214641926, 0.15891655032408797], [-0.08828333475853917, -0.1474530762142096, -0.05202176036729829, 0.2443875963459682, 0.11158740193574813, -0.13832854730567967, -0.33847091390442535, -0.2736718116170228, 0.13861787393437874, 0.07743295858668084, 0.36561781762786594, -0.19701104548297038, 0.11558926930796973, -0.021057115433371347, 0.12584383438620483, -0.10559043770070915, -0.0019473389885023298, 0.1357899238134193, -0.005728210799329961, -0.05743182561745435, 0.16717022062523781, 0.2839352513932374, -0.017382503264272417, -0.2921813406725392, -0.4327522457448243, 0.1462643062365168, 0.05308271290424066, 0.25344151938512155, 0.1512486324056887, 0.006011404684979379, -0.2118404991908423, -0.2593328293369325, -0.4226081699029629, -0.44799185278389936, -0.07591949751380365, 0.12707034475719522, 0.003553770174847886, -0.21426216996668437, -0.19077598166786952, 0.02736537295531058, -0.4160068156421965, -0.07580360530352756, -0.1070758970660384, -0.13030283204803575, 0.11531832137790554, 0.1773828586671436, -0.04778432379147837, -0.08358930974235078, -0.24332286327878913, -0.10045754323281171, 0.009658242029692277, -0.010529887547048523, -0.31937300111643324, 0.28470806591781705, 0.04451185697501765, -0.07035342345298559, -0.4244758402244165, -0.10719476232561875, -0.053052988244467504, 0.18326603432169908, -0.017443656358430284, -0.007634288565359609, -0.17780835796304761, -0.3899893096754032], [0.09547905462861392, -0.11682605664579827, -0.34395152514645977, -0.1333505120196554, 0.1749271958051588, 0.15905059015554396, -0.051557260885207186, -0.017649676462947777, -0.1397461355452005, -0.3292989362454337, -0.33467973460696104, -0.0011598210339242598, 0.3048908353597844, 0.270319246785797, 0.0221307229361801, 0.018264661291773548, -0.2532922852199643, -0.030327032473610835, -0.03514103528140673, 0.02189884277833733, -0.02334230230459664, -0.12304623196894107, 0.12561949054747418, 0.045673282040210955, -0.2012359787138562, -0.039273099593672686, 0.0014469787668371097, -0.02672571255819511, -0.23878153722021403, -0.05732639499413591, -0.14027611973715792, 0.06042101990805205, -0.019328181045376678, -0.06127953640205257, -0.2141500274000572, 0.09071405794810157, 0.2556492337034335, -0.02565463138930284, -0.35909324293153144, 0.08647225614557771, -0.1624725728677776, -0.5148401982912499, -0.2266095440286491, 0.395974386595277, 0.1196405109243064, 0.19510639421124498, 0.06329660959541654, 0.2261051715593481, -0.14228577820845106, -0.44959989851641285, -0.23029271474968652, 0.3203047984298891, -0.04920054218479302, 0.1309004240320973, 0.3674563141889519, -0.0030743542616271614, -0.048458597762362325, -0.23229336352626148, -0.2671574916420725, -0.3079093405273649, 0.06592341363150056, 0.519756349305993, 0.2123558055582158, 0.2405002071774383], [-0.0945586425459771, 0.18504477040972478, 0.058510227446249535, 0.10500523749336466, 0.18105914442187926, 0.21060233298781383, 0.13519175001318623, 0.057156440166605434, -0.11419992919186069, 0.22103902350589633, 0.11448641971939015, 0.12154074214824025, 0.678415522696795, 0.11403101782265612, -0.04722590844276741, -0.022326948586866343, 0.057412108877358675, -0.20205051597897344, -0.32335695944134857, -0.17704341149201086, 0.03343690426076515, 0.10538836700095433, -0.01624631661254231, 0.09035059504784371, -0.037391540533604314, -0.11987822983164426, 0.0003666848332959992, -0.055522052838671745, 0.13191707917613052, 0.24905575836645907, 0.044520180261424756, -0.10575902607623729, -0.032864459157278474, 0.2916568525826046, 0.2347433257318384, 0.017058934718395796, 0.40667020336993864, 0.2290571788674551, 0.025948843807929774, 0.0770078076959585, -0.016712155240204377, 0.08320972050671482, 0.12430253866444382, 0.17091709917315645, 0.11212077921697082, -0.20135502470431793, -0.018331573433309326, -0.10714658969054691, 0.1086639621042721, -0.019842798347245096, -0.09748343604626301, 0.22193157903352495, -0.22529624070504672, -0.3994610201112607, -0.12559883838011004, -0.08890503283919714, 0.09844540379050642, -0.05686204607952383, -0.1686767337522437, -0.3073925923551576, -0.15446380623640943, -0.07480897272395096, -0.01717682375549133, 0.07709149705053224], [-0.007009379267799598, 0.0700665884341363, 0.09120270632755899, 0.20614468544772177, 0.1841926010431142, 0.5507675934280428, 0.14033179990028258, 0.21525128865337795, 0.054584211411098864, 0.19395815582290535, 0.14867633134426883, 0.16365817618185205, -0.424113058597429, -0.16491333825794005, -0.19166570778559883, 0.12201528197388783, -0.09562708945622514, 0.060291902554308524, 0.10013025329004138, -0.2585056752063634, -0.3531336036960001, -0.3696525958751738, -0.5756755734913095, -0.2142131668551504, 0.0004307317001446296, 0.3534122145022751, 0.09776704404231111, -0.1584250569699251, -0.04791234773107257, -0.0015285506344461849, -0.0543699159028443, 0.045761821984574555, -0.21043194981167476, 0.3057105005440364, 0.21383727106377734, -0.27036146735002947, -0.1892042953669513, -0.06008474314470851, 0.1343632836033897, -0.058168831806186844, -0.08800559146112565, 0.12584897694392572, 0.16180592112341602, -0.2081495649920184, -0.07057204378010268, -0.010142305347796216, -0.038384845446049226, -0.025441597308074194, 0.00672642626178983, 0.006770479008685258, 0.15161693187601366, -0.10706869519831022, -0.11905275710819357, -0.02629816050081522, -0.2637550955826415, -0.13339652332048985, -0.16011354630349844, 0.02400474555571455, 0.11567651710513045, 0.41114530569746927, 0.05490192729015552, -0.1230523420367378, -0.1642864132054158, -0.11204667378855811], [-0.019528795020627182, -0.08915689613764016, 0.1024232120933263, -0.08615715000656718, -0.22023589690968587, 0.0898674418307516, 0.1124695426055104, 0.11967033436713606, 0.03293983159963222, -0.1655949853334011, -0.0889039448662818, 0.12341679900069905, -0.3832073492670248, -0.12797650176482125, -0.09092608842383587, 0.055969319395421935, 0.07900156728450479, -0.26763586016186786, 0.21390337446811458, 0.0170896946310579, -0.3668144461521473, -0.33218778542431004, -0.012709506589244968, 0.09121328492038946, 0.06889977071151177, 0.0437188424170845, 0.2758800343433745, -0.117075557271643, -0.07052868402954175, -0.45468242405509707, -0.0534957333801591, 0.14794908061300238, 0.16779860022851642, 0.3548233305648338, 0.2829637967851603, 0.22849897205033154, -0.07780810979333051, -0.04599579164126725, -0.134225594174576, 0.022141752279966176, 0.04147327851298237, 0.024806245711380244, 0.301537406020826, 0.23666525992445894, -0.03921249838052047, -0.12784393785661963, 0.029126392093213667, 0.21277356776389972, 0.2134009838285627, -0.1834698225678089, -0.02156320380178854, 0.4486393469954219, -0.10486501825781623, 0.10501045802911803, -0.009909372737083762, 0.11678866157790659, 0.03283444439755673, 0.07381123912993605, 0.027276243408966207, 0.003116470619350862, 0.11881857197401262, 0.07656641846008161, 0.07932147025204536, 0.22899267444920984], [-0.07407652646475499, -0.11552370870508347, -0.07926683384873914, -0.030367911805628367, 0.20786762230475303, 0.20813192671930125, 0.007320350005933097, -0.046512630123341725, -0.009889586858847235, 0.0053841595344559946, 0.017810274994987496, -0.25472172268711557, -0.08458519050437867, 0.05885110931411469, 0.19589676312990445, 0.1501821683890883, -0.1588150257485978, 0.05612245468129564, -0.16854505207631656, -0.14751966574209158, 0.4097870548132992, 0.19512181690118693, 0.03255641199244686, 0.0038328599054538006, -0.07694129908874227, 0.03354974440140309, -0.1711299680960059, -0.12934927663548676, 0.3499334405008014, -0.005815013394567262, -0.29118016615538234, -0.20679942005828267, -0.06589122372617318, -0.1344429386863752, -0.014781108436840436, 0.0629089294274382, -0.11769004708989049, 0.13329605791299676, -0.04621424903334225, 0.08622401705995636, -0.21433272191788655, -0.15688861857991337, -0.7154475989248699, -0.694870188040477, -0.10695540835809761, 0.32116353943010134, 0.29462828425783716, -0.15906552181871406, -0.09821854873752814, -0.10245777592520489, -0.2216520101250173, -0.266900439711297, -0.028932441531571245, 0.32348300144045716, 0.06987669327383975, -0.041772410033164745, -0.19572009674166374, 0.06788353890983118, 0.21878118456870033, 0.20538547380800226, -0.047521975325300975, -0.06724758293224245, -0.07670254657312402, -0.32912719792970696], [-0.11842121914726036, 0.09404152549282631, 0.06580829718792554, -0.03761132453666945, -0.29900451207199413, -0.11712954670043646, 0.09118694239372244, 0.05424300166836804, -0.01823235854168941, 0.14952142946726857, 0.21804799537933015, -0.05345185420115497, -0.09379810407624772, -0.2749947958799412, 0.13945361469542975, 0.0036644860840715087, -0.20049418062366062, -0.008870961118536847, -0.06744978941951542, -0.2625749162248042, -0.02743270868485114, -0.10811575780459876, 0.2841669907413469, -0.11289089292277779, -0.10994236180101438, 0.0822286278707386, -0.035608463631915596, -0.3034777160023812, -0.03204663805856585, 0.045650532614311144, 0.11894969731936052, -0.024442983511242248, -0.2039124148069018, -0.10014594779145898, 0.010413846500676284, -0.21887178837970833, -0.009625995680597771, -0.15893590642679858, -0.2730327701896277, 0.03625689569029911, -0.06470181790221056, 0.0850090841522235, 0.34431960374827364, 0.27028043676188973, -0.23465903117479409, -0.24673303143909994, -0.3473160422706198, 0.14098161983163157, -0.2305311165340591, 0.03211617490247473, 0.22426014204212646, 0.1932135620343682, 0.3638162442547811, 0.10394803971830292, -0.0734115694052655, 0.022770172457457803, -0.19455311374821363, -0.01913459469875624, 0.10826150529568247, 0.1467370726079186, -0.059220658189618136, 0.23018499301622822, 0.10943144125856329, 0.1618999009079574], [0.0419119587868412, -0.10942891321031457, -0.07124239851672004, -0.41339990512680225, 0.09736570515227114, -0.32899540648984976, -0.22762325556142154, 0.08006714854686572, 0.07796399414127242, -0.17738904929067953, -0.2897781245427114, -0.02463890233486323, -0.039815233689723624, -0.35254196578413627, 0.07936895157387629, 0.011263020587232163, -0.1003010474712194, 0.023937443181622643, 0.009693697756133648, 0.05382867627538549, -0.21977903268878204, -0.10939900015412372, -0.04155994928899197, 0.07888748046803923, 0.008379462031719184, 0.16388146152676192, 0.1586829300768414, -0.27865801938034307, -0.38809641552225516, -0.21116194094179155, 0.39814893654246225, 0.14300476545078186, 0.09579836423974823, 0.14965131507644486, 0.4888826933806252, -0.17240596095691546, -0.23148919481981106, 0.03083368350735691, 0.3459658848240494, 0.04025997116195526, 0.1320016267449367, 0.351782570798768, 0.22185198569113418, 0.06329382827954172, 0.0993272790464586, 0.04405745463060748, 0.07537528948256791, -0.02405638431279606, 0.11926216113993934, 0.06929785204249751, 0.010741318649265466, 0.11303196958164305, 0.39433278700844876, 0.1694766213026105, -0.013897565444970554, -0.003144565627923505, 0.009377401877432913, 0.05442542558346214, -0.2541653740108397, -0.22077665132854768, 0.110630286688245, 0.15359819066360714, 0.0078529689514605, -0.12013296805035764], [-0.09514037558633373, 0.09570775498277939, -0.307148204320584, -0.17844447428107257, 0.0929063211866161, -0.051026454046650536, -0.2960153389352558, -0.2503338799101396, -0.07280682564122337, 0.09649187381029285, -0.06423876142310493, -0.17368825259583656, -0.3588297605047767, 0.02577395643311882, 0.09619014644915011, -0.24186132396821958, -0.22967674927884582, 0.03674969698023011, 0.13265128628485262, -0.22396045478508866, -0.2092304575884105, 0.039346687938646104, 0.11627383107754193, -0.10159174219914358, -0.22471857856515323, -0.17558850048469948, 0.0010139388787716427, 0.014525209130427342, 0.29796625179645536, -0.07838263065431075, -0.22303085218313431, -0.04715711167065247, 0.07284569805769582, 0.01544083858532895, -0.012466408526049234, 0.3404209477964706, 0.09921417165983973, -0.13887512898111656, -0.23345182950537155, 0.03803853035225624, -0.11330014112562989, -0.03216323806446799, 0.4579900010372596, 0.3131902432519966, -0.16270330105818864, 0.21783528347265824, 0.24881831245894065, 0.15543662259543498, -0.22248858492283435, -0.12034252179280856, 0.07961659603299016, 0.13563284511826187, -0.11926920932214669, 0.4223666156463381, 0.23199583996530418, -0.16401192986654556, -0.241112894802227, -0.17470962294276754, -0.27623377953937245, -0.0022545205004847703, 0.3383542476061881, 0.23015643760926174, -0.10876627758100597, -0.015639034975557783], [0.08059893455283632, 0.05699896971961647, -0.32048176678029366, 0.2164395024355276, -0.05059399859105673, 0.0341772099423768, -0.395644369837973, -0.3735912382094486, 0.008060791215512859, -0.02543753968853314, 0.12427833220368786, -0.13633457577496202, 0.05520407278291332, 0.29187926643267176, -0.1760136330058607, -0.3082851727737712, 0.020970271618213698, 0.25354678105039413, 0.10235797877574557, 0.03748031726583873, -0.010671766294505523, 0.29263718699551544, 0.0048841920855708645, -0.32776218156121767, -0.327507189422119, 0.07895939167349997, 0.1529203451252347, 0.19169038041995087, -0.173639142680848, 0.09107950943514931, 0.12268172144994405, -0.12449922166392703, -0.08115582605099843, -0.034382128182894586, 0.18442067288271502, 0.16911407215771287, -0.25476961266061676, -0.20440974992854083, -0.22230282917374075, 0.06023701615511676, -0.13074211238443462, -0.0047935743505354185, 0.5042990809082948, 0.05373530602788528, -0.1216073562358684, -0.0026946544272102354, -0.1370188441797517, -0.22107435654452368, -0.2673452852989558, -0.050456878638261496, 0.20675846126398292, -0.00670238266503992, -0.004605365876731707, 0.10770635581194626, 0.04804779901951442, -0.1580336505512049, -0.30638482269083417, -0.06645759243066567, -0.13522832651328365, 0.36519022645921784, 0.2623340842947567, -0.016863964789580493, -0.09209185685640119, -0.1549773100647548], [0.08232556342690397, 0.04841944752516274, -0.0074467979367580164, 0.34176370013854745, -0.036993665557847104, -0.07833888445584244, 0.27124929524188035, -0.002040055335995156, 0.027584842686032434, -0.11052665744820572, -0.20649430032534363, 0.13776363452738527, 0.2683864538826642, -0.07373907089864866, -0.14500375521308495, -0.006271290307757519, -0.08349856062768515, -0.3257198076217769, -0.2989861753137307, -0.2921463907057685, 0.11676659628994032, -0.10717892310357469, 0.031300526288287715, 0.07530633058128909, 0.055557220855071775, -0.38616932226173506, -0.0638328361205308, 0.08597107988226044, 0.05280042772848141, -0.008460528690880872, 0.4079522983889773, 0.1448518638625792, 0.04949968038625607, 0.027120078708957784, 0.14808493022916147, 0.19785524793093429, 0.405765722000059, 0.26487845977748603, 0.19787538485948586, -0.03171779073134151, -0.1213610260101159, 0.025506854959973208, 0.30960349300492535, 0.3498723407980011, 0.037193400640364485, -0.013951752699883533, 0.08096216076832348, 0.12601212710009707, -0.10632571447066687, -0.018695579831166473, 0.03269315213733784, 0.061869947482033116, -0.4307652506605732, -0.3118364149323892, -0.11304982069113721, -0.2357920607242895, 0.011552942217232437, 0.02770150825685283, 0.01500626942521153, -0.0901501803829592, -0.20776500352347363, -0.21040127906123232, -0.1758500648517564, 0.05411697265331367], [0.023033561316381984, 0.0700852278585517, 0.04802923032229163, 0.04332914068604534, -0.15921182509661064, 0.030900067605891868, 0.25913007775089586, 0.1024195668826893, -0.05808185509824881, 0.2336969894662084, -0.03479537519406483, 0.044031701059692833, 0.022394854308748918, 0.0049709686665982845, -0.02512518332868004, -0.06866395695977201, -0.11672504345686839, -0.1307999402984036, -0.03329731578919429, -0.002191713334747003, 0.4523280671704059, 0.18219420796962468, 0.07051045604802, -0.07438415756462212, -0.031971748432068056, 0.18287553361628364, 0.12922714427751306, -0.1532604176687634, 0.2521009476061277, 0.6036850209981658, 0.10973378030845128, -0.05655265178907527, 0.025821652362037758, 0.06896149257336406, -0.020521281878394908, 0.15182307403238876, 0.12434727955243795, 0.5101192912688435, 0.039202434052901754, -0.029629808241361383, -0.08994704353018061, -0.1427528368290149, -0.30352707558346936, -0.1253840900102072, 0.0471065315332285, -0.10493751827182493, -0.15077076885636503, -0.0812514444150676, -0.13434330038152276, -0.1716711545624103, -0.2975155104021664, -0.19929828862648227, -0.3179311134920511, -0.49732640360056163, -0.087646485281478, -0.04283915749041198, -0.13439935077603668, -0.11727010384159237, -0.057796568134434796, -0.06661092404292704, -0.3857461980625049, 0.02999491975737668, 0.0044283494959517665, -0.07350561980284577], [0.042364815045173865, -0.07277993243327319, -0.21426683120681728, -0.2514685763740521, 0.13766361790308504, 0.07075962181397176, -0.06526334659184373, -0.1267162206877847, 0.004077799423228365, -0.058230576145051574, -0.14763450879294687, 0.025284091752339, 0.09309250353490073, 0.09904794994255048, -0.08030521507894804, 0.08919558106781769, -0.09937816471907265, -0.10261771241244011, 0.11453604097794888, -0.19873000792447976, -0.534143406112575, -0.3270179115213869, 0.08638350469071195, -0.09324417049590975, 0.03533296837186821, 0.04529351473152554, 0.2393591349962153, -0.22561777802207683, -0.1520559548298038, 0.13503261098179584, -0.12270058113237498, -0.041514504111547584, -0.16576265355915437, 0.06545823944378981, 0.3687128251075468, 0.4166439838156017, 0.16552902593486643, 0.12775930753596126, -0.15598368927409811, 0.017229732404457715, -0.14646937797542187, -0.2206336993228754, 0.24639518222448706, 0.18902685572944508, -0.15663596899655916, 0.01770617455969113, 0.30542191564211857, 0.05309898705600939, -0.2995649346958443, -0.4436905461786123, 0.2336113510859427, 0.1080097985610067, -0.18077630808326878, 0.27451046486919656, 0.23296862112841354, 0.07546805797106448, -0.1363208326274954, -0.1887218000753142, -0.2130016091722701, -0.05699944687672207, 0.04444067933938511, 0.2806084088741787, 0.11673081264568655, 0.07091209816263562]], [[0.19010476250860436, 0.35533121482723534, -0.08405022431542264, -0.06785969040352131, 0.2960555620503836, -0.08701609354246927, 0.3161872953486048, 0.12156978472794215, -0.3233826601200749, -0.032820119117268516, 0.3391678231435522, 0.2584688698037617, 0.006614699334517047, -0.1516861109598848, 0.2259574573658366, 6.826900178308588e-06, -0.3659046274522254, 0.21836404758603153, -0.38328668697236995, 0.08225206031237157, 0.36687663288935896, -0.002250678654109058, -0.12550514365419282, 0.07441255228775011, -0.06898822155845229, 0.43083637947991477, 0.31140102695304706, -0.006375885851474721, 0.10297225339592044, 0.07028567777458126, -0.5640625105886596, 0.046872587957485994, 0.12828795030786191, -0.13877221301612686, 0.19369021900216468, 0.3765774014439095, -0.13367640549002066, -0.07384757587992018, -0.2126157635417301, 0.17342049113743926, 0.0011726954208816055, 0.021903124109947953, -0.18568078150630224, -0.023843513025378144, 0.28717599641750013, -0.4426808417218637, -0.667216384625449, 0.5658815857243581, 0.07396845502661328, -0.3183607644597687], [0.15184989147925004, -0.42846130262418486, 0.28921417698807195, 0.3532431725993668, -0.2117055477650614, -0.04624373429600245, 0.2358928865970635, 0.12008092378946866, -0.3574506046841963, -0.26360940864229704, 0.1630460091430419, 0.4122265606749015, -0.011384986076807541, 0.17531921893198318, -0.23401213159546788, -0.1242593580737297, -0.1267254410711697, 0.3412546614293163, 0.2537772811447187, 0.35849772740829017, -0.2640686689341296, 0.463545448683351, 0.6102925147296554, 0.024676275559395625, -0.04952770427331358, 0.6129451028703444, 0.13127888338531224, 0.15617163053572952, 0.24738103369149225, 0.4678414999565752, 0.07927265559571843, 0.15204757119561152, 0.2264266739758255, 0.28220613190298427, -0.2604741614346417, -0.011971527821391364, -0.3319976219137902, 0.012976553822015124, -0.049911268575954605, 0.2636076106971803, 0.24590286128027405, -0.17658855646994873, 0.16832664353280785, -0.17279713184353865, -0.04233015249756506, -0.11785629887495377, -0.28767717842855606, 0.21118078445566502, 0.45131664627243023, 0.2587741703547034], [0.40902452806000905, 0.1461101911273822, -0.1370673025262146, 0.08073150039807653, 0.2974348737199464, 0.4754124331850299, 0.22550244427200855, -0.15530018671974696, -0.0978676665624253, -0.31479572817944623, -0.14020814372671356, 0.362498197069359, 0.22139292037349662, 0.027772189134220908, 0.028630287261533785, -0.28162983750313353, -0.06198345292542113, -0.16131922545098082, -0.11081387809866224, -0.22399518814449768, 0.2635139648619349, 0.5851068447829579, 0.11680601046889512, 0.18597468434484518, 0.22757431111805554, 0.10140200519125242, -0.005818496637410849, 0.287804706405219, 0.39426854693465113, 0.6604918234477957, 0.24962474328722462, 0.38820740367886153, 0.3768943691502527, 0.10845496382450702, 0.32656577820936367, 0.1787722063669594, -0.03094259201110499, -0.08124094839247505, -0.2371901065575012, 0.38743492982000904, 0.019257493497701308, 0.06120405922496971, -0.025732086930411097, -0.18564377532674126, 0.10180330648477157, -0.36382477818534986, 0.08148261315999009, 0.2992304372418891, 0.719205425519308, 0.022293362598001194], [-0.3664806065013301, 0.1650956679393029, 0.25963141243373006, -0.13912961393853054, 0.14498606138486772, -0.0563962738213592, 0.03655181217769314, -0.5648318650023361, 0.07172853766051417, -0.04493903591246777, 0.1094374480091048, 0.08763174308671388, 0.0006728006288824771, 0.4182754699417982, 0.1922239906958669, -0.4168114220629696, -0.06986344827748676, -0.07522774326235232, 0.2265315200562928, 0.1414047550932758, 0.3304489479027302, 0.1249965343752322, 0.27856469136720835, -0.3408653492365856, -0.027558052999580418, 0.20252564891696, -0.4049945384797134, 0.28354635129894556, 0.22007970924975162, 0.3152814261360619, 0.2742990395663035, -0.11030751691900971, 0.2817534403783607, -0.2873858987660148, 0.39410968179414707, 0.1414683677034357, 0.02976770125969199, -0.29741765763326605, -0.011864373081190665, -0.07582924416256857, 0.2095482886937265, 0.36169687384911525, 0.18841458659548022, -0.09212026615490533, 0.25952594784822697, -0.01805913811486914, -0.12474509689922283, 0.1549083309380803, -0.010421078241621896, 0.1651067410728872], [0.1581371540190599, 0.5068177099823878, -0.23916866042857998, -0.16918095589793497, 0.28318502206539464, 0.21369659867323093, 0.2633408273051692, 0.33495998001152116, -0.08680968515213734, -0.06946914092497664, 0.42723558304068093, 0.4247712321304858, 0.20935021677215485, -0.21274068260567278, 0.0962495298532246, 0.3519379435467553, -0.22730614942125288, -0.047300450995349505, 0.027296171133663675, 0.017947655297495386, -0.06183299125281592, -0.049308743543684266, -0.027210404323350836, 0.3575700061357774, -0.01673077489773905, 0.07629970086926713, 0.30219362647740017, 0.16664121226564682, -0.03975001049172313, -0.14939296750000644, -0.2612249755787635, 0.027020636860184296, -0.10588113278694858, -0.05973408937417053, 0.2428404563813017, 0.038391448670917164, 0.015226862635207386, 0.39326690887578114, -0.01873050845117288, -0.14735394801693674, -0.30213163513701624, 0.08650611919114241, -0.06049929436765169, -0.001641676617427791, 0.22374069794569157, -0.13180991697766506, -0.13809091078182156, 0.5712405803411452, -0.0974745020486302, -0.3267579220641645], [0.037640726691387204, 0.045373640626356876, 0.21441735798205225, 0.4542011325712059, 0.035137348687034345, 0.03062049679785171, 0.3450324144106473, -0.004357205628327441, -0.18052110811443947, 0.042155428199581325, -0.02922606932866647, -0.23067666274241133, -0.032484848515164894, 0.39994210735225066, 0.2996419448055629, -0.29469554322722064, -0.07240870505639199, 0.15101632980043125, -0.15959013394579227, 0.1039888609750311, 0.4431922235452844, 0.38809911136592234, 0.146972073594281, -0.15421477609441564, 0.00625414578375781, 0.2759677201985573, 0.12742376679419298, 0.08207462942135561, 0.1787027101868957, 0.2756629339151388, -0.3015390642133068, 0.18138905649759418, 0.4056477681571841, 0.5694594419691333, -0.13133978416298853, 0.4763291624042549, 0.16371033192091058, -0.11363377554990753, -0.18405070438073548, -0.05614926072577189, 0.2333817110820445, 0.27578912643666126, -0.11203444912220241, 0.2981223489172687, 0.6335708488457532, 0.11935910135823234, -0.09838694051890548, -0.10184098105676595, 0.3866383947626531, 0.2008826518592018], [-0.184286774474962, -0.600819730988823, 0.3667158233196822, 0.061591012372954, -0.15802570244728853, 0.1319689989273173, 0.17236896313981745, 0.05983561436311772, -0.11203859460541918, -0.1920766755364622, 0.3813936358159471, -0.1208238330983726, 0.06516308828473796, -0.3340028363687492, -0.42195294824462104, 0.024916355070380633, -0.4094442106129362, 0.08654463559191365, 0.7355494380360738, 0.5951614381693355, -0.35689896023261847, 0.22052238056844176, 0.5018219049321424, 0.19426172432467276, 0.13698090774434393, 0.21686190362710342, 0.40523631868493254, -0.21534323715737771, -0.34916111790909976, 0.10727749539354589, 0.1159194511964613, -0.0264781622033863, 0.4558550251801039, 0.3924653674237218, -0.18211666019339892, -0.5156291302737821, -0.12729304932263122, 0.20325959560167473, -0.26779243527537655, -0.07325031755299548, 0.15053044955098974, 0.16013332294962926, 0.6148173097293226, -0.21860500448397419, -0.20024537356899139, -0.48999731013559067, -0.34627371810334856, -0.3442343910997682, 0.09549631771513223, 0.2451631412584733], [-0.2552002800721212, -0.16202667903976004, 0.48645223146360766, 0.312013715987989, -0.25371133474445223, -0.18121238453601413, -0.20690228468679256, -0.269149007803534, -0.08754541383086084, 0.37273176187847684, -0.03245564008806427, -0.019947665596559024, -0.2921243978651845, 0.5308440836920681, 0.12434045363841491, -0.41151885804583666, 0.44909148392290565, 0.3180736267018603, 0.05652552527608933, 0.22183727760766642, -0.10312659134051962, 0.2425343385279021, 0.33307547872960513, -0.1917672197827736, -0.27850746229115647, 0.24250444611426356, -0.29401065697685047, -0.0060020295053527335, -0.12157117207996186, 0.26227354829554134, 0.28481301263427133, -0.08853883619207921, 0.16275743449318975, -0.19105723304211775, 0.027010834360691956, 0.012604284392513564, 0.13713259289902968, -0.16976943112629914, 0.2801760046025976, 0.12101493114115261, 0.6210461448872854, 0.24385439191871114, -0.15500520127376588, 0.3258804563511175, -0.0506546588770172, 0.4793567893176906, 0.2038733211374193, -0.04322262595265685, -0.054421635188850605, 0.2825810820749293], [0.048669418814811315, 0.575697951008169, -0.04452925902448866, -0.3185263589125569, 0.5257674641787121, 0.07543291138779527, -0.206800749050028, -0.1856147248028525, 0.22368529149357191, -0.16898183614311346, 0.14277388261529975, 0.3677065839925367, 0.12828755497834904, -0.03082072233803589, 0.2177446311820564, 0.04111856151081839, 0.028190816792823422, -0.08762319451239162, 0.07199830425788825, 0.06138629442245384, 0.1651987699292289, -0.14211511327219406, 0.12374194099631397, -0.04084461034971298, 0.04379507971822543, 0.20876585452579954, -0.11576241199428108, 0.13754718999722934, 0.15720169684948454, 0.04150172580345538, 0.12286878764486375, -0.22280958944561607, 0.15817596021867744, -0.37390757230576593, 0.4936046482038198, 0.06982184284022125, 0.055443527495986925, 0.10480361332725054, -0.033194671972175814, -0.02931412015969469, 0.11181661934099779, 0.13638316623295735, 0.20283515598437044, 0.14082717814007725, 0.030167726989003073, 0.20561694965375163, -0.16893353390849486, 0.481643607219003, -0.009961342382170665, -0.28210864520836154], [-0.13756187985728008, -0.2033288330186003, 0.2754927527579048, 0.12180846718867648, 0.04946013155624558, -0.06774963774749199, -0.37655768290785646, -0.5049691617755431, -0.4207847119390584, -0.06624584415059145, 0.2945430634256681, 0.12435871711415426, -0.3649787378895229, 0.3116887479527707, 0.18529723877669235, -0.2915705084546107, 0.10251184320740578, 0.20236940682420887, 0.26340663929991853, 0.3741220666094307, 0.07426698900220823, 0.18094551689021068, 0.34988920455473904, -0.4273904393657665, -0.27992123108430567, 0.29340698367937346, -0.2422710789182234, -0.05232352490492433, -0.34710173090833357, 0.1822213659701649, 0.36061493007742784, 0.10427838073507571, 0.12340641104519783, -0.2026405517404516, -0.009418476684735952, 0.3629476276833875, -0.27121304628421006, -0.04198351317566241, -0.03499866168754528, 0.018544634755549273, 0.5401275074051501, -0.04690398558354896, 0.1519607405194835, 0.05612106857174146, 0.3440431929953415, -0.09209095193709872, -0.11889653913037396, -0.13979150535216883, -0.03208995803791626, 0.4203473024795692], [0.12924073642120656, -0.1363522936070267, -0.16701378049926496, 0.3481564255632224, -0.18216187194171402, -0.263664349624042, -0.030938704041091374, 0.0944687873507346, 0.04816681221332528, 0.23027523100213876, -0.30521466184842455, -0.16009661207366763, -0.016310866228859366, 0.21500499485335112, 0.1323120273543897, 0.11089910085847354, 0.3682035457545013, -0.011035602320722843, -0.1352546386143807, -0.08596297734759394, -0.10575900837419504, 0.17326085702270702, -0.2454182140512902, -0.02363172134182517, 0.07797335526798574, -0.006983099037100409, 0.2535438961306691, -0.14560705260102141, 0.14253344926491454, 0.29942757785166746, 0.11765159276988275, 0.27167675651756135, -0.13865276587641798, 0.15317505365430864, -0.40104265739703593, 0.026534302291758873, 0.17573170934306628, 0.0194536027397216, 0.3442717602784741, 0.3917099964896429, 0.20291071393402071, -0.0029688783787003006, -0.3804222919645274, 0.2849439856002947, 0.2517075784892868, 0.0926786376778915, 0.567486577565966, -0.08805042157217387, 0.19877639789143686, 0.02449602465699792], [-0.09263197610466913, 0.09018121489595393, 0.14341943387089984, 0.22710617824183157, 0.06643109505243237, 0.28403485468103584, -0.23911768515509213, -0.023693491097985065, 0.5558294274819234, 0.27545778636085405, 0.01532214482667613, 0.08393965233546688, 0.306170819638983, 0.1888848514910516, -0.07923536272682229, 0.3068724810674686, 0.1655144512422561, -0.13553426403352956, 0.3230120873983848, 0.20669070717898932, -0.2028973325318183, -0.07485255416676354, 0.48531613246787914, 0.04701424570400945, 0.37062071358918935, -0.14597158466733692, 0.22818686730590665, 0.14093559802868447, -0.02438436679304082, -0.17531412650968162, 0.2876557158885985, -0.1115459260475082, 0.1528958754770614, -0.17845054140602212, 0.2401449680965914, -0.3429644684728503, 0.5836794985270988, 0.4336645726169003, 0.12675264977902134, -0.13622492242724724, 0.10322982094245485, -0.06438780265318321, 0.5513833629038942, -0.12445336813741857, -0.3728210636781134, -0.01618597271248159, 0.16632867318506914, -0.10025247667836155, -0.17192820129955358, -0.011907175242501284], [-0.1452334292650594, -0.16926225458611513, 0.3632107527263854, 0.31570843406269905, 0.06964474988393986, 0.3239714118843287, 0.21166475286099387, -0.08655069493419995, -0.07112921097454881, -0.1942792720037957, -0.4005558748435154, -0.35575737251502726, 0.2757635908535923, 0.03458189088506859, -0.3987879080284143, -0.1371168252512973, 0.029571807341261348, -0.11487956969865616, 0.042218459034470454, -0.14938094106602773, 0.06575742542391239, -0.010533346255575254, 0.1704260100192798, -0.12611122771518715, 0.16908082462503743, -0.036327297863832035, 0.12087548395744092, 0.41119073355659047, 0.2029268770330937, 0.4583865208669201, 0.17899702925369212, -0.14030577284602921, 0.6515316023769335, 0.1390908865593533, 0.026572042138141756, -0.07278688129005864, 0.4933892308732024, 0.011568273847044116, -0.02447635625348484, 0.17890901728515357, -0.08107201824835225, 0.25245968254304246, 0.09493239817659811, 0.05451183928727161, -0.48573021011403666, -0.36083875747246474, 0.03941913713386775, -0.028052457250363524, 0.49888074193021065, 0.08129878610868249], [0.06426490138181783, -0.09995519281754255, 0.7575275476688113, 0.23630726655915238, 0.29459108698766245, -0.12856437221388667, 0.1542510748360829, 0.388395376952992, 0.20857349364183997, 0.30529245582765147, -0.14052992503535353, -0.45217356107260276, -0.0912122154575139, 0.3000184864253233, -0.16481412356404956, -0.26769355701917, 0.26328020743164604, 0.4364802554692545, -0.10365564327254534, -0.05602525030782795, 0.448940690204798, -0.2813443197659208, -0.19262061271457329, -0.2893945770877552, -0.2990742328185905, -0.36262116301051966, -0.06718358377212053, 0.1757189159795593, 0.04603390196540337, 0.017436256273777987, -0.08837095988791764, -0.22483680632285516, 0.15839507774801093, 0.20928358288164528, 0.11341079549763568, 0.15525937738135054, 0.2784172400388397, -0.14983963822877847, 0.3370655570569642, 0.2845300099597827, 0.4621683485568656, 0.45628640392902325, 0.17834503660964998, 0.2814109861170785, 0.32391927605302717, 0.1781224574924203, 0.15691925049815425, -0.029956663666540317, 0.03389108248925204, 0.11379104234635166], [-0.1526460207739608, 0.19282314703612535, 0.10459268743874939, -0.3912196342380687, 0.08698763172253163, 0.14877548581588199, -0.19729326478570383, 0.04225137777942691, 0.4642346281898917, 0.10564238656101645, 0.15308233536854274, -0.11244320982441407, 0.3358901060632987, 0.19169952281172548, 0.16206302657452942, -0.3443572342552805, 0.04638295169605481, -0.16945989684348914, 0.0857365370794496, -0.4826803021593585, 0.2734420234003398, -0.016069347152097273, -0.34595616822080183, -0.28374861396108525, 0.012371451806577786, -0.19394574662906466, -0.31151628708726037, 0.2792486875844119, 0.2889661998870125, 0.16688509677845093, 0.19371663629872626, -0.13922237030489498, 0.41355703246422454, -0.618222557430199, 0.260518664737848, 0.07946800910286823, 0.00010899762265163099, -0.13356463292876974, 0.4520697207098556, -0.04792759560885145, 0.31202352044715315, 0.5185899935115118, 0.23539895698149343, 0.15237673696831186, -0.1120857201278313, 0.2732347541800576, 0.26781251206835943, 0.1238997583774974, 0.04467842054087616, 0.09585573235455161], [0.21858676639934407, 0.12155825950339808, 0.1761182663639971, -0.1798160904239491, 0.3173633423782919, -0.21890989289742271, -0.1355689028987615, 0.49018297113565457, 0.5440131747308349, 0.6003032134255246, 0.13415504421382735, 0.11492990162525288, -0.005587038763335531, -0.1689244518395911, -0.09925638404813046, 0.5296757341761983, 0.32934009906520567, 0.4826168066366485, -0.20988218783554752, -0.04149124870167505, 0.14364110503136562, -0.4340414228271565, -0.09855331058292095, 0.23650057794368093, 0.0597199272291062, -0.18374628023600034, 0.1757147808517718, 0.17814092340634224, 0.08289856845010632, -0.32992744198414686, -0.07405834141581086, -0.24825837926799357, -0.16539575074353058, -0.09116287695507123, 0.22239458843248608, -0.31386827780424875, 0.3964431628523497, 0.09347217625608155, 0.22572882480358994, -0.02371264547140109, -0.2378657359054618, 0.35952166417209797, 0.21541786806101004, 0.5271291418715227, -0.07740695461815704, 0.07691477534590013, 0.30058098529757304, 0.29002407646643974, -0.3140075338081815, -0.09698657166900443], [0.06233456989548945, 0.1522737348143012, -0.34779716324230775, -0.06177206802782752, -0.0741603055479496, -0.1568035536109065, 0.014540937699972823, -0.12503618102326577, -0.1972163624107139, 0.29066592819420667, 0.2504661795739648, -0.19635043109398703, 0.057405329109243536, 0.1065331197648147, 0.5807721708223051, 0.09593204008698168, 0.08133247740431937, -0.1236631343085164, -0.20561965018069434, -0.3673337947747272, 0.08840217226023075, 0.3844364981848787, -0.44088886685693846, 0.25282619990179317, 0.08445953615637854, 0.18422869992797275, 0.13673058687676767, -2.887065300266679e-05, 0.07368479101783827, -0.04211034346901525, -0.06802083448766641, 0.523798961116754, -0.31362368001215146, 0.16863681286196353, 0.008716382582101136, 0.04061663429562817, 0.20144811671868995, 0.35954274944087666, 0.20022102804549807, -0.36698152350319163, 0.3546789889699875, -0.04185717915179212, -0.3918420229687106, 0.3201145711420953, 0.5575198823862891, 0.4927784477648886, 0.27010509171654784, -0.18584484825572645, -0.3007086526313905, 0.35665683934185183], [0.1259054850764775, 0.254565998562613, -0.29528612217199446, 0.08086494876798349, 0.20271183721919345, 0.41788021851793267, -0.04362869873346801, 0.000211231764431711, 0.18064909352391725, -0.21889690246446106, -0.2329912797916487, 0.18519502147148342, 0.31778429863807495, -0.17095366090093225, -0.3591086646232237, 0.021366315697056586, -0.08926105339643692, -0.06199155801926734, 0.057353731292747054, -0.3460562231148659, 0.05412784197523139, 0.24553140954384287, -0.15357753603072688, -0.06172280604089613, 0.3855994554426997, -0.16705019246688627, -0.06187288742327928, 0.23889324911836082, 0.26740629312140946, 0.296279966377364, 0.18123464045354848, 0.13825865217387412, 0.20222612262857484, -0.11929756709086152, 0.2645556405844791, -0.03024063866423213, -0.06910198698156776, 0.006138001622202709, -0.017038599490289467, 0.5564840611112635, -0.11452396394804466, 0.1555276896138733, 0.11485982237213604, -0.06789386263332922, -0.4772628912998279, -0.36531267040102255, 0.18773274337745652, 0.4686589257543353, 0.5620530320829324, -0.12436224126676068], [0.10523793460726419, 0.7023163324355002, -0.355282133670921, 0.12420421072215854, -0.1796024576110227, 0.2828774393129334, -0.161511857179618, -0.11063366229629724, 0.10795666713813525, 0.1631958725539341, -0.05914070667717581, -0.0029544680291916114, 0.3456974164823716, 0.06099842338100338, 0.2828733366526129, 0.045705093493762866, -0.014221573003394711, -0.5537965411436859, -0.0786863410178057, -0.3080112187286603, 0.06861413452985439, -0.09995845496096112, -0.2463041976683525, 0.029643076229430396, 0.4233325039892451, -0.15470431480408958, 0.12374298723885495, 0.27807567203818423, 0.3342311191356826, 0.1751169729437054, -0.011251353060472095, -0.05607430240597703, 0.03723693161284333, -0.361274253487676, 0.16879440863295508, -0.07107506284965893, 0.2924841460585265, 0.12360671692730289, 0.2535813717718399, -0.24630578026710198, -0.15985166083146685, -0.07660460692216127, -0.1698589695364941, 0.20689416259209154, 0.09967763745074922, 0.3054981857771474, 0.38016775088480986, 0.17598165321741643, 0.10119011517065417, -0.2366263559834707], [0.18018482541826106, -0.20361077967503613, 0.4201044772930463, 0.34963780778255577, 0.03136754617116709, -0.2597684707004497, 0.06661653497699277, 0.16662555356130812, -0.06547281452437662, 0.30287485785959867, 0.025282575002610927, 0.06191338658463161, -0.22599555977821062, 0.27208354169241344, -0.2462987060498856, -0.13749401949413606, 0.21840269069964946, 0.4621466592943896, -0.251903457613938, -0.0625939261133783, 0.3278287434387349, 0.11306473410566324, 0.23671765587279311, -0.10074284271708149, -0.4276759218267263, 0.08012950460554068, 0.07565136151017139, 0.03681879494043531, 0.1715937931961905, -0.07973981485541123, 0.03624206024319028, 0.042072932276394755, -0.23764388507528245, -0.038361681065738985, 0.08787035173918016, 0.08748124539454123, 0.05896281247848035, -0.2319054232616391, 0.39006765149553396, 0.5803988158904757, 0.34033424933309603, 0.14187968702898038, -0.35649359784827334, 0.18245899064892798, 0.16469246596249132, 0.2812621965728393, -0.17468999255813103, 0.34010806256432163, 0.19326355531471243, 0.09571733043331886], [0.004503507308608671, -0.013650726694283076, 0.1288897579899825, 0.5822112064597469, -0.2012189126310941, -0.17258772178693646, 0.16243596977946412, -0.015130081618263519, -0.1632947237936227, 0.25019048348858436, -0.45481971135081367, -0.25319994255861683, 0.08340674798360971, 0.14192152613079498, 0.5053347003212085, 0.15631086854708995, 0.30743316033260365, 0.07969488081799758, -0.20177578542610522, -0.09596287871917397, 0.1372962379535847, 0.32639499077643647, -0.040178400567233215, 0.13176802304536034, 0.049318401525158234, 0.08751386899795484, 0.1744491677167572, -0.06388481938856924, -0.11570968244989287, 0.09675451963171688, 0.1576798150944456, 0.26751063645249357, 0.05470809939976361, 0.4267777561095933, -0.1861451560582494, 0.12966478528098294, 0.15323664033580492, -0.018428118030707916, -0.22820086294120132, -0.01756734680496394, -0.014308955049201728, -0.3860872665769658, -0.3977032956415383, 0.3289676829112256, 0.5167278321315883, 0.09995189695479359, 0.19251315779048675, -0.4052558006848222, -0.1126826952136663, -0.11272978611176092], [-0.09804462432213852, -0.025527111378705232, -0.18003782754604838, 0.325202564227687, -0.17798805590146077, 0.23438398726936063, 0.35459837666585664, -0.2747880837730389, -0.24172453935497865, -0.37640532024488704, -0.0005580250963580049, 0.08674576050149754, 0.3301194939159389, 0.3351694713604849, 0.1578837365568247, -0.1540707129506184, -0.033989242128439276, -0.5816622674925447, 0.178723373046838, 0.13184196132822132, 0.14871805776182098, 0.4504983143128509, 0.11833289065382639, -0.046253509975646666, 0.3909020432054294, 0.28627481858555287, -0.012257236483102703, 0.30022790106295794, 0.0005839593146107944, 0.08701518978758674, -0.11664273922423539, 0.30120894274407917, 0.247787798452565, 0.2484895580777537, -0.21543783215271584, 0.014222934203719657, 0.1677543804057165, 0.011190533279731086, -0.3627967185897387, -0.29055549057582036, 0.13673777197439485, -0.18850490026150132, 0.07733654318465562, -0.13446487831348203, 0.3085639946129259, -0.01514489636480008, -0.024945458219022536, -0.07684848850236688, 0.26181472142583384, 0.363818457482691], [0.02089496539676244, -0.2255352032204568, 0.16223061797581784, -0.28599088929826827, 0.25086878537339075, 0.30719781527624374, -0.008495055740214337, 0.284777025947694, 0.4204527431170364, -0.08854239479330273, 0.1407946313924678, -0.13414934547335067, 0.1343503461653327, -0.1314936858656488, -0.4923773443757092, 0.15503138728885246, -0.11176636464790234, 0.18472314510322704, 0.405486374249011, 0.2609860454966175, 0.06049950965869119, -0.018467921931726156, 0.04671760894756743, 0.30748255394703494, -0.0343187699820996, -0.026425282172531542, 0.24190274798449266, -0.1362375072717913, 0.07494479431751896, 0.005740370536889394, 0.3765973356913131, -0.2243721818242318, 0.04897137301481344, 0.36441187244658163, 0.3408361169455832, -0.020483971945606617, 0.07865778483289118, 0.15527486781323427, -0.004437259975223102, -0.015248155971094513, -0.06007906692862034, 0.5158085169846612, 0.5324873882081733, -0.2639130709403399, -0.46033701498807456, 0.02200062044022003, 0.13615245158990172, -0.24176558317840785, -0.006415915167390127, 0.2737625837463075], [-0.2229952792732939, 0.10882363610104934, 0.2233277831202952, 0.33836238234845867, 0.26876531911776536, -0.061245468927313, -0.016938007872025762, 0.0533445592880967, 0.08821319329163482, 0.23785583066668534, 0.07601498112265637, -0.04397147486088396, 0.08441914065952087, 0.24975632066875128, 0.24173815648519734, 0.08540089836212746, 0.3950782493114304, 0.18913072491423336, 0.09493350034610899, 0.44584182245134174, 0.1624481323561457, -0.21682642633605045, 0.39134856896362613, -0.11164727327288772, -0.03679668268338912, 0.06552934001121644, -0.031195602888981027, 0.2034823069103797, -0.29445767560786346, 0.014896002959616352, 0.28735853267831485, -0.3903968528263789, 0.20649876107649232, 0.002546963153173529, 0.20437308398987689, 0.06637655453907301, 0.34321049249100927, 0.18584904033965657, -0.18030673656896873, -0.2079465664631006, -0.02682341422338668, -0.20253513088705027, 0.3845018601589736, 0.1849573418081734, 0.01734401387499397, -0.24408283844635464, 0.11192510562947683, -0.22699786458240437, -0.24953549697151764, -0.15165626360911477], [-0.34997480452211005, 0.24113982966259576, 0.39790567153399686, -0.3123169674911816, 0.554622621674956, 0.03394168766690072, -0.22989335123600937, -0.010937115868277062, 0.3213480509001015, -0.030422186670207747, 0.32620948971839187, 0.008317353017112781, -0.008042257941619427, 0.21292559314928863, -0.0015087996478327882, -0.2995869186561854, -0.1844676616268413, -0.16187384697473145, 0.15780184606890602, -0.5055514987206037, 0.4657821459665275, -0.11049346031197554, -0.03913081999526091, -0.48346030924073896, -0.015703897980524663, -0.26385563083820085, -0.27169251131739225, 0.06438925575582725, 0.13478481645762136, 0.05969449620530948, 0.1604226233209768, -0.025449255721214547, 0.2246159594872732, -0.1816440805252524, 0.46722924704125346, 0.44729450387773817, 0.03478557123492201, -0.19652723303740285, 0.14533326990082332, 0.04562156910583911, 0.42203342819752, 0.5487519836083259, -0.09440943456883555, -0.08898195097317839, 0.12992129848748363, 0.1833697467835147, -0.058050044708689796, -0.11006298545734743, -0.04833606173467705, 0.2366399708765773], [-0.18776601607496343, -0.08224432219919911, 0.30509276647969646, -0.20264477039061693, -0.009274276707969653, -0.06004307411323831, -0.05318673938301112, -0.05284114562879991, 0.0661710414719023, 0.4125665578399619, 0.4353127391739958, 0.4144913597660335, -0.40452342484529275, -0.0030688332146335223, 0.02456712402232748, 0.2990798072968134, 0.12909044190367575, 0.42144771094260863, 0.2610333384525154, 0.6051840225344284, -0.21895387709830794, -0.23101697581845715, 0.254831319893299, 0.17391953969489848, -0.2402202678362715, 0.4419664091464711, 0.07347967463409344, -0.12238128994592608, -0.050811535111331955, -0.15857125117713466, -0.025744041900058866, 0.10136932546725747, -0.3052031977639433, -0.2547623365894304, -0.041950887834129424, -0.15193063915226343, -0.13570458550187106, 0.1874660433896302, 0.4156365096114337, -0.21369512900587673, 0.3993525662171964, 0.01373794262849072, 0.07912610046562218, 0.15256542726612587, -0.045123646312681155, 0.3898278999660392, -0.11626947978674965, -0.17303878065231415, -0.4087953460484174, 0.2948442760345937], [0.042141933458032854, -0.19999350265595325, -0.31363317610850494, 0.26054477289335076, -0.1414498311128655, 0.027917353102661354, -0.15387380767719575, -0.26266176709639394, 0.0916352988092431, -0.11969649319181042, -0.08600784490788668, 0.07670398515648787, -0.02674745844481144, -0.045957032897069934, 0.06280379263051819, 0.2021881819092713, 0.27113005477797913, -0.30128712830912674, -0.017530454450221444, -0.14663019734310553, -0.3128715310026389, 0.2894844796064293, -0.10874410346983958, 0.23540259689261803, 0.3425533031054582, 0.09806419793677147, 0.017728561299766375, -0.158936455173416, 0.12287808010971153, -0.06407015697078855, 0.4089664562932026, 0.407992379884227, -0.24423311312337226, 0.4049083288889641, -0.28832194025139324, 0.054358557339617045, -0.045241452207315784, 0.23767279934245167, 0.05857890285315168, -0.19601370343002933, 0.11148442593002131, -0.6375406940491847, -0.1250394649163377, -0.15144002747548385, 0.012036766536319238, 0.07601000585911814, 0.555842350703807, -0.2179317896821586, -0.0958679043367536, 0.3081672120968805], 